svm_type c_svc
kernel_type polynomial
degree 3
gamma 0.008
coef0 0
nr_class 2
total_sv 86
rho 0.953191
label 1 -1
probA -4.15122
probB 0.290648
nr_sv 44 42
SV
1.211537942653856e-015 1:0 2:0 3:0 4:0 5:0 6:0 7:255 8:255 9:255 10:255 11:255 12:255 13:255 14:0 15:0 16:0 17:0 18:0 19:0 20:255 21:255 22:255 23:255 24:255 25:255 26:255 27:255 28:255 29:255 30:0 31:0 32:0 33:0 34:0 35:255 36:255 37:255 38:255 39:0 40:0 41:255 42:255 43:255 44:255 45:0 46:0 47:0 48:0 49:255 50:255 51:255 52:0 53:0 54:0 55:0 56:0 57:255 58:255 59:255 60:255 61:0 62:0 63:0 64:255 65:255 66:255 67:0 68:0 69:0 70:0 71:0 72:0 73:255 74:255 75:255 76:0 77:0 78:255 79:255 80:255 81:0 82:0 83:0 84:0 85:0 86:0 87:0 88:255 89:255 90:255 91:0 92:0 93:255 94:255 95:255 96:0 97:0 98:0 99:0 100:0 101:0 102:0 103:255 104:255 105:255 106:0 107:0 108:255 109:255 110:255 111:0 112:0 113:0 114:0 115:0 116:0 117:0 118:255 119:255 120:0 121:0 122:0 123:255 124:255 125:255 126:0 127:0 128:0 129:0 130:0 131:0 132:0 133:255 134:255 135:0 136:0 137:0 138:255 139:255 140:255 141:0 142:0 143:0 144:0 145:0 146:0 147:0 148:255 149:255 150:0 151:0 152:0 153:255 154:255 155:255 156:0 157:0 158:0 159:0 160:0 161:0 162:255 163:255 164:255 165:0 166:0 167:0 168:255 169:255 170:0 171:0 172:0 173:0 174:0 175:0 176:0 177:255 178:255 179:255 180:0 181:0 182:0 183:255 184:255 185:0 186:0 187:0 188:0 189:0 190:0 191:0 192:255 193:255 194:255 195:0 196:0 197:0 198:255 199:255 200:0 201:0 202:0 203:0 204:0 205:0 206:0 207:255 208:255 209:255 210:0 211:0 212:255 213:255 214:255 215:0 216:0 217:0 218:0 219:0 220:0 221:0 222:255 223:255 224:255 225:0 226:0 227:255 228:255 229:255 230:0 231:0 232:0 233:0 234:0 235:0 236:0 237:255 238:255 239:255 240:0 241:0 242:255 243:255 244:255 245:0 246:0 247:0 248:0 249:0 250:0 251:0 252:255 253:255 254:255 255:0 256:0 257:255 258:255 259:255 260:0 261:0 262:0 263:0 264:0 265:0 266:0 267:255 268:255 269:255 270:0 271:0 272:255 273:255 274:255 275:0 276:0 277:0 278:0 279:0 280:0 281:255 282:255 283:255 284:255 285:0 286:0 287:255 288:255 289:255 290:0 291:0 292:0 293:0 294:0 295:0 296:255 297:255 298:255 299:0 300:0 301:0 302:255 303:255 304:255 305:0 306:0 307:0 308:0 309:0 310:0 311:255 312:255 313:255 314:0 315:0 316:0 317:255 318:255 319:255 320:255 321:0 322:0 323:0 324:0 325:255 326:255 327:255 328:255 329:0 330:0 331:0 332:255 333:255 334:255 335:255 336:255 337:255 338:255 339:255 340:255 341:255 342:255 343:0 344:0 345:0 346:0 347:255 348:255 349:255 350:255 351:255 352:255 353:255 354:255 355:255 356:255 357:255 358:0 359:0 360:0 361:0 362:0 363:255 364:255 365:255 366:255 367:255 368:255 369:255 370:255 371:255 372:0 373:0 374:0 375:0 376:0 377:0 378:255 379:255 380:255 381:255 382:255 383:255 384:255 385:255 386:0 387:0 388:0 389:0 390:0 391:0 392:255 393:255 394:255 395:255 396:255 397:255 398:255 399:255 400:255 401:0 402:0 403:0 404:0 405:0 406:0 407:255 408:255 409:255 410:255 411:255 412:255 413:255 414:255 415:255 416:255 417:0 418:0 419:0 420:0 421:255 422:255 423:255 424:255 425:255 426:255 427:255 428:255 429:255 430:255 431:255 432:255 433:0 434:0 435:0 436:255 437:255 438:255 439:255 440:255 441:255 442:255 443:255 444:255 445:255 446:255 447:255 448:0 449:0 450:0 
5.147141099405568e-016 1:0 2:0 3:0 4:0 5:0 6:0 7:0 8:0 9:0 10:0 11:0 12:0 13:0 14:0 15:0 16:0 17:0 18:0 19:0 20:0 21:0 22:0 23:0 24:0 25:0 26:0 27:0 28:0 29:0 30:0 31:0 32:0 33:0 34:0 35:0 36:0 37:255 38:255 39:255 40:255 41:255 42:255 43:0 44:0 45:0 46:0 47:0 48:0 49:0 50:0 51:255 52:255 53:255 54:255 55:255 56:255 57:255 58:255 59:0 60:0 61:0 62:0 63:0 64:0 65:255 66:255 67:255 68:255 69:255 70:255 71:255 72:255 73:255 74:255 75:0 76:0 77:0 78:0 79:255 80:255 81:255 82:255 83:255 84:255 85:255 86:255 87:255 88:255 89:255 90:0 91:0 92:0 93:255 94:255 95:255 96:255 97:0 98:0 99:0 100:0 101:255 102:255 103:255 104:255 105:255 106:0 107:0 108:255 109:255 110:255 111:255 112:0 113:0 114:0 115:0 116:0 117:255 118:255 119:255 120:255 121:0 122:0 123:255 124:255 125:255 126:0 127:0 128:0 129:0 130:0 131:0 132:255 133:255 134:255 135:0 136:0 137:255 138:255 139:255 140:255 141:0 142:0 143:0 144:0 145:0 146:0 147:255 148:255 149:255 150:0 151:0 152:255 153:255 154:255 155:255 156:0 157:0 158:0 159:0 160:0 161:0 162:255 163:255 164:255 165:0 166:0 167:255 168:255 169:255 170:255 171:0 172:0 173:0 174:0 175:0 176:0 177:255 178:255 179:255 180:0 181:0 182:255 183:255 184:255 185:255 186:0 187:0 188:0 189:0 190:0 191:0 192:255 193:255 194:255 195:0 196:0 197:255 198:255 199:255 200:255 201:0 202:0 203:0 204:0 205:0 206:255 207:255 208:255 209:255 210:0 211:0 212:255 213:255 214:255 215:255 216:0 217:0 218:0 219:0 220:0 221:255 222:255 223:255 224:255 225:0 226:0 227:255 228:255 229:255 230:0 231:0 232:0 233:0 234:0 235:0 236:255 237:255 238:255 239:255 240:0 241:0 242:255 243:255 244:255 245:0 246:0 247:0 248:0 249:0 250:0 251:255 252:255 253:255 254:255 255:0 256:0 257:255 258:255 259:255 260:0 261:0 262:0 263:0 264:0 265:0 266:255 267:255 268:255 269:0 270:0 271:0 272:255 273:255 274:255 275:0 276:0 277:0 278:0 279:0 280:0 281:255 282:255 283:255 284:0 285:0 286:0 287:255 288:255 289:255 290:0 291:0 292:0 293:0 294:0 295:0 296:255 297:255 298:255 299:0 300:0 301:255 302:255 303:255 304:255 305:0 306:0 307:0 308:0 309:0 310:0 311:255 312:255 313:255 314:0 315:0 316:255 317:255 318:255 319:255 320:0 321:0 322:0 323:0 324:0 325:0 326:255 327:255 328:255 329:0 330:0 331:255 332:255 333:255 334:255 335:0 336:0 337:0 338:0 339:0 340:255 341:255 342:255 343:255 344:0 345:0 346:255 347:255 348:255 349:255 350:0 351:0 352:0 353:0 354:0 355:255 356:255 357:255 358:255 359:0 360:0 361:255 362:255 363:255 364:255 365:255 366:0 367:0 368:0 369:255 370:255 371:255 372:255 373:0 374:0 375:0 376:0 377:255 378:255 379:255 380:255 381:255 382:255 383:255 384:255 385:255 386:255 387:255 388:0 389:0 390:0 391:0 392:255 393:255 394:255 395:255 396:255 397:255 398:255 399:255 400:255 401:255 402:0 403:0 404:0 405:0 406:0 407:0 408:255 409:255 410:255 411:255 412:255 413:255 414:255 415:255 416:0 417:0 418:0 419:0 420:0 421:0 422:0 423:0 424:0 425:0 426:255 427:255 428:0 429:0 430:0 431:0 432:0 433:0 434:0 435:0 436:0 437:0 438:0 439:0 440:0 441:0 442:0 443:0 444:0 445:0 446:0 447:0 448:0 449:0 450:0 
6.780122381015617e-016 1:0 2:0 3:0 4:255 5:255 6:255 7:255 8:255 9:0 10:0 11:0 12:0 13:0 14:0 15:0 16:0 17:0 18:255 19:255 20:255 21:255 22:255 23:255 24:255 25:255 26:0 27:0 28:0 29:0 30:0 31:0 32:255 33:255 34:255 35:255 36:255 37:255 38:255 39:255 40:255 41:255 42:255 43:0 44:0 45:0 46:0 47:255 48:255 49:255 50:255 51:255 52:255 53:255 54:255 55:255 56:255 57:255 58:0 59:0 60:0 61:255 62:255 63:255 64:255 65:255 66:0 67:0 68:0 69:255 70:255 71:255 72:255 73:255 74:0 75:0 76:255 77:255 78:255 79:255 80:0 81:0 82:0 83:0 84:0 85:0 86:255 87:255 88:255 89:255 90:0 91:255 92:255 93:255 94:255 95:0 96:0 97:0 98:0 99:0 100:0 101:255 102:255 103:255 104:255 105:0 106:255 107:255 108:255 109:0 110:0 111:0 112:0 113:0 114:0 115:0 116:255 117:255 118:255 119:255 120:0 121:255 122:255 123:255 124:0 125:0 126:0 127:0 128:0 129:0 130:0 131:255 132:255 133:255 134:255 135:0 136:255 137:255 138:255 139:0 140:0 141:0 142:0 143:0 144:0 145:0 146:255 147:255 148:255 149:255 150:0 151:255 152:255 153:255 154:255 155:0 156:0 157:0 158:0 159:0 160:0 161:0 162:255 163:255 164:255 165:0 166:255 167:255 168:255 169:255 170:0 171:0 172:0 173:0 174:0 175:0 176:0 177:255 178:255 179:255 180:0 181:0 182:255 183:255 184:255 185:0 186:0 187:0 188:0 189:0 190:0 191:0 192:255 193:255 194:255 195:255 196:0 197:255 198:255 199:255 200:0 201:0 202:0 203:0 204:0 205:0 206:0 207:255 208:255 209:255 210:255 211:0 212:255 213:255 214:255 215:0 216:0 217:0 218:0 219:0 220:0 221:0 222:255 223:255 224:255 225:255 226:0 227:255 228:255 229:255 230:0 231:0 232:0 233:0 234:0 235:0 236:0 237:255 238:255 239:255 240:255 241:0 242:255 243:255 244:255 245:0 246:0 247:0 248:0 249:0 250:0 251:0 252:255 253:255 254:255 255:255 256:0 257:255 258:255 259:255 260:0 261:0 262:0 263:0 264:0 265:0 266:0 267:255 268:255 269:255 270:255 271:0 272:255 273:255 274:255 275:255 276:0 277:0 278:0 279:0 280:0 281:0 282:0 283:255 284:255 285:255 286:0 287:255 288:255 289:255 290:255 291:0 292:0 293:0 294:0 295:0 296:0 297:0 298:255 299:255 300:255 301:0 302:255 303:255 304:255 305:255 306:0 307:0 308:0 309:0 310:0 311:0 312:0 313:255 314:255 315:255 316:0 317:255 318:255 319:255 320:255 321:0 322:0 323:0 324:0 325:0 326:0 327:255 328:255 329:255 330:255 331:0 332:0 333:255 334:255 335:255 336:255 337:0 338:0 339:0 340:0 341:0 342:255 343:255 344:255 345:255 346:0 347:0 348:255 349:255 350:255 351:255 352:255 353:0 354:0 355:0 356:255 357:255 358:255 359:255 360:255 361:0 362:0 363:255 364:255 365:255 366:255 367:255 368:255 369:255 370:255 371:255 372:255 373:255 374:255 375:255 376:0 377:0 378:0 379:255 380:255 381:255 382:255 383:255 384:255 385:255 386:255 387:255 388:255 389:255 390:255 391:0 392:0 393:0 394:0 395:255 396:255 397:255 398:255 399:255 400:255 401:255 402:255 403:255 404:255 405:0 406:0 407:0 408:0 409:0 410:0 411:255 412:255 413:255 414:255 415:255 416:255 417:255 418:0 419:0 420:0 421:0 422:0 423:0 424:0 425:0 426:0 427:0 428:0 429:0 430:0 431:0 432:0 433:0 434:0 435:0 436:0 437:0 438:0 439:0 440:0 441:0 442:0 443:0 444:0 445:0 446:0 447:0 448:0 449:0 450:0 
1.156093428615184e-015 1:0 2:0 3:0 4:0 5:0 6:0 7:255 8:255 9:255 10:255 11:255 12:255 13:0 14:0 15:0 16:0 17:0 18:0 19:0 20:255 21:255 22:255 23:255 24:255 25:255 26:255 27:255 28:255 29:0 30:0 31:0 32:0 33:0 34:255 35:255 36:255 37:255 38:255 39:255 40:255 41:255 42:255 43:255 44:255 45:0 46:0 47:0 48:255 49:255 50:255 51:255 52:255 53:0 54:0 55:255 56:255 57:255 58:255 59:255 60:0 61:0 62:255 63:255 64:255 65:255 66:0 67:0 68:0 69:0 70:0 71:0 72:255 73:255 74:255 75:255 76:0 77:255 78:255 79:255 80:0 81:0 82:0 83:0 84:0 85:0 86:0 87:255 88:255 89:255 90:255 91:0 92:255 93:255 94:255 95:0 96:0 97:0 98:0 99:0 100:0 101:0 102:0 103:255 104:255 105:255 106:255 107:255 108:255 109:255 110:0 111:0 112:0 113:0 114:0 115:0 116:0 117:0 118:255 119:255 120:255 121:255 122:255 123:255 124:0 125:0 126:0 127:0 128:0 129:0 130:0 131:0 132:0 133:255 134:255 135:255 136:0 137:255 138:255 139:0 140:0 141:0 142:0 143:0 144:0 145:0 146:0 147:0 148:255 149:255 150:255 151:0 152:255 153:255 154:0 155:0 156:0 157:0 158:0 159:0 160:0 161:0 162:0 163:255 164:255 165:0 166:255 167:255 168:255 169:0 170:0 171:0 172:0 173:0 174:0 175:0 176:0 177:255 178:255 179:255 180:0 181:255 182:255 183:255 184:0 185:0 186:0 187:0 188:0 189:0 190:0 191:0 192:255 193:255 194:255 195:0 196:255 197:255 198:255 199:0 200:0 201:0 202:0 203:0 204:0 205:0 206:0 207:255 208:255 209:255 210:0 211:255 212:255 213:255 214:0 215:0 216:0 217:0 218:0 219:0 220:0 221:0 222:255 223:255 224:255 225:0 226:255 227:255 228:255 229:0 230:0 231:0 232:0 233:0 234:0 235:0 236:0 237:255 238:255 239:255 240:0 241:255 242:255 243:255 244:0 245:0 246:0 247:0 248:0 249:0 250:0 251:0 252:255 253:255 254:255 255:0 256:255 257:255 258:255 259:0 260:0 261:0 262:0 263:0 264:0 265:0 266:0 267:255 268:255 269:255 270:0 271:255 272:255 273:255 274:0 275:0 276:0 277:0 278:0 279:0 280:0 281:0 282:255 283:255 284:255 285:0 286:255 287:255 288:255 289:0 290:0 291:0 292:0 293:0 294:0 295:0 296:0 297:255 298:255 299:255 300:0 301:255 302:255 303:255 304:0 305:0 306:0 307:0 308:0 309:0 310:0 311:255 312:255 313:255 314:255 315:0 316:255 317:255 318:255 319:0 320:0 321:0 322:0 323:0 324:0 325:0 326:255 327:255 328:255 329:255 330:0 331:255 332:255 333:255 334:0 335:0 336:0 337:0 338:0 339:0 340:0 341:255 342:255 343:255 344:0 345:0 346:255 347:255 348:255 349:255 350:0 351:0 352:0 353:0 354:0 355:255 356:255 357:255 358:255 359:0 360:0 361:255 362:255 363:255 364:255 365:255 366:255 367:255 368:255 369:255 370:255 371:255 372:255 373:0 374:0 375:0 376:0 377:255 378:255 379:255 380:255 381:255 382:255 383:255 384:255 385:255 386:255 387:255 388:0 389:0 390:0 391:0 392:0 393:255 394:255 395:255 396:255 397:255 398:255 399:255 400:255 401:0 402:0 403:0 404:0 405:0 406:0 407:0 408:0 409:0 410:255 411:255 412:255 413:255 414:0 415:0 416:0 417:0 418:0 419:0 420:0 421:0 422:0 423:0 424:0 425:0 426:0 427:0 428:0 429:0 430:0 431:0 432:0 433:0 434:0 435:0 436:0 437:0 438:0 439:0 440:0 441:0 442:0 443:0 444:0 445:0 446:0 447:0 448:0 449:0 450:0 
2.663147622430494e-015 1:0 2:0 3:0 4:0 5:0 6:0 7:0 8:0 9:0 10:0 11:0 12:0 13:0 14:0 15:0 16:0 17:0 18:0 19:0 20:0 21:0 22:255 23:255 24:255 25:255 26:255 27:0 28:0 29:0 30:0 31:0 32:0 33:0 34:0 35:255 36:255 37:255 38:255 39:255 40:255 41:255 42:255 43:255 44:0 45:0 46:0 47:0 48:0 49:255 50:255 51:255 52:255 53:255 54:255 55:255 56:255 57:255 58:255 59:0 60:0 61:0 62:0 63:255 64:255 65:255 66:255 67:255 68:255 69:255 70:255 71:255 72:255 73:255 74:255 75:0 76:0 77:0 78:255 79:255 80:255 81:255 82:255 83:255 84:0 85:255 86:255 87:255 88:255 89:255 90:0 91:0 92:255 93:255 94:255 95:255 96:255 97:0 98:0 99:0 100:0 101:255 102:255 103:255 104:255 105:0 106:0 107:255 108:255 109:255 110:255 111:0 112:0 113:0 114:0 115:0 116:0 117:255 118:255 119:255 120:255 121:0 122:255 123:255 124:255 125:255 126:0 127:0 128:0 129:0 130:0 131:0 132:255 133:255 134:255 135:255 136:0 137:255 138:255 139:255 140:255 141:0 142:0 143:0 144:0 145:0 146:0 147:255 148:255 149:255 150:255 151:0 152:0 153:255 154:255 155:255 156:0 157:0 158:0 159:0 160:0 161:0 162:255 163:255 164:255 165:0 166:0 167:0 168:255 169:255 170:0 171:0 172:0 173:0 174:0 175:0 176:0 177:255 178:255 179:255 180:0 181:0 182:0 183:255 184:255 185:0 186:0 187:0 188:0 189:0 190:0 191:0 192:255 193:255 194:255 195:0 196:0 197:255 198:255 199:255 200:0 201:0 202:0 203:0 204:0 205:0 206:0 207:0 208:255 209:0 210:0 211:0 212:255 213:255 214:255 215:0 216:0 217:0 218:0 219:0 220:0 221:0 222:0 223:255 224:0 225:0 226:0 227:255 228:255 229:255 230:0 231:0 232:0 233:0 234:0 235:0 236:0 237:0 238:255 239:0 240:0 241:0 242:255 243:255 244:0 245:0 246:0 247:0 248:0 249:0 250:0 251:0 252:255 253:255 254:0 255:0 256:0 257:255 258:255 259:0 260:0 261:0 262:0 263:0 264:0 265:0 266:0 267:255 268:255 269:0 270:0 271:0 272:255 273:255 274:0 275:0 276:0 277:0 278:0 279:0 280:0 281:0 282:255 283:0 284:0 285:0 286:0 287:255 288:255 289:0 290:0 291:0 292:0 293:0 294:0 295:0 296:0 297:255 298:0 299:0 300:0 301:0 302:255 303:255 304:0 305:0 306:0 307:0 308:0 309:0 310:0 311:0 312:255 313:0 314:0 315:0 316:0 317:255 318:255 319:0 320:0 321:0 322:0 323:0 324:0 325:0 326:255 327:255 328:255 329:0 330:0 331:0 332:255 333:255 334:0 335:0 336:0 337:0 338:0 339:0 340:0 341:255 342:255 343:255 344:0 345:0 346:0 347:255 348:255 349:0 350:0 351:0 352:0 353:0 354:0 355:0 356:255 357:255 358:255 359:0 360:0 361:0 362:255 363:255 364:0 365:0 366:0 367:0 368:0 369:0 370:0 371:255 372:255 373:255 374:0 375:0 376:0 377:255 378:255 379:0 380:0 381:0 382:0 383:0 384:0 385:255 386:255 387:255 388:255 389:0 390:0 391:0 392:0 393:255 394:255 395:0 396:0 397:0 398:0 399:255 400:255 401:255 402:255 403:0 404:0 405:0 406:0 407:0 408:255 409:255 410:255 411:255 412:255 413:255 414:255 415:255 416:255 417:0 418:0 419:0 420:0 421:0 422:0 423:0 424:0 425:255 426:255 427:255 428:255 429:255 430:255 431:0 432:0 433:0 434:0 435:0 436:0 437:0 438:0 439:0 440:0 441:255 442:255 443:255 444:0 445:0 446:0 447:0 448:0 449:0 450:0 
1.103063218820321e-015 1:0 2:0 3:0 4:0 5:0 6:255 7:255 8:255 9:255 10:255 11:255 12:0 13:0 14:0 15:0 16:0 17:0 18:0 19:0 20:255 21:255 22:255 23:255 24:255 25:255 26:255 27:255 28:255 29:0 30:0 31:0 32:0 33:0 34:255 35:255 36:255 37:255 38:255 39:255 40:255 41:255 42:255 43:255 44:0 45:0 46:0 47:0 48:255 49:255 50:255 51:255 52:255 53:0 54:0 55:255 56:255 57:255 58:255 59:255 60:0 61:0 62:0 63:255 64:255 65:255 66:255 67:0 68:0 69:0 70:0 71:255 72:255 73:255 74:255 75:0 76:0 77:255 78:255 79:255 80:255 81:0 82:0 83:0 84:0 85:0 86:0 87:255 88:255 89:255 90:255 91:0 92:255 93:255 94:255 95:255 96:0 97:0 98:0 99:0 100:0 101:0 102:255 103:255 104:255 105:255 106:0 107:255 108:255 109:255 110:0 111:0 112:0 113:0 114:0 115:0 116:0 117:255 118:255 119:255 120:255 121:0 122:255 123:255 124:255 125:0 126:0 127:0 128:0 129:0 130:0 131:0 132:255 133:255 134:255 135:255 136:0 137:255 138:255 139:255 140:0 141:0 142:0 143:0 144:0 145:0 146:0 147:255 148:255 149:255 150:255 151:0 152:255 153:255 154:255 155:0 156:0 157:0 158:0 159:0 160:0 161:0 162:255 163:255 164:255 165:255 166:0 167:255 168:255 169:255 170:0 171:0 172:0 173:0 174:0 175:0 176:0 177:255 178:255 179:255 180:255 181:0 182:255 183:255 184:255 185:0 186:0 187:0 188:0 189:0 190:0 191:0 192:255 193:255 194:255 195:255 196:0 197:255 198:255 199:255 200:0 201:0 202:0 203:0 204:0 205:0 206:0 207:255 208:255 209:255 210:255 211:0 212:255 213:255 214:255 215:0 216:0 217:0 218:0 219:0 220:0 221:0 222:255 223:255 224:255 225:0 226:0 227:255 228:255 229:255 230:0 231:0 232:0 233:0 234:0 235:0 236:0 237:255 238:255 239:255 240:0 241:0 242:255 243:255 244:255 245:0 246:0 247:0 248:0 249:0 250:0 251:0 252:255 253:255 254:255 255:0 256:0 257:255 258:255 259:255 260:0 261:0 262:0 263:0 264:0 265:0 266:0 267:255 268:255 269:255 270:0 271:0 272:255 273:255 274:255 275:0 276:0 277:0 278:0 279:0 280:0 281:0 282:255 283:255 284:255 285:0 286:0 287:255 288:255 289:255 290:0 291:0 292:0 293:0 294:0 295:0 296:0 297:255 298:255 299:255 300:0 301:0 302:255 303:255 304:255 305:0 306:0 307:0 308:0 309:0 310:0 311:0 312:255 313:255 314:255 315:0 316:0 317:255 318:255 319:255 320:0 321:0 322:0 323:0 324:0 325:0 326:0 327:255 328:255 329:255 330:0 331:0 332:255 333:255 334:255 335:0 336:0 337:0 338:0 339:0 340:0 341:0 342:255 343:255 344:255 345:0 346:0 347:255 348:255 349:255 350:0 351:0 352:0 353:0 354:0 355:0 356:255 357:255 358:255 359:255 360:0 361:0 362:255 363:255 364:255 365:0 366:0 367:0 368:0 369:0 370:0 371:255 372:255 373:255 374:0 375:0 376:0 377:255 378:255 379:255 380:255 381:0 382:0 383:0 384:0 385:255 386:255 387:255 388:255 389:0 390:0 391:0 392:255 393:255 394:255 395:255 396:255 397:255 398:255 399:255 400:255 401:255 402:255 403:255 404:0 405:0 406:0 407:0 408:255 409:255 410:255 411:255 412:255 413:255 414:255 415:255 416:255 417:255 418:0 419:0 420:0 421:0 422:0 423:0 424:255 425:255 426:255 427:255 428:255 429:255 430:255 431:0 432:0 433:0 434:0 435:0 436:0 437:0 438:0 439:0 440:0 441:0 442:0 443:0 444:0 445:0 446:0 447:0 448:0 449:0 450:0 
5.87918555762065e-016 1:0 2:0 3:0 4:0 5:0 6:0 7:0 8:0 9:0 10:0 11:0 12:0 13:0 14:0 15:0 16:0 17:0 18:0 19:0 20:0 21:0 22:255 23:255 24:255 25:255 26:255 27:255 28:0 29:0 30:0 31:0 32:0 33:0 34:0 35:0 36:255 37:255 38:255 39:255 40:255 41:255 42:255 43:255 44:0 45:0 46:0 47:0 48:0 49:0 50:255 51:255 52:255 53:255 54:255 55:255 56:255 57:255 58:255 59:255 60:0 61:0 62:0 63:0 64:255 65:255 66:255 67:255 68:0 69:0 70:0 71:255 72:255 73:255 74:255 75:0 76:0 77:0 78:255 79:255 80:255 81:0 82:0 83:0 84:0 85:0 86:0 87:255 88:255 89:255 90:255 91:0 92:0 93:255 94:255 95:255 96:0 97:0 98:0 99:0 100:0 101:0 102:0 103:255 104:255 105:255 106:0 107:0 108:255 109:255 110:255 111:0 112:0 113:0 114:0 115:0 116:0 117:0 118:255 119:255 120:255 121:0 122:0 123:255 124:255 125:255 126:0 127:0 128:0 129:0 130:0 131:0 132:0 133:255 134:255 135:255 136:0 137:0 138:255 139:255 140:255 141:0 142:0 143:0 144:0 145:0 146:0 147:0 148:255 149:255 150:255 151:0 152:0 153:255 154:255 155:0 156:0 157:0 158:0 159:0 160:0 161:0 162:0 163:255 164:255 165:0 166:0 167:0 168:255 169:255 170:0 171:0 172:0 173:0 174:0 175:0 176:0 177:0 178:255 179:255 180:0 181:0 182:255 183:255 184:255 185:0 186:0 187:0 188:0 189:0 190:0 191:0 192:255 193:255 194:255 195:0 196:0 197:255 198:255 199:255 200:0 201:0 202:0 203:0 204:0 205:0 206:0 207:255 208:255 209:255 210:0 211:0 212:255 213:255 214:255 215:0 216:0 217:0 218:0 219:0 220:0 221:0 222:255 223:255 224:255 225:0 226:0 227:255 228:255 229:255 230:0 231:0 232:0 233:0 234:0 235:0 236:0 237:255 238:255 239:255 240:0 241:0 242:255 243:255 244:255 245:0 246:0 247:0 248:0 249:0 250:0 251:0 252:255 253:255 254:255 255:0 256:0 257:255 258:255 259:255 260:0 261:0 262:0 263:0 264:0 265:0 266:0 267:255 268:255 269:255 270:0 271:0 272:255 273:255 274:255 275:0 276:0 277:0 278:0 279:0 280:0 281:0 282:255 283:255 284:255 285:0 286:255 287:255 288:255 289:255 290:0 291:0 292:0 293:0 294:0 295:0 296:0 297:255 298:255 299:255 300:0 301:255 302:255 303:255 304:255 305:0 306:0 307:0 308:0 309:0 310:0 311:0 312:255 313:255 314:255 315:0 316:255 317:255 318:255 319:255 320:0 321:0 322:0 323:0 324:0 325:0 326:255 327:255 328:255 329:255 330:0 331:255 332:255 333:255 334:255 335:0 336:0 337:0 338:0 339:0 340:0 341:255 342:255 343:255 344:0 345:0 346:0 347:255 348:255 349:255 350:255 351:0 352:0 353:0 354:255 355:255 356:255 357:255 358:255 359:0 360:0 361:0 362:255 363:255 364:255 365:255 366:255 367:255 368:255 369:255 370:255 371:255 372:255 373:0 374:0 375:0 376:0 377:0 378:255 379:255 380:255 381:255 382:255 383:255 384:255 385:255 386:255 387:255 388:0 389:0 390:0 391:0 392:0 393:255 394:255 395:255 396:255 397:255 398:255 399:255 400:255 401:0 402:0 403:0 404:0 405:0 406:0 407:0 408:0 409:0 410:255 411:255 412:255 413:255 414:255 415:0 416:0 417:0 418:0 419:0 420:0 421:0 422:0 423:0 424:0 425:0 426:0 427:0 428:0 429:0 430:0 431:0 432:0 433:0 434:0 435:0 436:0 437:0 438:0 439:0 440:0 441:0 442:0 443:0 444:0 445:0 446:0 447:0 448:0 449:0 450:0 
4.010869840166871e-016 1:0 2:0 3:0 4:0 5:0 6:0 7:0 8:0 9:0 10:0 11:0 12:0 13:0 14:0 15:0 16:0 17:0 18:0 19:0 20:0 21:0 22:0 23:0 24:0 25:0 26:0 27:0 28:0 29:0 30:0 31:0 32:0 33:0 34:0 35:0 36:0 37:255 38:255 39:255 40:255 41:0 42:0 43:0 44:0 45:0 46:0 47:0 48:0 49:0 50:255 51:255 52:255 53:255 54:255 55:255 56:255 57:255 58:0 59:0 60:0 61:0 62:0 63:0 64:255 65:255 66:255 67:255 68:255 69:255 70:255 71:255 72:255 73:255 74:0 75:0 76:0 77:0 78:255 79:255 80:255 81:255 82:255 83:255 84:255 85:255 86:255 87:255 88:255 89:255 90:0 91:0 92:255 93:255 94:255 95:255 96:255 97:0 98:0 99:0 100:0 101:255 102:255 103:255 104:255 105:255 106:0 107:255 108:255 109:255 110:255 111:0 112:0 113:0 114:0 115:0 116:0 117:255 118:255 119:255 120:255 121:0 122:255 123:255 124:255 125:255 126:0 127:0 128:0 129:0 130:0 131:0 132:255 133:255 134:255 135:255 136:0 137:255 138:255 139:255 140:255 141:0 142:0 143:0 144:0 145:0 146:0 147:255 148:255 149:255 150:255 151:0 152:255 153:255 154:255 155:255 156:0 157:0 158:0 159:0 160:0 161:0 162:255 163:255 164:255 165:255 166:0 167:255 168:255 169:255 170:255 171:0 172:0 173:0 174:0 175:0 176:0 177:255 178:255 179:255 180:255 181:0 182:255 183:255 184:255 185:255 186:0 187:0 188:0 189:0 190:0 191:0 192:255 193:255 194:255 195:255 196:0 197:255 198:255 199:255 200:255 201:0 202:0 203:0 204:0 205:0 206:0 207:255 208:255 209:255 210:255 211:255 212:255 213:255 214:255 215:255 216:0 217:0 218:0 219:0 220:0 221:0 222:255 223:255 224:255 225:255 226:255 227:255 228:255 229:255 230:255 231:0 232:0 233:0 234:0 235:0 236:0 237:255 238:255 239:255 240:255 241:0 242:255 243:255 244:255 245:0 246:0 247:0 248:0 249:0 250:0 251:0 252:255 253:255 254:255 255:255 256:255 257:255 258:255 259:255 260:0 261:0 262:0 263:0 264:0 265:0 266:0 267:255 268:255 269:255 270:255 271:255 272:255 273:255 274:255 275:0 276:0 277:0 278:0 279:0 280:0 281:0 282:255 283:255 284:255 285:255 286:0 287:255 288:255 289:255 290:0 291:0 292:0 293:0 294:0 295:0 296:0 297:255 298:255 299:255 300:255 301:0 302:255 303:255 304:255 305:0 306:0 307:0 308:0 309:0 310:0 311:0 312:255 313:255 314:255 315:255 316:255 317:255 318:255 319:255 320:0 321:0 322:0 323:0 324:0 325:0 326:0 327:255 328:255 329:255 330:255 331:255 332:255 333:255 334:255 335:0 336:0 337:0 338:0 339:0 340:0 341:0 342:255 343:255 344:255 345:255 346:0 347:255 348:255 349:255 350:0 351:0 352:0 353:0 354:0 355:0 356:0 357:255 358:255 359:255 360:0 361:0 362:255 363:255 364:255 365:255 366:0 367:0 368:0 369:0 370:0 371:255 372:255 373:255 374:255 375:0 376:0 377:255 378:255 379:255 380:255 381:255 382:0 383:0 384:0 385:255 386:255 387:255 388:255 389:255 390:0 391:0 392:0 393:255 394:255 395:255 396:255 397:255 398:255 399:255 400:255 401:255 402:255 403:255 404:0 405:0 406:0 407:0 408:0 409:255 410:255 411:255 412:255 413:255 414:255 415:255 416:255 417:255 418:0 419:0 420:0 421:0 422:0 423:0 424:0 425:255 426:255 427:255 428:255 429:255 430:255 431:0 432:0 433:0 434:0 435:0 436:0 437:0 438:0 439:0 440:0 441:0 442:0 443:0 444:0 445:0 446:0 447:0 448:0 449:0 450:0 
9.830956674388999e-016 1:0 2:0 3:0 4:0 5:255 6:255 7:255 8:255 9:255 10:255 11:255 12:255 13:255 14:0 15:0 16:0 17:0 18:0 19:0 20:255 21:255 22:255 23:255 24:255 25:255 26:255 27:255 28:255 29:255 30:0 31:0 32:0 33:0 34:255 35:255 36:255 37:255 38:255 39:255 40:255 41:255 42:255 43:255 44:255 45:0 46:0 47:0 48:255 49:255 50:255 51:255 52:0 53:0 54:0 55:0 56:255 57:255 58:255 59:255 60:0 61:0 62:0 63:255 64:255 65:255 66:255 67:0 68:0 69:0 70:0 71:0 72:255 73:255 74:255 75:0 76:0 77:0 78:255 79:255 80:255 81:255 82:0 83:0 84:0 85:0 86:0 87:255 88:255 89:255 90:0 91:0 92:0 93:255 94:255 95:255 96:0 97:0 98:0 99:0 100:0 101:0 102:255 103:255 104:255 105:0 106:0 107:0 108:255 109:255 110:255 111:0 112:0 113:0 114:0 115:0 116:0 117:255 118:255 119:255 120:0 121:0 122:0 123:255 124:255 125:255 126:0 127:0 128:0 129:0 130:0 131:255 132:255 133:255 134:255 135:0 136:0 137:0 138:255 139:255 140:255 141:0 142:0 143:0 144:0 145:0 146:255 147:255 148:255 149:255 150:0 151:0 152:255 153:255 154:255 155:255 156:0 157:0 158:0 159:0 160:0 161:255 162:255 163:255 164:0 165:0 166:0 167:255 168:255 169:255 170:255 171:0 172:0 173:0 174:0 175:0 176:255 177:255 178:255 179:0 180:0 181:0 182:255 183:255 184:255 185:255 186:0 187:0 188:0 189:0 190:0 191:255 192:255 193:255 194:0 195:0 196:0 197:255 198:255 199:255 200:255 201:0 202:0 203:0 204:0 205:0 206:255 207:255 208:255 209:0 210:0 211:0 212:255 213:255 214:255 215:255 216:0 217:0 218:0 219:0 220:0 221:255 222:255 223:255 224:0 225:0 226:0 227:255 228:255 229:255 230:255 231:0 232:0 233:0 234:0 235:0 236:255 237:255 238:255 239:0 240:0 241:0 242:255 243:255 244:255 245:0 246:0 247:0 248:0 249:0 250:0 251:255 252:255 253:255 254:0 255:0 256:0 257:255 258:255 259:255 260:0 261:0 262:0 263:0 264:0 265:0 266:255 267:255 268:255 269:0 270:0 271:0 272:255 273:255 274:255 275:0 276:0 277:0 278:0 279:0 280:0 281:255 282:255 283:255 284:0 285:0 286:0 287:255 288:255 289:255 290:0 291:0 292:0 293:0 294:0 295:0 296:255 297:255 298:255 299:0 300:0 301:255 302:255 303:255 304:255 305:0 306:0 307:0 308:0 309:0 310:0 311:255 312:255 313:255 314:0 315:0 316:255 317:255 318:255 319:255 320:0 321:0 322:0 323:0 324:0 325:255 326:255 327:255 328:0 329:0 330:0 331:255 332:255 333:255 334:255 335:255 336:0 337:0 338:0 339:255 340:255 341:255 342:255 343:0 344:0 345:0 346:255 347:255 348:255 349:255 350:255 351:255 352:0 353:255 354:255 355:255 356:255 357:255 358:0 359:0 360:0 361:0 362:255 363:255 364:255 365:255 366:255 367:255 368:255 369:255 370:255 371:255 372:0 373:0 374:0 375:0 376:0 377:255 378:255 379:255 380:255 381:255 382:255 383:255 384:255 385:255 386:0 387:0 388:0 389:0 390:0 391:0 392:0 393:255 394:255 395:255 396:255 397:255 398:255 399:255 400:255 401:0 402:0 403:0 404:0 405:0 406:0 407:0 408:0 409:255 410:255 411:255 412:255 413:255 414:0 415:0 416:0 417:0 418:0 419:0 420:0 421:0 422:0 423:0 424:0 425:0 426:0 427:0 428:0 429:0 430:0 431:0 432:0 433:0 434:0 435:0 436:0 437:0 438:0 439:0 440:0 441:0 442:0 443:0 444:0 445:0 446:0 447:0 448:0 449:0 450:0 
2.411591749958826e-016 1:0 2:0 3:0 4:0 5:0 6:0 7:0 8:0 9:0 10:0 11:0 12:0 13:0 14:0 15:0 16:0 17:0 18:0 19:0 20:0 21:0 22:255 23:255 24:255 25:255 26:255 27:0 28:0 29:0 30:0 31:0 32:0 33:0 34:0 35:255 36:255 37:255 38:255 39:255 40:255 41:255 42:255 43:255 44:0 45:0 46:0 47:0 48:0 49:255 50:255 51:255 52:255 53:255 54:255 55:255 56:255 57:255 58:255 59:255 60:0 61:0 62:0 63:255 64:255 65:255 66:255 67:255 68:255 69:255 70:255 71:255 72:255 73:255 74:255 75:0 76:0 77:0 78:255 79:255 80:255 81:255 82:0 83:0 84:0 85:0 86:255 87:255 88:255 89:255 90:255 91:0 92:255 93:255 94:255 95:255 96:0 97:0 98:0 99:0 100:0 101:0 102:255 103:255 104:255 105:255 106:0 107:255 108:255 109:255 110:255 111:0 112:0 113:0 114:0 115:0 116:0 117:255 118:255 119:255 120:255 121:0 122:255 123:255 124:255 125:255 126:0 127:0 128:0 129:0 130:0 131:0 132:255 133:255 134:255 135:255 136:0 137:255 138:255 139:255 140:255 141:0 142:0 143:0 144:0 145:0 146:0 147:255 148:255 149:255 150:255 151:0 152:255 153:255 154:255 155:255 156:0 157:0 158:0 159:0 160:0 161:0 162:255 163:255 164:255 165:0 166:0 167:255 168:255 169:255 170:255 171:0 172:0 173:0 174:0 175:0 176:0 177:255 178:255 179:255 180:0 181:0 182:255 183:255 184:255 185:255 186:0 187:0 188:0 189:0 190:0 191:0 192:255 193:255 194:255 195:0 196:0 197:255 198:255 199:255 200:255 201:0 202:0 203:0 204:0 205:0 206:0 207:255 208:255 209:255 210:0 211:0 212:255 213:255 214:255 215:255 216:0 217:0 218:0 219:0 220:0 221:255 222:255 223:255 224:255 225:0 226:0 227:255 228:255 229:255 230:0 231:0 232:0 233:0 234:0 235:0 236:255 237:255 238:255 239:255 240:0 241:255 242:255 243:255 244:255 245:0 246:0 247:0 248:0 249:0 250:0 251:255 252:255 253:255 254:255 255:0 256:255 257:255 258:255 259:255 260:0 261:0 262:0 263:0 264:0 265:0 266:255 267:255 268:255 269:255 270:0 271:255 272:255 273:255 274:255 275:0 276:0 277:0 278:0 279:0 280:0 281:255 282:255 283:255 284:255 285:0 286:255 287:255 288:255 289:255 290:0 291:0 292:0 293:0 294:0 295:0 296:255 297:255 298:255 299:255 300:0 301:255 302:255 303:255 304:255 305:0 306:0 307:0 308:0 309:0 310:0 311:255 312:255 313:255 314:255 315:0 316:255 317:255 318:255 319:255 320:0 321:0 322:0 323:0 324:0 325:0 326:255 327:255 328:255 329:255 330:0 331:255 332:255 333:255 334:255 335:0 336:0 337:0 338:0 339:0 340:0 341:255 342:255 343:255 344:0 345:0 346:255 347:255 348:255 349:255 350:0 351:0 352:0 353:0 354:0 355:255 356:255 357:255 358:255 359:0 360:0 361:0 362:255 363:255 364:255 365:255 366:255 367:0 368:255 369:255 370:255 371:255 372:255 373:0 374:0 375:0 376:0 377:255 378:255 379:255 380:255 381:255 382:255 383:255 384:255 385:255 386:255 387:255 388:0 389:0 390:0 391:0 392:0 393:255 394:255 395:255 396:255 397:255 398:255 399:255 400:255 401:255 402:0 403:0 404:0 405:0 406:0 407:0 408:0 409:255 410:255 411:255 412:255 413:255 414:255 415:0 416:0 417:0 418:0 419:0 420:0 421:0 422:0 423:0 424:0 425:0 426:0 427:0 428:0 429:0 430:0 431:0 432:0 433:0 434:0 435:0 436:0 437:0 438:0 439:0 440:0 441:0 442:0 443:0 444:0 445:0 446:0 447:0 448:0 449:0 450:0 
5.160885247455249e-017 1:0 2:0 3:0 4:0 5:0 6:0 7:0 8:0 9:0 10:0 11:0 12:0 13:0 14:0 15:0 16:0 17:0 18:0 19:0 20:0 21:0 22:0 23:0 24:0 25:0 26:0 27:0 28:0 29:0 30:0 31:0 32:0 33:0 34:0 35:0 36:0 37:255 38:255 39:255 40:255 41:0 42:0 43:0 44:0 45:0 46:0 47:0 48:0 49:0 50:255 51:255 52:255 53:255 54:255 55:255 56:255 57:255 58:0 59:0 60:0 61:0 62:0 63:0 64:255 65:255 66:255 67:255 68:255 69:255 70:255 71:255 72:255 73:255 74:0 75:0 76:0 77:0 78:255 79:255 80:255 81:255 82:255 83:255 84:255 85:255 86:255 87:255 88:255 89:255 90:0 91:0 92:255 93:255 94:255 95:255 96:255 97:0 98:0 99:0 100:255 101:255 102:255 103:255 104:255 105:0 106:0 107:255 108:255 109:255 110:255 111:0 112:0 113:0 114:0 115:0 116:255 117:255 118:255 119:255 120:255 121:0 122:255 123:255 124:255 125:255 126:0 127:0 128:0 129:0 130:0 131:0 132:255 133:255 134:255 135:255 136:0 137:255 138:255 139:255 140:0 141:0 142:0 143:0 144:0 145:0 146:0 147:255 148:255 149:255 150:255 151:255 152:255 153:255 154:255 155:0 156:0 157:0 158:0 159:0 160:0 161:0 162:255 163:255 164:255 165:255 166:255 167:255 168:255 169:255 170:0 171:0 172:0 173:0 174:0 175:0 176:255 177:255 178:255 179:255 180:255 181:255 182:255 183:255 184:255 185:0 186:0 187:0 188:0 189:0 190:0 191:255 192:255 193:255 194:255 195:255 196:255 197:255 198:255 199:255 200:0 201:0 202:0 203:0 204:0 205:0 206:255 207:255 208:255 209:255 210:0 211:255 212:255 213:255 214:255 215:0 216:0 217:0 218:0 219:0 220:0 221:255 222:255 223:255 224:255 225:0 226:255 227:255 228:255 229:255 230:0 231:0 232:0 233:0 234:0 235:0 236:255 237:255 238:255 239:255 240:0 241:255 242:255 243:255 244:255 245:0 246:0 247:0 248:0 249:0 250:0 251:255 252:255 253:255 254:255 255:0 256:255 257:255 258:255 259:255 260:0 261:0 262:0 263:0 264:0 265:0 266:255 267:255 268:255 269:255 270:0 271:255 272:255 273:255 274:255 275:0 276:0 277:0 278:0 279:0 280:0 281:255 282:255 283:255 284:255 285:0 286:255 287:255 288:255 289:255 290:0 291:0 292:0 293:0 294:0 295:0 296:255 297:255 298:255 299:255 300:0 301:255 302:255 303:255 304:255 305:0 306:0 307:0 308:0 309:0 310:0 311:255 312:255 313:255 314:255 315:0 316:255 317:255 318:255 319:255 320:0 321:0 322:0 323:0 324:0 325:0 326:255 327:255 328:255 329:255 330:0 331:255 332:255 333:255 334:255 335:0 336:0 337:0 338:0 339:0 340:0 341:255 342:255 343:255 344:255 345:0 346:255 347:255 348:255 349:255 350:0 351:0 352:0 353:0 354:0 355:0 356:255 357:255 358:255 359:255 360:0 361:255 362:255 363:255 364:255 365:0 366:0 367:0 368:0 369:0 370:255 371:255 372:255 373:255 374:0 375:0 376:255 377:255 378:255 379:255 380:255 381:0 382:0 383:0 384:255 385:255 386:255 387:255 388:255 389:0 390:0 391:0 392:255 393:255 394:255 395:255 396:255 397:255 398:255 399:255 400:255 401:255 402:255 403:0 404:0 405:0 406:0 407:0 408:255 409:255 410:255 411:255 412:255 413:255 414:255 415:255 416:255 417:0 418:0 419:0 420:0 421:0 422:0 423:0 424:255 425:255 426:255 427:255 428:255 429:255 430:255 431:0 432:0 433:0 434:0 435:0 436:0 437:0 438:0 439:0 440:0 441:0 442:0 443:0 444:0 445:0 446:0 447:0 448:0 449:0 450:0 
2.180241010229669e-015 1:0 2:0 3:0 4:0 5:0 6:0 7:0 8:0 9:0 10:0 11:0 12:0 13:0 14:0 15:0 16:0 17:0 18:0 19:0 20:0 21:0 22:0 23:0 24:0 25:0 26:0 27:0 28:0 29:0 30:0 31:0 32:0 33:0 34:0 35:0 36:0 37:255 38:255 39:255 40:255 41:255 42:255 43:0 44:0 45:0 46:0 47:0 48:0 49:0 50:0 51:255 52:255 53:255 54:255 55:255 56:255 57:255 58:255 59:0 60:0 61:0 62:0 63:0 64:0 65:255 66:255 67:255 68:255 69:255 70:255 71:255 72:255 73:255 74:255 75:0 76:0 77:0 78:0 79:255 80:255 81:255 82:255 83:0 84:0 85:0 86:255 87:255 88:255 89:255 90:0 91:0 92:0 93:255 94:255 95:255 96:255 97:0 98:0 99:0 100:0 101:0 102:255 103:255 104:255 105:0 106:0 107:0 108:255 109:255 110:255 111:0 112:0 113:0 114:0 115:0 116:0 117:0 118:255 119:255 120:255 121:0 122:0 123:255 124:255 125:255 126:0 127:0 128:0 129:0 130:0 131:0 132:0 133:255 134:255 135:255 136:0 137:0 138:255 139:255 140:255 141:0 142:0 143:0 144:0 145:0 146:0 147:0 148:255 149:255 150:0 151:0 152:0 153:255 154:255 155:255 156:0 157:0 158:0 159:0 160:0 161:0 162:255 163:255 164:255 165:0 166:0 167:0 168:255 169:255 170:255 171:0 172:0 173:0 174:0 175:0 176:0 177:255 178:255 179:255 180:0 181:0 182:0 183:255 184:255 185:0 186:0 187:0 188:0 189:0 190:0 191:0 192:255 193:255 194:255 195:0 196:0 197:0 198:255 199:255 200:0 201:0 202:0 203:0 204:0 205:0 206:0 207:255 208:255 209:255 210:0 211:0 212:0 213:255 214:255 215:0 216:0 217:0 218:0 219:0 220:0 221:0 222:255 223:255 224:255 225:0 226:0 227:255 228:255 229:255 230:0 231:0 232:0 233:0 234:0 235:0 236:0 237:255 238:255 239:255 240:0 241:0 242:255 243:255 244:255 245:0 246:0 247:0 248:0 249:0 250:0 251:0 252:255 253:255 254:255 255:0 256:0 257:255 258:255 259:255 260:0 261:0 262:0 263:0 264:0 265:0 266:0 267:255 268:255 269:255 270:0 271:0 272:255 273:255 274:255 275:0 276:0 277:0 278:0 279:0 280:0 281:0 282:255 283:255 284:255 285:0 286:0 287:255 288:255 289:255 290:0 291:0 292:0 293:0 294:0 295:0 296:0 297:255 298:255 299:255 300:0 301:0 302:255 303:255 304:255 305:0 306:0 307:0 308:0 309:0 310:0 311:0 312:255 313:255 314:255 315:0 316:0 317:255 318:255 319:255 320:0 321:0 322:0 323:0 324:0 325:0 326:0 327:255 328:255 329:255 330:0 331:0 332:255 333:255 334:255 335:0 336:0 337:0 338:0 339:0 340:0 341:255 342:255 343:255 344:0 345:0 346:0 347:255 348:255 349:255 350:0 351:0 352:0 353:0 354:0 355:0 356:255 357:255 358:255 359:0 360:0 361:0 362:255 363:255 364:255 365:0 366:0 367:0 368:0 369:0 370:255 371:255 372:255 373:255 374:0 375:0 376:0 377:255 378:255 379:255 380:255 381:0 382:0 383:0 384:255 385:255 386:255 387:255 388:0 389:0 390:0 391:0 392:255 393:255 394:255 395:255 396:255 397:255 398:255 399:255 400:255 401:255 402:255 403:0 404:0 405:0 406:0 407:0 408:255 409:255 410:255 411:255 412:255 413:255 414:255 415:255 416:255 417:0 418:0 419:0 420:0 421:0 422:0 423:0 424:255 425:255 426:255 427:255 428:255 429:255 430:255 431:0 432:0 433:0 434:0 435:0 436:0 437:0 438:0 439:0 440:0 441:0 442:0 443:0 444:0 445:0 446:0 447:0 448:0 449:0 450:0 
8.655726609185214e-016 1:0 2:0 3:0 4:0 5:0 6:0 7:0 8:0 9:0 10:0 11:0 12:0 13:0 14:0 15:0 16:0 17:0 18:0 19:0 20:0 21:0 22:0 23:0 24:0 25:0 26:0 27:0 28:0 29:0 30:0 31:0 32:0 33:0 34:0 35:0 36:0 37:255 38:255 39:255 40:255 41:255 42:0 43:0 44:0 45:0 46:0 47:0 48:0 49:0 50:255 51:255 52:255 53:255 54:255 55:255 56:255 57:255 58:255 59:0 60:0 61:0 62:0 63:0 64:255 65:255 66:255 67:255 68:255 69:255 70:255 71:255 72:255 73:255 74:255 75:0 76:0 77:0 78:255 79:255 80:255 81:255 82:255 83:0 84:0 85:0 86:255 87:255 88:255 89:255 90:0 91:0 92:0 93:255 94:255 95:255 96:0 97:0 98:0 99:0 100:0 101:0 102:255 103:255 104:255 105:255 106:0 107:255 108:255 109:255 110:255 111:0 112:0 113:0 114:0 115:0 116:0 117:255 118:255 119:255 120:255 121:0 122:255 123:255 124:255 125:0 126:0 127:0 128:0 129:0 130:0 131:0 132:0 133:255 134:255 135:255 136:0 137:255 138:255 139:255 140:0 141:0 142:0 143:0 144:0 145:0 146:0 147:0 148:255 149:255 150:255 151:0 152:255 153:255 154:255 155:0 156:0 157:0 158:0 159:0 160:0 161:0 162:0 163:255 164:255 165:255 166:0 167:255 168:255 169:255 170:0 171:0 172:0 173:0 174:0 175:0 176:0 177:255 178:255 179:255 180:255 181:0 182:255 183:255 184:255 185:0 186:0 187:0 188:0 189:0 190:0 191:0 192:255 193:255 194:255 195:0 196:0 197:255 198:255 199:255 200:0 201:0 202:0 203:0 204:0 205:0 206:0 207:255 208:255 209:255 210:0 211:0 212:255 213:255 214:255 215:0 216:0 217:0 218:0 219:0 220:0 221:0 222:255 223:255 224:255 225:0 226:0 227:255 228:255 229:255 230:0 231:0 232:0 233:0 234:0 235:0 236:0 237:255 238:255 239:255 240:0 241:0 242:255 243:255 244:255 245:0 246:0 247:0 248:0 249:0 250:0 251:0 252:255 253:255 254:255 255:0 256:255 257:255 258:255 259:255 260:0 261:0 262:0 263:0 264:0 265:0 266:0 267:255 268:255 269:255 270:0 271:255 272:255 273:255 274:255 275:0 276:0 277:0 278:0 279:0 280:0 281:0 282:255 283:255 284:255 285:0 286:255 287:255 288:255 289:255 290:0 291:0 292:0 293:0 294:0 295:0 296:0 297:255 298:255 299:255 300:0 301:255 302:255 303:255 304:0 305:0 306:0 307:0 308:0 309:0 310:0 311:255 312:255 313:255 314:255 315:0 316:255 317:255 318:255 319:0 320:0 321:0 322:0 323:0 324:0 325:0 326:255 327:255 328:255 329:255 330:0 331:255 332:255 333:255 334:255 335:0 336:0 337:0 338:0 339:0 340:0 341:255 342:255 343:255 344:255 345:0 346:255 347:255 348:255 349:255 350:0 351:0 352:0 353:0 354:0 355:255 356:255 357:255 358:255 359:0 360:0 361:255 362:255 363:255 364:255 365:255 366:255 367:255 368:255 369:255 370:255 371:255 372:255 373:255 374:0 375:0 376:0 377:255 378:255 379:255 380:255 381:255 382:255 383:255 384:255 385:255 386:255 387:255 388:0 389:0 390:0 391:0 392:0 393:255 394:255 395:255 396:255 397:255 398:255 399:255 400:255 401:255 402:0 403:0 404:0 405:0 406:0 407:0 408:0 409:255 410:255 411:255 412:255 413:255 414:255 415:0 416:0 417:0 418:0 419:0 420:0 421:0 422:0 423:0 424:0 425:0 426:0 427:0 428:0 429:0 430:0 431:0 432:0 433:0 434:0 435:0 436:0 437:0 438:0 439:0 440:0 441:0 442:0 443:0 444:0 445:0 446:0 447:0 448:0 449:0 450:0 
2.71865441806281e-015 1:0 2:0 3:0 4:0 5:0 6:255 7:255 8:255 9:255 10:255 11:255 12:0 13:0 14:0 15:0 16:0 17:0 18:0 19:0 20:255 21:255 22:255 23:255 24:255 25:255 26:255 27:255 28:0 29:0 30:0 31:0 32:0 33:0 34:0 35:255 36:255 37:255 38:255 39:255 40:255 41:255 42:255 43:0 44:0 45:0 46:0 47:0 48:0 49:255 50:255 51:255 52:0 53:0 54:0 55:255 56:255 57:255 58:0 59:0 60:0 61:0 62:0 63:255 64:255 65:255 66:0 67:0 68:0 69:0 70:255 71:255 72:255 73:0 74:0 75:0 76:0 77:0 78:255 79:255 80:255 81:0 82:0 83:0 84:0 85:255 86:255 87:255 88:0 89:0 90:0 91:0 92:0 93:255 94:255 95:255 96:0 97:0 98:0 99:0 100:255 101:255 102:255 103:0 104:0 105:0 106:0 107:0 108:255 109:255 110:255 111:0 112:0 113:0 114:0 115:255 116:255 117:255 118:0 119:0 120:0 121:0 122:0 123:255 124:255 125:0 126:0 127:0 128:0 129:0 130:255 131:255 132:0 133:0 134:0 135:0 136:0 137:255 138:255 139:255 140:0 141:0 142:0 143:0 144:0 145:255 146:255 147:0 148:0 149:0 150:0 151:0 152:255 153:255 154:255 155:0 156:0 157:0 158:0 159:255 160:255 161:255 162:0 163:0 164:0 165:0 166:0 167:255 168:255 169:255 170:0 171:0 172:0 173:0 174:255 175:255 176:255 177:0 178:0 179:0 180:0 181:0 182:255 183:255 184:255 185:0 186:0 187:0 188:0 189:255 190:255 191:255 192:0 193:0 194:0 195:0 196:0 197:255 198:255 199:255 200:0 201:0 202:0 203:0 204:255 205:255 206:255 207:0 208:0 209:0 210:0 211:0 212:255 213:255 214:255 215:0 216:0 217:0 218:0 219:255 220:255 221:0 222:0 223:0 224:0 225:0 226:255 227:255 228:255 229:0 230:0 231:0 232:0 233:0 234:255 235:255 236:0 237:0 238:0 239:0 240:0 241:255 242:255 243:255 244:0 245:0 246:0 247:0 248:255 249:255 250:255 251:0 252:0 253:0 254:0 255:0 256:255 257:255 258:255 259:0 260:0 261:0 262:0 263:255 264:255 265:255 266:0 267:0 268:0 269:0 270:0 271:255 272:255 273:255 274:0 275:0 276:0 277:0 278:255 279:255 280:255 281:0 282:0 283:0 284:0 285:0 286:255 287:255 288:255 289:0 290:0 291:0 292:0 293:255 294:255 295:255 296:0 297:0 298:0 299:0 300:0 301:255 302:255 303:255 304:0 305:0 306:0 307:255 308:255 309:255 310:0 311:0 312:255 313:0 314:0 315:0 316:255 317:255 318:255 319:0 320:0 321:0 322:255 323:255 324:255 325:0 326:0 327:255 328:0 329:0 330:0 331:255 332:255 333:255 334:255 335:255 336:255 337:255 338:255 339:0 340:0 341:0 342:255 343:0 344:0 345:0 346:255 347:255 348:255 349:255 350:255 351:255 352:255 353:255 354:0 355:0 356:0 357:0 358:0 359:0 360:0 361:0 362:255 363:255 364:255 365:255 366:255 367:255 368:0 369:0 370:0 371:0 372:0 373:0 374:0 375:0 376:0 377:0 378:255 379:255 380:255 381:0 382:0 383:0 384:0 385:0 386:0 387:0 388:0 389:0 390:0 391:0 392:0 393:0 394:0 395:0 396:0 397:0 398:0 399:0 400:0 401:0 402:0 403:0 404:0 405:0 406:0 407:0 408:0 409:0 410:0 411:0 412:0 413:0 414:0 415:0 416:0 417:0 418:0 419:0 420:0 421:0 422:0 423:0 424:0 425:0 426:0 427:0 428:0 429:0 430:0 431:0 432:0 433:0 434:0 435:0 436:0 437:0 438:0 439:0 440:0 441:0 442:0 443:0 444:0 445:0 446:0 447:0 448:0 449:0 450:0 
4.551504365472662e-016 1:0 2:0 3:0 4:0 5:0 6:0 7:0 8:0 9:0 10:0 11:0 12:0 13:0 14:0 15:0 16:0 17:0 18:0 19:0 20:0 21:0 22:0 23:255 24:255 25:255 26:255 27:255 28:255 29:0 30:0 31:0 32:0 33:0 34:0 35:0 36:0 37:255 38:255 39:255 40:255 41:255 42:255 43:255 44:255 45:0 46:0 47:0 48:0 49:0 50:0 51:255 52:255 53:255 54:255 55:255 56:255 57:255 58:255 59:255 60:255 61:0 62:0 63:0 64:0 65:255 66:255 67:255 68:255 69:0 70:0 71:0 72:255 73:255 74:255 75:255 76:0 77:0 78:0 79:0 80:255 81:255 82:255 83:0 84:0 85:0 86:0 87:0 88:255 89:255 90:255 91:0 92:0 93:0 94:255 95:255 96:255 97:0 98:0 99:0 100:0 101:0 102:0 103:255 104:255 105:255 106:0 107:0 108:0 109:255 110:255 111:255 112:0 113:0 114:0 115:0 116:0 117:0 118:255 119:255 120:255 121:0 122:0 123:0 124:255 125:255 126:255 127:0 128:0 129:0 130:0 131:0 132:0 133:255 134:255 135:255 136:0 137:0 138:0 139:255 140:255 141:0 142:0 143:0 144:0 145:0 146:0 147:0 148:255 149:255 150:255 151:0 152:0 153:255 154:255 155:255 156:0 157:0 158:0 159:0 160:0 161:0 162:0 163:255 164:255 165:255 166:0 167:0 168:255 169:255 170:255 171:0 172:0 173:0 174:0 175:0 176:0 177:0 178:255 179:255 180:255 181:0 182:0 183:255 184:255 185:255 186:0 187:0 188:0 189:0 190:0 191:0 192:0 193:255 194:255 195:255 196:0 197:0 198:255 199:255 200:255 201:0 202:0 203:0 204:0 205:0 206:0 207:255 208:255 209:255 210:0 211:0 212:0 213:255 214:255 215:255 216:0 217:0 218:0 219:0 220:0 221:0 222:255 223:255 224:255 225:0 226:0 227:0 228:255 229:255 230:0 231:0 232:0 233:0 234:0 235:0 236:0 237:255 238:255 239:255 240:0 241:0 242:255 243:255 244:255 245:0 246:0 247:0 248:0 249:0 250:0 251:0 252:255 253:255 254:255 255:0 256:0 257:255 258:255 259:255 260:0 261:0 262:0 263:0 264:0 265:0 266:0 267:255 268:255 269:255 270:0 271:0 272:255 273:255 274:255 275:0 276:0 277:0 278:0 279:0 280:0 281:0 282:255 283:255 284:255 285:0 286:0 287:255 288:255 289:255 290:0 291:0 292:0 293:0 294:0 295:0 296:255 297:255 298:255 299:255 300:0 301:0 302:255 303:255 304:255 305:0 306:0 307:0 308:0 309:0 310:0 311:255 312:255 313:255 314:0 315:0 316:0 317:255 318:255 319:255 320:0 321:0 322:0 323:0 324:0 325:0 326:255 327:255 328:255 329:0 330:0 331:255 332:255 333:255 334:255 335:0 336:0 337:0 338:0 339:0 340:255 341:255 342:255 343:255 344:0 345:0 346:255 347:255 348:255 349:255 350:0 351:0 352:0 353:0 354:0 355:255 356:255 357:255 358:255 359:0 360:0 361:255 362:255 363:255 364:255 365:255 366:0 367:0 368:0 369:255 370:255 371:255 372:255 373:0 374:0 375:0 376:255 377:255 378:255 379:255 380:255 381:255 382:255 383:255 384:255 385:255 386:255 387:255 388:0 389:0 390:255 391:0 392:255 393:255 394:255 395:255 396:255 397:255 398:255 399:255 400:255 401:255 402:0 403:0 404:0 405:255 406:0 407:0 408:255 409:255 410:255 411:255 412:255 413:255 414:255 415:255 416:0 417:0 418:0 419:0 420:255 421:0 422:0 423:0 424:255 425:255 426:255 427:255 428:255 429:0 430:0 431:0 432:0 433:0 434:0 435:255 436:0 437:0 438:0 439:0 440:0 441:0 442:0 443:0 444:0 445:0 446:0 447:0 448:0 449:0 450:255 
1.889111592703107e-015 1:0 2:0 3:0 4:0 5:0 6:0 7:0 8:0 9:0 10:0 11:0 12:0 13:0 14:0 15:0 16:0 17:0 18:0 19:0 20:0 21:0 22:0 23:0 24:0 25:0 26:0 27:0 28:0 29:0 30:0 31:0 32:0 33:0 34:0 35:0 36:255 37:255 38:255 39:255 40:255 41:0 42:0 43:0 44:0 45:0 46:0 47:0 48:0 49:0 50:255 51:255 52:255 53:255 54:255 55:255 56:255 57:0 58:0 59:0 60:0 61:0 62:0 63:0 64:255 65:255 66:255 67:255 68:255 69:255 70:255 71:255 72:255 73:0 74:0 75:0 76:0 77:0 78:255 79:255 80:255 81:255 82:255 83:255 84:255 85:255 86:255 87:255 88:0 89:0 90:0 91:0 92:0 93:255 94:255 95:255 96:255 97:0 98:0 99:0 100:255 101:255 102:255 103:255 104:0 105:0 106:0 107:0 108:255 109:255 110:255 111:0 112:0 113:0 114:0 115:0 116:255 117:255 118:255 119:0 120:0 121:0 122:255 123:255 124:255 125:255 126:0 127:0 128:0 129:0 130:0 131:255 132:255 133:255 134:0 135:0 136:0 137:255 138:255 139:255 140:0 141:0 142:0 143:0 144:0 145:0 146:255 147:255 148:255 149:0 150:0 151:0 152:255 153:255 154:255 155:0 156:0 157:0 158:0 159:0 160:0 161:255 162:255 163:255 164:0 165:0 166:0 167:255 168:255 169:255 170:0 171:0 172:0 173:0 174:0 175:0 176:255 177:255 178:255 179:0 180:0 181:0 182:255 183:255 184:255 185:0 186:0 187:0 188:0 189:0 190:255 191:255 192:255 193:0 194:0 195:0 196:0 197:255 198:255 199:255 200:0 201:0 202:0 203:0 204:0 205:255 206:255 207:255 208:0 209:0 210:0 211:0 212:255 213:255 214:255 215:0 216:0 217:0 218:0 219:0 220:255 221:255 222:255 223:0 224:0 225:0 226:0 227:255 228:255 229:255 230:0 231:0 232:0 233:0 234:0 235:255 236:255 237:255 238:0 239:0 240:0 241:0 242:255 243:255 244:255 245:0 246:0 247:0 248:0 249:0 250:255 251:255 252:255 253:0 254:0 255:0 256:0 257:255 258:255 259:255 260:0 261:0 262:0 263:0 264:0 265:255 266:255 267:255 268:0 269:0 270:0 271:255 272:255 273:255 274:255 275:0 276:0 277:0 278:0 279:0 280:255 281:255 282:255 283:0 284:0 285:0 286:255 287:255 288:255 289:255 290:0 291:0 292:0 293:0 294:0 295:255 296:255 297:255 298:0 299:0 300:0 301:255 302:255 303:255 304:255 305:0 306:0 307:0 308:0 309:0 310:255 311:255 312:255 313:0 314:0 315:0 316:255 317:255 318:255 319:255 320:0 321:0 322:0 323:0 324:255 325:255 326:255 327:255 328:0 329:0 330:0 331:255 332:255 333:255 334:255 335:0 336:0 337:0 338:0 339:255 340:255 341:255 342:255 343:0 344:0 345:0 346:255 347:255 348:255 349:255 350:0 351:0 352:0 353:0 354:255 355:255 356:255 357:0 358:0 359:0 360:0 361:255 362:255 363:255 364:255 365:0 366:0 367:0 368:0 369:255 370:255 371:255 372:0 373:0 374:0 375:0 376:0 377:255 378:255 379:255 380:255 381:255 382:255 383:255 384:255 385:255 386:255 387:0 388:0 389:0 390:0 391:0 392:255 393:255 394:255 395:255 396:255 397:255 398:255 399:255 400:255 401:0 402:0 403:0 404:0 405:0 406:0 407:0 408:255 409:255 410:255 411:255 412:255 413:255 414:255 415:0 416:0 417:0 418:0 419:0 420:0 421:0 422:0 423:0 424:255 425:255 426:255 427:255 428:255 429:0 430:0 431:0 432:0 433:0 434:0 435:0 436:0 437:0 438:0 439:0 440:0 441:0 442:0 443:0 444:0 445:0 446:0 447:0 448:0 449:0 450:0 
9.487171898348193e-016 1:0 2:0 3:0 4:0 5:0 6:0 7:0 8:0 9:0 10:0 11:0 12:0 13:0 14:0 15:0 16:0 17:0 18:0 19:0 20:0 21:255 22:255 23:255 24:255 25:0 26:0 27:0 28:0 29:0 30:0 31:0 32:0 33:0 34:255 35:255 36:255 37:255 38:255 39:255 40:255 41:0 42:0 43:0 44:0 45:0 46:0 47:0 48:255 49:255 50:255 51:255 52:255 53:255 54:255 55:255 56:255 57:0 58:0 59:0 60:0 61:0 62:0 63:255 64:255 65:255 66:255 67:255 68:255 69:255 70:255 71:255 72:0 73:0 74:0 75:0 76:0 77:255 78:255 79:255 80:255 81:0 82:0 83:0 84:255 85:255 86:255 87:255 88:0 89:0 90:0 91:0 92:255 93:255 94:255 95:0 96:0 97:0 98:0 99:0 100:255 101:255 102:255 103:0 104:0 105:0 106:0 107:255 108:255 109:255 110:0 111:0 112:0 113:0 114:0 115:255 116:255 117:255 118:0 119:0 120:0 121:0 122:255 123:255 124:255 125:0 126:0 127:0 128:0 129:0 130:255 131:255 132:255 133:0 134:0 135:0 136:0 137:255 138:255 139:255 140:0 141:0 142:0 143:0 144:0 145:255 146:255 147:255 148:0 149:0 150:0 151:0 152:255 153:255 154:255 155:0 156:0 157:0 158:0 159:0 160:255 161:255 162:255 163:0 164:0 165:0 166:0 167:255 168:255 169:255 170:0 171:0 172:0 173:0 174:0 175:255 176:255 177:255 178:0 179:0 180:0 181:0 182:255 183:255 184:255 185:0 186:0 187:0 188:0 189:0 190:255 191:255 192:255 193:0 194:0 195:0 196:0 197:255 198:255 199:255 200:0 201:0 202:0 203:0 204:0 205:255 206:255 207:255 208:0 209:0 210:0 211:255 212:255 213:255 214:255 215:0 216:0 217:0 218:0 219:0 220:255 221:255 222:255 223:0 224:0 225:0 226:255 227:255 228:255 229:255 230:0 231:0 232:0 233:0 234:0 235:255 236:255 237:255 238:0 239:0 240:0 241:0 242:255 243:255 244:255 245:0 246:0 247:0 248:0 249:0 250:255 251:255 252:255 253:0 254:0 255:0 256:255 257:255 258:255 259:0 260:0 261:0 262:0 263:0 264:0 265:255 266:255 267:255 268:0 269:0 270:0 271:255 272:255 273:255 274:0 275:0 276:0 277:0 278:0 279:0 280:255 281:255 282:0 283:0 284:0 285:0 286:255 287:255 288:255 289:0 290:0 291:0 292:0 293:0 294:0 295:255 296:255 297:0 298:0 299:0 300:0 301:255 302:255 303:255 304:0 305:0 306:0 307:0 308:0 309:255 310:255 311:255 312:0 313:0 314:0 315:0 316:255 317:255 318:255 319:0 320:0 321:0 322:0 323:0 324:255 325:255 326:255 327:0 328:0 329:0 330:0 331:255 332:255 333:255 334:0 335:0 336:0 337:0 338:0 339:255 340:255 341:255 342:0 343:0 344:0 345:0 346:255 347:255 348:255 349:255 350:0 351:0 352:0 353:0 354:255 355:255 356:255 357:0 358:0 359:0 360:0 361:0 362:255 363:255 364:255 365:255 366:0 367:255 368:255 369:255 370:255 371:0 372:0 373:0 374:0 375:0 376:0 377:0 378:255 379:255 380:255 381:255 382:255 383:255 384:255 385:0 386:0 387:0 388:0 389:0 390:0 391:0 392:0 393:255 394:255 395:255 396:255 397:255 398:255 399:255 400:0 401:0 402:0 403:0 404:0 405:0 406:0 407:0 408:0 409:0 410:255 411:255 412:255 413:0 414:0 415:0 416:0 417:0 418:0 419:0 420:0 421:0 422:0 423:0 424:0 425:0 426:0 427:0 428:0 429:0 430:0 431:0 432:0 433:0 434:0 435:0 436:0 437:0 438:0 439:0 440:0 441:0 442:0 443:0 444:0 445:0 446:0 447:0 448:0 449:0 450:0 
2.873912569711799e-016 1:0 2:0 3:0 4:0 5:0 6:0 7:0 8:0 9:0 10:0 11:0 12:0 13:0 14:0 15:0 16:0 17:0 18:0 19:0 20:0 21:0 22:0 23:0 24:255 25:255 26:255 27:0 28:0 29:0 30:0 31:0 32:0 33:0 34:0 35:0 36:255 37:255 38:255 39:255 40:255 41:255 42:255 43:255 44:0 45:0 46:0 47:0 48:0 49:0 50:255 51:255 52:255 53:255 54:255 55:255 56:255 57:255 58:255 59:255 60:0 61:0 62:0 63:0 64:255 65:255 66:255 67:255 68:255 69:255 70:255 71:255 72:255 73:255 74:255 75:255 76:0 77:0 78:0 79:255 80:255 81:255 82:0 83:0 84:0 85:0 86:0 87:255 88:255 89:255 90:255 91:0 92:0 93:255 94:255 95:255 96:255 97:0 98:0 99:0 100:0 101:0 102:0 103:255 104:255 105:255 106:0 107:0 108:255 109:255 110:255 111:0 112:0 113:0 114:0 115:0 116:0 117:0 118:255 119:255 120:255 121:0 122:0 123:255 124:255 125:255 126:0 127:0 128:0 129:0 130:0 131:0 132:0 133:255 134:255 135:255 136:0 137:255 138:255 139:255 140:0 141:0 142:0 143:0 144:0 145:0 146:0 147:0 148:255 149:255 150:255 151:0 152:255 153:255 154:255 155:0 156:0 157:0 158:0 159:0 160:0 161:0 162:0 163:255 164:255 165:255 166:0 167:255 168:255 169:255 170:0 171:0 172:0 173:0 174:0 175:0 176:0 177:0 178:255 179:255 180:255 181:0 182:255 183:255 184:255 185:0 186:0 187:0 188:0 189:0 190:0 191:0 192:255 193:255 194:255 195:0 196:0 197:255 198:255 199:255 200:0 201:0 202:0 203:0 204:0 205:0 206:0 207:255 208:255 209:255 210:0 211:0 212:255 213:255 214:255 215:0 216:0 217:0 218:0 219:0 220:0 221:0 222:255 223:255 224:255 225:0 226:0 227:255 228:255 229:255 230:0 231:0 232:0 233:0 234:0 235:0 236:0 237:255 238:255 239:255 240:0 241:0 242:255 243:255 244:255 245:0 246:0 247:0 248:0 249:0 250:0 251:0 252:255 253:255 254:255 255:0 256:0 257:255 258:255 259:255 260:0 261:0 262:0 263:0 264:0 265:0 266:0 267:255 268:255 269:255 270:0 271:255 272:255 273:255 274:255 275:0 276:0 277:0 278:0 279:0 280:0 281:0 282:255 283:255 284:255 285:0 286:255 287:255 288:255 289:0 290:0 291:0 292:0 293:0 294:0 295:0 296:0 297:255 298:255 299:255 300:0 301:255 302:255 303:255 304:0 305:0 306:0 307:0 308:0 309:0 310:0 311:255 312:255 313:255 314:0 315:0 316:255 317:255 318:255 319:0 320:0 321:0 322:0 323:0 324:0 325:0 326:255 327:255 328:255 329:0 330:0 331:255 332:255 333:255 334:0 335:0 336:0 337:0 338:0 339:0 340:0 341:255 342:255 343:255 344:0 345:0 346:255 347:255 348:255 349:0 350:0 351:0 352:0 353:0 354:0 355:0 356:255 357:255 358:255 359:0 360:0 361:255 362:255 363:255 364:255 365:0 366:0 367:0 368:0 369:0 370:255 371:255 372:255 373:255 374:0 375:0 376:255 377:255 378:255 379:255 380:255 381:0 382:0 383:0 384:255 385:255 386:255 387:255 388:0 389:0 390:0 391:0 392:255 393:255 394:255 395:255 396:255 397:255 398:255 399:255 400:255 401:255 402:0 403:0 404:0 405:0 406:0 407:0 408:255 409:255 410:255 411:255 412:255 413:255 414:255 415:255 416:0 417:0 418:0 419:0 420:0 421:0 422:0 423:0 424:255 425:255 426:255 427:255 428:255 429:255 430:0 431:0 432:0 433:0 434:0 435:0 436:0 437:0 438:0 439:0 440:0 441:0 442:0 443:0 444:0 445:0 446:0 447:0 448:0 449:0 450:0 
2.744841955456567e-016 1:0 2:0 3:0 4:0 5:0 6:0 7:0 8:0 9:0 10:0 11:0 12:0 13:0 14:0 15:0 16:0 17:0 18:0 19:0 20:0 21:255 22:255 23:255 24:255 25:255 26:255 27:255 28:0 29:0 30:0 31:0 32:0 33:0 34:255 35:255 36:255 37:255 38:255 39:255 40:255 41:255 42:255 43:255 44:0 45:0 46:0 47:0 48:255 49:255 50:255 51:255 52:255 53:255 54:255 55:255 56:255 57:255 58:255 59:255 60:0 61:0 62:0 63:255 64:255 65:255 66:255 67:255 68:0 69:0 70:255 71:255 72:255 73:255 74:255 75:0 76:0 77:255 78:255 79:255 80:255 81:255 82:0 83:0 84:0 85:0 86:255 87:255 88:255 89:255 90:255 91:0 92:255 93:255 94:255 95:255 96:0 97:0 98:0 99:0 100:0 101:0 102:255 103:255 104:255 105:255 106:0 107:255 108:255 109:255 110:255 111:0 112:0 113:0 114:0 115:0 116:0 117:255 118:255 119:255 120:255 121:0 122:255 123:255 124:255 125:255 126:0 127:0 128:0 129:0 130:0 131:0 132:255 133:255 134:255 135:255 136:0 137:255 138:255 139:255 140:255 141:0 142:0 143:0 144:0 145:0 146:0 147:255 148:255 149:255 150:255 151:0 152:255 153:255 154:255 155:255 156:0 157:0 158:0 159:0 160:0 161:0 162:255 163:255 164:255 165:255 166:0 167:255 168:255 169:255 170:255 171:0 172:0 173:0 174:0 175:0 176:0 177:255 178:255 179:255 180:255 181:0 182:255 183:255 184:255 185:255 186:0 187:0 188:0 189:0 190:0 191:0 192:255 193:255 194:255 195:255 196:0 197:255 198:255 199:255 200:255 201:0 202:0 203:0 204:0 205:0 206:0 207:255 208:255 209:255 210:255 211:0 212:255 213:255 214:255 215:255 216:0 217:0 218:0 219:0 220:0 221:0 222:255 223:255 224:255 225:255 226:0 227:255 228:255 229:255 230:255 231:0 232:0 233:0 234:0 235:0 236:0 237:255 238:255 239:255 240:255 241:0 242:255 243:255 244:255 245:255 246:0 247:0 248:0 249:0 250:0 251:0 252:255 253:255 254:255 255:255 256:0 257:255 258:255 259:255 260:255 261:0 262:0 263:0 264:0 265:0 266:0 267:255 268:255 269:255 270:255 271:0 272:255 273:255 274:255 275:255 276:0 277:0 278:0 279:0 280:0 281:0 282:255 283:255 284:255 285:255 286:255 287:255 288:255 289:255 290:255 291:0 292:0 293:0 294:0 295:0 296:0 297:255 298:255 299:255 300:255 301:255 302:255 303:255 304:255 305:255 306:0 307:0 308:0 309:0 310:0 311:0 312:255 313:255 314:255 315:255 316:255 317:255 318:255 319:255 320:255 321:0 322:0 323:0 324:0 325:0 326:255 327:255 328:255 329:255 330:0 331:255 332:255 333:255 334:255 335:255 336:0 337:0 338:0 339:0 340:0 341:255 342:255 343:255 344:255 345:0 346:0 347:255 348:255 349:255 350:255 351:255 352:0 353:0 354:0 355:255 356:255 357:255 358:255 359:255 360:0 361:0 362:255 363:255 364:255 365:255 366:255 367:255 368:255 369:255 370:255 371:255 372:255 373:255 374:0 375:0 376:0 377:0 378:255 379:255 380:255 381:255 382:255 383:255 384:255 385:255 386:255 387:255 388:255 389:0 390:0 391:0 392:0 393:0 394:255 395:255 396:255 397:255 398:255 399:255 400:255 401:255 402:0 403:0 404:0 405:0 406:0 407:0 408:0 409:0 410:0 411:0 412:255 413:255 414:255 415:0 416:0 417:0 418:0 419:0 420:0 421:0 422:0 423:0 424:0 425:0 426:0 427:0 428:0 429:0 430:0 431:0 432:0 433:0 434:0 435:0 436:0 437:0 438:0 439:0 440:0 441:0 442:0 443:0 444:0 445:0 446:0 447:0 448:0 449:0 450:0 
1.485468943584033e-015 1:0 2:0 3:0 4:0 5:0 6:0 7:0 8:0 9:0 10:0 11:0 12:0 13:0 14:0 15:0 16:0 17:0 18:0 19:0 20:0 21:0 22:0 23:255 24:255 25:255 26:255 27:0 28:0 29:0 30:0 31:0 32:0 33:0 34:0 35:0 36:255 37:255 38:255 39:255 40:255 41:255 42:255 43:255 44:0 45:0 46:0 47:0 48:0 49:0 50:255 51:255 52:255 53:255 54:255 55:255 56:255 57:255 58:255 59:255 60:0 61:0 62:0 63:0 64:255 65:255 66:255 67:255 68:255 69:255 70:255 71:255 72:255 73:255 74:255 75:0 76:0 77:0 78:0 79:255 80:255 81:255 82:0 83:0 84:0 85:0 86:0 87:255 88:255 89:255 90:0 91:0 92:0 93:255 94:255 95:255 96:0 97:0 98:0 99:0 100:0 101:0 102:0 103:255 104:255 105:255 106:0 107:0 108:255 109:255 110:255 111:0 112:0 113:0 114:0 115:0 116:0 117:0 118:255 119:255 120:255 121:0 122:0 123:255 124:255 125:255 126:0 127:0 128:0 129:0 130:0 131:0 132:0 133:255 134:255 135:0 136:0 137:0 138:255 139:255 140:255 141:0 142:0 143:0 144:0 145:0 146:0 147:0 148:255 149:255 150:0 151:0 152:0 153:255 154:255 155:0 156:0 157:0 158:0 159:0 160:0 161:0 162:255 163:255 164:255 165:0 166:0 167:255 168:255 169:255 170:0 171:0 172:0 173:0 174:0 175:0 176:0 177:255 178:255 179:255 180:0 181:0 182:255 183:255 184:255 185:0 186:0 187:0 188:0 189:0 190:0 191:0 192:255 193:255 194:255 195:0 196:0 197:255 198:255 199:255 200:0 201:0 202:0 203:0 204:0 205:0 206:0 207:255 208:255 209:255 210:0 211:0 212:255 213:255 214:255 215:0 216:0 217:0 218:0 219:0 220:0 221:0 222:255 223:255 224:255 225:0 226:0 227:255 228:255 229:255 230:0 231:0 232:0 233:0 234:0 235:0 236:0 237:255 238:255 239:255 240:0 241:0 242:255 243:255 244:255 245:0 246:0 247:0 248:0 249:0 250:0 251:0 252:255 253:255 254:255 255:0 256:0 257:255 258:255 259:255 260:0 261:0 262:0 263:0 264:0 265:0 266:0 267:255 268:255 269:255 270:0 271:0 272:255 273:255 274:255 275:0 276:0 277:0 278:0 279:0 280:0 281:0 282:255 283:255 284:255 285:0 286:0 287:255 288:255 289:0 290:0 291:0 292:0 293:0 294:0 295:0 296:0 297:255 298:255 299:255 300:0 301:255 302:255 303:255 304:0 305:0 306:0 307:0 308:0 309:0 310:0 311:255 312:255 313:255 314:0 315:0 316:255 317:255 318:255 319:0 320:0 321:0 322:0 323:0 324:0 325:0 326:255 327:255 328:255 329:0 330:0 331:255 332:255 333:255 334:0 335:0 336:0 337:0 338:0 339:0 340:0 341:255 342:255 343:255 344:0 345:0 346:255 347:255 348:255 349:0 350:0 351:0 352:0 353:0 354:0 355:255 356:255 357:255 358:255 359:0 360:0 361:255 362:255 363:255 364:255 365:0 366:0 367:0 368:0 369:255 370:255 371:255 372:255 373:255 374:0 375:0 376:0 377:255 378:255 379:255 380:255 381:255 382:255 383:255 384:255 385:255 386:255 387:255 388:0 389:0 390:0 391:0 392:255 393:255 394:255 395:255 396:255 397:255 398:255 399:255 400:255 401:255 402:0 403:0 404:0 405:0 406:0 407:0 408:255 409:255 410:255 411:255 412:255 413:255 414:255 415:255 416:0 417:0 418:0 419:0 420:0 421:0 422:0 423:0 424:0 425:255 426:255 427:255 428:255 429:0 430:0 431:0 432:0 433:0 434:0 435:0 436:0 437:0 438:0 439:0 440:0 441:0 442:0 443:0 444:0 445:0 446:0 447:0 448:0 449:0 450:0 
1.131188941861789e-015 1:0 2:0 3:0 4:0 5:0 6:0 7:0 8:0 9:0 10:0 11:0 12:0 13:0 14:0 15:0 16:0 17:0 18:0 19:0 20:0 21:0 22:0 23:0 24:0 25:0 26:0 27:0 28:0 29:0 30:0 31:0 32:0 33:0 34:0 35:0 36:0 37:255 38:255 39:255 40:255 41:255 42:0 43:0 44:0 45:0 46:0 47:0 48:0 49:0 50:255 51:255 52:255 53:255 54:255 55:255 56:255 57:255 58:0 59:0 60:0 61:0 62:0 63:0 64:255 65:255 66:255 67:255 68:255 69:255 70:255 71:255 72:255 73:255 74:0 75:0 76:0 77:0 78:0 79:255 80:255 81:255 82:255 83:0 84:0 85:0 86:255 87:255 88:255 89:255 90:0 91:0 92:0 93:255 94:255 95:255 96:0 97:0 98:0 99:0 100:0 101:0 102:255 103:255 104:255 105:0 106:0 107:0 108:255 109:255 110:255 111:0 112:0 113:0 114:0 115:0 116:0 117:255 118:255 119:255 120:0 121:0 122:0 123:255 124:255 125:0 126:0 127:0 128:0 129:0 130:0 131:0 132:0 133:255 134:255 135:0 136:0 137:255 138:255 139:255 140:0 141:0 142:0 143:0 144:0 145:0 146:0 147:0 148:255 149:255 150:0 151:0 152:255 153:255 154:255 155:0 156:0 157:0 158:0 159:0 160:0 161:0 162:0 163:255 164:255 165:0 166:0 167:255 168:255 169:255 170:0 171:0 172:0 173:0 174:0 175:0 176:0 177:255 178:255 179:255 180:0 181:0 182:255 183:255 184:255 185:0 186:0 187:0 188:0 189:0 190:0 191:0 192:255 193:255 194:255 195:0 196:0 197:255 198:255 199:255 200:0 201:0 202:0 203:0 204:0 205:0 206:0 207:255 208:255 209:255 210:0 211:0 212:255 213:255 214:255 215:0 216:0 217:0 218:0 219:0 220:0 221:0 222:255 223:255 224:255 225:0 226:0 227:255 228:255 229:255 230:0 231:0 232:0 233:0 234:0 235:0 236:0 237:255 238:255 239:255 240:0 241:0 242:255 243:255 244:255 245:0 246:0 247:0 248:0 249:0 250:0 251:0 252:255 253:255 254:255 255:0 256:0 257:255 258:255 259:255 260:0 261:0 262:0 263:0 264:0 265:0 266:0 267:255 268:255 269:255 270:0 271:0 272:255 273:255 274:255 275:0 276:0 277:0 278:0 279:0 280:0 281:0 282:255 283:255 284:255 285:0 286:0 287:255 288:255 289:255 290:0 291:0 292:0 293:0 294:0 295:0 296:0 297:255 298:255 299:255 300:0 301:0 302:255 303:255 304:255 305:0 306:0 307:0 308:0 309:0 310:0 311:0 312:255 313:255 314:255 315:0 316:0 317:255 318:255 319:255 320:0 321:0 322:0 323:0 324:0 325:0 326:0 327:255 328:255 329:255 330:0 331:0 332:255 333:255 334:255 335:0 336:0 337:0 338:0 339:0 340:0 341:0 342:255 343:255 344:255 345:0 346:0 347:255 348:255 349:255 350:0 351:0 352:0 353:0 354:0 355:0 356:255 357:255 358:255 359:255 360:0 361:0 362:255 363:255 364:255 365:255 366:0 367:0 368:0 369:0 370:255 371:255 372:255 373:255 374:0 375:0 376:0 377:255 378:255 379:255 380:255 381:255 382:255 383:255 384:255 385:255 386:255 387:255 388:255 389:0 390:0 391:0 392:0 393:255 394:255 395:255 396:255 397:255 398:255 399:255 400:255 401:255 402:255 403:0 404:0 405:0 406:0 407:0 408:0 409:255 410:255 411:255 412:255 413:255 414:255 415:255 416:255 417:0 418:0 419:0 420:0 421:0 422:0 423:0 424:0 425:0 426:255 427:255 428:255 429:0 430:0 431:0 432:0 433:0 434:0 435:0 436:0 437:0 438:0 439:0 440:0 441:0 442:0 443:0 444:0 445:0 446:0 447:0 448:0 449:0 450:0 
1.204383307335097e-015 1:0 2:0 3:0 4:0 5:0 6:0 7:0 8:0 9:0 10:0 11:0 12:0 13:0 14:0 15:0 16:0 17:0 18:0 19:0 20:0 21:0 22:0 23:255 24:255 25:0 26:0 27:0 28:0 29:0 30:0 31:0 32:0 33:0 34:0 35:255 36:255 37:255 38:255 39:255 40:255 41:255 42:0 43:0 44:0 45:0 46:0 47:0 48:0 49:255 50:255 51:255 52:255 53:255 54:255 55:255 56:255 57:255 58:0 59:0 60:0 61:0 62:0 63:255 64:255 65:255 66:255 67:255 68:255 69:255 70:255 71:255 72:255 73:255 74:0 75:0 76:0 77:0 78:255 79:255 80:255 81:255 82:0 83:0 84:0 85:255 86:255 87:255 88:255 89:255 90:0 91:0 92:255 93:255 94:255 95:255 96:0 97:0 98:0 99:0 100:0 101:255 102:255 103:255 104:255 105:0 106:0 107:255 108:255 109:255 110:255 111:0 112:0 113:0 114:0 115:0 116:255 117:255 118:255 119:255 120:0 121:0 122:255 123:255 124:255 125:0 126:0 127:0 128:0 129:0 130:0 131:0 132:255 133:255 134:255 135:0 136:0 137:255 138:255 139:255 140:0 141:0 142:0 143:0 144:0 145:0 146:0 147:255 148:255 149:255 150:0 151:0 152:255 153:255 154:255 155:0 156:0 157:0 158:0 159:0 160:0 161:0 162:255 163:255 164:255 165:0 166:0 167:255 168:255 169:255 170:0 171:0 172:0 173:0 174:0 175:0 176:0 177:255 178:255 179:255 180:0 181:0 182:255 183:255 184:255 185:0 186:0 187:0 188:0 189:0 190:0 191:0 192:255 193:255 194:255 195:0 196:0 197:255 198:255 199:255 200:0 201:0 202:0 203:0 204:0 205:0 206:0 207:255 208:255 209:255 210:0 211:0 212:255 213:255 214:255 215:0 216:0 217:0 218:0 219:0 220:0 221:0 222:255 223:255 224:255 225:0 226:0 227:255 228:255 229:255 230:0 231:0 232:0 233:0 234:0 235:0 236:0 237:255 238:255 239:255 240:0 241:0 242:255 243:255 244:255 245:0 246:0 247:0 248:0 249:0 250:0 251:0 252:255 253:255 254:255 255:0 256:255 257:255 258:255 259:255 260:0 261:0 262:0 263:0 264:0 265:0 266:255 267:255 268:255 269:255 270:0 271:255 272:255 273:255 274:255 275:0 276:0 277:0 278:0 279:0 280:0 281:255 282:255 283:255 284:255 285:0 286:255 287:255 288:255 289:255 290:0 291:0 292:0 293:0 294:0 295:0 296:255 297:255 298:255 299:255 300:0 301:255 302:255 303:255 304:255 305:0 306:0 307:0 308:0 309:0 310:0 311:255 312:255 313:255 314:255 315:0 316:255 317:255 318:255 319:255 320:0 321:0 322:0 323:0 324:0 325:0 326:255 327:255 328:255 329:255 330:0 331:255 332:255 333:255 334:255 335:0 336:0 337:0 338:0 339:0 340:0 341:255 342:255 343:255 344:255 345:0 346:255 347:255 348:255 349:255 350:0 351:0 352:0 353:0 354:0 355:0 356:255 357:255 358:255 359:255 360:0 361:0 362:255 363:255 364:255 365:0 366:0 367:0 368:0 369:0 370:0 371:255 372:255 373:255 374:0 375:0 376:0 377:255 378:255 379:255 380:255 381:0 382:0 383:0 384:0 385:255 386:255 387:255 388:255 389:0 390:0 391:0 392:0 393:255 394:255 395:255 396:255 397:255 398:255 399:255 400:255 401:255 402:255 403:0 404:0 405:0 406:0 407:0 408:255 409:255 410:255 411:255 412:255 413:255 414:255 415:255 416:255 417:255 418:0 419:0 420:0 421:0 422:0 423:0 424:255 425:255 426:255 427:255 428:255 429:255 430:255 431:255 432:0 433:0 434:0 435:0 436:0 437:0 438:0 439:0 440:0 441:255 442:255 443:255 444:255 445:0 446:0 447:0 448:0 449:0 450:0 
2.711189389185847e-016 1:0 2:0 3:255 4:255 5:255 6:255 7:255 8:0 9:0 10:0 11:0 12:0 13:0 14:0 15:0 16:0 17:0 18:255 19:255 20:255 21:255 22:255 23:0 24:0 25:0 26:0 27:0 28:0 29:0 30:0 31:0 32:255 33:255 34:255 35:255 36:255 37:255 38:0 39:0 40:0 41:0 42:0 43:0 44:0 45:0 46:0 47:0 48:255 49:255 50:255 51:255 52:255 53:255 54:0 55:0 56:0 57:0 58:0 59:0 60:0 61:0 62:0 63:0 64:255 65:255 66:255 67:255 68:255 69:255 70:255 71:255 72:0 73:0 74:0 75:0 76:0 77:0 78:255 79:255 80:255 81:255 82:255 83:255 84:255 85:255 86:255 87:255 88:255 89:0 90:0 91:0 92:0 93:255 94:255 95:255 96:255 97:255 98:255 99:255 100:255 101:255 102:255 103:255 104:255 105:0 106:0 107:255 108:255 109:255 110:255 111:255 112:0 113:0 114:0 115:0 116:255 117:255 118:255 119:255 120:0 121:0 122:255 123:255 124:255 125:255 126:0 127:0 128:0 129:0 130:0 131:0 132:255 133:255 134:255 135:255 136:0 137:255 138:255 139:255 140:0 141:0 142:0 143:0 144:0 145:0 146:0 147:255 148:255 149:255 150:255 151:0 152:255 153:255 154:255 155:0 156:0 157:0 158:0 159:0 160:0 161:0 162:255 163:255 164:255 165:255 166:0 167:255 168:255 169:255 170:0 171:0 172:0 173:0 174:0 175:0 176:0 177:255 178:255 179:255 180:255 181:0 182:255 183:255 184:255 185:0 186:0 187:0 188:0 189:0 190:0 191:0 192:255 193:255 194:255 195:255 196:0 197:255 198:255 199:255 200:0 201:0 202:0 203:0 204:0 205:0 206:0 207:255 208:255 209:255 210:255 211:255 212:255 213:255 214:255 215:0 216:0 217:0 218:0 219:0 220:0 221:0 222:255 223:255 224:255 225:255 226:255 227:255 228:255 229:255 230:0 231:0 232:0 233:0 234:0 235:0 236:0 237:255 238:255 239:255 240:255 241:255 242:255 243:255 244:255 245:0 246:0 247:0 248:0 249:0 250:0 251:0 252:255 253:255 254:255 255:255 256:255 257:255 258:255 259:255 260:0 261:0 262:0 263:0 264:0 265:0 266:0 267:255 268:255 269:255 270:255 271:255 272:255 273:255 274:255 275:0 276:0 277:0 278:0 279:0 280:0 281:0 282:255 283:255 284:255 285:255 286:255 287:255 288:255 289:255 290:0 291:0 292:0 293:0 294:0 295:0 296:0 297:255 298:255 299:255 300:255 301:255 302:255 303:255 304:255 305:0 306:0 307:0 308:0 309:0 310:0 311:0 312:255 313:255 314:255 315:255 316:255 317:255 318:255 319:255 320:0 321:0 322:0 323:0 324:0 325:0 326:0 327:255 328:255 329:255 330:255 331:255 332:255 333:255 334:255 335:0 336:0 337:0 338:0 339:0 340:0 341:0 342:255 343:255 344:255 345:255 346:255 347:255 348:255 349:255 350:0 351:0 352:0 353:0 354:0 355:0 356:0 357:255 358:255 359:255 360:255 361:0 362:255 363:255 364:255 365:255 366:255 367:0 368:0 369:0 370:255 371:255 372:255 373:255 374:255 375:0 376:0 377:255 378:255 379:255 380:255 381:255 382:255 383:255 384:255 385:255 386:255 387:255 388:255 389:255 390:0 391:0 392:0 393:255 394:255 395:255 396:255 397:255 398:255 399:255 400:255 401:255 402:255 403:255 404:0 405:0 406:0 407:0 408:0 409:255 410:255 411:255 412:255 413:255 414:255 415:255 416:255 417:0 418:0 419:0 420:0 421:0 422:0 423:0 424:0 425:0 426:0 427:255 428:255 429:255 430:0 431:0 432:0 433:0 434:0 435:0 436:0 437:0 438:0 439:0 440:0 441:0 442:0 443:0 444:0 445:0 446:0 447:0 448:0 449:0 450:0 
7.289334325121515e-016 1:0 2:0 3:0 4:0 5:0 6:0 7:0 8:0 9:0 10:0 11:0 12:0 13:0 14:0 15:0 16:0 17:0 18:0 19:0 20:0 21:0 22:0 23:0 24:0 25:0 26:0 27:0 28:0 29:0 30:0 31:0 32:0 33:0 34:0 35:0 36:255 37:255 38:255 39:255 40:255 41:255 42:0 43:0 44:0 45:0 46:0 47:0 48:0 49:255 50:255 51:255 52:255 53:255 54:255 55:255 56:255 57:255 58:0 59:0 60:0 61:0 62:0 63:255 64:255 65:255 66:255 67:255 68:255 69:255 70:255 71:255 72:255 73:255 74:0 75:0 76:0 77:255 78:255 79:255 80:255 81:255 82:255 83:0 84:0 85:255 86:255 87:255 88:255 89:255 90:0 91:0 92:255 93:255 94:255 95:255 96:0 97:0 98:0 99:0 100:0 101:255 102:255 103:255 104:255 105:0 106:0 107:255 108:255 109:255 110:0 111:0 112:0 113:0 114:0 115:0 116:0 117:255 118:255 119:255 120:0 121:0 122:255 123:255 124:255 125:0 126:0 127:0 128:0 129:0 130:0 131:0 132:255 133:255 134:255 135:0 136:0 137:255 138:255 139:255 140:0 141:0 142:0 143:0 144:0 145:0 146:0 147:255 148:255 149:255 150:0 151:0 152:255 153:255 154:255 155:0 156:0 157:0 158:0 159:0 160:0 161:0 162:255 163:255 164:255 165:0 166:0 167:255 168:255 169:255 170:0 171:0 172:0 173:0 174:0 175:0 176:0 177:255 178:255 179:255 180:0 181:0 182:255 183:255 184:255 185:0 186:0 187:0 188:0 189:0 190:0 191:0 192:255 193:255 194:255 195:0 196:0 197:255 198:255 199:255 200:0 201:0 202:0 203:0 204:0 205:0 206:0 207:255 208:255 209:255 210:0 211:0 212:255 213:255 214:255 215:0 216:0 217:0 218:0 219:0 220:0 221:0 222:255 223:255 224:255 225:0 226:0 227:255 228:255 229:255 230:0 231:0 232:0 233:0 234:0 235:0 236:0 237:255 238:255 239:255 240:0 241:0 242:255 243:255 244:255 245:0 246:0 247:0 248:0 249:0 250:0 251:0 252:255 253:255 254:255 255:0 256:0 257:255 258:255 259:255 260:0 261:0 262:0 263:0 264:0 265:0 266:0 267:255 268:255 269:255 270:0 271:0 272:255 273:255 274:255 275:0 276:0 277:0 278:0 279:0 280:0 281:0 282:255 283:255 284:255 285:0 286:0 287:255 288:255 289:255 290:0 291:0 292:0 293:0 294:0 295:0 296:0 297:0 298:255 299:0 300:0 301:255 302:255 303:255 304:255 305:0 306:0 307:0 308:0 309:0 310:0 311:0 312:0 313:0 314:0 315:0 316:0 317:255 318:255 319:255 320:0 321:0 322:0 323:0 324:0 325:0 326:0 327:0 328:0 329:0 330:0 331:0 332:255 333:255 334:255 335:0 336:0 337:0 338:0 339:0 340:0 341:0 342:0 343:0 344:0 345:0 346:0 347:255 348:255 349:255 350:0 351:0 352:0 353:0 354:0 355:0 356:0 357:0 358:0 359:0 360:0 361:0 362:0 363:255 364:255 365:255 366:0 367:0 368:0 369:0 370:255 371:0 372:0 373:0 374:0 375:0 376:0 377:0 378:255 379:255 380:255 381:255 382:255 383:255 384:255 385:255 386:0 387:0 388:0 389:0 390:0 391:0 392:0 393:0 394:255 395:255 396:255 397:255 398:255 399:255 400:255 401:0 402:0 403:0 404:0 405:0 406:0 407:0 408:0 409:0 410:0 411:255 412:255 413:255 414:0 415:0 416:0 417:0 418:0 419:0 420:0 421:0 422:0 423:0 424:0 425:0 426:0 427:0 428:0 429:0 430:0 431:0 432:0 433:0 434:0 435:0 436:0 437:0 438:0 439:0 440:0 441:0 442:0 443:0 444:0 445:0 446:0 447:0 448:0 449:0 450:0 
1.668038564650226e-015 1:0 2:0 3:0 4:0 5:0 6:0 7:0 8:0 9:0 10:0 11:0 12:0 13:0 14:0 15:0 16:0 17:0 18:0 19:0 20:0 21:0 22:0 23:0 24:0 25:0 26:0 27:0 28:0 29:0 30:0 31:0 32:0 33:0 34:0 35:0 36:0 37:0 38:255 39:255 40:255 41:0 42:0 43:0 44:0 45:0 46:0 47:0 48:0 49:0 50:255 51:255 52:255 53:255 54:255 55:255 56:255 57:255 58:255 59:0 60:0 61:0 62:0 63:0 64:255 65:255 66:255 67:255 68:255 69:255 70:255 71:255 72:255 73:255 74:255 75:0 76:0 77:0 78:255 79:255 80:255 81:255 82:255 83:255 84:255 85:255 86:255 87:255 88:255 89:255 90:255 91:0 92:0 93:255 94:255 95:255 96:255 97:0 98:0 99:0 100:0 101:0 102:255 103:255 104:255 105:255 106:0 107:255 108:255 109:255 110:255 111:0 112:0 113:0 114:0 115:0 116:0 117:0 118:255 119:255 120:255 121:0 122:255 123:255 124:255 125:0 126:0 127:0 128:0 129:0 130:0 131:0 132:0 133:255 134:255 135:255 136:0 137:255 138:255 139:255 140:0 141:0 142:0 143:0 144:0 145:0 146:0 147:0 148:255 149:255 150:255 151:0 152:255 153:255 154:255 155:0 156:0 157:0 158:0 159:0 160:0 161:0 162:0 163:255 164:255 165:255 166:0 167:255 168:255 169:255 170:0 171:0 172:0 173:0 174:0 175:0 176:0 177:0 178:255 179:255 180:255 181:0 182:255 183:255 184:255 185:0 186:0 187:0 188:0 189:0 190:0 191:0 192:0 193:255 194:255 195:255 196:0 197:255 198:255 199:255 200:0 201:0 202:0 203:0 204:0 205:0 206:0 207:0 208:255 209:255 210:255 211:0 212:255 213:255 214:255 215:0 216:0 217:0 218:0 219:0 220:0 221:0 222:0 223:255 224:255 225:255 226:255 227:255 228:255 229:255 230:0 231:0 232:0 233:0 234:0 235:0 236:0 237:0 238:255 239:255 240:255 241:255 242:255 243:255 244:255 245:0 246:0 247:0 248:0 249:0 250:0 251:0 252:255 253:255 254:255 255:255 256:255 257:255 258:255 259:255 260:0 261:0 262:0 263:0 264:0 265:0 266:0 267:255 268:255 269:255 270:255 271:255 272:255 273:255 274:0 275:0 276:0 277:0 278:0 279:0 280:0 281:0 282:255 283:255 284:255 285:255 286:255 287:255 288:255 289:0 290:0 291:0 292:0 293:0 294:0 295:0 296:0 297:255 298:255 299:255 300:255 301:255 302:255 303:255 304:0 305:0 306:0 307:0 308:0 309:0 310:0 311:0 312:255 313:255 314:255 315:0 316:255 317:255 318:255 319:0 320:0 321:0 322:0 323:0 324:0 325:0 326:0 327:255 328:255 329:255 330:0 331:255 332:255 333:255 334:0 335:0 336:0 337:0 338:0 339:0 340:0 341:0 342:255 343:255 344:255 345:0 346:255 347:255 348:255 349:255 350:0 351:0 352:0 353:0 354:0 355:0 356:255 357:255 358:255 359:255 360:0 361:255 362:255 363:255 364:255 365:0 366:0 367:0 368:0 369:0 370:0 371:255 372:255 373:255 374:255 375:0 376:255 377:255 378:255 379:255 380:255 381:0 382:0 383:0 384:255 385:255 386:255 387:255 388:255 389:0 390:0 391:0 392:255 393:255 394:255 395:255 396:255 397:255 398:255 399:255 400:255 401:255 402:255 403:0 404:0 405:0 406:0 407:255 408:255 409:255 410:255 411:255 412:255 413:255 414:255 415:255 416:255 417:0 418:0 419:0 420:0 421:0 422:0 423:0 424:255 425:255 426:255 427:255 428:255 429:255 430:255 431:0 432:0 433:0 434:0 435:0 436:0 437:0 438:0 439:0 440:0 441:0 442:0 443:0 444:0 445:0 446:0 447:0 448:0 449:0 450:0 
1.771622876195123e-016 1:0 2:0 3:0 4:0 5:0 6:0 7:0 8:0 9:0 10:0 11:0 12:0 13:0 14:0 15:0 16:0 17:0 18:0 19:0 20:0 21:0 22:0 23:0 24:0 25:0 26:0 27:0 28:0 29:0 30:0 31:0 32:0 33:0 34:0 35:0 36:255 37:255 38:255 39:255 40:255 41:255 42:0 43:0 44:0 45:0 46:0 47:0 48:0 49:0 50:255 51:255 52:255 53:255 54:255 55:255 56:255 57:255 58:255 59:0 60:0 61:0 62:0 63:255 64:255 65:255 66:255 67:255 68:255 69:255 70:255 71:255 72:255 73:255 74:255 75:0 76:0 77:0 78:255 79:255 80:255 81:255 82:255 83:0 84:0 85:0 86:255 87:255 88:255 89:255 90:0 91:0 92:255 93:255 94:255 95:255 96:0 97:0 98:0 99:0 100:0 101:0 102:255 103:255 104:255 105:0 106:0 107:255 108:255 109:255 110:255 111:0 112:0 113:0 114:0 115:0 116:0 117:255 118:255 119:255 120:0 121:0 122:255 123:255 124:255 125:255 126:0 127:0 128:0 129:0 130:0 131:0 132:255 133:255 134:255 135:0 136:0 137:255 138:255 139:255 140:255 141:0 142:0 143:0 144:0 145:0 146:0 147:255 148:255 149:255 150:0 151:0 152:255 153:255 154:255 155:0 156:0 157:0 158:0 159:0 160:0 161:0 162:255 163:255 164:255 165:0 166:0 167:255 168:255 169:255 170:0 171:0 172:0 173:0 174:0 175:0 176:0 177:255 178:255 179:255 180:0 181:0 182:255 183:255 184:255 185:0 186:0 187:0 188:0 189:0 190:0 191:0 192:255 193:255 194:255 195:0 196:0 197:255 198:255 199:255 200:0 201:0 202:0 203:0 204:0 205:0 206:0 207:255 208:255 209:255 210:0 211:0 212:255 213:255 214:255 215:0 216:0 217:0 218:0 219:0 220:0 221:0 222:255 223:255 224:255 225:0 226:0 227:255 228:255 229:255 230:0 231:0 232:0 233:0 234:0 235:0 236:0 237:255 238:255 239:255 240:0 241:0 242:255 243:255 244:255 245:0 246:0 247:0 248:0 249:0 250:0 251:0 252:255 253:255 254:255 255:0 256:0 257:255 258:255 259:255 260:0 261:0 262:0 263:0 264:0 265:0 266:0 267:255 268:255 269:255 270:0 271:0 272:255 273:255 274:255 275:0 276:0 277:0 278:0 279:0 280:0 281:0 282:255 283:255 284:255 285:0 286:255 287:255 288:255 289:255 290:0 291:0 292:0 293:0 294:0 295:0 296:0 297:255 298:255 299:255 300:0 301:0 302:255 303:255 304:255 305:0 306:0 307:0 308:0 309:0 310:0 311:0 312:255 313:255 314:255 315:0 316:0 317:255 318:255 319:255 320:0 321:0 322:0 323:0 324:0 325:0 326:255 327:255 328:255 329:255 330:0 331:0 332:255 333:255 334:255 335:0 336:0 337:0 338:0 339:0 340:0 341:255 342:255 343:255 344:0 345:0 346:0 347:255 348:255 349:255 350:255 351:0 352:0 353:0 354:0 355:255 356:255 357:255 358:255 359:0 360:0 361:0 362:255 363:255 364:255 365:255 366:255 367:255 368:255 369:255 370:255 371:255 372:255 373:0 374:0 375:0 376:0 377:0 378:255 379:255 380:255 381:255 382:255 383:255 384:255 385:255 386:255 387:0 388:0 389:0 390:0 391:0 392:0 393:0 394:255 395:255 396:255 397:255 398:255 399:255 400:255 401:0 402:0 403:0 404:0 405:0 406:0 407:0 408:0 409:0 410:0 411:0 412:0 413:0 414:0 415:0 416:0 417:0 418:0 419:0 420:0 421:0 422:0 423:0 424:0 425:0 426:0 427:0 428:0 429:0 430:0 431:0 432:0 433:0 434:0 435:0 436:0 437:0 438:0 439:0 440:0 441:0 442:0 443:0 444:0 445:0 446:0 447:0 448:0 449:0 450:0 
9.195980057895415e-016 1:0 2:0 3:0 4:0 5:0 6:0 7:0 8:0 9:0 10:0 11:0 12:0 13:0 14:0 15:0 16:0 17:0 18:0 19:0 20:0 21:0 22:0 23:0 24:0 25:0 26:0 27:0 28:0 29:0 30:0 31:0 32:0 33:0 34:0 35:0 36:255 37:255 38:255 39:255 40:255 41:255 42:255 43:0 44:0 45:0 46:0 47:0 48:0 49:255 50:255 51:255 52:255 53:255 54:255 55:255 56:255 57:255 58:255 59:0 60:0 61:0 62:0 63:255 64:255 65:255 66:255 67:255 68:255 69:255 70:255 71:255 72:255 73:255 74:255 75:0 76:0 77:0 78:255 79:255 80:255 81:255 82:255 83:0 84:0 85:255 86:255 87:255 88:255 89:255 90:0 91:0 92:255 93:255 94:255 95:255 96:255 97:0 98:0 99:0 100:0 101:255 102:255 103:255 104:255 105:255 106:0 107:255 108:255 109:255 110:255 111:0 112:0 113:0 114:0 115:0 116:0 117:255 118:255 119:255 120:255 121:0 122:255 123:255 124:255 125:255 126:0 127:0 128:0 129:0 130:0 131:0 132:255 133:255 134:255 135:255 136:0 137:255 138:255 139:255 140:255 141:0 142:0 143:0 144:0 145:0 146:0 147:255 148:255 149:255 150:255 151:0 152:255 153:255 154:255 155:0 156:0 157:0 158:0 159:0 160:0 161:0 162:255 163:255 164:255 165:255 166:0 167:255 168:255 169:255 170:0 171:0 172:0 173:0 174:0 175:0 176:0 177:255 178:255 179:255 180:0 181:0 182:255 183:255 184:255 185:255 186:0 187:0 188:0 189:0 190:0 191:255 192:255 193:255 194:255 195:0 196:0 197:255 198:255 199:255 200:255 201:0 202:0 203:0 204:0 205:0 206:255 207:255 208:255 209:255 210:0 211:0 212:255 213:255 214:255 215:255 216:0 217:0 218:0 219:0 220:0 221:255 222:255 223:255 224:255 225:0 226:255 227:255 228:255 229:255 230:255 231:0 232:0 233:0 234:0 235:0 236:255 237:255 238:255 239:255 240:0 241:255 242:255 243:255 244:255 245:255 246:0 247:0 248:0 249:0 250:0 251:255 252:255 253:255 254:255 255:0 256:255 257:255 258:255 259:255 260:0 261:0 262:0 263:0 264:0 265:0 266:255 267:255 268:255 269:255 270:0 271:255 272:255 273:255 274:255 275:0 276:0 277:0 278:0 279:0 280:0 281:255 282:255 283:255 284:255 285:0 286:255 287:255 288:255 289:255 290:0 291:0 292:0 293:0 294:0 295:0 296:255 297:255 298:255 299:255 300:0 301:255 302:255 303:255 304:255 305:0 306:0 307:0 308:0 309:0 310:0 311:255 312:255 313:255 314:255 315:0 316:255 317:255 318:255 319:255 320:0 321:0 322:0 323:0 324:0 325:0 326:255 327:255 328:255 329:255 330:0 331:255 332:255 333:255 334:255 335:0 336:0 337:0 338:0 339:0 340:0 341:255 342:255 343:255 344:255 345:0 346:255 347:255 348:255 349:255 350:0 351:0 352:0 353:0 354:0 355:0 356:255 357:255 358:255 359:255 360:0 361:0 362:255 363:255 364:255 365:255 366:0 367:0 368:0 369:0 370:255 371:255 372:255 373:255 374:0 375:0 376:0 377:255 378:255 379:255 380:255 381:255 382:255 383:255 384:255 385:255 386:255 387:255 388:255 389:0 390:0 391:0 392:0 393:255 394:255 395:255 396:255 397:255 398:255 399:255 400:255 401:255 402:255 403:0 404:0 405:0 406:0 407:0 408:0 409:255 410:255 411:255 412:255 413:255 414:255 415:255 416:255 417:0 418:0 419:0 420:0 421:0 422:0 423:0 424:0 425:0 426:0 427:255 428:255 429:0 430:0 431:0 432:0 433:0 434:0 435:0 436:0 437:0 438:0 439:0 440:0 441:0 442:0 443:0 444:0 445:0 446:0 447:0 448:0 449:0 450:0 
1.030419667357661e-015 1:255 2:255 3:255 4:255 5:255 6:255 7:255 8:255 9:255 10:255 11:255 12:255 13:255 14:255 15:255 16:0 17:0 18:0 19:0 20:0 21:0 22:0 23:0 24:0 25:0 26:0 27:0 28:0 29:0 30:0 31:0 32:0 33:0 34:0 35:0 36:0 37:0 38:0 39:0 40:0 41:0 42:0 43:0 44:0 45:0 46:0 47:0 48:0 49:0 50:0 51:0 52:0 53:255 54:255 55:255 56:255 57:255 58:0 59:0 60:0 61:0 62:0 63:0 64:0 65:0 66:255 67:255 68:255 69:255 70:255 71:255 72:255 73:255 74:0 75:0 76:0 77:0 78:0 79:0 80:255 81:255 82:255 83:255 84:255 85:255 86:255 87:255 88:255 89:255 90:0 91:0 92:0 93:0 94:0 95:255 96:255 97:255 98:0 99:0 100:0 101:0 102:255 103:255 104:255 105:255 106:0 107:0 108:0 109:255 110:255 111:255 112:0 113:0 114:0 115:0 116:0 117:0 118:255 119:255 120:255 121:0 122:0 123:0 124:255 125:255 126:255 127:0 128:0 129:0 130:0 131:0 132:0 133:255 134:255 135:255 136:0 137:0 138:0 139:255 140:255 141:0 142:0 143:0 144:0 145:0 146:0 147:0 148:255 149:255 150:255 151:0 152:0 153:255 154:255 155:255 156:0 157:0 158:0 159:0 160:0 161:0 162:0 163:255 164:255 165:255 166:0 167:0 168:255 169:255 170:255 171:0 172:0 173:0 174:0 175:0 176:0 177:0 178:255 179:255 180:255 181:0 182:0 183:255 184:255 185:255 186:0 187:0 188:0 189:0 190:0 191:0 192:0 193:255 194:255 195:255 196:0 197:0 198:255 199:255 200:255 201:0 202:0 203:0 204:0 205:0 206:0 207:0 208:255 209:255 210:255 211:0 212:0 213:255 214:255 215:255 216:0 217:0 218:0 219:0 220:0 221:0 222:255 223:255 224:255 225:0 226:0 227:0 228:255 229:255 230:255 231:0 232:0 233:0 234:0 235:0 236:0 237:255 238:255 239:255 240:0 241:0 242:255 243:255 244:255 245:255 246:0 247:0 248:0 249:0 250:0 251:0 252:255 253:255 254:255 255:0 256:0 257:255 258:255 259:255 260:255 261:0 262:0 263:0 264:0 265:0 266:0 267:255 268:255 269:255 270:0 271:0 272:255 273:255 274:255 275:0 276:0 277:0 278:0 279:0 280:0 281:0 282:255 283:255 284:255 285:0 286:0 287:255 288:255 289:255 290:0 291:0 292:0 293:0 294:0 295:0 296:255 297:255 298:255 299:255 300:0 301:0 302:255 303:255 304:255 305:0 306:0 307:0 308:0 309:0 310:0 311:255 312:255 313:255 314:255 315:0 316:0 317:255 318:255 319:255 320:0 321:0 322:0 323:0 324:0 325:0 326:255 327:255 328:255 329:0 330:0 331:0 332:255 333:255 334:255 335:255 336:0 337:0 338:0 339:0 340:255 341:255 342:255 343:255 344:0 345:0 346:0 347:0 348:255 349:255 350:255 351:255 352:255 353:255 354:255 355:255 356:255 357:255 358:255 359:0 360:0 361:0 362:0 363:255 364:255 365:255 366:255 367:255 368:255 369:255 370:255 371:255 372:255 373:0 374:0 375:0 376:0 377:0 378:0 379:255 380:255 381:255 382:255 383:255 384:255 385:255 386:0 387:0 388:0 389:0 390:0 391:0 392:0 393:0 394:0 395:0 396:255 397:255 398:255 399:255 400:0 401:255 402:255 403:0 404:0 405:0 406:255 407:255 408:255 409:255 410:255 411:255 412:255 413:255 414:255 415:255 416:255 417:255 418:255 419:255 420:255 421:255 422:255 423:255 424:255 425:255 426:255 427:255 428:255 429:255 430:255 431:255 432:255 433:255 434:255 435:255 436:255 437:255 438:255 439:255 440:255 441:255 442:255 443:255 444:255 445:255 446:255 447:255 448:255 449:255 450:255 
8.423197606842866e-016 1:0 2:0 3:0 4:0 5:0 6:0 7:0 8:0 9:0 10:0 11:0 12:0 13:0 14:0 15:0 16:0 17:0 18:0 19:0 20:255 21:255 22:255 23:255 24:255 25:0 26:0 27:0 28:0 29:0 30:0 31:0 32:0 33:255 34:255 35:255 36:255 37:255 38:255 39:255 40:255 41:255 42:0 43:0 44:0 45:0 46:0 47:255 48:255 49:255 50:255 51:255 52:255 53:255 54:255 55:255 56:255 57:0 58:0 59:0 60:0 61:0 62:255 63:255 64:255 65:255 66:0 67:0 68:0 69:255 70:255 71:255 72:255 73:0 74:0 75:0 76:255 77:255 78:255 79:255 80:0 81:0 82:0 83:0 84:0 85:255 86:255 87:255 88:0 89:0 90:0 91:255 92:255 93:255 94:0 95:0 96:0 97:0 98:0 99:0 100:255 101:255 102:255 103:0 104:0 105:0 106:255 107:255 108:255 109:0 110:0 111:0 112:0 113:0 114:0 115:255 116:255 117:255 118:0 119:0 120:0 121:255 122:255 123:255 124:0 125:0 126:0 127:0 128:0 129:0 130:255 131:255 132:255 133:0 134:0 135:0 136:255 137:255 138:255 139:0 140:0 141:0 142:0 143:0 144:0 145:255 146:255 147:255 148:0 149:0 150:0 151:255 152:255 153:255 154:0 155:0 156:0 157:0 158:0 159:0 160:255 161:255 162:255 163:0 164:0 165:0 166:255 167:255 168:255 169:0 170:0 171:0 172:0 173:0 174:0 175:255 176:255 177:255 178:0 179:0 180:0 181:255 182:255 183:255 184:0 185:0 186:0 187:0 188:0 189:0 190:255 191:255 192:255 193:0 194:0 195:0 196:255 197:255 198:255 199:0 200:0 201:0 202:0 203:0 204:0 205:255 206:255 207:255 208:0 209:0 210:0 211:255 212:255 213:255 214:0 215:0 216:0 217:0 218:0 219:0 220:255 221:255 222:255 223:0 224:0 225:0 226:255 227:255 228:255 229:0 230:0 231:0 232:0 233:0 234:0 235:255 236:255 237:255 238:0 239:0 240:0 241:255 242:255 243:255 244:0 245:0 246:0 247:0 248:0 249:0 250:255 251:255 252:255 253:0 254:0 255:0 256:255 257:255 258:255 259:0 260:0 261:0 262:0 263:0 264:0 265:255 266:255 267:255 268:0 269:0 270:0 271:255 272:255 273:255 274:0 275:0 276:0 277:0 278:0 279:0 280:255 281:255 282:255 283:0 284:0 285:0 286:255 287:255 288:255 289:0 290:0 291:0 292:0 293:0 294:0 295:255 296:255 297:255 298:0 299:0 300:0 301:255 302:255 303:255 304:0 305:0 306:0 307:0 308:0 309:0 310:255 311:255 312:255 313:0 314:0 315:0 316:255 317:255 318:255 319:0 320:0 321:0 322:0 323:0 324:0 325:255 326:255 327:255 328:0 329:0 330:0 331:255 332:255 333:255 334:255 335:0 336:0 337:0 338:0 339:255 340:255 341:255 342:0 343:0 344:0 345:0 346:0 347:255 348:255 349:255 350:255 351:255 352:255 353:255 354:255 355:255 356:255 357:0 358:0 359:0 360:0 361:0 362:255 363:255 364:255 365:255 366:255 367:255 368:255 369:255 370:255 371:0 372:0 373:0 374:0 375:0 376:0 377:0 378:255 379:255 380:255 381:255 382:255 383:255 384:255 385:0 386:0 387:0 388:0 389:0 390:0 391:0 392:0 393:0 394:0 395:255 396:255 397:255 398:0 399:0 400:0 401:0 402:0 403:0 404:0 405:0 406:0 407:0 408:0 409:0 410:0 411:0 412:0 413:0 414:0 415:0 416:0 417:0 418:0 419:0 420:0 421:0 422:0 423:0 424:0 425:0 426:0 427:0 428:0 429:0 430:0 431:0 432:0 433:0 434:0 435:0 436:0 437:0 438:0 439:0 440:0 441:0 442:0 443:0 444:0 445:0 446:0 447:0 448:0 449:0 450:0 
4.928761518375228e-016 1:0 2:0 3:0 4:0 5:0 6:0 7:0 8:0 9:0 10:255 11:255 12:255 13:0 14:0 15:0 16:0 17:0 18:0 19:0 20:0 21:0 22:0 23:255 24:255 25:255 26:255 27:255 28:255 29:255 30:0 31:0 32:0 33:0 34:0 35:0 36:0 37:255 38:255 39:255 40:255 41:255 42:255 43:255 44:255 45:0 46:0 47:0 48:0 49:0 50:0 51:255 52:255 53:255 54:255 55:255 56:255 57:255 58:255 59:255 60:255 61:0 62:0 63:0 64:0 65:255 66:255 67:255 68:255 69:0 70:0 71:0 72:255 73:255 74:255 75:255 76:0 77:0 78:0 79:0 80:255 81:255 82:255 83:0 84:0 85:0 86:0 87:0 88:255 89:255 90:255 91:0 92:0 93:0 94:255 95:255 96:255 97:0 98:0 99:0 100:0 101:0 102:0 103:255 104:255 105:255 106:0 107:0 108:0 109:255 110:255 111:255 112:0 113:0 114:0 115:0 116:0 117:0 118:255 119:255 120:255 121:0 122:0 123:0 124:255 125:255 126:0 127:0 128:0 129:0 130:0 131:0 132:0 133:255 134:255 135:0 136:0 137:0 138:0 139:255 140:255 141:0 142:0 143:0 144:0 145:0 146:0 147:255 148:255 149:255 150:0 151:0 152:0 153:255 154:255 155:255 156:0 157:0 158:0 159:0 160:0 161:0 162:255 163:255 164:255 165:0 166:0 167:0 168:255 169:255 170:255 171:0 172:0 173:0 174:0 175:0 176:0 177:255 178:255 179:255 180:0 181:0 182:0 183:255 184:255 185:255 186:0 187:0 188:0 189:0 190:0 191:0 192:255 193:255 194:255 195:0 196:0 197:0 198:255 199:255 200:0 201:0 202:0 203:0 204:0 205:0 206:255 207:255 208:255 209:255 210:0 211:0 212:255 213:255 214:255 215:0 216:0 217:0 218:0 219:0 220:0 221:255 222:255 223:255 224:0 225:0 226:0 227:255 228:255 229:255 230:0 231:0 232:0 233:0 234:0 235:0 236:255 237:255 238:255 239:0 240:0 241:0 242:255 243:255 244:255 245:0 246:0 247:0 248:0 249:0 250:0 251:255 252:255 253:255 254:0 255:0 256:0 257:255 258:255 259:255 260:0 261:0 262:0 263:0 264:0 265:0 266:255 267:255 268:0 269:0 270:0 271:0 272:255 273:255 274:0 275:0 276:0 277:0 278:0 279:0 280:255 281:255 282:255 283:0 284:0 285:0 286:255 287:255 288:255 289:0 290:0 291:0 292:0 293:0 294:0 295:255 296:255 297:255 298:0 299:0 300:0 301:255 302:255 303:255 304:0 305:0 306:0 307:0 308:0 309:0 310:255 311:255 312:255 313:0 314:0 315:0 316:255 317:255 318:255 319:0 320:0 321:0 322:0 323:0 324:0 325:255 326:255 327:255 328:0 329:0 330:0 331:255 332:255 333:255 334:0 335:0 336:0 337:0 338:0 339:255 340:255 341:255 342:0 343:0 344:0 345:0 346:255 347:255 348:255 349:0 350:0 351:0 352:0 353:0 354:255 355:255 356:255 357:0 358:0 359:0 360:0 361:255 362:255 363:255 364:255 365:0 366:0 367:255 368:255 369:255 370:255 371:0 372:0 373:0 374:0 375:255 376:255 377:255 378:255 379:255 380:255 381:255 382:255 383:255 384:255 385:255 386:0 387:0 388:0 389:0 390:255 391:0 392:255 393:255 394:255 395:255 396:255 397:255 398:255 399:255 400:0 401:0 402:0 403:0 404:255 405:255 406:0 407:0 408:255 409:255 410:255 411:255 412:255 413:0 414:0 415:0 416:0 417:0 418:0 419:255 420:255 421:0 422:0 423:0 424:0 425:0 426:0 427:0 428:0 429:0 430:0 431:0 432:0 433:0 434:255 435:255 436:0 437:0 438:0 439:0 440:0 441:0 442:0 443:0 444:0 445:0 446:0 447:0 448:0 449:255 450:255 
4.571817815128458e-016 1:0 2:0 3:0 4:0 5:0 6:0 7:0 8:0 9:0 10:0 11:0 12:0 13:0 14:0 15:0 16:0 17:0 18:0 19:0 20:0 21:0 22:0 23:0 24:0 25:0 26:0 27:0 28:0 29:0 30:0 31:0 32:0 33:0 34:0 35:0 36:0 37:255 38:255 39:255 40:255 41:255 42:255 43:0 44:0 45:0 46:0 47:0 48:0 49:0 50:0 51:255 52:255 53:255 54:255 55:255 56:255 57:255 58:255 59:255 60:0 61:0 62:0 63:0 64:255 65:255 66:255 67:255 68:255 69:255 70:255 71:255 72:255 73:255 74:255 75:255 76:0 77:0 78:0 79:255 80:255 81:255 82:255 83:255 84:255 85:255 86:255 87:255 88:255 89:255 90:255 91:0 92:0 93:255 94:255 95:255 96:255 97:0 98:0 99:0 100:0 101:0 102:255 103:255 104:255 105:255 106:0 107:0 108:255 109:255 110:255 111:0 112:0 113:0 114:0 115:0 116:0 117:0 118:255 119:255 120:255 121:0 122:0 123:255 124:255 125:255 126:0 127:0 128:0 129:0 130:0 131:0 132:0 133:255 134:255 135:255 136:0 137:255 138:255 139:255 140:255 141:0 142:0 143:0 144:0 145:0 146:0 147:0 148:255 149:255 150:255 151:0 152:255 153:255 154:255 155:255 156:0 157:0 158:0 159:0 160:0 161:0 162:0 163:255 164:255 165:255 166:0 167:255 168:255 169:255 170:255 171:0 172:0 173:0 174:0 175:0 176:0 177:0 178:255 179:255 180:255 181:0 182:255 183:255 184:255 185:255 186:0 187:0 188:0 189:0 190:0 191:0 192:0 193:255 194:255 195:255 196:0 197:255 198:255 199:255 200:255 201:0 202:0 203:0 204:0 205:0 206:0 207:0 208:255 209:255 210:255 211:0 212:255 213:255 214:255 215:0 216:0 217:0 218:0 219:0 220:0 221:0 222:0 223:255 224:255 225:255 226:0 227:255 228:255 229:255 230:0 231:0 232:0 233:0 234:0 235:0 236:0 237:255 238:255 239:255 240:255 241:0 242:255 243:255 244:255 245:0 246:0 247:0 248:0 249:0 250:0 251:0 252:255 253:255 254:255 255:255 256:255 257:255 258:255 259:255 260:0 261:0 262:0 263:0 264:0 265:0 266:0 267:255 268:255 269:255 270:0 271:255 272:255 273:255 274:255 275:0 276:0 277:0 278:0 279:0 280:0 281:0 282:255 283:255 284:255 285:0 286:255 287:255 288:255 289:255 290:0 291:0 292:0 293:0 294:0 295:0 296:0 297:255 298:255 299:255 300:0 301:255 302:255 303:255 304:255 305:0 306:0 307:0 308:0 309:0 310:0 311:0 312:255 313:255 314:255 315:0 316:255 317:255 318:255 319:255 320:0 321:0 322:0 323:0 324:0 325:0 326:0 327:255 328:255 329:255 330:0 331:255 332:255 333:255 334:255 335:0 336:0 337:0 338:0 339:0 340:0 341:255 342:255 343:255 344:255 345:0 346:255 347:255 348:255 349:255 350:0 351:0 352:0 353:0 354:0 355:0 356:255 357:255 358:255 359:255 360:0 361:255 362:255 363:255 364:255 365:255 366:255 367:0 368:255 369:255 370:255 371:255 372:255 373:255 374:0 375:0 376:0 377:255 378:255 379:255 380:255 381:255 382:255 383:255 384:255 385:255 386:255 387:255 388:255 389:0 390:0 391:0 392:255 393:255 394:255 395:255 396:255 397:255 398:255 399:255 400:255 401:255 402:255 403:0 404:0 405:0 406:0 407:0 408:0 409:255 410:255 411:255 412:255 413:255 414:255 415:255 416:0 417:0 418:0 419:0 420:0 421:0 422:0 423:0 424:0 425:0 426:0 427:0 428:0 429:0 430:0 431:0 432:0 433:0 434:0 435:0 436:0 437:0 438:0 439:0 440:0 441:0 442:0 443:0 444:0 445:0 446:0 447:0 448:0 449:0 450:0 
1.194717734247943e-015 1:0 2:0 3:0 4:0 5:0 6:0 7:0 8:0 9:0 10:0 11:0 12:0 13:0 14:0 15:0 16:0 17:0 18:0 19:0 20:0 21:0 22:0 23:0 24:0 25:0 26:0 27:0 28:0 29:0 30:0 31:0 32:0 33:0 34:0 35:255 36:255 37:255 38:255 39:255 40:255 41:255 42:255 43:0 44:0 45:0 46:0 47:0 48:0 49:255 50:255 51:255 52:255 53:255 54:255 55:255 56:255 57:255 58:255 59:0 60:0 61:0 62:0 63:255 64:255 65:255 66:255 67:255 68:255 69:255 70:255 71:255 72:255 73:255 74:255 75:0 76:0 77:0 78:255 79:255 80:255 81:255 82:0 83:0 84:0 85:0 86:255 87:255 88:255 89:255 90:0 91:0 92:255 93:255 94:255 95:255 96:0 97:0 98:0 99:0 100:0 101:0 102:255 103:255 104:255 105:0 106:0 107:255 108:255 109:255 110:0 111:0 112:0 113:0 114:0 115:0 116:0 117:255 118:255 119:255 120:255 121:0 122:255 123:255 124:255 125:0 126:0 127:0 128:0 129:0 130:0 131:0 132:0 133:255 134:255 135:0 136:0 137:255 138:255 139:255 140:0 141:0 142:0 143:0 144:0 145:0 146:0 147:0 148:255 149:255 150:0 151:0 152:255 153:255 154:255 155:0 156:0 157:0 158:0 159:0 160:0 161:0 162:0 163:255 164:255 165:0 166:0 167:255 168:255 169:255 170:0 171:0 172:0 173:0 174:0 175:0 176:0 177:0 178:255 179:255 180:0 181:0 182:255 183:255 184:255 185:0 186:0 187:0 188:0 189:0 190:0 191:0 192:255 193:255 194:255 195:0 196:0 197:255 198:255 199:255 200:0 201:0 202:0 203:0 204:0 205:0 206:0 207:255 208:255 209:255 210:0 211:0 212:255 213:255 214:0 215:0 216:0 217:0 218:0 219:0 220:0 221:0 222:255 223:255 224:255 225:0 226:255 227:255 228:255 229:0 230:0 231:0 232:0 233:0 234:0 235:0 236:0 237:255 238:255 239:255 240:0 241:255 242:255 243:255 244:0 245:0 246:0 247:0 248:0 249:0 250:0 251:0 252:255 253:255 254:255 255:0 256:255 257:255 258:255 259:0 260:0 261:0 262:0 263:0 264:0 265:0 266:0 267:255 268:255 269:255 270:0 271:255 272:255 273:255 274:0 275:0 276:0 277:0 278:0 279:0 280:0 281:0 282:255 283:255 284:255 285:0 286:255 287:255 288:255 289:0 290:0 291:0 292:0 293:0 294:0 295:0 296:0 297:255 298:255 299:255 300:0 301:255 302:255 303:255 304:0 305:0 306:0 307:0 308:0 309:0 310:0 311:0 312:255 313:255 314:255 315:0 316:255 317:255 318:255 319:0 320:0 321:0 322:0 323:0 324:0 325:0 326:0 327:255 328:255 329:255 330:0 331:255 332:255 333:255 334:255 335:0 336:0 337:0 338:0 339:0 340:0 341:255 342:255 343:255 344:255 345:0 346:255 347:255 348:255 349:255 350:0 351:0 352:0 353:0 354:0 355:0 356:255 357:255 358:255 359:0 360:0 361:0 362:255 363:255 364:255 365:255 366:255 367:0 368:0 369:255 370:255 371:255 372:255 373:255 374:0 375:0 376:0 377:255 378:255 379:255 380:255 381:255 382:255 383:255 384:255 385:255 386:255 387:255 388:0 389:0 390:0 391:0 392:0 393:255 394:255 395:255 396:255 397:255 398:255 399:255 400:255 401:255 402:0 403:0 404:0 405:0 406:0 407:0 408:0 409:255 410:255 411:255 412:255 413:255 414:255 415:255 416:0 417:0 418:0 419:0 420:0 421:0 422:0 423:0 424:0 425:0 426:0 427:0 428:0 429:0 430:0 431:0 432:0 433:0 434:0 435:0 436:0 437:0 438:0 439:0 440:0 441:0 442:0 443:0 444:0 445:0 446:0 447:0 448:0 449:0 450:0 
3.117807127075692e-015 1:0 2:0 3:0 4:0 5:0 6:0 7:0 8:0 9:0 10:0 11:0 12:0 13:0 14:0 15:0 16:0 17:0 18:0 19:0 20:0 21:255 22:255 23:255 24:255 25:255 26:255 27:0 28:0 29:0 30:0 31:0 32:0 33:0 34:0 35:255 36:255 37:255 38:255 39:255 40:255 41:255 42:255 43:255 44:0 45:0 46:0 47:0 48:0 49:255 50:255 51:255 52:255 53:255 54:255 55:255 56:255 57:255 58:255 59:0 60:0 61:0 62:0 63:255 64:255 65:255 66:255 67:0 68:0 69:0 70:0 71:255 72:255 73:255 74:255 75:0 76:0 77:0 78:255 79:255 80:255 81:0 82:0 83:0 84:0 85:0 86:0 87:255 88:255 89:255 90:0 91:0 92:0 93:255 94:255 95:0 96:0 97:0 98:0 99:0 100:0 101:0 102:0 103:255 104:255 105:0 106:0 107:255 108:255 109:255 110:0 111:0 112:0 113:0 114:0 115:0 116:0 117:0 118:255 119:255 120:255 121:0 122:255 123:255 124:255 125:0 126:0 127:0 128:0 129:0 130:0 131:0 132:0 133:255 134:255 135:255 136:0 137:255 138:255 139:255 140:0 141:0 142:0 143:0 144:0 145:0 146:0 147:0 148:255 149:255 150:0 151:0 152:255 153:255 154:255 155:0 156:0 157:0 158:0 159:0 160:0 161:0 162:0 163:255 164:255 165:0 166:0 167:255 168:255 169:255 170:0 171:0 172:0 173:0 174:0 175:0 176:0 177:0 178:255 179:255 180:0 181:0 182:255 183:255 184:255 185:0 186:0 187:0 188:0 189:0 190:0 191:0 192:0 193:255 194:255 195:0 196:0 197:255 198:255 199:255 200:0 201:0 202:0 203:0 204:0 205:0 206:0 207:0 208:255 209:255 210:0 211:0 212:255 213:255 214:255 215:0 216:0 217:0 218:0 219:0 220:0 221:0 222:0 223:255 224:255 225:0 226:0 227:255 228:255 229:255 230:0 231:0 232:0 233:0 234:0 235:0 236:0 237:255 238:255 239:255 240:0 241:0 242:255 243:255 244:255 245:0 246:0 247:0 248:0 249:0 250:0 251:0 252:255 253:255 254:255 255:0 256:0 257:255 258:255 259:255 260:0 261:0 262:0 263:0 264:0 265:0 266:0 267:255 268:255 269:255 270:0 271:0 272:255 273:255 274:255 275:0 276:0 277:0 278:0 279:0 280:0 281:0 282:255 283:255 284:255 285:0 286:0 287:255 288:255 289:255 290:0 291:0 292:0 293:0 294:0 295:0 296:0 297:255 298:255 299:255 300:0 301:0 302:255 303:255 304:255 305:0 306:0 307:0 308:0 309:0 310:0 311:0 312:255 313:255 314:255 315:0 316:0 317:255 318:255 319:255 320:0 321:0 322:0 323:0 324:0 325:0 326:0 327:255 328:255 329:255 330:0 331:0 332:255 333:255 334:255 335:0 336:0 337:0 338:0 339:0 340:0 341:0 342:255 343:255 344:255 345:0 346:0 347:255 348:255 349:255 350:255 351:0 352:0 353:0 354:0 355:0 356:255 357:255 358:255 359:255 360:0 361:0 362:255 363:255 364:255 365:255 366:255 367:0 368:0 369:0 370:255 371:255 372:255 373:255 374:0 375:0 376:0 377:0 378:255 379:255 380:255 381:255 382:255 383:255 384:255 385:255 386:255 387:255 388:255 389:0 390:0 391:0 392:0 393:0 394:255 395:255 396:255 397:255 398:255 399:255 400:255 401:255 402:255 403:0 404:0 405:0 406:0 407:0 408:0 409:0 410:255 411:255 412:255 413:255 414:255 415:255 416:0 417:0 418:0 419:0 420:0 421:0 422:0 423:0 424:0 425:0 426:0 427:0 428:0 429:0 430:0 431:0 432:0 433:0 434:0 435:0 436:0 437:0 438:0 439:0 440:0 441:0 442:0 443:0 444:0 445:0 446:0 447:0 448:0 449:0 450:0 
