svm_type c_svc
kernel_type polynomial
degree 3
gamma 0.008
coef0 0
nr_class 2
total_sv 38
rho 0.996249
label 1 -1
probA -3.20219
probB 1.08471
nr_sv 2 36
SV
7.62624011270914e-017 1:0 2:0 3:0 4:0 5:0 6:0 7:0 8:0 9:0 10:0 11:0 12:0 13:0 14:0 15:0 16:0 17:0 18:0 19:0 20:0 21:0 22:0 23:0 24:0 25:0 26:0 27:0 28:0 29:0 30:0 31:0 32:0 33:0 34:0 35:0 36:0 37:0 38:0 39:0 40:0 41:0 42:0 43:0 44:0 45:0 46:0 47:0 48:0 49:0 50:0 51:0 52:0 53:0 54:0 55:0 56:0 57:0 58:0 59:0 60:0 61:0 62:0 63:0 64:0 65:0 66:0 67:0 68:0 69:0 70:0 71:0 72:0 73:0 74:0 75:0 76:0 77:0 78:0 79:0 80:0 81:0 82:0 83:0 84:0 85:0 86:0 87:0 88:0 89:0 90:0 91:0 92:0 93:0 94:0 95:0 96:0 97:0 98:0 99:0 100:0 101:0 102:0 103:0 104:0 105:0 106:0 107:0 108:0 109:0 110:0 111:0 112:0 113:0 114:0 115:0 116:0 117:0 118:0 119:0 120:0 121:0 122:0 123:0 124:0 125:0 126:0 127:0 128:0 129:0 130:0 131:0 132:0 133:255 134:255 135:255 136:0 137:0 138:0 139:0 140:0 141:0 142:0 143:0 144:0 145:0 146:0 147:0 148:0 149:0 150:0 151:0 152:0 153:0 154:255 155:255 156:0 157:0 158:0 159:0 160:0 161:0 162:0 163:0 164:0 165:0 166:0 167:0 168:0 169:255 170:255 171:255 172:255 173:255 174:0 175:0 176:0 177:0 178:0 179:0 180:0 181:0 182:0 183:0 184:0 185:0 186:0 187:0 188:0 189:0 190:255 191:255 192:255 193:255 194:0 195:0 196:0 197:0 198:0 199:0 200:0 201:0 202:0 203:0 204:0 205:255 206:255 207:255 208:255 209:255 210:255 211:255 212:0 213:0 214:0 215:0 216:0 217:0 218:0 219:0 220:0 221:0 222:0 223:0 224:0 225:0 226:0 227:255 228:255 229:255 230:255 231:255 232:0 233:0 234:0 235:0 236:0 237:0 238:0 239:0 240:0 241:255 242:255 243:255 244:255 245:255 246:255 247:255 248:255 249:255 250:0 251:0 252:0 253:0 254:0 255:0 256:0 257:0 258:0 259:0 260:0 261:0 262:0 263:0 264:0 265:0 266:255 267:0 268:0 269:0 270:0 271:0 272:0 273:0 274:0 275:0 276:0 277:255 278:255 279:255 280:255 281:255 282:255 283:255 284:255 285:255 286:255 287:255 288:0 289:0 290:0 291:0 292:0 293:0 294:0 295:0 296:0 297:0 298:0 299:0 300:0 301:0 302:0 303:0 304:0 305:0 306:0 307:0 308:0 309:0 310:0 311:0 312:0 313:255 314:255 315:255 316:255 317:255 318:255 319:255 320:255 321:255 322:255 323:255 324:255 325:255 326:255 327:0 328:0 329:0 330:0 331:0 332:0 333:0 334:0 335:0 336:0 337:0 338:0 339:0 340:0 341:0 342:0 343:0 344:0 345:0 346:0 347:0 348:255 349:255 350:255 351:255 352:255 353:255 354:255 355:255 356:255 357:0 358:255 359:255 360:255 361:255 362:255 363:255 364:255 365:255 366:0 367:0 368:0 369:0 370:0 371:0 372:0 373:0 374:0 375:0 376:0 377:0 378:0 379:0 380:0 381:0 382:0 383:255 384:255 385:255 386:255 387:255 388:255 389:255 390:255 391:0 392:0 393:0 394:0 395:0 396:255 397:255 398:255 399:255 400:255 401:255 402:255 403:255 404:0 405:0 406:0 407:0 408:0 409:0 410:0 411:0 412:0 413:0 414:0 415:0 416:0 417:0 418:0 419:255 420:255 421:255 422:255 423:255 424:255 425:255 426:255 427:0 428:0 429:0 430:0 431:0 432:0 433:0 434:255 435:255 436:255 437:255 438:255 439:255 440:255 441:255 442:255 443:0 444:0 445:0 446:0 447:0 448:0 449:0 450:0 451:0 452:0 453:0 454:0 455:255 456:255 457:255 458:255 459:255 460:255 461:255 462:255 463:0 464:0 465:0 466:0 467:0 468:0 469:0 470:0 471:0 472:0 473:255 474:255 475:255 476:255 477:255 478:255 479:255 480:0 481:0 482:0 483:0 484:0 485:0 486:0 487:0 488:0 489:0 490:0 491:0 492:255 493:255 494:255 495:255 496:255 497:255 498:0 499:0 500:0 501:0 502:0 503:0 504:0 505:0 506:0 507:0 508:0 509:0 510:0 511:255 512:255 513:255 514:255 515:255 516:255 517:0 518:0 519:255 520:255 521:0 522:0 523:0 524:0 525:0 526:0 527:0 528:0 529:0 530:255 531:255 532:255 533:255 534:0 535:0 536:0 537:0 538:255 539:255 540:255 541:255 542:255 543:255 544:255 545:255 546:0 547:0 548:0 549:0 550:0 551:255 552:255 553:0 554:0 555:0 556:255 557:255 558:255 559:255 560:255 561:0 562:0 563:0 564:0 565:0 566:0 567:0 568:0 569:0 570:0 571:0 572:0 573:0 574:255 575:255 576:255 577:255 578:255 579:255 580:255 581:255 582:255 583:0 584:0 585:0 586:0 587:0 588:0 589:0 590:0 591:0 592:0 593:255 594:255 595:255 596:255 597:255 598:0 599:0 600:0 601:0 602:0 603:0 604:0 605:0 606:0 607:0 608:0 609:0 610:0 611:255 612:255 613:255 614:255 615:255 616:255 617:255 618:255 619:0 620:0 621:0 622:0 623:0 624:0 625:0 626:0 627:0 628:0 629:0 630:255 631:255 632:255 633:255 634:255 635:0 636:0 637:0 638:0 639:0 640:0 641:0 642:0 643:0 644:0 645:0 646:0 647:0 648:0 649:0 650:0 651:0 652:0 653:0 654:0 655:0 656:0 657:0 658:0 659:0 660:0 661:0 662:0 663:0 664:0 665:0 666:0 667:0 668:0 669:0 670:255 671:0 672:0 673:0 674:0 675:0 676:0 677:0 678:0 679:0 680:0 681:0 682:0 683:0 684:0 685:0 686:0 687:0 688:0 689:0 690:0 691:0 692:0 693:0 694:0 695:0 696:0 697:0 698:0 699:0 700:0 701:0 702:0 703:0 704:0 705:0 706:0 707:0 708:0 709:0 710:0 711:0 712:0 713:0 714:0 715:0 716:255 717:255 718:255 719:255 720:255 721:255 722:255 723:255 724:0 725:0 726:0 727:0 728:0 729:0 730:0 731:0 732:0 733:0 734:0 735:255 736:255 737:0 738:0 739:0 740:0 741:0 742:0 743:0 744:0 745:0 746:0 747:0 748:0 749:0 750:0 751:255 752:255 753:255 754:255 755:255 756:255 757:255 758:255 759:255 760:255 761:255 762:255 763:0 764:0 765:0 766:0 767:0 768:0 769:0 770:0 771:255 772:255 773:255 774:0 775:0 776:0 777:0 778:0 779:0 780:0 781:0 782:0 783:0 784:0 785:0 786:0 787:0 788:255 789:255 790:255 791:255 792:255 793:255 794:255 795:255 796:255 797:255 798:255 799:255 800:0 801:0 802:0 803:0 804:0 805:0 806:0 807:0 808:255 809:255 810:255 811:255 812:0 813:0 814:0 815:0 816:0 817:0 818:0 819:0 820:0 821:0 822:0 823:0 824:0 825:255 826:255 827:255 828:255 829:255 830:255 831:255 832:255 833:255 834:255 835:255 836:0 837:0 838:0 839:0 840:0 841:0 842:0 843:0 844:255 845:255 846:255 847:255 848:255 849:0 850:0 851:0 852:0 853:0 854:0 855:0 856:0 857:0 858:0 859:0 860:0 861:0 862:255 863:255 864:255 865:255 866:255 867:0 868:0 869:255 870:255 871:255 872:255 873:255 874:0 875:0 876:0 877:0 878:0 879:0 880:0 881:255 882:255 883:255 884:255 885:0 886:0 887:0 888:0 889:0 890:0 891:0 892:0 893:0 894:0 895:0 896:0 897:0 898:255 899:255 900:255 901:255 902:255 903:255 904:255 905:255 906:255 907:255 908:255 909:255 910:255 911:0 912:0 913:0 914:255 915:255 916:0 917:0 918:255 919:255 920:255 921:255 922:255 923:0 924:0 925:0 926:0 927:0 928:0 929:0 930:0 931:0 932:0 933:0 934:0 935:255 936:255 937:255 938:255 939:255 940:255 941:255 942:255 943:255 944:255 945:255 946:255 947:255 948:0 949:0 950:0 951:255 952:255 953:0 954:0 955:255 956:255 957:255 958:255 959:255 960:0 961:0 962:0 963:0 964:0 965:0 966:0 967:255 968:255 969:255 970:0 971:0 972:255 973:255 974:255 975:255 976:255 977:255 978:255 979:255 980:255 981:255 982:255 983:255 984:255 985:0 986:0 987:0 988:255 989:255 990:0 991:0 992:255 993:255 994:255 995:255 996:0 997:0 998:0 999:0 1000:0 1001:0 1002:0 1003:255 1004:255 1005:255 1006:255 1007:0 1008:0 1009:255 1010:255 1011:255 1012:255 1013:255 1014:255 1015:255 1016:255 1017:255 1018:255 1019:255 1020:255 1021:255 1022:0 1023:0 1024:0 1025:255 1026:255 1027:0 1028:0 1029:255 1030:255 1031:255 1032:255 1033:0 1034:0 1035:0 1036:0 1037:0 1038:0 1039:255 1040:255 1041:255 1042:255 1043:0 1044:0 1045:0 1046:255 1047:255 1048:255 1049:255 1050:255 1051:255 1052:255 1053:255 1054:255 1055:255 1056:255 1057:255 1058:255 1059:0 1060:0 1061:0 1062:255 1063:0 1064:0 1065:0 1066:255 1067:255 1068:255 1069:255 1070:0 1071:0 1072:0 1073:0 1074:0 1075:0 1076:255 1077:255 1078:255 1079:255 1080:0 1081:0 1082:0 1083:255 1084:255 1085:255 1086:255 1087:255 1088:255 1089:255 1090:255 1091:255 1092:255 1093:255 1094:255 1095:255 1096:0 1097:0 1098:0 1099:0 1100:0 1101:0 1102:0 1103:255 1104:255 1105:255 1106:255 1107:0 1108:0 1109:0 1110:0 1111:0 1112:255 1113:255 1114:255 1115:255 1116:255 1117:0 1118:0 1119:0 1120:255 1121:255 1122:255 1123:255 1124:255 1125:255 1126:255 1127:255 1128:255 1129:255 1130:255 1131:255 1132:255 1133:255 1134:255 1135:255 1136:255 1137:255 1138:0 1139:0 1140:255 1141:255 1142:255 1143:255 1144:0 1145:0 1146:0 1147:0 1148:0 1149:0 1150:255 1151:255 1152:255 1153:0 1154:0 1155:0 1156:0 1157:255 1158:255 1159:255 1160:255 1161:255 1162:255 1163:255 1164:255 1165:255 1166:255 1167:255 1168:255 1169:255 1170:255 1171:0 1172:255 1173:255 1174:255 1175:0 1176:0 1177:255 1178:255 1179:255 1180:255 1181:0 1182:0 1183:0 1184:0 1185:0 1186:255 1187:255 1188:255 1189:255 1190:0 1191:0 1192:0 1193:0 1194:255 1195:255 1196:255 1197:255 1198:255 1199:255 1200:255 1201:255 1202:255 1203:255 1204:255 1205:255 1206:255 1207:255 1208:0 1209:0 1210:0 1211:0 1212:0 1213:0 1214:255 1215:255 1216:255 1217:255 1218:0 1219:0 1220:0 1221:0 1222:255 1223:255 1224:255 1225:255 1226:255 1227:0 1228:0 1229:0 1230:0 1231:255 1232:255 1233:255 1234:255 1235:255 1236:255 1237:255 1238:255 1239:255 1240:255 1241:255 1242:255 1243:255 1244:255 1245:255 1246:255 1247:255 1248:255 1249:0 1250:0 1251:255 1252:255 1253:255 1254:255 1255:0 1256:0 1257:0 1258:0 1259:255 1260:255 1261:255 1262:255 1263:255 1264:0 1265:0 1266:0 1267:0 1268:255 1269:255 1270:255 1271:255 1272:255 1273:255 1274:0 1275:0 1276:255 1277:255 1278:255 1279:255 1280:255 1281:0 1282:0 1283:0 1284:0 1285:0 1286:0 1287:0 1288:255 1289:255 1290:255 1291:255 1292:0 1293:0 1294:0 1295:0 1296:255 1297:255 1298:255 1299:255 1300:255 1301:0 1302:0 1303:0 1304:0 1305:255 1306:255 1307:255 1308:255 1309:0 1310:0 1311:0 1312:0 1313:255 1314:255 1315:255 1316:255 1317:0 1318:0 1319:0 1320:0 1321:0 1322:0 1323:0 1324:0 1325:255 1326:255 1327:255 1328:255 1329:0 1330:0 1331:0 1332:0 1333:255 1334:255 1335:255 1336:255 1337:255 1338:0 1339:0 1340:0 1341:255 1342:255 1343:255 1344:255 1345:255 1346:0 1347:0 1348:0 1349:0 1350:255 1351:255 1352:255 1353:0 1354:0 1355:0 1356:0 1357:0 1358:0 1359:0 1360:0 1361:0 1362:255 1363:255 1364:255 1365:255 1366:0 1367:0 1368:0 1369:0 1370:255 1371:255 1372:255 1373:255 1374:0 1375:0 1376:0 1377:0 1378:255 1379:255 1380:255 1381:255 1382:255 1383:0 1384:0 1385:255 1386:255 1387:255 1388:255 1389:255 1390:0 1391:0 1392:0 1393:0 1394:0 1395:0 1396:0 1397:0 1398:255 1399:255 1400:255 1401:255 1402:255 1403:0 1404:0 1405:0 1406:0 1407:255 1408:255 1409:255 1410:255 1411:0 1412:0 1413:0 1414:0 1415:255 1416:255 1417:255 1418:255 1419:255 1420:0 1421:255 1422:255 1423:255 1424:255 1425:255 1426:255 1427:0 1428:0 1429:0 1430:0 1431:0 1432:0 1433:0 1434:255 1435:255 1436:255 1437:255 1438:255 1439:255 1440:0 1441:0 1442:0 1443:0 1444:255 1445:255 1446:255 1447:0 1448:0 1449:0 1450:0 1451:0 1452:255 1453:255 1454:255 1455:255 1456:255 1457:255 1458:255 1459:255 1460:255 1461:255 1462:255 1463:0 1464:0 1465:0 1466:0 1467:0 1468:0 1469:0 1470:0 1471:255 1472:255 1473:255 1474:255 1475:255 1476:0 1477:0 1478:0 1479:0 1480:0 1481:0 1482:0 1483:0 1484:0 1485:0 1486:0 1487:0 1488:0 1489:0 1490:255 1491:255 1492:255 1493:255 1494:0 1495:0 1496:255 1497:255 1498:0 1499:0 1500:0 1501:0 1502:0 1503:0 1504:0 1505:0 1506:0 1507:0 1508:0 1509:255 1510:255 1511:255 1512:0 1513:0 1514:0 1515:0 1516:0 1517:0 1518:0 1519:0 1520:0 1521:0 1522:0 1523:0 1524:0 1525:0 1526:0 1527:0 1528:0 1529:0 1530:0 1531:0 1532:0 1533:0 1534:0 1535:0 1536:0 1537:0 1538:0 1539:0 1540:0 1541:0 1542:0 1543:0 1544:0 1545:0 1546:0 1547:0 1548:0 1549:0 1550:0 1551:0 1552:0 1553:0 1554:0 1555:0 1556:0 1557:0 1558:0 1559:0 1560:0 1561:0 1562:0 1563:0 1564:0 1565:0 1566:0 1567:0 1568:0 1569:0 1570:0 1571:0 1572:0 1573:0 1574:0 1575:0 1576:0 1577:0 1578:0 1579:0 1580:0 1581:0 1582:0 1583:0 1584:0 1585:0 1586:0 1587:0 1588:0 1589:0 1590:0 1591:0 
4.265257908492936e-017 1:255 2:255 3:0 4:0 5:0 6:0 7:0 8:0 9:0 10:0 11:0 12:0 13:0 14:0 15:0 16:0 17:0 18:0 19:0 20:0 21:0 22:0 23:0 24:0 25:0 26:0 27:0 28:0 29:0 30:0 31:0 32:0 33:0 34:0 35:0 36:0 37:0 38:255 39:255 40:255 41:0 42:0 43:0 44:0 45:0 46:0 47:0 48:0 49:0 50:0 51:0 52:0 53:0 54:0 55:0 56:0 57:0 58:0 59:0 60:0 61:0 62:0 63:0 64:0 65:0 66:0 67:0 68:0 69:0 70:0 71:0 72:0 73:0 74:0 75:255 76:255 77:255 78:0 79:0 80:0 81:0 82:0 83:0 84:0 85:0 86:0 87:0 88:0 89:0 90:0 91:0 92:0 93:0 94:0 95:0 96:0 97:0 98:0 99:0 100:0 101:0 102:0 103:0 104:0 105:0 106:0 107:0 108:0 109:0 110:0 111:0 112:255 113:255 114:0 115:0 116:0 117:0 118:0 119:0 120:0 121:0 122:0 123:0 124:0 125:0 126:0 127:0 128:0 129:0 130:0 131:0 132:0 133:0 134:0 135:0 136:0 137:0 138:0 139:0 140:0 141:0 142:0 143:0 144:0 145:0 146:0 147:0 148:0 149:255 150:255 151:0 152:0 153:0 154:0 155:0 156:0 157:0 158:0 159:0 160:0 161:0 162:0 163:0 164:0 165:0 166:0 167:0 168:0 169:0 170:0 171:0 172:0 173:0 174:0 175:0 176:0 177:0 178:0 179:0 180:0 181:0 182:0 183:0 184:0 185:0 186:255 187:255 188:0 189:0 190:0 191:0 192:0 193:0 194:0 195:0 196:0 197:0 198:255 199:255 200:0 201:0 202:0 203:0 204:0 205:0 206:0 207:0 208:0 209:0 210:0 211:0 212:0 213:255 214:255 215:255 216:255 217:0 218:0 219:0 220:0 221:0 222:0 223:255 224:255 225:0 226:0 227:0 228:0 229:0 230:0 231:0 232:0 233:0 234:255 235:255 236:255 237:255 238:0 239:0 240:0 241:0 242:0 243:0 244:0 245:0 246:0 247:0 248:255 249:255 250:255 251:255 252:255 253:255 254:255 255:0 256:0 257:0 258:0 259:0 260:255 261:255 262:0 263:0 264:0 265:0 266:0 267:0 268:0 269:0 270:0 271:0 272:255 273:0 274:0 275:0 276:0 277:0 278:0 279:0 280:0 281:0 282:0 283:0 284:255 285:255 286:255 287:255 288:255 289:255 290:255 291:255 292:255 293:255 294:0 295:0 296:0 297:255 298:255 299:0 300:0 301:0 302:0 303:0 304:0 305:0 306:0 307:0 308:0 309:0 310:0 311:0 312:0 313:0 314:0 315:0 316:0 317:0 318:0 319:0 320:255 321:255 322:255 323:255 324:255 325:255 326:255 327:255 328:255 329:255 330:255 331:255 332:0 333:0 334:255 335:255 336:0 337:0 338:0 339:0 340:0 341:0 342:0 343:0 344:0 345:0 346:0 347:0 348:0 349:0 350:0 351:0 352:0 353:0 354:0 355:0 356:255 357:255 358:255 359:255 360:255 361:255 362:255 363:255 364:255 365:255 366:255 367:255 368:255 369:255 370:255 371:255 372:0 373:0 374:0 375:0 376:0 377:0 378:0 379:0 380:0 381:0 382:0 383:0 384:0 385:0 386:0 387:0 388:0 389:0 390:0 391:255 392:255 393:255 394:255 395:255 396:255 397:255 398:255 399:255 400:255 401:255 402:255 403:255 404:255 405:255 406:255 407:255 408:255 409:255 410:0 411:0 412:0 413:0 414:0 415:0 416:0 417:0 418:0 419:0 420:0 421:0 422:0 423:0 424:0 425:0 426:0 427:255 428:255 429:255 430:255 431:255 432:255 433:255 434:255 435:0 436:0 437:0 438:0 439:0 440:0 441:255 442:255 443:255 444:255 445:255 446:255 447:0 448:0 449:0 450:0 451:0 452:0 453:0 454:0 455:0 456:0 457:0 458:0 459:0 460:0 461:0 462:0 463:255 464:255 465:255 466:255 467:255 468:255 469:255 470:255 471:0 472:0 473:0 474:0 475:0 476:0 477:0 478:0 479:255 480:255 481:255 482:255 483:255 484:0 485:0 486:0 487:0 488:0 489:0 490:0 491:0 492:0 493:0 494:0 495:0 496:0 497:0 498:0 499:0 500:255 501:255 502:255 503:255 504:255 505:255 506:0 507:0 508:0 509:0 510:0 511:0 512:0 513:0 514:0 515:0 516:0 517:0 518:0 519:255 520:255 521:0 522:0 523:0 524:0 525:0 526:0 527:0 528:0 529:0 530:0 531:0 532:0 533:0 534:0 535:0 536:0 537:0 538:255 539:255 540:255 541:255 542:0 543:0 544:0 545:255 546:255 547:255 548:255 549:255 550:255 551:255 552:0 553:0 554:0 555:0 556:255 557:255 558:0 559:0 560:0 561:0 562:0 563:0 564:0 565:255 566:255 567:0 568:0 569:0 570:0 571:0 572:0 573:0 574:0 575:0 576:0 577:0 578:0 579:0 580:0 581:255 582:255 583:255 584:255 585:255 586:255 587:255 588:255 589:0 590:0 591:0 592:0 593:255 594:255 595:255 596:0 597:0 598:0 599:0 600:255 601:255 602:255 603:255 604:255 605:0 606:0 607:0 608:0 609:0 610:0 611:0 612:0 613:0 614:0 615:0 616:0 617:0 618:0 619:255 620:255 621:255 622:255 623:255 624:255 625:0 626:0 627:0 628:0 629:0 630:255 631:255 632:255 633:0 634:0 635:0 636:0 637:255 638:255 639:255 640:255 641:255 642:0 643:0 644:0 645:0 646:0 647:0 648:0 649:0 650:0 651:0 652:0 653:0 654:0 655:0 656:0 657:0 658:0 659:0 660:0 661:0 662:0 663:0 664:0 665:0 666:0 667:255 668:255 669:0 670:0 671:0 672:0 673:0 674:0 675:0 676:255 677:255 678:0 679:0 680:0 681:0 682:0 683:0 684:0 685:0 686:0 687:0 688:0 689:0 690:0 691:0 692:0 693:0 694:0 695:0 696:0 697:0 698:0 699:0 700:0 701:0 702:0 703:0 704:255 705:255 706:0 707:0 708:0 709:0 710:0 711:0 712:0 713:0 714:0 715:0 716:0 717:0 718:0 719:0 720:0 721:0 722:0 723:255 724:255 725:255 726:255 727:255 728:0 729:0 730:0 731:0 732:0 733:0 734:0 735:0 736:0 737:0 738:0 739:0 740:0 741:255 742:255 743:0 744:0 745:0 746:0 747:0 748:0 749:0 750:0 751:0 752:0 753:0 754:0 755:0 756:0 757:0 758:255 759:255 760:255 761:255 762:255 763:255 764:255 765:255 766:255 767:255 768:255 769:0 770:0 771:0 772:0 773:0 774:0 775:0 776:0 777:0 778:0 779:0 780:0 781:0 782:0 783:0 784:0 785:0 786:0 787:0 788:0 789:0 790:0 791:0 792:0 793:0 794:255 795:255 796:255 797:255 798:255 799:255 800:255 801:255 802:255 803:255 804:255 805:255 806:255 807:0 808:0 809:0 810:0 811:0 812:0 813:0 814:0 815:255 816:0 817:0 818:0 819:0 820:0 821:0 822:0 823:0 824:0 825:0 826:0 827:0 828:0 829:0 830:0 831:255 832:255 833:255 834:255 835:255 836:255 837:255 838:255 839:255 840:255 841:255 842:255 843:255 844:0 845:0 846:0 847:0 848:0 849:0 850:0 851:0 852:255 853:255 854:0 855:0 856:0 857:0 858:0 859:0 860:0 861:0 862:0 863:0 864:0 865:0 866:0 867:0 868:255 869:255 870:255 871:255 872:255 873:255 874:255 875:255 876:255 877:255 878:255 879:255 880:255 881:255 882:0 883:0 884:0 885:0 886:0 887:0 888:0 889:255 890:255 891:0 892:0 893:0 894:0 895:0 896:0 897:0 898:0 899:255 900:255 901:255 902:255 903:255 904:255 905:255 906:255 907:255 908:255 909:255 910:255 911:255 912:255 913:255 914:255 915:255 916:255 917:255 918:255 919:0 920:0 921:0 922:0 923:0 924:0 925:0 926:255 927:255 928:0 929:0 930:0 931:0 932:0 933:0 934:0 935:255 936:255 937:255 938:255 939:255 940:255 941:255 942:255 943:255 944:255 945:255 946:255 947:255 948:255 949:255 950:255 951:255 952:255 953:255 954:255 955:255 956:0 957:0 958:0 959:0 960:0 961:0 962:0 963:255 964:255 965:0 966:0 967:0 968:0 969:0 970:0 971:255 972:255 973:255 974:255 975:255 976:255 977:255 978:255 979:255 980:255 981:255 982:255 983:255 984:255 985:255 986:255 987:255 988:255 989:255 990:255 991:255 992:255 993:255 994:255 995:255 996:255 997:0 998:0 999:0 1000:255 1001:255 1002:0 1003:0 1004:0 1005:0 1006:0 1007:255 1008:255 1009:255 1010:255 1011:255 1012:255 1013:255 1014:255 1015:255 1016:255 1017:255 1018:255 1019:255 1020:255 1021:255 1022:255 1023:255 1024:255 1025:255 1026:255 1027:255 1028:255 1029:255 1030:255 1031:0 1032:0 1033:0 1034:0 1035:0 1036:0 1037:255 1038:255 1039:0 1040:0 1041:0 1042:0 1043:0 1044:0 1045:255 1046:255 1047:255 1048:255 1049:255 1050:255 1051:255 1052:0 1053:255 1054:255 1055:255 1056:255 1057:255 1058:255 1059:255 1060:255 1061:255 1062:255 1063:255 1064:255 1065:255 1066:255 1067:255 1068:255 1069:255 1070:255 1071:0 1072:0 1073:0 1074:255 1075:255 1076:0 1077:0 1078:0 1079:0 1080:0 1081:0 1082:255 1083:255 1084:255 1085:255 1086:255 1087:255 1088:255 1089:255 1090:255 1091:255 1092:255 1093:255 1094:255 1095:255 1096:255 1097:255 1098:255 1099:255 1100:255 1101:255 1102:255 1103:255 1104:255 1105:255 1106:255 1107:255 1108:255 1109:0 1110:0 1111:255 1112:255 1113:0 1114:0 1115:0 1116:0 1117:0 1118:0 1119:255 1120:255 1121:255 1122:255 1123:255 1124:255 1125:255 1126:255 1127:255 1128:255 1129:255 1130:255 1131:255 1132:255 1133:255 1134:255 1135:255 1136:255 1137:255 1138:255 1139:255 1140:255 1141:255 1142:255 1143:255 1144:255 1145:0 1146:0 1147:0 1148:255 1149:255 1150:0 1151:0 1152:0 1153:0 1154:0 1155:0 1156:255 1157:255 1158:255 1159:255 1160:255 1161:255 1162:255 1163:255 1164:255 1165:255 1166:255 1167:255 1168:255 1169:255 1170:255 1171:255 1172:255 1173:255 1174:255 1175:255 1176:255 1177:255 1178:255 1179:255 1180:255 1181:255 1182:255 1183:0 1184:0 1185:255 1186:255 1187:0 1188:0 1189:0 1190:0 1191:0 1192:0 1193:255 1194:255 1195:255 1196:255 1197:255 1198:255 1199:255 1200:255 1201:255 1202:255 1203:255 1204:255 1205:255 1206:255 1207:255 1208:255 1209:255 1210:255 1211:255 1212:255 1213:255 1214:255 1215:255 1216:0 1217:0 1218:255 1219:255 1220:0 1221:0 1222:255 1223:255 1224:0 1225:0 1226:0 1227:0 1228:0 1229:255 1230:255 1231:255 1232:255 1233:255 1234:255 1235:255 1236:255 1237:255 1238:255 1239:255 1240:255 1241:255 1242:255 1243:255 1244:255 1245:255 1246:255 1247:255 1248:255 1249:255 1250:255 1251:255 1252:0 1253:0 1254:0 1255:0 1256:0 1257:0 1258:0 1259:255 1260:255 1261:0 1262:0 1263:0 1264:0 1265:0 1266:255 1267:255 1268:255 1269:255 1270:255 1271:255 1272:0 1273:0 1274:0 1275:255 1276:255 1277:255 1278:255 1279:255 1280:255 1281:255 1282:255 1283:255 1284:255 1285:255 1286:255 1287:255 1288:0 1289:0 1290:0 1291:0 1292:0 1293:0 1294:0 1295:0 1296:255 1297:255 1298:255 1299:0 1300:0 1301:0 1302:0 1303:255 1304:255 1305:255 1306:255 1307:255 1308:0 1309:0 1310:0 1311:0 1312:255 1313:255 1314:255 1315:255 1316:255 1317:255 1318:0 1319:0 1320:255 1321:255 1322:255 1323:255 1324:255 1325:0 1326:0 1327:0 1328:0 1329:0 1330:0 1331:0 1332:0 1333:255 1334:255 1335:255 1336:0 1337:0 1338:0 1339:255 1340:255 1341:255 1342:255 1343:255 1344:255 1345:255 1346:0 1347:0 1348:0 1349:255 1350:255 1351:255 1352:255 1353:255 1354:255 1355:255 1356:255 1357:255 1358:255 1359:255 1360:255 1361:255 1362:0 1363:0 1364:0 1365:0 1366:0 1367:0 1368:255 1369:255 1370:255 1371:255 1372:255 1373:0 1374:255 1375:255 1376:255 1377:255 1378:255 1379:255 1380:255 1381:255 1382:255 1383:255 1384:255 1385:255 1386:255 1387:255 1388:255 1389:255 1390:255 1391:255 1392:255 1393:255 1394:255 1395:255 1396:255 1397:255 1398:255 1399:0 1400:0 1401:0 1402:0 1403:0 1404:255 1405:255 1406:255 1407:255 1408:255 1409:255 1410:255 1411:255 1412:255 1413:255 1414:255 1415:255 1416:255 1417:255 1418:255 1419:255 1420:255 1421:255 1422:255 1423:255 1424:255 1425:255 1426:255 1427:255 1428:255 1429:255 1430:255 1431:255 1432:255 1433:255 1434:255 1435:0 1436:0 1437:0 1438:0 1439:0 1440:0 1441:255 1442:255 1443:255 1444:255 1445:255 1446:255 1447:255 1448:255 1449:255 1450:255 1451:255 1452:255 1453:255 1454:255 1455:255 1456:255 1457:255 1458:255 1459:255 1460:255 1461:255 1462:255 1463:255 1464:255 1465:255 1466:255 1467:255 1468:0 1469:0 1470:0 1471:0 1472:0 1473:0 1474:0 1475:0 1476:0 1477:0 1478:255 1479:255 1480:255 1481:255 1482:255 1483:255 1484:255 1485:255 1486:255 1487:255 1488:255 1489:255 1490:255 1491:255 1492:255 1493:255 1494:255 1495:255 1496:255 1497:255 1498:255 1499:255 1500:255 1501:255 1502:255 1503:255 1504:255 1505:255 1506:255 1507:0 1508:0 1509:0 1510:0 1511:0 1512:0 1513:255 1514:255 1515:255 1516:255 1517:255 1518:255 1519:255 1520:255 1521:255 1522:255 1523:255 1524:255 1525:255 1526:255 1527:255 1528:255 1529:255 1530:255 1531:255 1532:255 1533:255 1534:255 1535:255 1536:255 1537:255 1538:255 1539:255 1540:255 1541:255 1542:255 1543:255 1544:255 1545:255 1546:255 1547:255 1548:255 1549:255 1550:255 1551:255 1552:255 1553:255 1554:255 1555:255 1556:255 1557:255 1558:255 1559:255 1560:255 1561:255 1562:255 1563:255 1564:255 1565:255 1566:255 1567:255 1568:255 1569:255 1570:255 1571:255 1572:255 1573:255 1574:255 1575:255 1576:255 1577:255 1578:255 1579:255 1580:255 1581:255 1582:255 1583:255 1584:255 1585:255 1586:255 1587:255 1588:255 1589:255 1590:255 1591:255 
-2.502953269725802e-018 1:0 2:0 3:0 4:0 5:0 6:0 7:0 8:0 9:0 10:0 11:0 12:0 13:0 14:255 15:0 16:0 17:0 18:0 19:0 20:0 21:0 22:0 23:0 24:255 25:255 26:255 27:255 28:0 29:0 30:0 31:0 32:0 33:0 34:0 35:0 36:255 37:255 38:0 39:0 40:0 41:0 42:0 43:0 44:0 45:0 46:0 47:0 48:0 49:0 50:0 51:0 52:0 53:0 54:0 55:0 56:0 57:0 58:0 59:0 60:0 61:0 62:0 63:0 64:0 65:0 66:0 67:0 68:0 69:0 70:0 71:0 72:0 73:0 74:0 75:0 76:0 77:0 78:0 79:0 80:0 81:0 82:0 83:0 84:0 85:0 86:0 87:0 88:0 89:0 90:0 91:0 92:0 93:0 94:0 95:0 96:0 97:0 98:0 99:0 100:0 101:0 102:0 103:0 104:0 105:0 106:0 107:0 108:0 109:0 110:0 111:0 112:0 113:0 114:0 115:0 116:0 117:0 118:0 119:0 120:0 121:0 122:0 123:0 124:0 125:0 126:0 127:0 128:0 129:0 130:0 131:0 132:0 133:0 134:0 135:0 136:0 137:0 138:0 139:0 140:0 141:0 142:0 143:0 144:0 145:0 146:0 147:0 148:0 149:0 150:0 151:0 152:0 153:0 154:0 155:0 156:0 157:0 158:0 159:0 160:0 161:0 162:0 163:0 164:0 165:0 166:0 167:0 168:0 169:0 170:0 171:0 172:0 173:0 174:0 175:0 176:0 177:0 178:0 179:0 180:0 181:0 182:0 183:0 184:0 185:0 186:0 187:0 188:0 189:0 190:0 191:0 192:0 193:0 194:0 195:0 196:0 197:0 198:0 199:0 200:0 201:0 202:0 203:0 204:0 205:0 206:0 207:0 208:0 209:0 210:0 211:0 212:0 213:0 214:0 215:0 216:0 217:0 218:0 219:0 220:0 221:0 222:0 223:0 224:0 225:0 226:0 227:0 228:0 229:0 230:0 231:0 232:0 233:0 234:0 235:0 236:0 237:0 238:0 239:0 240:0 241:0 242:0 243:0 244:0 245:0 246:0 247:0 248:0 249:0 250:0 251:0 252:0 253:0 254:0 255:0 256:0 257:0 258:0 259:0 260:0 261:0 262:0 263:0 264:0 265:0 266:0 267:0 268:0 269:0 270:0 271:0 272:0 273:0 274:0 275:0 276:0 277:0 278:0 279:0 280:0 281:0 282:0 283:0 284:0 285:0 286:0 287:0 288:0 289:0 290:0 291:0 292:0 293:0 294:0 295:0 296:0 297:0 298:0 299:0 300:0 301:0 302:0 303:0 304:0 305:0 306:0 307:0 308:0 309:0 310:0 311:0 312:0 313:0 314:0 315:0 316:0 317:0 318:0 319:0 320:0 321:0 322:0 323:0 324:0 325:0 326:0 327:0 328:0 329:0 330:0 331:0 332:0 333:0 334:0 335:0 336:0 337:0 338:0 339:0 340:0 341:0 342:0 343:0 344:0 345:0 346:0 347:0 348:0 349:0 350:0 351:0 352:0 353:0 354:0 355:0 356:0 357:0 358:0 359:0 360:0 361:0 362:0 363:0 364:0 365:0 366:0 367:0 368:0 369:0 370:0 371:0 372:0 373:0 374:255 375:255 376:255 377:255 378:255 379:0 380:0 381:0 382:0 383:0 384:0 385:0 386:0 387:0 388:0 389:0 390:0 391:255 392:255 393:255 394:255 395:255 396:255 397:255 398:255 399:255 400:255 401:255 402:255 403:255 404:255 405:0 406:0 407:0 408:255 409:255 410:255 411:255 412:255 413:255 414:255 415:255 416:255 417:255 418:255 419:255 420:0 421:0 422:0 423:0 424:0 425:0 426:0 427:255 428:255 429:255 430:255 431:255 432:255 433:255 434:255 435:255 436:255 437:255 438:255 439:255 440:255 441:255 442:255 443:255 444:255 445:255 446:255 447:255 448:255 449:255 450:255 451:255 452:255 453:255 454:255 455:255 456:255 457:0 458:0 459:0 460:0 461:0 462:0 463:255 464:255 465:255 466:255 467:255 468:255 469:255 470:255 471:255 472:255 473:255 474:255 475:255 476:255 477:255 478:255 479:255 480:0 481:0 482:255 483:255 484:255 485:255 486:255 487:255 488:255 489:255 490:255 491:255 492:255 493:255 494:0 495:0 496:0 497:0 498:0 499:255 500:255 501:255 502:255 503:255 504:255 505:255 506:255 507:255 508:255 509:255 510:255 511:255 512:255 513:255 514:255 515:0 516:0 517:0 518:0 519:255 520:255 521:255 522:255 523:0 524:0 525:0 526:255 527:255 528:255 529:255 530:0 531:0 532:0 533:0 534:255 535:255 536:255 537:255 538:255 539:255 540:255 541:255 542:255 543:255 544:255 545:255 546:255 547:255 548:255 549:255 550:0 551:0 552:0 553:0 554:0 555:0 556:255 557:255 558:0 559:0 560:0 561:0 562:0 563:0 564:255 565:255 566:255 567:255 568:0 569:0 570:0 571:255 572:255 573:255 574:255 575:255 576:255 577:255 578:255 579:255 580:255 581:255 582:255 583:255 584:255 585:255 586:0 587:0 588:0 589:0 590:0 591:0 592:0 593:255 594:255 595:255 596:0 597:0 598:0 599:0 600:0 601:255 602:255 603:255 604:255 605:0 606:0 607:0 608:255 609:255 610:255 611:255 612:255 613:255 614:255 615:255 616:255 617:255 618:255 619:255 620:255 621:255 622:255 623:255 624:0 625:0 626:0 627:0 628:0 629:0 630:255 631:255 632:255 633:255 634:255 635:255 636:255 637:255 638:255 639:255 640:255 641:255 642:255 643:0 644:0 645:0 646:0 647:255 648:255 649:255 650:255 651:255 652:255 653:255 654:255 655:255 656:255 657:255 658:255 659:255 660:255 661:255 662:0 663:0 664:0 665:0 666:0 667:255 668:255 669:255 670:255 671:255 672:255 673:255 674:255 675:255 676:255 677:255 678:255 679:255 680:255 681:0 682:0 683:0 684:0 685:255 686:255 687:255 688:255 689:255 690:255 691:255 692:255 693:255 694:255 695:255 696:255 697:255 698:255 699:255 700:255 701:0 702:0 703:0 704:255 705:255 706:255 707:255 708:255 709:255 710:255 711:255 712:255 713:255 714:255 715:255 716:255 717:255 718:255 719:255 720:255 721:255 722:255 723:255 724:255 725:255 726:255 727:255 728:255 729:255 730:255 731:255 732:255 733:255 734:255 735:255 736:255 737:255 738:255 739:0 740:0 741:255 742:255 743:255 744:255 745:255 746:255 747:255 748:255 749:255 750:255 751:255 752:255 753:255 754:255 755:0 756:0 757:0 758:255 759:255 760:255 761:255 762:255 763:0 764:0 765:0 766:0 767:0 768:0 769:0 770:255 771:255 772:255 773:255 774:255 775:0 776:0 777:0 778:0 779:0 780:0 781:0 782:0 783:0 784:0 785:0 786:0 787:0 788:0 789:0 790:0 791:0 792:0 793:0 794:0 795:0 796:0 797:0 798:0 799:0 800:255 801:255 802:255 803:255 804:255 805:255 806:255 807:255 808:255 809:0 810:0 811:0 812:0 813:0 814:0 815:0 816:0 817:0 818:0 819:0 820:0 821:0 822:0 823:0 824:0 825:0 826:0 827:0 828:0 829:0 830:0 831:0 832:0 833:0 834:0 835:0 836:255 837:255 838:255 839:255 840:255 841:255 842:255 843:255 844:255 845:255 846:0 847:0 848:0 849:0 850:0 851:0 852:0 853:0 854:255 855:255 856:255 857:255 858:255 859:255 860:255 861:255 862:255 863:255 864:255 865:0 866:0 867:0 868:0 869:0 870:0 871:0 872:0 873:255 874:255 875:255 876:255 877:255 878:255 879:255 880:255 881:255 882:255 883:0 884:0 885:0 886:0 887:0 888:0 889:255 890:255 891:255 892:255 893:255 894:255 895:255 896:255 897:255 898:255 899:255 900:255 901:255 902:255 903:255 904:0 905:0 906:0 907:0 908:0 909:0 910:255 911:255 912:255 913:255 914:255 915:255 916:255 917:255 918:255 919:255 920:0 921:0 922:0 923:0 924:0 925:0 926:255 927:255 928:255 929:255 930:255 931:255 932:255 933:255 934:255 935:255 936:255 937:255 938:255 939:255 940:255 941:255 942:255 943:255 944:255 945:255 946:255 947:255 948:255 949:255 950:255 951:255 952:255 953:255 954:255 955:255 956:255 957:255 958:255 959:255 960:255 961:0 962:0 963:255 964:255 965:255 966:255 967:255 968:255 969:255 970:255 971:255 972:255 973:255 974:255 975:255 976:255 977:255 978:255 979:255 980:255 981:255 982:255 983:255 984:255 985:255 986:255 987:255 988:255 989:255 990:255 991:255 992:255 993:255 994:255 995:255 996:255 997:255 998:255 999:255 1000:255 1001:255 1002:255 1003:255 1004:255 1005:255 1006:255 1007:255 1008:255 1009:255 1010:255 1011:255 1012:255 1013:255 1014:255 1015:255 1016:255 1017:255 1018:255 1019:255 1020:255 1021:255 1022:255 1023:255 1024:255 1025:255 1026:255 1027:255 1028:255 1029:255 1030:255 1031:255 1032:255 1033:255 1034:255 1035:0 1036:0 1037:255 1038:255 1039:255 1040:255 1041:255 1042:255 1043:255 1044:255 1045:255 1046:255 1047:255 1048:255 1049:255 1050:255 1051:255 1052:255 1053:255 1054:255 1055:255 1056:255 1057:255 1058:255 1059:255 1060:255 1061:255 1062:255 1063:255 1064:255 1065:255 1066:255 1067:0 1068:0 1069:0 1070:0 1071:0 1072:0 1073:0 1074:255 1075:255 1076:255 1077:255 1078:255 1079:255 1080:255 1081:255 1082:255 1083:255 1084:255 1085:255 1086:255 1087:255 1088:255 1089:255 1090:0 1091:0 1092:0 1093:0 1094:255 1095:255 1096:255 1097:0 1098:255 1099:255 1100:255 1101:255 1102:255 1103:255 1104:255 1105:255 1106:255 1107:0 1108:0 1109:0 1110:0 1111:255 1112:255 1113:255 1114:255 1115:255 1116:255 1117:255 1118:255 1119:255 1120:255 1121:255 1122:255 1123:255 1124:255 1125:255 1126:255 1127:255 1128:255 1129:255 1130:255 1131:255 1132:255 1133:255 1134:255 1135:255 1136:255 1137:255 1138:255 1139:255 1140:255 1141:255 1142:255 1143:255 1144:255 1145:255 1146:0 1147:0 1148:255 1149:255 1150:255 1151:255 1152:255 1153:255 1154:255 1155:255 1156:255 1157:255 1158:255 1159:255 1160:255 1161:255 1162:255 1163:255 1164:255 1165:255 1166:255 1167:255 1168:255 1169:255 1170:255 1171:255 1172:255 1173:255 1174:255 1175:255 1176:255 1177:255 1178:255 1179:255 1180:255 1181:255 1182:255 1183:0 1184:0 1185:255 1186:255 1187:255 1188:255 1189:255 1190:255 1191:255 1192:255 1193:255 1194:255 1195:255 1196:255 1197:255 1198:255 1199:255 1200:255 1201:255 1202:255 1203:255 1204:255 1205:255 1206:255 1207:255 1208:255 1209:255 1210:0 1211:0 1212:0 1213:0 1214:255 1215:255 1216:255 1217:255 1218:255 1219:255 1220:0 1221:0 1222:255 1223:255 1224:255 1225:255 1226:255 1227:255 1228:255 1229:255 1230:255 1231:255 1232:255 1233:255 1234:255 1235:255 1236:255 1237:255 1238:255 1239:255 1240:255 1241:255 1242:255 1243:255 1244:0 1245:0 1246:0 1247:0 1248:0 1249:0 1250:0 1251:0 1252:255 1253:255 1254:255 1255:255 1256:255 1257:0 1258:0 1259:0 1260:0 1261:255 1262:255 1263:255 1264:255 1265:255 1266:255 1267:255 1268:255 1269:255 1270:255 1271:255 1272:0 1273:0 1274:0 1275:0 1276:255 1277:255 1278:255 1279:255 1280:0 1281:0 1282:0 1283:0 1284:0 1285:0 1286:0 1287:0 1288:0 1289:255 1290:255 1291:255 1292:255 1293:255 1294:0 1295:0 1296:0 1297:0 1298:0 1299:255 1300:255 1301:255 1302:255 1303:255 1304:255 1305:255 1306:0 1307:0 1308:0 1309:0 1310:0 1311:0 1312:0 1313:255 1314:255 1315:255 1316:0 1317:0 1318:0 1319:0 1320:0 1321:255 1322:255 1323:255 1324:0 1325:255 1326:255 1327:255 1328:255 1329:255 1330:0 1331:0 1332:0 1333:0 1334:0 1335:0 1336:0 1337:255 1338:255 1339:255 1340:255 1341:255 1342:0 1343:0 1344:0 1345:0 1346:0 1347:0 1348:0 1349:0 1350:0 1351:255 1352:255 1353:0 1354:0 1355:0 1356:0 1357:255 1358:255 1359:255 1360:255 1361:0 1362:0 1363:0 1364:0 1365:255 1366:255 1367:0 1368:0 1369:0 1370:0 1371:0 1372:0 1373:255 1374:255 1375:255 1376:255 1377:255 1378:255 1379:255 1380:255 1381:255 1382:0 1383:0 1384:0 1385:0 1386:0 1387:0 1388:0 1389:0 1390:0 1391:0 1392:0 1393:0 1394:255 1395:255 1396:255 1397:255 1398:0 1399:0 1400:0 1401:0 1402:0 1403:0 1404:0 1405:0 1406:0 1407:0 1408:255 1409:255 1410:255 1411:255 1412:255 1413:255 1414:255 1415:255 1416:255 1417:255 1418:255 1419:255 1420:255 1421:255 1422:255 1423:0 1424:0 1425:0 1426:0 1427:0 1428:0 1429:0 1430:255 1431:255 1432:255 1433:255 1434:255 1435:0 1436:0 1437:0 1438:0 1439:0 1440:0 1441:0 1442:0 1443:0 1444:255 1445:255 1446:255 1447:255 1448:255 1449:255 1450:255 1451:255 1452:255 1453:255 1454:255 1455:255 1456:255 1457:255 1458:255 1459:255 1460:0 1461:0 1462:0 1463:0 1464:0 1465:0 1466:255 1467:255 1468:255 1469:255 1470:255 1471:255 1472:0 1473:0 1474:0 1475:0 1476:0 1477:0 1478:0 1479:0 1480:0 1481:255 1482:255 1483:255 1484:255 1485:255 1486:255 1487:255 1488:255 1489:255 1490:255 1491:255 1492:255 1493:255 1494:255 1495:255 1496:0 1497:0 1498:0 1499:0 1500:255 1501:255 1502:255 1503:255 1504:255 1505:255 1506:255 1507:255 1508:255 1509:255 1510:255 1511:255 1512:255 1513:255 1514:0 1515:0 1516:0 1517:0 1518:0 1519:0 1520:0 1521:255 1522:255 1523:255 1524:255 1525:255 1526:255 1527:255 1528:255 1529:255 1530:0 1531:0 1532:0 1533:0 1534:0 1535:255 1536:255 1537:255 1538:255 1539:255 1540:255 1541:255 1542:255 1543:255 1544:255 1545:255 1546:255 1547:255 1548:255 1549:255 1550:255 1551:255 1552:255 1553:255 1554:255 1555:0 1556:0 1557:0 1558:0 1559:255 1560:255 1561:255 1562:255 1563:255 1564:255 1565:0 1566:0 1567:0 1568:0 1569:0 1570:0 1571:255 1572:255 1573:255 1574:255 1575:255 1576:255 1577:255 1578:255 1579:255 1580:0 1581:0 1582:0 1583:0 1584:255 1585:255 1586:255 1587:255 1588:255 1589:255 1590:255 1591:255 
-5.533294037134208e-018 1:0 2:0 3:0 4:0 5:0 6:0 7:0 8:0 9:0 10:0 11:0 12:0 13:0 14:0 15:0 16:0 17:0 18:0 19:0 20:0 21:0 22:0 23:0 24:0 25:0 26:0 27:0 28:0 29:0 30:0 31:0 32:0 33:0 34:0 35:0 36:0 37:0 38:0 39:0 40:0 41:0 42:0 43:0 44:0 45:0 46:0 47:0 48:0 49:0 50:0 51:0 52:0 53:0 54:0 55:0 56:0 57:0 58:0 59:0 60:0 61:0 62:0 63:0 64:0 65:0 66:0 67:0 68:0 69:0 70:0 71:0 72:0 73:0 74:0 75:0 76:0 77:0 78:0 79:0 80:0 81:0 82:0 83:0 84:0 85:0 86:0 87:0 88:0 89:0 90:0 91:0 92:0 93:0 94:0 95:0 96:0 97:0 98:0 99:0 100:0 101:0 102:0 103:0 104:0 105:0 106:0 107:0 108:0 109:0 110:0 111:0 112:0 113:0 114:0 115:0 116:0 117:0 118:0 119:0 120:0 121:0 122:0 123:0 124:0 125:0 126:0 127:0 128:0 129:0 130:0 131:0 132:0 133:0 134:0 135:0 136:0 137:0 138:0 139:0 140:0 141:0 142:0 143:0 144:0 145:0 146:0 147:0 148:0 149:0 150:0 151:0 152:0 153:0 154:0 155:0 156:0 157:0 158:0 159:0 160:0 161:0 162:0 163:0 164:0 165:0 166:0 167:0 168:0 169:0 170:0 171:0 172:0 173:0 174:0 175:0 176:0 177:0 178:0 179:0 180:0 181:0 182:0 183:0 184:0 185:0 186:0 187:0 188:0 189:0 190:0 191:0 192:0 193:0 194:0 195:0 196:0 197:0 198:0 199:0 200:0 201:0 202:0 203:0 204:0 205:0 206:0 207:0 208:0 209:0 210:0 211:0 212:0 213:0 214:0 215:0 216:0 217:0 218:0 219:0 220:0 221:0 222:0 223:0 224:0 225:0 226:255 227:255 228:255 229:255 230:255 231:255 232:255 233:0 234:0 235:0 236:0 237:0 238:0 239:0 240:0 241:0 242:0 243:0 244:255 245:255 246:255 247:255 248:255 249:255 250:0 251:0 252:0 253:0 254:0 255:0 256:0 257:0 258:0 259:0 260:0 261:255 262:255 263:255 264:255 265:255 266:255 267:255 268:255 269:255 270:255 271:255 272:0 273:0 274:0 275:0 276:0 277:0 278:0 279:0 280:255 281:255 282:255 283:255 284:255 285:255 286:255 287:255 288:255 289:255 290:255 291:255 292:255 293:255 294:255 295:0 296:0 297:255 298:255 299:255 300:255 301:255 302:255 303:255 304:255 305:255 306:255 307:255 308:255 309:0 310:0 311:0 312:0 313:0 314:0 315:0 316:0 317:255 318:255 319:255 320:255 321:255 322:255 323:255 324:255 325:255 326:255 327:255 328:255 329:255 330:255 331:255 332:0 333:0 334:255 335:255 336:255 337:255 338:255 339:255 340:255 341:255 342:255 343:255 344:255 345:255 346:0 347:0 348:0 349:0 350:0 351:0 352:0 353:0 354:255 355:255 356:255 357:255 358:255 359:255 360:255 361:255 362:255 363:255 364:255 365:255 366:255 367:255 368:0 369:0 370:0 371:255 372:255 373:255 374:255 375:255 376:0 377:0 378:0 379:0 380:0 381:0 382:0 383:0 384:0 385:0 386:0 387:0 388:0 389:0 390:0 391:255 392:255 393:255 394:255 395:255 396:255 397:255 398:255 399:255 400:255 401:255 402:255 403:0 404:0 405:0 406:0 407:0 408:0 409:0 410:0 411:0 412:0 413:0 414:0 415:0 416:0 417:0 418:0 419:0 420:0 421:0 422:0 423:0 424:0 425:0 426:255 427:255 428:255 429:255 430:255 431:255 432:255 433:255 434:255 435:255 436:255 437:255 438:0 439:0 440:0 441:0 442:0 443:0 444:0 445:0 446:0 447:0 448:0 449:0 450:0 451:0 452:0 453:0 454:0 455:0 456:0 457:0 458:0 459:0 460:0 461:0 462:0 463:255 464:255 465:255 466:255 467:255 468:255 469:255 470:255 471:255 472:255 473:255 474:0 475:0 476:0 477:0 478:0 479:0 480:0 481:0 482:0 483:0 484:0 485:0 486:0 487:0 488:0 489:0 490:0 491:255 492:0 493:0 494:0 495:0 496:0 497:0 498:0 499:0 500:0 501:0 502:255 503:255 504:255 505:255 506:255 507:255 508:255 509:255 510:255 511:0 512:0 513:0 514:0 515:0 516:0 517:0 518:0 519:0 520:0 521:255 522:255 523:255 524:255 525:255 526:255 527:255 528:255 529:255 530:255 531:0 532:0 533:0 534:0 535:0 536:0 537:0 538:0 539:0 540:255 541:255 542:255 543:255 544:255 545:255 546:255 547:255 548:255 549:0 550:0 551:0 552:0 553:0 554:0 555:0 556:255 557:255 558:255 559:255 560:255 561:255 562:255 563:255 564:255 565:255 566:255 567:255 568:255 569:0 570:0 571:0 572:0 573:0 574:0 575:0 576:255 577:255 578:255 579:255 580:255 581:255 582:255 583:255 584:255 585:255 586:255 587:255 588:0 589:0 590:0 591:0 592:0 593:255 594:255 595:255 596:255 597:255 598:255 599:255 600:255 601:255 602:255 603:255 604:255 605:255 606:0 607:0 608:0 609:0 610:0 611:0 612:0 613:0 614:0 615:0 616:0 617:0 618:0 619:0 620:0 621:255 622:255 623:255 624:255 625:0 626:0 627:0 628:0 629:0 630:0 631:0 632:0 633:0 634:0 635:0 636:0 637:0 638:0 639:0 640:0 641:0 642:0 643:0 644:0 645:0 646:0 647:0 648:0 649:0 650:0 651:0 652:0 653:0 654:0 655:0 656:0 657:0 658:0 659:0 660:0 661:0 662:0 663:0 664:0 665:0 666:0 667:0 668:0 669:0 670:0 671:0 672:0 673:0 674:0 675:0 676:0 677:0 678:0 679:0 680:0 681:0 682:0 683:0 684:0 685:0 686:0 687:0 688:0 689:0 690:0 691:0 692:0 693:0 694:0 695:0 696:0 697:0 698:0 699:0 700:0 701:0 702:0 703:0 704:0 705:0 706:0 707:0 708:0 709:0 710:0 711:0 712:0 713:0 714:0 715:0 716:0 717:0 718:0 719:0 720:0 721:0 722:0 723:0 724:0 725:0 726:0 727:255 728:255 729:255 730:255 731:255 732:0 733:0 734:0 735:0 736:0 737:0 738:0 739:0 740:0 741:0 742:0 743:0 744:0 745:0 746:255 747:255 748:255 749:255 750:0 751:0 752:0 753:0 754:0 755:0 756:0 757:0 758:0 759:0 760:0 761:0 762:0 763:0 764:255 765:255 766:255 767:255 768:255 769:0 770:0 771:0 772:0 773:0 774:0 775:0 776:0 777:0 778:0 779:0 780:0 781:255 782:255 783:255 784:255 785:255 786:255 787:255 788:0 789:0 790:0 791:0 792:0 793:0 794:0 795:0 796:0 797:0 798:0 799:0 800:0 801:255 802:255 803:255 804:255 805:255 806:0 807:0 808:0 809:0 810:0 811:0 812:0 813:0 814:0 815:0 816:0 817:0 818:0 819:0 820:0 821:0 822:0 823:0 824:0 825:0 826:0 827:0 828:0 829:0 830:0 831:0 832:0 833:0 834:0 835:0 836:0 837:255 838:255 839:255 840:255 841:255 842:255 843:255 844:0 845:0 846:0 847:0 848:0 849:0 850:0 851:0 852:0 853:0 854:0 855:0 856:0 857:0 858:0 859:0 860:0 861:0 862:0 863:0 864:0 865:0 866:0 867:0 868:0 869:0 870:0 871:255 872:255 873:255 874:255 875:255 876:255 877:255 878:255 879:255 880:255 881:255 882:255 883:255 884:0 885:0 886:0 887:0 888:0 889:0 890:0 891:255 892:255 893:255 894:255 895:255 896:255 897:255 898:255 899:255 900:255 901:255 902:0 903:0 904:0 905:0 906:0 907:255 908:255 909:255 910:255 911:255 912:255 913:255 914:255 915:255 916:255 917:255 918:255 919:255 920:255 921:0 922:0 923:0 924:0 925:0 926:255 927:255 928:255 929:255 930:255 931:255 932:255 933:255 934:255 935:255 936:255 937:255 938:255 939:0 940:0 941:0 942:0 943:0 944:0 945:0 946:0 947:0 948:0 949:0 950:0 951:0 952:0 953:0 954:0 955:0 956:0 957:0 958:0 959:0 960:0 961:0 962:0 963:255 964:255 965:255 966:255 967:255 968:255 969:255 970:255 971:255 972:255 973:255 974:255 975:255 976:0 977:0 978:0 979:0 980:0 981:0 982:0 983:0 984:0 985:255 986:255 987:255 988:255 989:255 990:255 991:255 992:255 993:255 994:255 995:0 996:0 997:0 998:0 999:0 1000:255 1001:255 1002:255 1003:255 1004:255 1005:255 1006:255 1007:255 1008:255 1009:255 1010:255 1011:255 1012:255 1013:0 1014:0 1015:0 1016:0 1017:0 1018:255 1019:255 1020:255 1021:255 1022:255 1023:255 1024:255 1025:255 1026:255 1027:255 1028:255 1029:255 1030:255 1031:255 1032:255 1033:0 1034:0 1035:0 1036:0 1037:255 1038:255 1039:255 1040:255 1041:255 1042:255 1043:255 1044:255 1045:255 1046:255 1047:255 1048:255 1049:255 1050:255 1051:0 1052:0 1053:255 1054:255 1055:255 1056:255 1057:255 1058:255 1059:255 1060:255 1061:255 1062:255 1063:255 1064:255 1065:255 1066:255 1067:255 1068:255 1069:255 1070:0 1071:0 1072:0 1073:0 1074:255 1075:255 1076:255 1077:255 1078:255 1079:255 1080:255 1081:255 1082:255 1083:255 1084:255 1085:255 1086:255 1087:255 1088:0 1089:255 1090:255 1091:255 1092:255 1093:255 1094:255 1095:255 1096:0 1097:0 1098:0 1099:0 1100:0 1101:255 1102:255 1103:255 1104:255 1105:255 1106:255 1107:255 1108:0 1109:0 1110:0 1111:255 1112:255 1113:255 1114:255 1115:255 1116:255 1117:255 1118:255 1119:255 1120:255 1121:255 1122:255 1123:255 1124:255 1125:0 1126:255 1127:255 1128:255 1129:255 1130:255 1131:0 1132:0 1133:0 1134:0 1135:0 1136:0 1137:0 1138:0 1139:255 1140:255 1141:255 1142:255 1143:255 1144:0 1145:0 1146:0 1147:0 1148:0 1149:0 1150:255 1151:255 1152:255 1153:255 1154:255 1155:255 1156:255 1157:255 1158:255 1159:255 1160:0 1161:0 1162:0 1163:0 1164:255 1165:255 1166:255 1167:255 1168:0 1169:0 1170:0 1171:0 1172:0 1173:0 1174:0 1175:0 1176:255 1177:255 1178:255 1179:255 1180:255 1181:255 1182:0 1183:0 1184:0 1185:0 1186:0 1187:0 1188:0 1189:255 1190:255 1191:255 1192:255 1193:255 1194:255 1195:0 1196:0 1197:0 1198:0 1199:0 1200:0 1201:255 1202:255 1203:255 1204:255 1205:0 1206:0 1207:0 1208:0 1209:0 1210:0 1211:255 1212:255 1213:255 1214:255 1215:255 1216:255 1217:255 1218:255 1219:0 1220:0 1221:0 1222:0 1223:0 1224:0 1225:0 1226:255 1227:255 1228:255 1229:255 1230:255 1231:255 1232:0 1233:0 1234:0 1235:0 1236:0 1237:0 1238:255 1239:255 1240:255 1241:0 1242:0 1243:0 1244:0 1245:0 1246:0 1247:0 1248:0 1249:255 1250:255 1251:255 1252:255 1253:255 1254:255 1255:0 1256:0 1257:0 1258:0 1259:0 1260:0 1261:0 1262:255 1263:255 1264:255 1265:255 1266:255 1267:255 1268:255 1269:255 1270:255 1271:255 1272:0 1273:0 1274:0 1275:0 1276:0 1277:0 1278:0 1279:0 1280:0 1281:0 1282:0 1283:0 1284:0 1285:0 1286:0 1287:0 1288:0 1289:0 1290:0 1291:0 1292:0 1293:0 1294:0 1295:0 1296:255 1297:255 1298:255 1299:255 1300:255 1301:255 1302:255 1303:255 1304:255 1305:255 1306:255 1307:255 1308:255 1309:255 1310:255 1311:0 1312:0 1313:0 1314:0 1315:0 1316:0 1317:0 1318:0 1319:0 1320:0 1321:0 1322:0 1323:0 1324:0 1325:0 1326:0 1327:0 1328:0 1329:0 1330:0 1331:0 1332:0 1333:255 1334:255 1335:255 1336:255 1337:255 1338:255 1339:255 1340:255 1341:255 1342:255 1343:255 1344:255 1345:255 1346:255 1347:255 1348:0 1349:0 1350:0 1351:0 1352:0 1353:0 1354:0 1355:0 1356:0 1357:0 1358:0 1359:0 1360:0 1361:0 1362:0 1363:0 1364:0 1365:0 1366:0 1367:0 1368:0 1369:0 1370:255 1371:255 1372:255 1373:255 1374:255 1375:255 1376:255 1377:255 1378:255 1379:255 1380:255 1381:255 1382:255 1383:255 1384:0 1385:0 1386:0 1387:0 1388:0 1389:255 1390:255 1391:255 1392:255 1393:255 1394:255 1395:255 1396:255 1397:255 1398:255 1399:255 1400:255 1401:0 1402:0 1403:0 1404:0 1405:0 1406:0 1407:0 1408:0 1409:255 1410:255 1411:255 1412:255 1413:255 1414:255 1415:255 1416:255 1417:255 1418:255 1419:255 1420:0 1421:0 1422:0 1423:0 1424:255 1425:255 1426:255 1427:255 1428:255 1429:255 1430:255 1431:255 1432:255 1433:255 1434:255 1435:255 1436:255 1437:255 1438:255 1439:255 1440:255 1441:0 1442:0 1443:0 1444:0 1445:0 1446:0 1447:0 1448:255 1449:255 1450:255 1451:255 1452:255 1453:255 1454:255 1455:0 1456:0 1457:0 1458:255 1459:255 1460:255 1461:255 1462:255 1463:255 1464:255 1465:255 1466:255 1467:255 1468:255 1469:255 1470:255 1471:255 1472:255 1473:255 1474:255 1475:255 1476:255 1477:255 1478:255 1479:0 1480:0 1481:0 1482:0 1483:0 1484:0 1485:255 1486:255 1487:255 1488:255 1489:255 1490:255 1491:255 1492:0 1493:0 1494:255 1495:255 1496:255 1497:255 1498:255 1499:255 1500:255 1501:255 1502:255 1503:255 1504:255 1505:0 1506:0 1507:0 1508:255 1509:255 1510:255 1511:255 1512:255 1513:255 1514:255 1515:255 1516:0 1517:0 1518:0 1519:0 1520:0 1521:0 1522:255 1523:255 1524:255 1525:255 1526:255 1527:255 1528:255 1529:255 1530:255 1531:255 1532:255 1533:255 1534:255 1535:255 1536:255 1537:255 1538:255 1539:255 1540:0 1541:0 1542:0 1543:0 1544:0 1545:0 1546:255 1547:255 1548:255 1549:255 1550:255 1551:255 1552:255 1553:255 1554:0 1555:0 1556:0 1557:0 1558:0 1559:255 1560:255 1561:255 1562:255 1563:255 1564:255 1565:255 1566:255 1567:255 1568:255 1569:255 1570:255 1571:255 1572:255 1573:255 1574:255 1575:255 1576:0 1577:0 1578:0 1579:0 1580:0 1581:0 1582:0 1583:0 1584:0 1585:255 1586:255 1587:255 1588:255 1589:0 1590:0 1591:0 
-2.972454860599758e-019 1:255 2:255 3:255 4:255 5:0 6:0 7:0 8:0 9:0 10:0 11:0 12:0 13:0 14:0 15:0 16:0 17:0 18:0 19:0 20:0 21:0 22:0 23:0 24:0 25:0 26:0 27:0 28:0 29:0 30:0 31:0 32:0 33:0 34:0 35:0 36:0 37:0 38:255 39:255 40:255 41:255 42:0 43:0 44:0 45:0 46:0 47:0 48:0 49:0 50:0 51:0 52:0 53:0 54:0 55:0 56:0 57:0 58:0 59:0 60:0 61:0 62:0 63:0 64:0 65:0 66:0 67:0 68:0 69:0 70:0 71:0 72:0 73:0 74:0 75:255 76:255 77:255 78:255 79:0 80:0 81:0 82:0 83:0 84:0 85:0 86:0 87:0 88:0 89:0 90:0 91:0 92:0 93:0 94:0 95:0 96:0 97:0 98:255 99:255 100:0 101:0 102:0 103:0 104:0 105:0 106:0 107:0 108:0 109:0 110:0 111:0 112:255 113:255 114:255 115:255 116:0 117:0 118:0 119:0 120:0 121:0 122:0 123:0 124:0 125:0 126:0 127:0 128:0 129:0 130:0 131:0 132:0 133:0 134:255 135:255 136:255 137:255 138:255 139:0 140:0 141:0 142:0 143:0 144:0 145:0 146:0 147:0 148:0 149:255 150:255 151:255 152:255 153:0 154:0 155:0 156:0 157:0 158:0 159:0 160:0 161:0 162:0 163:0 164:0 165:0 166:0 167:0 168:0 169:0 170:255 171:255 172:255 173:255 174:255 175:255 176:255 177:0 178:0 179:0 180:0 181:0 182:255 183:255 184:255 185:255 186:255 187:255 188:255 189:255 190:0 191:0 192:0 193:0 194:0 195:0 196:0 197:0 198:0 199:0 200:0 201:255 202:0 203:0 204:0 205:0 206:255 207:255 208:255 209:255 210:255 211:255 212:255 213:255 214:255 215:0 216:255 217:255 218:255 219:255 220:255 221:255 222:255 223:255 224:255 225:255 226:255 227:0 228:0 229:0 230:0 231:0 232:0 233:0 234:0 235:255 236:255 237:255 238:255 239:255 240:255 241:255 242:255 243:255 244:255 245:255 246:255 247:255 248:255 249:255 250:255 251:255 252:255 253:255 254:255 255:255 256:255 257:255 258:255 259:255 260:255 261:255 262:255 263:255 264:0 265:0 266:0 267:0 268:0 269:0 270:0 271:0 272:255 273:255 274:255 275:255 276:255 277:255 278:255 279:255 280:255 281:255 282:255 283:255 284:255 285:255 286:255 287:255 288:255 289:255 290:255 291:255 292:255 293:255 294:255 295:255 296:0 297:255 298:255 299:255 300:255 301:0 302:0 303:0 304:0 305:0 306:0 307:0 308:0 309:0 310:255 311:255 312:255 313:255 314:255 315:255 316:255 317:255 318:255 319:255 320:255 321:255 322:255 323:255 324:255 325:255 326:255 327:255 328:255 329:255 330:255 331:255 332:0 333:0 334:255 335:255 336:255 337:255 338:0 339:0 340:0 341:0 342:0 343:0 344:0 345:0 346:0 347:0 348:0 349:0 350:255 351:255 352:255 353:255 354:255 355:255 356:255 357:255 358:255 359:255 360:255 361:255 362:255 363:255 364:255 365:255 366:255 367:255 368:255 369:0 370:0 371:255 372:255 373:255 374:255 375:0 376:0 377:0 378:0 379:0 380:0 381:0 382:0 383:0 384:0 385:0 386:0 387:255 388:255 389:255 390:255 391:255 392:255 393:255 394:255 395:255 396:255 397:255 398:255 399:255 400:255 401:255 402:255 403:255 404:255 405:255 406:255 407:0 408:255 409:255 410:255 411:255 412:0 413:0 414:0 415:0 416:0 417:0 418:0 419:0 420:0 421:0 422:0 423:0 424:255 425:255 426:255 427:255 428:255 429:255 430:255 431:255 432:255 433:255 434:255 435:255 436:255 437:255 438:255 439:255 440:255 441:255 442:255 443:255 444:255 445:255 446:255 447:255 448:255 449:0 450:0 451:0 452:0 453:0 454:0 455:0 456:0 457:0 458:0 459:0 460:255 461:255 462:255 463:255 464:255 465:255 466:255 467:255 468:255 469:255 470:255 471:255 472:255 473:255 474:255 475:255 476:255 477:255 478:255 479:255 480:255 481:255 482:255 483:255 484:255 485:255 486:0 487:0 488:0 489:0 490:0 491:0 492:255 493:255 494:255 495:255 496:255 497:255 498:255 499:255 500:255 501:255 502:255 503:255 504:255 505:255 506:255 507:255 508:255 509:255 510:255 511:255 512:255 513:255 514:255 515:255 516:255 517:255 518:255 519:255 520:255 521:255 522:255 523:0 524:0 525:0 526:0 527:0 528:255 529:255 530:255 531:255 532:255 533:255 534:255 535:255 536:0 537:255 538:255 539:255 540:255 541:255 542:255 543:255 544:255 545:255 546:255 547:255 548:255 549:255 550:255 551:255 552:255 553:255 554:255 555:255 556:255 557:255 558:255 559:255 560:0 561:0 562:0 563:0 564:0 565:0 566:255 567:255 568:255 569:255 570:255 571:255 572:255 573:0 574:255 575:255 576:255 577:255 578:255 579:255 580:255 581:255 582:255 583:255 584:255 585:255 586:255 587:255 588:255 589:255 590:255 591:255 592:255 593:255 594:255 595:255 596:0 597:0 598:0 599:0 600:0 601:0 602:0 603:0 604:0 605:255 606:255 607:255 608:255 609:255 610:255 611:255 612:255 613:255 614:255 615:255 616:255 617:255 618:255 619:255 620:255 621:255 622:255 623:255 624:255 625:255 626:255 627:255 628:255 629:255 630:255 631:255 632:255 633:0 634:0 635:0 636:0 637:0 638:0 639:0 640:0 641:0 642:0 643:0 644:0 645:255 646:255 647:255 648:255 649:255 650:255 651:255 652:255 653:255 654:255 655:255 656:255 657:255 658:255 659:255 660:255 661:255 662:255 663:255 664:255 665:255 666:255 667:255 668:255 669:255 670:0 671:0 672:0 673:0 674:0 675:0 676:0 677:0 678:0 679:0 680:0 681:0 682:0 683:0 684:255 685:255 686:255 687:255 688:255 689:255 690:255 691:255 692:255 693:255 694:255 695:255 696:255 697:255 698:255 699:255 700:255 701:255 702:255 703:255 704:255 705:255 706:255 707:0 708:0 709:0 710:0 711:0 712:0 713:0 714:0 715:0 716:0 717:0 718:0 719:0 720:0 721:255 722:255 723:255 724:255 725:255 726:255 727:255 728:255 729:255 730:255 731:255 732:255 733:255 734:255 735:255 736:255 737:255 738:255 739:255 740:255 741:255 742:255 743:0 744:0 745:0 746:0 747:0 748:0 749:0 750:0 751:0 752:0 753:0 754:0 755:0 756:255 757:255 758:255 759:255 760:255 761:255 762:255 763:255 764:255 765:255 766:255 767:255 768:255 769:255 770:255 771:255 772:255 773:255 774:255 775:255 776:255 777:255 778:255 779:255 780:0 781:0 782:0 783:0 784:0 785:0 786:0 787:0 788:0 789:0 790:255 791:255 792:255 793:255 794:255 795:255 796:255 797:255 798:255 799:255 800:255 801:255 802:255 803:255 804:255 805:255 806:255 807:255 808:255 809:255 810:255 811:255 812:255 813:255 814:255 815:255 816:255 817:0 818:0 819:0 820:0 821:0 822:0 823:0 824:0 825:255 826:255 827:255 828:255 829:255 830:255 831:255 832:255 833:255 834:255 835:255 836:255 837:255 838:255 839:255 840:255 841:255 842:255 843:255 844:255 845:255 846:255 847:255 848:255 849:255 850:255 851:255 852:255 853:255 854:0 855:0 856:0 857:0 858:0 859:0 860:0 861:255 862:255 863:255 864:255 865:255 866:255 867:255 868:255 869:255 870:255 871:255 872:255 873:255 874:255 875:255 876:255 877:255 878:255 879:255 880:255 881:255 882:255 883:255 884:255 885:255 886:255 887:255 888:255 889:255 890:255 891:0 892:0 893:0 894:0 895:0 896:0 897:0 898:255 899:255 900:255 901:255 902:255 903:255 904:255 905:255 906:255 907:255 908:255 909:255 910:255 911:255 912:255 913:255 914:255 915:255 916:255 917:255 918:255 919:255 920:255 921:255 922:255 923:255 924:255 925:255 926:255 927:255 928:0 929:0 930:0 931:0 932:0 933:0 934:0 935:255 936:255 937:255 938:255 939:255 940:255 941:255 942:255 943:255 944:255 945:255 946:255 947:255 948:255 949:255 950:255 951:255 952:255 953:255 954:255 955:255 956:255 957:255 958:255 959:255 960:255 961:255 962:255 963:255 964:255 965:0 966:0 967:0 968:0 969:0 970:0 971:0 972:255 973:255 974:255 975:255 976:255 977:255 978:255 979:255 980:255 981:255 982:255 983:255 984:255 985:255 986:255 987:255 988:255 989:255 990:255 991:255 992:255 993:255 994:255 995:255 996:255 997:255 998:255 999:255 1000:255 1001:255 1002:0 1003:0 1004:0 1005:0 1006:0 1007:0 1008:255 1009:255 1010:255 1011:255 1012:255 1013:255 1014:255 1015:255 1016:255 1017:255 1018:255 1019:255 1020:255 1021:255 1022:255 1023:255 1024:255 1025:255 1026:255 1027:255 1028:255 1029:255 1030:255 1031:255 1032:255 1033:255 1034:255 1035:255 1036:255 1037:255 1038:255 1039:0 1040:0 1041:0 1042:0 1043:0 1044:0 1045:255 1046:255 1047:255 1048:255 1049:255 1050:255 1051:255 1052:255 1053:255 1054:0 1055:255 1056:255 1057:255 1058:255 1059:255 1060:255 1061:255 1062:255 1063:255 1064:255 1065:255 1066:255 1067:255 1068:255 1069:255 1070:255 1071:255 1072:255 1073:255 1074:255 1075:255 1076:0 1077:0 1078:0 1079:0 1080:0 1081:0 1082:255 1083:255 1084:255 1085:255 1086:255 1087:255 1088:255 1089:0 1090:0 1091:255 1092:255 1093:255 1094:255 1095:255 1096:255 1097:255 1098:255 1099:255 1100:255 1101:255 1102:255 1103:255 1104:255 1105:255 1106:255 1107:255 1108:255 1109:255 1110:255 1111:255 1112:255 1113:0 1114:0 1115:0 1116:0 1117:0 1118:255 1119:255 1120:255 1121:255 1122:255 1123:255 1124:255 1125:255 1126:0 1127:0 1128:255 1129:255 1130:255 1131:255 1132:255 1133:255 1134:255 1135:255 1136:255 1137:255 1138:255 1139:255 1140:255 1141:255 1142:255 1143:255 1144:255 1145:255 1146:255 1147:255 1148:255 1149:255 1150:0 1151:0 1152:0 1153:0 1154:255 1155:255 1156:255 1157:255 1158:255 1159:255 1160:255 1161:255 1162:255 1163:0 1164:0 1165:255 1166:255 1167:255 1168:255 1169:255 1170:255 1171:255 1172:255 1173:255 1174:255 1175:255 1176:255 1177:255 1178:255 1179:255 1180:255 1181:255 1182:255 1183:255 1184:255 1185:255 1186:255 1187:0 1188:0 1189:0 1190:0 1191:255 1192:255 1193:255 1194:255 1195:255 1196:255 1197:255 1198:255 1199:0 1200:0 1201:255 1202:255 1203:255 1204:255 1205:255 1206:255 1207:255 1208:255 1209:255 1210:255 1211:255 1212:255 1213:255 1214:255 1215:255 1216:255 1217:255 1218:255 1219:255 1220:255 1221:255 1222:255 1223:255 1224:0 1225:0 1226:0 1227:0 1228:255 1229:255 1230:255 1231:255 1232:255 1233:255 1234:255 1235:0 1236:0 1237:0 1238:0 1239:255 1240:255 1241:255 1242:255 1243:255 1244:255 1245:255 1246:255 1247:255 1248:255 1249:255 1250:255 1251:255 1252:255 1253:255 1254:255 1255:255 1256:255 1257:255 1258:255 1259:255 1260:255 1261:0 1262:0 1263:0 1264:255 1265:255 1266:255 1267:255 1268:255 1269:255 1270:255 1271:255 1272:0 1273:0 1274:0 1275:0 1276:255 1277:255 1278:255 1279:255 1280:255 1281:255 1282:255 1283:255 1284:255 1285:255 1286:255 1287:255 1288:255 1289:255 1290:255 1291:255 1292:255 1293:255 1294:255 1295:255 1296:255 1297:255 1298:0 1299:0 1300:0 1301:255 1302:255 1303:255 1304:255 1305:255 1306:255 1307:255 1308:255 1309:0 1310:0 1311:0 1312:0 1313:255 1314:255 1315:255 1316:255 1317:255 1318:255 1319:255 1320:255 1321:255 1322:255 1323:255 1324:255 1325:255 1326:255 1327:255 1328:255 1329:255 1330:255 1331:255 1332:255 1333:255 1334:255 1335:0 1336:0 1337:0 1338:255 1339:255 1340:255 1341:255 1342:255 1343:255 1344:255 1345:255 1346:0 1347:0 1348:0 1349:0 1350:255 1351:255 1352:255 1353:255 1354:255 1355:255 1356:255 1357:255 1358:255 1359:255 1360:255 1361:255 1362:255 1363:255 1364:255 1365:255 1366:255 1367:255 1368:255 1369:255 1370:0 1371:0 1372:0 1373:0 1374:0 1375:0 1376:255 1377:255 1378:255 1379:255 1380:255 1381:255 1382:0 1383:0 1384:0 1385:0 1386:255 1387:255 1388:255 1389:255 1390:255 1391:255 1392:255 1393:255 1394:255 1395:255 1396:255 1397:255 1398:255 1399:255 1400:255 1401:255 1402:255 1403:255 1404:255 1405:255 1406:255 1407:0 1408:0 1409:0 1410:0 1411:0 1412:0 1413:0 1414:0 1415:255 1416:255 1417:255 1418:0 1419:0 1420:0 1421:0 1422:0 1423:255 1424:255 1425:255 1426:255 1427:255 1428:255 1429:255 1430:255 1431:255 1432:255 1433:255 1434:255 1435:255 1436:255 1437:255 1438:0 1439:255 1440:255 1441:255 1442:255 1443:255 1444:0 1445:0 1446:0 1447:0 1448:0 1449:0 1450:0 1451:0 1452:0 1453:0 1454:0 1455:0 1456:0 1457:0 1458:0 1459:0 1460:255 1461:255 1462:255 1463:255 1464:255 1465:0 1466:0 1467:0 1468:0 1469:0 1470:0 1471:0 1472:0 1473:0 1474:0 1475:0 1476:0 1477:255 1478:255 1479:255 1480:255 1481:0 1482:0 1483:0 1484:0 1485:0 1486:0 1487:0 1488:0 1489:0 1490:0 1491:0 1492:0 1493:0 1494:0 1495:0 1496:0 1497:0 1498:0 1499:0 1500:0 1501:0 1502:0 1503:0 1504:0 1505:0 1506:0 1507:0 1508:0 1509:0 1510:0 1511:0 1512:0 1513:0 1514:0 1515:0 1516:0 1517:0 1518:0 1519:0 1520:0 1521:0 1522:0 1523:0 1524:0 1525:0 1526:0 1527:0 1528:0 1529:0 1530:0 1531:0 1532:0 1533:0 1534:0 1535:0 1536:0 1537:0 1538:0 1539:0 1540:0 1541:0 1542:0 1543:0 1544:0 1545:0 1546:0 1547:0 1548:0 1549:0 1550:0 1551:0 1552:0 1553:0 1554:0 1555:0 1556:0 1557:0 1558:0 1559:0 1560:0 1561:0 1562:0 1563:0 1564:0 1565:0 1566:0 1567:0 1568:0 1569:0 1570:0 1571:0 1572:0 1573:0 1574:0 1575:0 1576:0 1577:0 1578:0 1579:0 1580:0 1581:0 1582:0 1583:0 1584:0 1585:0 1586:0 1587:0 1588:0 1589:0 1590:0 1591:0 
-4.786366574214421e-019 1:0 2:0 3:0 4:0 5:0 6:0 7:0 8:0 9:0 10:0 11:0 12:0 13:0 14:0 15:0 16:0 17:0 18:0 19:0 20:0 21:0 22:0 23:0 24:0 25:0 26:0 27:0 28:0 29:0 30:0 31:0 32:0 33:0 34:0 35:0 36:0 37:0 38:0 39:0 40:0 41:0 42:0 43:0 44:0 45:0 46:0 47:0 48:0 49:0 50:0 51:0 52:0 53:0 54:0 55:0 56:0 57:0 58:0 59:0 60:0 61:0 62:0 63:0 64:0 65:0 66:0 67:0 68:0 69:0 70:0 71:0 72:0 73:0 74:0 75:0 76:0 77:0 78:0 79:0 80:0 81:0 82:0 83:0 84:0 85:0 86:0 87:0 88:0 89:0 90:0 91:0 92:0 93:0 94:255 95:0 96:0 97:0 98:0 99:0 100:0 101:0 102:0 103:0 104:0 105:0 106:0 107:0 108:0 109:0 110:0 111:0 112:0 113:0 114:0 115:0 116:0 117:0 118:0 119:0 120:0 121:0 122:0 123:0 124:0 125:0 126:0 127:0 128:255 129:255 130:255 131:255 132:255 133:255 134:255 135:0 136:0 137:0 138:0 139:0 140:0 141:0 142:0 143:0 144:0 145:0 146:0 147:0 148:0 149:0 150:0 151:0 152:0 153:0 154:0 155:0 156:0 157:0 158:0 159:0 160:0 161:0 162:0 163:255 164:255 165:255 166:255 167:255 168:255 169:255 170:255 171:255 172:255 173:255 174:0 175:0 176:0 177:0 178:0 179:0 180:0 181:0 182:0 183:0 184:0 185:0 186:0 187:0 188:0 189:0 190:0 191:255 192:255 193:255 194:255 195:255 196:255 197:255 198:255 199:255 200:255 201:255 202:255 203:255 204:255 205:255 206:255 207:255 208:255 209:255 210:255 211:255 212:255 213:255 214:0 215:0 216:0 217:0 218:0 219:0 220:0 221:0 222:0 223:0 224:0 225:0 226:255 227:255 228:255 229:255 230:255 231:255 232:255 233:255 234:255 235:255 236:255 237:255 238:255 239:255 240:255 241:255 242:255 243:255 244:255 245:255 246:255 247:255 248:255 249:255 250:255 251:255 252:255 253:255 254:255 255:255 256:255 257:255 258:255 259:0 260:0 261:0 262:255 263:255 264:255 265:255 266:255 267:255 268:255 269:255 270:255 271:255 272:255 273:255 274:255 275:255 276:255 277:255 278:255 279:255 280:255 281:255 282:255 283:255 284:255 285:255 286:255 287:255 288:255 289:255 290:255 291:255 292:255 293:255 294:255 295:255 296:255 297:0 298:0 299:255 300:255 301:255 302:255 303:255 304:255 305:255 306:255 307:255 308:255 309:255 310:255 311:255 312:255 313:255 314:255 315:255 316:255 317:255 318:255 319:255 320:255 321:255 322:255 323:255 324:255 325:255 326:255 327:255 328:255 329:255 330:255 331:255 332:255 333:255 334:0 335:0 336:0 337:0 338:255 339:255 340:255 341:255 342:255 343:255 344:255 345:255 346:255 347:255 348:255 349:255 350:255 351:255 352:255 353:255 354:255 355:255 356:255 357:255 358:255 359:255 360:255 361:255 362:255 363:255 364:255 365:255 366:255 367:0 368:0 369:0 370:0 371:0 372:0 373:0 374:0 375:0 376:0 377:0 378:0 379:0 380:0 381:0 382:0 383:0 384:0 385:0 386:0 387:0 388:0 389:0 390:0 391:0 392:0 393:0 394:0 395:0 396:0 397:0 398:0 399:0 400:0 401:0 402:0 403:0 404:0 405:0 406:0 407:0 408:0 409:0 410:0 411:0 412:0 413:0 414:0 415:0 416:0 417:0 418:0 419:0 420:0 421:0 422:0 423:0 424:0 425:0 426:0 427:0 428:0 429:0 430:0 431:0 432:0 433:0 434:0 435:0 436:0 437:0 438:0 439:0 440:0 441:0 442:0 443:0 444:0 445:0 446:0 447:0 448:0 449:0 450:0 451:0 452:0 453:255 454:255 455:255 456:255 457:255 458:255 459:255 460:255 461:255 462:255 463:255 464:255 465:255 466:255 467:255 468:255 469:255 470:255 471:255 472:255 473:0 474:0 475:0 476:0 477:0 478:0 479:0 480:0 481:0 482:0 483:0 484:0 485:0 486:0 487:0 488:255 489:255 490:255 491:255 492:255 493:255 494:255 495:255 496:255 497:255 498:255 499:255 500:255 501:255 502:255 503:255 504:255 505:255 506:255 507:255 508:255 509:255 510:255 511:255 512:255 513:255 514:0 515:0 516:0 517:0 518:0 519:0 520:0 521:0 522:0 523:0 524:255 525:255 526:255 527:255 528:255 529:255 530:255 531:255 532:255 533:255 534:255 535:255 536:255 537:255 538:255 539:255 540:255 541:255 542:255 543:255 544:255 545:255 546:255 547:255 548:255 549:255 550:255 551:255 552:0 553:0 554:0 555:0 556:0 557:0 558:0 559:0 560:255 561:255 562:255 563:255 564:255 565:255 566:255 567:255 568:255 569:255 570:255 571:255 572:255 573:255 574:255 575:255 576:255 577:255 578:255 579:255 580:255 581:255 582:255 583:255 584:255 585:255 586:255 587:255 588:255 589:0 590:0 591:0 592:0 593:0 594:0 595:0 596:0 597:255 598:255 599:255 600:255 601:255 602:255 603:255 604:255 605:255 606:255 607:255 608:255 609:255 610:255 611:255 612:255 613:255 614:255 615:255 616:255 617:255 618:255 619:255 620:255 621:255 622:255 623:255 624:255 625:255 626:0 627:0 628:0 629:0 630:0 631:0 632:0 633:0 634:255 635:255 636:255 637:255 638:255 639:255 640:255 641:255 642:255 643:255 644:0 645:0 646:0 647:0 648:0 649:0 650:0 651:0 652:0 653:255 654:255 655:255 656:255 657:255 658:255 659:255 660:255 661:255 662:255 663:0 664:0 665:0 666:0 667:0 668:0 669:0 670:0 671:255 672:255 673:255 674:255 675:255 676:255 677:255 678:255 679:255 680:0 681:0 682:0 683:0 684:0 685:0 686:0 687:0 688:0 689:0 690:0 691:255 692:255 693:255 694:255 695:255 696:255 697:255 698:255 699:255 700:0 701:0 702:0 703:0 704:0 705:0 706:0 707:0 708:255 709:255 710:255 711:255 712:255 713:255 714:255 715:255 716:255 717:0 718:0 719:0 720:0 721:0 722:0 723:0 724:0 725:0 726:0 727:0 728:255 729:255 730:255 731:255 732:255 733:255 734:255 735:255 736:255 737:0 738:0 739:0 740:0 741:0 742:0 743:0 744:0 745:255 746:255 747:255 748:255 749:255 750:255 751:255 752:255 753:255 754:0 755:0 756:0 757:0 758:0 759:0 760:0 761:0 762:0 763:0 764:255 765:255 766:255 767:255 768:255 769:255 770:255 771:255 772:255 773:255 774:0 775:0 776:0 777:0 778:0 779:0 780:0 781:0 782:255 783:255 784:255 785:255 786:255 787:255 788:255 789:255 790:255 791:255 792:255 793:0 794:0 795:0 796:0 797:0 798:0 799:255 800:255 801:255 802:255 803:255 804:255 805:255 806:255 807:255 808:255 809:255 810:0 811:0 812:0 813:0 814:0 815:0 816:0 817:0 818:255 819:255 820:255 821:255 822:255 823:255 824:255 825:255 826:255 827:255 828:255 829:255 830:255 831:255 832:255 833:255 834:255 835:255 836:255 837:255 838:255 839:255 840:255 841:255 842:255 843:255 844:255 845:255 846:255 847:0 848:0 849:0 850:0 851:0 852:0 853:0 854:0 855:0 856:255 857:255 858:255 859:255 860:255 861:255 862:255 863:255 864:255 865:255 866:255 867:255 868:255 869:255 870:255 871:255 872:255 873:255 874:255 875:255 876:255 877:255 878:255 879:255 880:255 881:255 882:255 883:255 884:0 885:0 886:0 887:0 888:0 889:0 890:0 891:0 892:0 893:255 894:255 895:255 896:255 897:255 898:255 899:255 900:255 901:255 902:255 903:255 904:255 905:255 906:255 907:255 908:255 909:255 910:255 911:255 912:255 913:255 914:255 915:255 916:255 917:255 918:255 919:255 920:0 921:0 922:0 923:0 924:0 925:0 926:0 927:0 928:0 929:0 930:0 931:0 932:255 933:255 934:255 935:255 936:255 937:255 938:255 939:255 940:255 941:255 942:255 943:255 944:255 945:255 946:255 947:255 948:255 949:255 950:255 951:255 952:255 953:255 954:255 955:255 956:0 957:0 958:0 959:0 960:0 961:0 962:0 963:0 964:0 965:0 966:0 967:0 968:0 969:0 970:0 971:255 972:255 973:255 974:255 975:255 976:255 977:255 978:255 979:255 980:255 981:255 982:255 983:255 984:255 985:255 986:255 987:0 988:0 989:0 990:0 991:0 992:0 993:0 994:0 995:0 996:0 997:0 998:0 999:0 1000:0 1001:0 1002:0 1003:0 1004:0 1005:0 1006:0 1007:0 1008:0 1009:255 1010:0 1011:0 1012:255 1013:255 1014:255 1015:255 1016:255 1017:255 1018:255 1019:255 1020:255 1021:255 1022:255 1023:0 1024:0 1025:0 1026:0 1027:0 1028:0 1029:0 1030:0 1031:0 1032:0 1033:0 1034:0 1035:0 1036:0 1037:0 1038:0 1039:0 1040:0 1041:0 1042:0 1043:255 1044:255 1045:255 1046:255 1047:255 1048:255 1049:255 1050:255 1051:255 1052:255 1053:255 1054:255 1055:255 1056:255 1057:255 1058:255 1059:255 1060:0 1061:0 1062:255 1063:255 1064:255 1065:255 1066:0 1067:0 1068:0 1069:0 1070:0 1071:0 1072:0 1073:0 1074:0 1075:0 1076:0 1077:0 1078:255 1079:255 1080:255 1081:255 1082:255 1083:255 1084:255 1085:255 1086:255 1087:255 1088:255 1089:255 1090:255 1091:255 1092:255 1093:255 1094:255 1095:255 1096:255 1097:0 1098:255 1099:255 1100:255 1101:255 1102:255 1103:255 1104:0 1105:0 1106:0 1107:0 1108:0 1109:0 1110:0 1111:0 1112:0 1113:0 1114:255 1115:255 1116:255 1117:255 1118:255 1119:255 1120:255 1121:255 1122:255 1123:255 1124:255 1125:255 1126:255 1127:255 1128:255 1129:255 1130:255 1131:255 1132:255 1133:255 1134:255 1135:255 1136:255 1137:255 1138:255 1139:255 1140:255 1141:255 1142:0 1143:0 1144:0 1145:0 1146:0 1147:0 1148:0 1149:0 1150:255 1151:255 1152:255 1153:255 1154:255 1155:255 1156:255 1157:255 1158:255 1159:255 1160:255 1161:255 1162:255 1163:255 1164:255 1165:255 1166:255 1167:255 1168:255 1169:255 1170:255 1171:255 1172:255 1173:255 1174:255 1175:255 1176:255 1177:255 1178:255 1179:255 1180:0 1181:0 1182:0 1183:0 1184:0 1185:0 1186:0 1187:0 1188:255 1189:255 1190:255 1191:255 1192:255 1193:255 1194:255 1195:255 1196:255 1197:255 1198:255 1199:255 1200:255 1201:255 1202:255 1203:255 1204:255 1205:255 1206:255 1207:255 1208:0 1209:255 1210:255 1211:255 1212:255 1213:255 1214:255 1215:255 1216:255 1217:255 1218:0 1219:0 1220:0 1221:0 1222:0 1223:0 1224:255 1225:255 1226:255 1227:255 1228:255 1229:255 1230:255 1231:255 1232:255 1233:255 1234:255 1235:255 1236:255 1237:255 1238:255 1239:255 1240:255 1241:255 1242:255 1243:255 1244:0 1245:0 1246:0 1247:255 1248:255 1249:255 1250:255 1251:255 1252:255 1253:255 1254:255 1255:0 1256:0 1257:0 1258:0 1259:0 1260:0 1261:255 1262:255 1263:255 1264:255 1265:255 1266:255 1267:255 1268:255 1269:255 1270:255 1271:255 1272:255 1273:255 1274:255 1275:255 1276:255 1277:255 1278:255 1279:255 1280:255 1281:0 1282:0 1283:0 1284:255 1285:255 1286:255 1287:255 1288:255 1289:255 1290:255 1291:255 1292:0 1293:0 1294:0 1295:0 1296:0 1297:255 1298:255 1299:255 1300:255 1301:255 1302:255 1303:255 1304:255 1305:255 1306:255 1307:0 1308:255 1309:255 1310:255 1311:255 1312:255 1313:255 1314:255 1315:255 1316:255 1317:255 1318:0 1319:0 1320:0 1321:255 1322:255 1323:255 1324:255 1325:255 1326:255 1327:255 1328:255 1329:0 1330:0 1331:0 1332:0 1333:255 1334:255 1335:255 1336:255 1337:255 1338:255 1339:255 1340:255 1341:255 1342:255 1343:255 1344:0 1345:255 1346:255 1347:255 1348:255 1349:255 1350:255 1351:255 1352:255 1353:255 1354:0 1355:0 1356:0 1357:0 1358:0 1359:255 1360:255 1361:255 1362:255 1363:255 1364:255 1365:255 1366:255 1367:0 1368:0 1369:0 1370:255 1371:255 1372:255 1373:255 1374:255 1375:255 1376:255 1377:255 1378:255 1379:255 1380:255 1381:255 1382:255 1383:255 1384:255 1385:255 1386:255 1387:255 1388:255 1389:255 1390:255 1391:0 1392:0 1393:0 1394:0 1395:0 1396:255 1397:255 1398:255 1399:255 1400:255 1401:255 1402:255 1403:255 1404:0 1405:0 1406:0 1407:255 1408:255 1409:255 1410:255 1411:255 1412:255 1413:255 1414:255 1415:255 1416:255 1417:255 1418:255 1419:255 1420:255 1421:255 1422:255 1423:255 1424:255 1425:255 1426:255 1427:255 1428:0 1429:0 1430:0 1431:0 1432:0 1433:0 1434:255 1435:255 1436:255 1437:255 1438:255 1439:255 1440:255 1441:0 1442:0 1443:0 1444:255 1445:255 1446:255 1447:255 1448:255 1449:255 1450:255 1451:255 1452:255 1453:255 1454:255 1455:255 1456:255 1457:255 1458:255 1459:255 1460:255 1461:255 1462:255 1463:255 1464:0 1465:0 1466:0 1467:0 1468:0 1469:0 1470:0 1471:0 1472:0 1473:255 1474:255 1475:255 1476:255 1477:0 1478:0 1479:0 1480:0 1481:0 1482:0 1483:0 1484:0 1485:0 1486:255 1487:0 1488:0 1489:0 1490:255 1491:255 1492:255 1493:255 1494:255 1495:255 1496:255 1497:255 1498:255 1499:255 1500:255 1501:0 1502:0 1503:0 1504:0 1505:0 1506:0 1507:0 1508:0 1509:0 1510:0 1511:0 1512:0 1513:0 1514:0 1515:0 1516:0 1517:0 1518:0 1519:0 1520:0 1521:0 1522:0 1523:0 1524:0 1525:0 1526:0 1527:0 1528:0 1529:255 1530:255 1531:255 1532:255 1533:255 1534:255 1535:0 1536:0 1537:0 1538:0 1539:0 1540:0 1541:0 1542:0 1543:0 1544:0 1545:0 1546:0 1547:0 1548:0 1549:0 1550:0 1551:0 1552:0 1553:0 1554:0 1555:0 1556:0 1557:0 1558:0 1559:0 1560:0 1561:0 1562:0 1563:0 1564:0 1565:0 1566:0 1567:0 1568:0 1569:0 1570:0 1571:0 1572:0 1573:0 1574:0 1575:0 1576:0 1577:0 1578:0 1579:0 1580:0 1581:0 1582:0 1583:0 1584:0 1585:0 1586:0 1587:0 1588:0 1589:0 1590:0 1591:0 
-4.972019649923691e-018 1:0 2:0 3:0 4:0 5:0 6:0 7:0 8:0 9:0 10:0 11:0 12:0 13:0 14:0 15:0 16:0 17:0 18:0 19:0 20:0 21:0 22:0 23:0 24:0 25:0 26:0 27:0 28:0 29:0 30:0 31:0 32:0 33:0 34:0 35:0 36:0 37:0 38:0 39:0 40:0 41:0 42:0 43:0 44:0 45:0 46:0 47:0 48:0 49:0 50:0 51:0 52:0 53:0 54:0 55:0 56:0 57:0 58:0 59:0 60:0 61:0 62:0 63:0 64:0 65:0 66:0 67:0 68:0 69:0 70:0 71:0 72:0 73:0 74:0 75:0 76:0 77:0 78:0 79:0 80:0 81:0 82:0 83:0 84:0 85:0 86:0 87:0 88:0 89:0 90:0 91:0 92:0 93:0 94:0 95:0 96:0 97:0 98:0 99:0 100:0 101:0 102:0 103:0 104:0 105:0 106:0 107:0 108:0 109:0 110:0 111:0 112:0 113:0 114:0 115:0 116:0 117:0 118:0 119:0 120:0 121:0 122:0 123:0 124:0 125:0 126:0 127:0 128:0 129:0 130:0 131:0 132:0 133:0 134:0 135:0 136:0 137:0 138:0 139:0 140:0 141:0 142:0 143:0 144:0 145:0 146:0 147:0 148:0 149:0 150:0 151:255 152:0 153:0 154:0 155:0 156:0 157:0 158:0 159:0 160:0 161:0 162:0 163:0 164:0 165:0 166:0 167:0 168:0 169:0 170:255 171:255 172:255 173:255 174:0 175:0 176:0 177:0 178:0 179:0 180:0 181:0 182:0 183:0 184:0 185:0 186:0 187:0 188:255 189:0 190:0 191:0 192:0 193:0 194:0 195:0 196:0 197:0 198:0 199:0 200:0 201:0 202:0 203:0 204:0 205:0 206:255 207:255 208:255 209:255 210:255 211:255 212:255 213:0 214:0 215:0 216:0 217:0 218:0 219:0 220:0 221:0 222:0 223:0 224:0 225:255 226:0 227:0 228:0 229:0 230:0 231:0 232:0 233:0 234:0 235:0 236:0 237:0 238:0 239:0 240:0 241:255 242:255 243:255 244:255 245:255 246:255 247:255 248:255 249:255 250:255 251:255 252:255 253:255 254:255 255:255 256:255 257:255 258:0 259:0 260:0 261:0 262:255 263:0 264:0 265:0 266:0 267:0 268:0 269:255 270:255 271:255 272:255 273:255 274:255 275:255 276:255 277:255 278:255 279:255 280:255 281:255 282:255 283:255 284:255 285:255 286:255 287:255 288:255 289:255 290:255 291:255 292:255 293:255 294:255 295:255 296:255 297:0 298:0 299:255 300:0 301:0 302:0 303:0 304:0 305:0 306:255 307:255 308:255 309:255 310:255 311:255 312:255 313:255 314:255 315:255 316:255 317:255 318:255 319:255 320:255 321:255 322:255 323:255 324:255 325:255 326:255 327:255 328:255 329:255 330:255 331:255 332:255 333:255 334:0 335:0 336:0 337:0 338:0 339:0 340:0 341:0 342:0 343:255 344:255 345:255 346:255 347:255 348:255 349:255 350:255 351:255 352:255 353:255 354:255 355:255 356:255 357:255 358:255 359:255 360:255 361:255 362:255 363:255 364:255 365:255 366:255 367:255 368:255 369:255 370:255 371:0 372:0 373:0 374:0 375:0 376:0 377:0 378:0 379:0 380:0 381:0 382:0 383:0 384:0 385:0 386:0 387:0 388:0 389:0 390:0 391:0 392:0 393:0 394:0 395:0 396:0 397:0 398:0 399:0 400:0 401:0 402:0 403:0 404:0 405:0 406:0 407:0 408:0 409:0 410:0 411:0 412:0 413:0 414:0 415:0 416:0 417:0 418:0 419:0 420:0 421:0 422:0 423:0 424:0 425:0 426:0 427:0 428:0 429:0 430:0 431:0 432:0 433:0 434:0 435:0 436:0 437:0 438:0 439:0 440:0 441:0 442:0 443:0 444:0 445:0 446:0 447:0 448:0 449:0 450:0 451:0 452:0 453:0 454:0 455:0 456:0 457:0 458:0 459:0 460:0 461:0 462:0 463:0 464:0 465:0 466:0 467:0 468:0 469:0 470:0 471:0 472:0 473:0 474:0 475:0 476:0 477:0 478:0 479:0 480:0 481:0 482:0 483:0 484:0 485:0 486:0 487:0 488:0 489:0 490:0 491:0 492:0 493:0 494:0 495:0 496:255 497:255 498:255 499:255 500:255 501:255 502:255 503:255 504:255 505:255 506:255 507:255 508:255 509:255 510:255 511:255 512:255 513:255 514:255 515:0 516:0 517:0 518:0 519:0 520:0 521:0 522:0 523:0 524:0 525:0 526:0 527:0 528:0 529:0 530:0 531:255 532:255 533:255 534:255 535:255 536:255 537:255 538:255 539:255 540:255 541:255 542:255 543:255 544:255 545:255 546:255 547:255 548:255 549:255 550:255 551:255 552:255 553:0 554:0 555:0 556:255 557:255 558:0 559:0 560:0 561:0 562:0 563:0 564:0 565:0 566:0 567:255 568:255 569:255 570:255 571:255 572:255 573:255 574:255 575:255 576:255 577:255 578:255 579:255 580:255 581:255 582:255 583:255 584:255 585:255 586:255 587:255 588:255 589:255 590:0 591:0 592:0 593:255 594:255 595:0 596:0 597:0 598:0 599:0 600:0 601:0 602:0 603:0 604:255 605:255 606:255 607:255 608:255 609:255 610:255 611:255 612:255 613:255 614:255 615:255 616:255 617:255 618:255 619:255 620:255 621:255 622:255 623:255 624:255 625:255 626:255 627:0 628:0 629:0 630:255 631:255 632:0 633:0 634:0 635:0 636:0 637:0 638:0 639:0 640:0 641:255 642:255 643:255 644:255 645:255 646:255 647:255 648:0 649:0 650:0 651:0 652:0 653:0 654:0 655:0 656:0 657:255 658:255 659:255 660:255 661:255 662:255 663:255 664:0 665:0 666:0 667:255 668:255 669:255 670:0 671:0 672:0 673:0 674:0 675:0 676:0 677:0 678:255 679:255 680:255 681:255 682:255 683:255 684:0 685:0 686:0 687:0 688:0 689:0 690:0 691:0 692:0 693:0 694:0 695:255 696:255 697:255 698:255 699:255 700:255 701:0 702:0 703:0 704:255 705:255 706:255 707:0 708:0 709:0 710:0 711:0 712:0 713:0 714:0 715:255 716:255 717:255 718:255 719:255 720:255 721:0 722:0 723:0 724:0 725:0 726:0 727:0 728:0 729:0 730:0 731:0 732:255 733:255 734:255 735:255 736:255 737:255 738:0 739:0 740:0 741:255 742:255 743:0 744:0 745:0 746:0 747:0 748:0 749:0 750:0 751:0 752:255 753:255 754:255 755:255 756:255 757:255 758:0 759:0 760:0 761:0 762:0 763:0 764:0 765:0 766:0 767:0 768:0 769:255 770:255 771:255 772:255 773:255 774:255 775:0 776:0 777:0 778:255 779:255 780:0 781:0 782:0 783:0 784:0 785:0 786:0 787:0 788:0 789:255 790:255 791:255 792:255 793:255 794:255 795:0 796:0 797:0 798:0 799:0 800:0 801:0 802:0 803:0 804:0 805:0 806:255 807:255 808:255 809:255 810:255 811:255 812:0 813:0 814:0 815:255 816:255 817:0 818:0 819:0 820:0 821:0 822:0 823:0 824:0 825:0 826:255 827:255 828:255 829:255 830:255 831:255 832:255 833:255 834:255 835:255 836:255 837:255 838:255 839:255 840:255 841:255 842:255 843:255 844:255 845:255 846:255 847:255 848:255 849:0 850:0 851:0 852:255 853:255 854:0 855:0 856:0 857:0 858:0 859:0 860:0 861:0 862:0 863:255 864:255 865:255 866:255 867:255 868:255 869:255 870:255 871:255 872:255 873:255 874:255 875:255 876:255 877:255 878:255 879:255 880:255 881:255 882:255 883:255 884:255 885:255 886:0 887:0 888:0 889:255 890:255 891:0 892:0 893:0 894:0 895:0 896:0 897:0 898:0 899:0 900:255 901:255 902:255 903:255 904:255 905:255 906:255 907:255 908:255 909:255 910:255 911:255 912:255 913:255 914:255 915:255 916:255 917:255 918:255 919:255 920:255 921:255 922:255 923:0 924:0 925:0 926:255 927:255 928:0 929:0 930:0 931:0 932:0 933:0 934:0 935:0 936:0 937:0 938:255 939:255 940:255 941:255 942:255 943:255 944:255 945:255 946:255 947:255 948:255 949:255 950:255 951:255 952:255 953:255 954:255 955:255 956:255 957:255 958:255 959:0 960:0 961:0 962:0 963:255 964:255 965:255 966:0 967:0 968:0 969:0 970:0 971:0 972:0 973:0 974:0 975:0 976:0 977:0 978:0 979:0 980:255 981:255 982:255 983:255 984:255 985:255 986:255 987:255 988:255 989:255 990:255 991:0 992:0 993:0 994:0 995:0 996:0 997:0 998:0 999:0 1000:255 1001:255 1002:255 1003:0 1004:0 1005:0 1006:0 1007:0 1008:0 1009:0 1010:0 1011:0 1012:0 1013:0 1014:0 1015:0 1016:0 1017:0 1018:0 1019:255 1020:255 1021:255 1022:255 1023:255 1024:255 1025:255 1026:0 1027:0 1028:0 1029:0 1030:0 1031:0 1032:0 1033:0 1034:0 1035:0 1036:0 1037:255 1038:255 1039:0 1040:0 1041:0 1042:0 1043:0 1044:0 1045:0 1046:0 1047:0 1048:0 1049:0 1050:255 1051:255 1052:0 1053:0 1054:0 1055:0 1056:255 1057:255 1058:255 1059:255 1060:255 1061:255 1062:255 1063:255 1064:255 1065:255 1066:255 1067:255 1068:255 1069:0 1070:0 1071:0 1072:0 1073:0 1074:255 1075:255 1076:0 1077:0 1078:0 1079:0 1080:0 1081:0 1082:0 1083:0 1084:0 1085:255 1086:255 1087:255 1088:255 1089:255 1090:0 1091:0 1092:0 1093:255 1094:255 1095:255 1096:255 1097:255 1098:255 1099:255 1100:255 1101:255 1102:255 1103:255 1104:255 1105:255 1106:255 1107:0 1108:0 1109:0 1110:0 1111:255 1112:255 1113:0 1114:0 1115:0 1116:0 1117:0 1118:0 1119:0 1120:0 1121:0 1122:255 1123:255 1124:255 1125:255 1126:255 1127:255 1128:0 1129:0 1130:255 1131:255 1132:255 1133:255 1134:255 1135:255 1136:0 1137:255 1138:255 1139:255 1140:255 1141:255 1142:255 1143:255 1144:0 1145:0 1146:0 1147:0 1148:255 1149:255 1150:0 1151:0 1152:0 1153:0 1154:0 1155:0 1156:0 1157:0 1158:255 1159:255 1160:255 1161:255 1162:255 1163:255 1164:255 1165:0 1166:0 1167:255 1168:255 1169:255 1170:255 1171:255 1172:255 1173:0 1174:0 1175:255 1176:255 1177:255 1178:255 1179:255 1180:255 1181:255 1182:0 1183:0 1184:0 1185:255 1186:255 1187:0 1188:0 1189:0 1190:0 1191:0 1192:0 1193:0 1194:0 1195:255 1196:255 1197:255 1198:255 1199:255 1200:255 1201:0 1202:0 1203:255 1204:255 1205:255 1206:255 1207:255 1208:255 1209:255 1210:0 1211:0 1212:0 1213:255 1214:255 1215:255 1216:255 1217:255 1218:255 1219:255 1220:0 1221:0 1222:255 1223:255 1224:0 1225:0 1226:0 1227:0 1228:0 1229:0 1230:0 1231:0 1232:255 1233:255 1234:255 1235:255 1236:255 1237:255 1238:0 1239:0 1240:255 1241:255 1242:255 1243:255 1244:255 1245:255 1246:255 1247:0 1248:0 1249:0 1250:0 1251:255 1252:255 1253:255 1254:255 1255:255 1256:255 1257:0 1258:0 1259:255 1260:255 1261:0 1262:0 1263:0 1264:0 1265:0 1266:0 1267:0 1268:0 1269:255 1270:255 1271:255 1272:255 1273:255 1274:0 1275:0 1276:0 1277:255 1278:255 1279:255 1280:255 1281:255 1282:255 1283:255 1284:0 1285:0 1286:0 1287:0 1288:255 1289:255 1290:255 1291:255 1292:255 1293:255 1294:0 1295:0 1296:255 1297:0 1298:0 1299:0 1300:0 1301:0 1302:0 1303:0 1304:0 1305:255 1306:255 1307:255 1308:255 1309:255 1310:255 1311:0 1312:0 1313:0 1314:255 1315:255 1316:255 1317:255 1318:255 1319:255 1320:255 1321:0 1322:0 1323:0 1324:0 1325:0 1326:255 1327:255 1328:255 1329:255 1330:255 1331:255 1332:0 1333:255 1334:0 1335:0 1336:0 1337:0 1338:0 1339:0 1340:0 1341:0 1342:255 1343:255 1344:255 1345:255 1346:255 1347:255 1348:0 1349:0 1350:0 1351:255 1352:255 1353:255 1354:255 1355:255 1356:255 1357:255 1358:0 1359:0 1360:0 1361:0 1362:0 1363:255 1364:255 1365:255 1366:255 1367:255 1368:255 1369:0 1370:255 1371:0 1372:0 1373:0 1374:0 1375:0 1376:0 1377:0 1378:255 1379:255 1380:255 1381:255 1382:255 1383:255 1384:0 1385:0 1386:0 1387:255 1388:255 1389:255 1390:255 1391:255 1392:255 1393:255 1394:255 1395:0 1396:0 1397:0 1398:0 1399:0 1400:255 1401:255 1402:255 1403:255 1404:255 1405:255 1406:255 1407:0 1408:0 1409:0 1410:0 1411:0 1412:0 1413:0 1414:0 1415:255 1416:255 1417:255 1418:255 1419:255 1420:255 1421:0 1422:0 1423:255 1424:255 1425:255 1426:255 1427:255 1428:255 1429:255 1430:255 1431:255 1432:0 1433:0 1434:0 1435:0 1436:0 1437:0 1438:255 1439:255 1440:255 1441:255 1442:255 1443:0 1444:0 1445:0 1446:0 1447:0 1448:0 1449:0 1450:0 1451:0 1452:0 1453:255 1454:255 1455:255 1456:0 1457:0 1458:0 1459:255 1460:255 1461:255 1462:255 1463:255 1464:255 1465:255 1466:255 1467:255 1468:255 1469:0 1470:0 1471:0 1472:0 1473:0 1474:0 1475:0 1476:0 1477:0 1478:0 1479:0 1480:0 1481:0 1482:0 1483:0 1484:0 1485:0 1486:0 1487:0 1488:0 1489:0 1490:0 1491:0 1492:0 1493:0 1494:0 1495:0 1496:0 1497:255 1498:255 1499:255 1500:255 1501:255 1502:255 1503:255 1504:255 1505:0 1506:0 1507:0 1508:0 1509:0 1510:0 1511:0 1512:0 1513:0 1514:0 1515:0 1516:0 1517:0 1518:0 1519:0 1520:0 1521:0 1522:0 1523:0 1524:0 1525:0 1526:0 1527:0 1528:0 1529:0 1530:0 1531:0 1532:0 1533:0 1534:0 1535:0 1536:255 1537:255 1538:255 1539:255 1540:0 1541:0 1542:0 1543:0 1544:0 1545:0 1546:0 1547:0 1548:0 1549:0 1550:0 1551:0 1552:0 1553:0 1554:0 1555:0 1556:0 1557:0 1558:0 1559:0 1560:0 1561:0 1562:0 1563:0 1564:0 1565:0 1566:0 1567:0 1568:0 1569:0 1570:0 1571:0 1572:0 1573:0 1574:0 1575:0 1576:0 1577:0 1578:0 1579:0 1580:0 1581:0 1582:0 1583:0 1584:0 1585:0 1586:0 1587:0 1588:0 1589:0 1590:0 1591:0 
-9.288226786832526e-019 1:255 2:255 3:255 4:255 5:0 6:0 7:0 8:0 9:0 10:0 11:0 12:0 13:0 14:0 15:0 16:0 17:0 18:0 19:0 20:0 21:0 22:0 23:0 24:0 25:0 26:0 27:0 28:0 29:0 30:0 31:0 32:0 33:0 34:0 35:0 36:0 37:0 38:255 39:255 40:255 41:0 42:0 43:0 44:0 45:0 46:0 47:0 48:0 49:0 50:0 51:0 52:0 53:0 54:0 55:0 56:0 57:0 58:0 59:0 60:0 61:0 62:0 63:0 64:0 65:0 66:0 67:0 68:0 69:0 70:0 71:0 72:0 73:0 74:0 75:255 76:255 77:255 78:255 79:0 80:0 81:0 82:0 83:0 84:0 85:0 86:0 87:0 88:0 89:0 90:0 91:0 92:0 93:0 94:0 95:0 96:0 97:0 98:0 99:0 100:0 101:0 102:0 103:0 104:0 105:0 106:0 107:0 108:0 109:0 110:0 111:0 112:255 113:255 114:255 115:0 116:0 117:0 118:0 119:0 120:0 121:0 122:0 123:0 124:0 125:0 126:0 127:0 128:0 129:0 130:0 131:0 132:0 133:0 134:0 135:0 136:0 137:0 138:0 139:0 140:0 141:0 142:0 143:0 144:0 145:0 146:0 147:0 148:0 149:255 150:255 151:255 152:0 153:0 154:0 155:0 156:0 157:0 158:0 159:0 160:0 161:0 162:0 163:0 164:0 165:0 166:0 167:0 168:0 169:0 170:0 171:255 172:255 173:255 174:255 175:255 176:255 177:0 178:0 179:0 180:0 181:0 182:0 183:0 184:0 185:0 186:255 187:255 188:255 189:0 190:0 191:0 192:0 193:0 194:0 195:0 196:0 197:0 198:0 199:0 200:0 201:0 202:0 203:0 204:0 205:0 206:0 207:255 208:255 209:255 210:255 211:255 212:255 213:255 214:0 215:0 216:0 217:0 218:0 219:0 220:0 221:0 222:0 223:255 224:255 225:255 226:255 227:0 228:0 229:0 230:0 231:0 232:0 233:0 234:0 235:0 236:0 237:0 238:255 239:255 240:255 241:255 242:255 243:255 244:255 245:255 246:255 247:255 248:255 249:255 250:255 251:255 252:255 253:0 254:0 255:0 256:0 257:0 258:0 259:0 260:255 261:255 262:255 263:255 264:0 265:0 266:0 267:0 268:0 269:255 270:255 271:255 272:255 273:255 274:255 275:255 276:255 277:255 278:255 279:255 280:255 281:255 282:255 283:255 284:255 285:255 286:255 287:255 288:255 289:255 290:255 291:255 292:255 293:255 294:255 295:255 296:255 297:255 298:255 299:255 300:255 301:0 302:0 303:0 304:0 305:255 306:255 307:255 308:255 309:255 310:255 311:255 312:255 313:255 314:255 315:255 316:255 317:255 318:255 319:255 320:255 321:255 322:255 323:255 324:255 325:255 326:255 327:255 328:255 329:255 330:255 331:255 332:255 333:255 334:255 335:255 336:255 337:255 338:0 339:0 340:0 341:0 342:255 343:255 344:255 345:255 346:255 347:255 348:255 349:255 350:255 351:255 352:255 353:255 354:255 355:255 356:255 357:255 358:255 359:255 360:255 361:255 362:255 363:255 364:255 365:255 366:255 367:255 368:255 369:255 370:255 371:255 372:255 373:255 374:0 375:0 376:0 377:0 378:0 379:0 380:0 381:0 382:0 383:255 384:255 385:255 386:255 387:255 388:255 389:0 390:255 391:255 392:255 393:255 394:255 395:255 396:255 397:255 398:255 399:255 400:255 401:255 402:255 403:255 404:255 405:0 406:0 407:0 408:255 409:255 410:255 411:255 412:0 413:0 414:0 415:0 416:0 417:0 418:0 419:0 420:0 421:0 422:0 423:0 424:0 425:0 426:0 427:0 428:0 429:0 430:0 431:0 432:0 433:0 434:0 435:0 436:0 437:0 438:0 439:0 440:0 441:0 442:0 443:0 444:0 445:255 446:255 447:255 448:0 449:0 450:0 451:0 452:0 453:0 454:0 455:0 456:0 457:0 458:0 459:0 460:0 461:0 462:0 463:0 464:0 465:0 466:0 467:0 468:0 469:0 470:0 471:0 472:0 473:0 474:0 475:0 476:0 477:0 478:0 479:0 480:0 481:0 482:255 483:255 484:255 485:0 486:0 487:0 488:0 489:0 490:0 491:0 492:0 493:0 494:0 495:255 496:255 497:255 498:255 499:255 500:255 501:255 502:255 503:255 504:255 505:255 506:255 507:255 508:255 509:255 510:255 511:255 512:255 513:255 514:255 515:255 516:0 517:0 518:0 519:255 520:255 521:0 522:0 523:0 524:0 525:0 526:0 527:0 528:0 529:0 530:0 531:255 532:255 533:255 534:255 535:255 536:255 537:255 538:255 539:255 540:255 541:255 542:255 543:255 544:255 545:255 546:255 547:255 548:255 549:255 550:255 551:255 552:255 553:255 554:255 555:0 556:255 557:255 558:0 559:0 560:0 561:0 562:0 563:0 564:0 565:0 566:0 567:255 568:255 569:255 570:255 571:255 572:255 573:255 574:255 575:255 576:255 577:255 578:255 579:255 580:255 581:255 582:255 583:255 584:255 585:255 586:255 587:255 588:255 589:255 590:255 591:255 592:255 593:255 594:255 595:0 596:0 597:0 598:0 599:0 600:0 601:0 602:0 603:0 604:255 605:255 606:255 607:255 608:255 609:255 610:255 611:255 612:255 613:255 614:255 615:255 616:255 617:255 618:255 619:255 620:255 621:255 622:255 623:255 624:255 625:255 626:255 627:255 628:255 629:255 630:255 631:255 632:0 633:0 634:0 635:0 636:0 637:0 638:0 639:0 640:0 641:255 642:255 643:255 644:255 645:255 646:255 647:255 648:255 649:255 650:0 651:0 652:0 653:0 654:255 655:0 656:0 657:255 658:255 659:255 660:255 661:255 662:255 663:255 664:255 665:255 666:255 667:255 668:255 669:0 670:0 671:0 672:0 673:0 674:0 675:0 676:0 677:255 678:255 679:255 680:255 681:255 682:255 683:255 684:255 685:0 686:0 687:0 688:0 689:0 690:0 691:0 692:0 693:0 694:0 695:0 696:255 697:255 698:255 699:255 700:255 701:255 702:255 703:255 704:255 705:255 706:0 707:0 708:0 709:0 710:0 711:0 712:0 713:0 714:255 715:255 716:255 717:255 718:255 719:255 720:255 721:0 722:0 723:0 724:0 725:0 726:0 727:0 728:0 729:0 730:0 731:0 732:0 733:255 734:255 735:255 736:255 737:255 738:255 739:255 740:255 741:255 742:255 743:0 744:0 745:0 746:0 747:0 748:0 749:0 750:0 751:255 752:255 753:255 754:255 755:255 756:255 757:255 758:0 759:0 760:0 761:0 762:0 763:0 764:0 765:0 766:0 767:0 768:0 769:0 770:255 771:255 772:255 773:255 774:255 775:255 776:255 777:255 778:255 779:255 780:0 781:0 782:0 783:0 784:0 785:0 786:0 787:0 788:255 789:255 790:255 791:255 792:255 793:255 794:255 795:0 796:0 797:0 798:0 799:0 800:0 801:0 802:0 803:0 804:0 805:0 806:0 807:255 808:255 809:255 810:255 811:255 812:255 813:255 814:0 815:255 816:255 817:0 818:0 819:0 820:0 821:0 822:0 823:0 824:0 825:255 826:255 827:255 828:255 829:255 830:255 831:255 832:255 833:255 834:0 835:0 836:0 837:0 838:0 839:0 840:0 841:0 842:255 843:255 844:255 845:255 846:255 847:255 848:255 849:255 850:255 851:0 852:255 853:255 854:0 855:0 856:0 857:0 858:0 859:0 860:0 861:0 862:255 863:255 864:255 865:255 866:255 867:255 868:255 869:255 870:255 871:255 872:255 873:255 874:255 875:255 876:255 877:255 878:255 879:255 880:255 881:255 882:255 883:255 884:255 885:255 886:255 887:255 888:0 889:255 890:255 891:0 892:0 893:0 894:0 895:0 896:0 897:0 898:0 899:255 900:255 901:255 902:255 903:255 904:255 905:255 906:255 907:255 908:255 909:255 910:255 911:255 912:255 913:255 914:255 915:255 916:255 917:255 918:255 919:255 920:255 921:255 922:255 923:255 924:255 925:0 926:255 927:255 928:0 929:0 930:0 931:0 932:0 933:0 934:0 935:0 936:0 937:255 938:255 939:255 940:255 941:255 942:255 943:255 944:255 945:255 946:255 947:255 948:255 949:255 950:255 951:255 952:255 953:255 954:255 955:255 956:255 957:255 958:255 959:255 960:255 961:0 962:0 963:255 964:0 965:0 966:0 967:0 968:0 969:0 970:0 971:0 972:0 973:0 974:0 975:255 976:255 977:255 978:255 979:255 980:255 981:255 982:255 983:255 984:255 985:255 986:255 987:255 988:255 989:255 990:255 991:255 992:255 993:0 994:0 995:0 996:0 997:0 998:0 999:0 1000:255 1001:0 1002:0 1003:0 1004:0 1005:0 1006:0 1007:0 1008:0 1009:0 1010:0 1011:0 1012:0 1013:0 1014:0 1015:0 1016:0 1017:0 1018:255 1019:255 1020:255 1021:255 1022:255 1023:255 1024:255 1025:255 1026:255 1027:0 1028:0 1029:0 1030:0 1031:0 1032:0 1033:0 1034:0 1035:0 1036:0 1037:255 1038:0 1039:0 1040:0 1041:0 1042:0 1043:0 1044:0 1045:0 1046:0 1047:0 1048:0 1049:0 1050:0 1051:0 1052:0 1053:0 1054:0 1055:0 1056:255 1057:255 1058:255 1059:255 1060:255 1061:255 1062:255 1063:0 1064:0 1065:0 1066:0 1067:0 1068:0 1069:0 1070:0 1071:0 1072:0 1073:0 1074:255 1075:0 1076:0 1077:0 1078:0 1079:0 1080:0 1081:0 1082:0 1083:0 1084:0 1085:255 1086:255 1087:255 1088:255 1089:255 1090:0 1091:0 1092:0 1093:0 1094:255 1095:255 1096:255 1097:255 1098:255 1099:0 1100:0 1101:0 1102:0 1103:0 1104:255 1105:255 1106:255 1107:0 1108:0 1109:0 1110:0 1111:255 1112:0 1113:0 1114:0 1115:0 1116:0 1117:0 1118:0 1119:0 1120:0 1121:0 1122:255 1123:255 1124:255 1125:255 1126:255 1127:255 1128:0 1129:0 1130:0 1131:255 1132:255 1133:255 1134:255 1135:255 1136:0 1137:0 1138:0 1139:0 1140:255 1141:255 1142:255 1143:255 1144:255 1145:255 1146:0 1147:0 1148:255 1149:0 1150:0 1151:0 1152:0 1153:0 1154:0 1155:0 1156:0 1157:0 1158:255 1159:255 1160:255 1161:255 1162:255 1163:255 1164:255 1165:0 1166:0 1167:0 1168:255 1169:255 1170:255 1171:255 1172:255 1173:255 1174:0 1175:0 1176:0 1177:255 1178:255 1179:255 1180:255 1181:255 1182:255 1183:0 1184:0 1185:255 1186:0 1187:0 1188:0 1189:0 1190:0 1191:0 1192:0 1193:0 1194:255 1195:255 1196:255 1197:255 1198:255 1199:255 1200:255 1201:255 1202:0 1203:0 1204:0 1205:255 1206:255 1207:255 1208:255 1209:255 1210:255 1211:0 1212:0 1213:0 1214:255 1215:255 1216:255 1217:255 1218:255 1219:255 1220:0 1221:0 1222:0 1223:0 1224:0 1225:0 1226:0 1227:0 1228:0 1229:0 1230:0 1231:255 1232:255 1233:255 1234:255 1235:255 1236:255 1237:255 1238:0 1239:0 1240:0 1241:255 1242:255 1243:255 1244:255 1245:255 1246:255 1247:255 1248:0 1249:0 1250:0 1251:0 1252:255 1253:255 1254:255 1255:255 1256:255 1257:255 1258:255 1259:0 1260:0 1261:0 1262:0 1263:0 1264:0 1265:0 1266:0 1267:255 1268:255 1269:255 1270:255 1271:255 1272:255 1273:255 1274:255 1275:0 1276:0 1277:0 1278:255 1279:255 1280:255 1281:255 1282:255 1283:255 1284:0 1285:0 1286:0 1287:0 1288:0 1289:255 1290:255 1291:255 1292:255 1293:255 1294:255 1295:255 1296:0 1297:0 1298:0 1299:0 1300:0 1301:0 1302:0 1303:0 1304:255 1305:255 1306:255 1307:255 1308:255 1309:255 1310:255 1311:0 1312:0 1313:0 1314:0 1315:255 1316:255 1317:255 1318:255 1319:255 1320:255 1321:0 1322:0 1323:0 1324:0 1325:0 1326:0 1327:255 1328:255 1329:255 1330:255 1331:255 1332:255 1333:0 1334:0 1335:0 1336:0 1337:0 1338:0 1339:0 1340:0 1341:255 1342:255 1343:255 1344:255 1345:255 1346:255 1347:0 1348:0 1349:0 1350:0 1351:0 1352:255 1353:255 1354:255 1355:255 1356:255 1357:255 1358:0 1359:0 1360:0 1361:0 1362:0 1363:0 1364:255 1365:255 1366:255 1367:255 1368:255 1369:255 1370:0 1371:0 1372:0 1373:0 1374:0 1375:0 1376:0 1377:255 1378:255 1379:255 1380:255 1381:255 1382:255 1383:255 1384:0 1385:0 1386:0 1387:0 1388:0 1389:255 1390:255 1391:255 1392:255 1393:255 1394:255 1395:0 1396:0 1397:0 1398:0 1399:0 1400:0 1401:255 1402:255 1403:255 1404:255 1405:255 1406:255 1407:0 1408:0 1409:0 1410:0 1411:0 1412:0 1413:255 1414:255 1415:255 1416:255 1417:255 1418:255 1419:255 1420:255 1421:0 1422:0 1423:0 1424:255 1425:255 1426:255 1427:255 1428:255 1429:255 1430:255 1431:255 1432:0 1433:0 1434:0 1435:0 1436:0 1437:0 1438:255 1439:255 1440:255 1441:255 1442:255 1443:255 1444:0 1445:0 1446:0 1447:0 1448:0 1449:0 1450:255 1451:255 1452:255 1453:255 1454:255 1455:255 1456:255 1457:0 1458:0 1459:255 1460:255 1461:255 1462:255 1463:255 1464:255 1465:255 1466:255 1467:255 1468:255 1469:0 1470:0 1471:0 1472:0 1473:0 1474:0 1475:0 1476:255 1477:255 1478:255 1479:255 1480:255 1481:0 1482:0 1483:0 1484:0 1485:0 1486:0 1487:0 1488:0 1489:255 1490:255 1491:255 1492:255 1493:0 1494:0 1495:0 1496:255 1497:255 1498:255 1499:255 1500:255 1501:255 1502:255 1503:255 1504:255 1505:255 1506:0 1507:0 1508:0 1509:0 1510:0 1511:0 1512:0 1513:0 1514:0 1515:0 1516:0 1517:0 1518:0 1519:0 1520:0 1521:0 1522:0 1523:0 1524:0 1525:0 1526:0 1527:0 1528:0 1529:0 1530:0 1531:0 1532:0 1533:0 1534:255 1535:255 1536:255 1537:255 1538:255 1539:255 1540:255 1541:0 1542:0 1543:0 1544:0 1545:0 1546:0 1547:0 1548:0 1549:0 1550:0 1551:0 1552:0 1553:0 1554:0 1555:0 1556:0 1557:0 1558:0 1559:0 1560:0 1561:0 1562:0 1563:0 1564:0 1565:0 1566:0 1567:0 1568:0 1569:0 1570:0 1571:0 1572:0 1573:0 1574:0 1575:0 1576:0 1577:0 1578:0 1579:0 1580:0 1581:0 1582:0 1583:0 1584:0 1585:0 1586:0 1587:0 1588:0 1589:0 1590:0 1591:0 
