svm_type c_svc
kernel_type polynomial
degree 3
gamma 0.008
coef0 0
nr_class 2
total_sv 80
rho -0.442696
label 1 -1
probA -4.25189
probB 0.154482
nr_sv 28 52
SV
2.539127712408137e-016 1:0 2:0 3:0 4:0 5:0 6:0 7:0 8:0 9:0 10:0 11:0 12:0 13:0 14:0 15:0 16:0 17:0 18:0 19:0 20:0 21:0 22:0 23:0 24:0 25:0 26:0 27:0 28:0 29:0 30:0 31:0 32:0 33:0 34:0 35:0 36:0 37:0 38:0 39:0 40:0 41:0 42:0 43:0 44:0 45:0 46:0 47:0 48:0 49:0 50:0 51:0 52:0 53:0 54:0 55:0 56:0 57:0 58:0 59:0 60:0 61:0 62:0 63:0 64:0 65:0 66:0 67:0 68:0 69:0 70:0 71:0 72:0 73:0 74:0 75:0 76:0 77:0 78:0 79:0 80:255 81:255 82:255 83:255 84:0 85:0 86:0 87:0 88:0 89:0 90:0 91:0 92:0 93:0 94:0 95:0 96:0 97:0 98:0 99:0 100:0 101:0 102:0 103:0 104:0 105:0 106:0 107:0 108:0 109:255 110:255 111:255 112:255 113:255 114:0 115:0 116:0 117:0 118:0 119:0 120:0 121:0 122:0 123:0 124:0 125:0 126:0 127:0 128:0 129:0 130:0 131:0 132:0 133:0 134:0 135:0 136:0 137:0 138:255 139:255 140:255 141:255 142:255 143:0 144:0 145:0 146:0 147:0 148:0 149:0 150:0 151:0 152:0 153:0 154:0 155:0 156:0 157:0 158:0 159:0 160:0 161:0 162:0 163:0 164:0 165:0 166:255 167:255 168:255 169:255 170:255 171:255 172:0 173:0 174:0 175:0 176:0 177:0 178:0 179:0 180:0 181:0 182:0 183:0 184:0 185:0 186:0 187:0 188:0 189:0 190:0 191:0 192:0 193:0 194:0 195:255 196:255 197:255 198:255 199:255 200:255 201:0 202:0 203:0 204:0 205:0 206:0 207:0 208:0 209:0 210:0 211:0 212:0 213:0 214:0 215:0 216:0 217:0 218:0 219:0 220:0 221:0 222:0 223:0 224:255 225:255 226:255 227:255 228:255 229:255 230:0 231:0 232:0 233:0 234:0 235:0 236:0 237:0 238:0 239:0 240:0 241:0 242:0 243:0 244:0 245:0 246:0 247:0 248:0 249:0 250:0 251:0 252:0 253:255 254:255 255:255 256:255 257:255 258:255 259:0 260:0 261:0 262:0 263:0 264:0 265:0 266:0 267:0 268:0 269:0 270:0 271:0 272:0 273:0 274:0 275:0 276:0 277:0 278:0 279:0 280:0 281:255 282:255 283:255 284:255 285:255 286:255 287:255 288:0 289:0 290:0 291:0 292:0 293:0 294:0 295:0 296:0 297:0 298:0 299:0 300:0 301:0 302:0 303:0 304:0 305:0 306:0 307:0 308:0 309:0 310:255 311:255 312:255 313:255 314:255 315:255 316:255 317:0 318:0 319:0 320:0 321:0 322:0 323:0 324:0 325:0 326:0 327:0 328:0 329:0 330:0 331:0 332:0 333:0 334:0 335:0 336:0 337:0 338:0 339:255 340:255 341:255 342:255 343:255 344:255 345:255 346:255 347:0 348:0 349:0 350:0 351:0 352:0 353:0 354:0 355:0 356:0 357:0 358:0 359:0 360:0 361:0 362:0 363:0 364:0 365:0 366:0 367:0 368:255 369:255 370:255 371:255 372:255 373:255 374:255 375:0 376:0 377:0 378:0 379:0 380:0 381:0 382:0 383:0 384:0 385:0 386:0 387:0 388:0 389:0 390:0 391:0 392:0 393:0 394:0 395:0 396:0 397:255 398:255 399:255 400:255 401:255 402:255 403:255 404:0 405:0 406:0 407:0 408:0 409:0 410:0 411:0 412:0 413:0 414:0 415:0 416:0 417:0 418:0 419:0 420:0 421:0 422:0 423:0 424:0 425:0 426:255 427:255 428:255 429:255 430:255 431:255 432:255 433:0 434:0 435:0 436:0 437:0 438:0 439:0 440:0 441:0 442:0 443:0 444:0 445:0 446:0 447:0 448:0 449:0 450:0 451:0 452:0 453:0 454:255 455:255 456:255 457:255 458:255 459:255 460:255 461:0 462:0 463:0 464:0 465:0 466:0 467:0 468:0 469:0 470:0 471:0 472:0 473:0 474:0 475:0 476:0 477:0 478:0 479:0 480:0 481:0 482:0 483:255 484:255 485:255 486:255 487:255 488:255 489:255 490:255 491:0 492:0 493:0 494:0 495:0 496:255 497:255 498:255 499:255 500:255 501:0 502:0 503:0 504:0 505:0 506:0 507:0 508:0 509:0 510:0 511:255 512:255 513:255 514:255 515:255 516:255 517:255 518:255 519:255 520:0 521:0 522:0 523:255 524:255 525:255 526:255 527:255 528:255 529:255 530:255 531:0 532:0 533:0 534:0 535:0 536:0 537:0 538:0 539:0 540:255 541:255 542:255 543:255 544:255 545:255 546:255 547:255 548:255 549:0 550:0 551:0 552:255 553:255 554:255 555:255 556:255 557:255 558:255 559:255 560:255 561:255 562:0 563:0 564:0 565:0 566:0 567:0 568:255 569:255 570:255 571:255 572:255 573:255 574:255 575:255 576:255 577:255 578:0 579:0 580:0 581:255 582:255 583:255 584:255 585:255 586:255 587:255 588:255 589:255 590:255 591:255 592:255 593:255 594:255 595:255 596:255 597:255 598:255 599:255 600:255 601:255 602:255 603:255 604:255 605:255 606:0 607:0 608:0 609:0 610:0 611:255 612:255 613:255 614:255 615:255 616:255 617:255 618:255 619:255 620:255 621:255 622:255 623:255 624:255 625:255 626:255 627:255 628:255 629:255 630:255 631:255 632:255 633:255 634:0 635:0 636:0 637:0 638:0 639:0 640:0 641:255 642:255 643:255 644:255 645:255 646:255 647:255 648:255 649:255 650:255 651:255 652:255 653:255 654:255 655:255 656:255 657:255 658:255 659:255 660:255 661:255 662:255 663:0 664:0 665:0 666:0 667:0 668:0 669:0 670:0 671:255 672:255 673:255 674:255 675:255 676:255 677:255 678:255 679:255 680:255 681:255 682:255 683:255 684:255 685:255 686:255 687:255 688:255 689:255 690:255 691:0 692:0 693:0 694:0 695:0 696:0 697:0 698:0 699:0 700:0 701:0 702:255 703:255 704:255 705:255 706:255 707:255 708:255 709:255 710:255 711:255 712:255 713:255 714:255 715:255 716:255 717:255 718:255 719:255 720:255 721:0 722:0 723:0 724:0 725:0 726:0 727:0 728:0 729:0 730:0 731:0 732:0 733:0 734:255 735:255 736:255 737:255 738:255 739:255 740:255 741:255 742:255 743:255 744:255 745:255 746:255 747:255 748:255 749:255 750:255 751:255 752:0 753:0 754:0 755:0 756:0 757:0 758:0 759:0 760:0 761:0 762:0 763:0 764:0 765:255 766:255 767:255 768:255 769:255 770:255 771:255 772:255 773:255 774:255 775:255 776:255 777:255 778:255 779:255 780:255 781:255 782:255 783:0 784:0 785:0 786:0 787:0 788:0 789:0 790:0 791:0 792:0 793:0 794:255 795:255 796:255 797:255 798:255 799:255 800:255 801:255 802:255 803:255 804:255 805:255 806:255 807:255 808:255 809:255 810:255 811:255 812:255 813:0 814:0 815:0 816:0 817:0 818:0 819:0 820:0 821:0 822:255 823:255 824:255 825:255 826:255 827:255 828:255 829:255 830:255 831:255 832:255 833:255 834:255 835:255 836:255 837:255 838:255 839:255 840:255 841:255 
1.21141288883559e-016 1:0 2:0 3:0 4:0 5:0 6:0 7:0 8:0 9:0 10:0 11:0 12:0 13:0 14:0 15:0 16:0 17:0 18:0 19:0 20:0 21:0 22:0 23:0 24:0 25:0 26:0 27:0 28:0 29:0 30:0 31:0 32:0 33:0 34:0 35:0 36:0 37:0 38:0 39:0 40:0 41:0 42:0 43:0 44:0 45:0 46:0 47:0 48:0 49:0 50:0 51:0 52:0 53:255 54:255 55:255 56:255 57:0 58:0 59:0 60:0 61:0 62:0 63:0 64:0 65:0 66:0 67:0 68:0 69:0 70:0 71:0 72:0 73:0 74:0 75:0 76:0 77:0 78:0 79:0 80:255 81:255 82:255 83:255 84:255 85:255 86:0 87:0 88:0 89:0 90:0 91:0 92:255 93:255 94:255 95:0 96:0 97:0 98:0 99:0 100:0 101:0 102:0 103:0 104:0 105:0 106:0 107:0 108:0 109:255 110:255 111:255 112:255 113:255 114:255 115:255 116:0 117:0 118:255 119:255 120:255 121:255 122:255 123:255 124:255 125:255 126:255 127:255 128:255 129:255 130:255 131:255 132:255 133:255 134:255 135:255 136:255 137:255 138:255 139:255 140:255 141:255 142:255 143:255 144:255 145:255 146:255 147:255 148:255 149:255 150:255 151:255 152:255 153:255 154:255 155:255 156:255 157:255 158:255 159:255 160:255 161:255 162:255 163:255 164:255 165:255 166:255 167:255 168:255 169:255 170:255 171:255 172:255 173:255 174:255 175:255 176:0 177:0 178:0 179:0 180:0 181:0 182:0 183:0 184:0 185:0 186:0 187:0 188:0 189:0 190:0 191:0 192:0 193:255 194:255 195:255 196:255 197:255 198:255 199:255 200:255 201:255 202:255 203:255 204:0 205:0 206:0 207:0 208:0 209:0 210:0 211:0 212:0 213:0 214:0 215:0 216:0 217:0 218:0 219:0 220:0 221:0 222:0 223:0 224:255 225:255 226:255 227:255 228:255 229:255 230:255 231:255 232:255 233:0 234:0 235:0 236:0 237:0 238:0 239:0 240:0 241:0 242:0 243:0 244:0 245:0 246:0 247:0 248:0 249:0 250:0 251:0 252:0 253:255 254:255 255:255 256:255 257:255 258:255 259:255 260:255 261:255 262:0 263:0 264:0 265:0 266:0 267:0 268:0 269:0 270:0 271:0 272:0 273:0 274:0 275:0 276:0 277:0 278:0 279:0 280:0 281:0 282:255 283:255 284:255 285:255 286:255 287:255 288:255 289:255 290:255 291:0 292:0 293:0 294:0 295:0 296:0 297:0 298:0 299:0 300:0 301:0 302:0 303:0 304:0 305:0 306:0 307:0 308:0 309:0 310:0 311:255 312:255 313:255 314:255 315:255 316:255 317:255 318:255 319:0 320:0 321:0 322:0 323:0 324:0 325:0 326:0 327:0 328:0 329:0 330:0 331:0 332:0 333:0 334:0 335:0 336:0 337:0 338:0 339:0 340:255 341:255 342:255 343:255 344:255 345:255 346:255 347:255 348:0 349:0 350:0 351:0 352:0 353:0 354:0 355:0 356:0 357:0 358:0 359:0 360:0 361:0 362:0 363:0 364:0 365:0 366:0 367:0 368:0 369:255 370:255 371:255 372:255 373:255 374:255 375:255 376:255 377:0 378:0 379:0 380:0 381:0 382:0 383:0 384:0 385:0 386:0 387:0 388:0 389:0 390:0 391:0 392:0 393:0 394:0 395:0 396:0 397:255 398:255 399:255 400:255 401:255 402:255 403:255 404:255 405:255 406:0 407:0 408:0 409:0 410:0 411:0 412:0 413:0 414:0 415:0 416:0 417:0 418:0 419:0 420:0 421:0 422:0 423:0 424:0 425:0 426:255 427:255 428:255 429:255 430:255 431:255 432:255 433:255 434:255 435:0 436:0 437:0 438:0 439:0 440:0 441:0 442:0 443:0 444:0 445:0 446:0 447:0 448:0 449:0 450:0 451:0 452:0 453:0 454:0 455:255 456:255 457:255 458:255 459:255 460:255 461:255 462:255 463:255 464:0 465:0 466:0 467:0 468:0 469:0 470:0 471:0 472:0 473:0 474:0 475:0 476:0 477:0 478:0 479:0 480:0 481:0 482:0 483:0 484:255 485:255 486:255 487:255 488:255 489:255 490:255 491:255 492:0 493:0 494:0 495:0 496:0 497:0 498:0 499:0 500:0 501:0 502:0 503:0 504:0 505:0 506:0 507:0 508:0 509:0 510:0 511:0 512:0 513:255 514:255 515:255 516:255 517:255 518:255 519:255 520:255 521:255 522:0 523:0 524:0 525:0 526:0 527:0 528:0 529:0 530:0 531:0 532:0 533:0 534:0 535:0 536:0 537:0 538:0 539:0 540:0 541:255 542:255 543:255 544:255 545:255 546:255 547:255 548:255 549:255 550:0 551:0 552:0 553:0 554:0 555:0 556:0 557:0 558:0 559:0 560:0 561:0 562:0 563:0 564:0 565:0 566:0 567:0 568:0 569:0 570:255 571:255 572:255 573:255 574:255 575:255 576:255 577:255 578:255 579:0 580:0 581:0 582:255 583:255 584:255 585:255 586:255 587:0 588:0 589:0 590:0 591:0 592:0 593:0 594:0 595:0 596:0 597:0 598:255 599:255 600:255 601:255 602:255 603:255 604:255 605:255 606:255 607:255 608:0 609:0 610:255 611:255 612:255 613:255 614:255 615:255 616:255 617:255 618:0 619:0 620:0 621:0 622:0 623:0 624:0 625:0 626:255 627:255 628:255 629:255 630:255 631:255 632:255 633:255 634:255 635:255 636:255 637:0 638:0 639:255 640:255 641:255 642:255 643:255 644:255 645:255 646:255 647:255 648:0 649:0 650:0 651:0 652:0 653:0 654:0 655:255 656:255 657:255 658:255 659:255 660:255 661:255 662:255 663:255 664:255 665:0 666:0 667:0 668:255 669:255 670:255 671:255 672:255 673:255 674:255 675:255 676:255 677:255 678:255 679:255 680:255 681:255 682:255 683:255 684:255 685:255 686:255 687:255 688:255 689:255 690:255 691:255 692:255 693:255 694:0 695:0 696:0 697:0 698:255 699:255 700:255 701:255 702:255 703:255 704:255 705:255 706:255 707:255 708:255 709:255 710:255 711:255 712:255 713:255 714:255 715:255 716:255 717:255 718:255 719:255 720:255 721:255 722:0 723:0 724:0 725:0 726:0 727:0 728:0 729:255 730:255 731:255 732:255 733:255 734:255 735:255 736:255 737:255 738:255 739:255 740:255 741:255 742:255 743:255 744:255 745:255 746:255 747:255 748:255 749:0 750:0 751:0 752:0 753:0 754:0 755:0 756:0 757:0 758:0 759:0 760:0 761:255 762:255 763:255 764:255 765:255 766:255 767:255 768:255 769:255 770:255 771:255 772:255 773:255 774:255 775:255 776:0 777:0 778:0 779:0 780:0 781:0 782:0 783:0 784:0 785:0 786:0 787:0 788:0 789:0 790:0 791:0 792:0 793:255 794:255 795:255 796:255 797:255 798:255 799:255 800:255 801:0 802:0 803:0 804:0 805:0 806:0 807:0 808:0 809:0 810:0 811:0 812:0 813:0 814:0 815:0 816:0 817:0 818:0 819:0 820:0 821:0 822:0 823:0 824:0 825:0 826:0 827:0 828:0 829:0 830:0 831:0 832:0 833:0 834:0 835:0 836:0 837:0 838:0 839:0 840:0 841:0 
8.102471712943412e-016 1:0 2:0 3:0 4:0 5:0 6:0 7:0 8:255 9:255 10:255 11:255 12:255 13:255 14:255 15:0 16:0 17:0 18:0 19:0 20:0 21:0 22:0 23:0 24:0 25:0 26:0 27:0 28:0 29:0 30:0 31:0 32:0 33:0 34:0 35:0 36:0 37:0 38:0 39:0 40:255 41:255 42:255 43:255 44:255 45:255 46:0 47:0 48:0 49:255 50:255 51:255 52:0 53:0 54:0 55:0 56:0 57:0 58:0 59:0 60:0 61:0 62:0 63:0 64:0 65:0 66:0 67:0 68:0 69:0 70:0 71:0 72:0 73:0 74:0 75:0 76:0 77:255 78:255 79:255 80:255 81:255 82:255 83:255 84:0 85:0 86:0 87:0 88:0 89:0 90:0 91:0 92:0 93:0 94:0 95:0 96:0 97:0 98:0 99:0 100:0 101:0 102:0 103:0 104:0 105:0 106:255 107:255 108:255 109:255 110:255 111:255 112:255 113:0 114:0 115:0 116:0 117:0 118:0 119:0 120:0 121:0 122:0 123:0 124:0 125:0 126:0 127:0 128:0 129:0 130:0 131:0 132:0 133:0 134:0 135:255 136:255 137:255 138:255 139:255 140:255 141:255 142:0 143:0 144:0 145:0 146:0 147:0 148:0 149:0 150:0 151:0 152:0 153:0 154:0 155:0 156:0 157:0 158:0 159:0 160:0 161:0 162:0 163:0 164:255 165:255 166:255 167:255 168:255 169:255 170:255 171:0 172:0 173:0 174:0 175:0 176:0 177:0 178:0 179:0 180:0 181:0 182:0 183:0 184:0 185:0 186:0 187:0 188:0 189:0 190:0 191:0 192:0 193:255 194:255 195:255 196:255 197:255 198:255 199:255 200:0 201:0 202:0 203:0 204:255 205:0 206:0 207:0 208:0 209:0 210:0 211:0 212:0 213:0 214:0 215:0 216:0 217:0 218:0 219:0 220:0 221:0 222:255 223:255 224:255 225:255 226:255 227:255 228:255 229:0 230:0 231:0 232:0 233:255 234:0 235:0 236:0 237:0 238:0 239:0 240:0 241:0 242:0 243:0 244:0 245:0 246:0 247:0 248:0 249:0 250:0 251:255 252:255 253:255 254:255 255:255 256:255 257:255 258:0 259:0 260:0 261:0 262:255 263:0 264:0 265:0 266:0 267:0 268:0 269:0 270:0 271:0 272:0 273:0 274:0 275:0 276:0 277:0 278:0 279:0 280:255 281:255 282:255 283:255 284:255 285:255 286:255 287:0 288:0 289:0 290:0 291:0 292:0 293:0 294:0 295:0 296:0 297:0 298:0 299:0 300:0 301:0 302:0 303:0 304:0 305:0 306:0 307:0 308:0 309:255 310:255 311:255 312:255 313:255 314:255 315:255 316:0 317:0 318:0 319:0 320:0 321:0 322:0 323:0 324:0 325:0 326:0 327:0 328:0 329:0 330:0 331:0 332:0 333:0 334:0 335:0 336:0 337:0 338:255 339:255 340:255 341:255 342:255 343:255 344:255 345:0 346:0 347:0 348:0 349:0 350:0 351:0 352:0 353:0 354:0 355:0 356:0 357:0 358:0 359:0 360:0 361:0 362:0 363:0 364:0 365:0 366:255 367:255 368:255 369:255 370:255 371:255 372:255 373:255 374:0 375:0 376:0 377:0 378:0 379:0 380:0 381:0 382:0 383:0 384:0 385:0 386:0 387:0 388:0 389:0 390:0 391:0 392:0 393:0 394:0 395:255 396:255 397:255 398:255 399:255 400:255 401:255 402:255 403:0 404:0 405:0 406:0 407:0 408:0 409:0 410:0 411:0 412:0 413:0 414:0 415:0 416:0 417:0 418:0 419:0 420:0 421:0 422:0 423:0 424:255 425:255 426:255 427:255 428:255 429:255 430:255 431:255 432:0 433:0 434:0 435:0 436:0 437:0 438:0 439:0 440:0 441:0 442:0 443:0 444:0 445:0 446:0 447:0 448:0 449:0 450:0 451:0 452:0 453:255 454:255 455:255 456:255 457:255 458:255 459:255 460:255 461:0 462:0 463:0 464:0 465:0 466:0 467:0 468:0 469:0 470:0 471:0 472:0 473:0 474:0 475:0 476:0 477:0 478:0 479:0 480:0 481:0 482:255 483:255 484:255 485:255 486:255 487:255 488:255 489:255 490:0 491:0 492:0 493:0 494:0 495:0 496:0 497:0 498:0 499:0 500:0 501:0 502:0 503:0 504:0 505:0 506:0 507:0 508:0 509:0 510:0 511:255 512:255 513:255 514:255 515:255 516:255 517:255 518:255 519:0 520:0 521:0 522:0 523:0 524:0 525:0 526:0 527:0 528:0 529:0 530:0 531:0 532:0 533:0 534:0 535:0 536:0 537:0 538:0 539:0 540:255 541:255 542:255 543:255 544:255 545:255 546:255 547:255 548:0 549:0 550:0 551:0 552:0 553:0 554:0 555:0 556:0 557:0 558:0 559:0 560:0 561:0 562:0 563:0 564:0 565:0 566:0 567:0 568:0 569:255 570:255 571:255 572:255 573:255 574:255 575:255 576:255 577:0 578:0 579:0 580:0 581:0 582:0 583:0 584:0 585:0 586:0 587:0 588:0 589:0 590:0 591:0 592:0 593:0 594:0 595:0 596:0 597:0 598:255 599:255 600:255 601:255 602:255 603:255 604:255 605:255 606:0 607:0 608:0 609:0 610:0 611:0 612:0 613:0 614:0 615:0 616:0 617:0 618:0 619:0 620:0 621:0 622:0 623:0 624:0 625:0 626:0 627:255 628:255 629:255 630:255 631:255 632:255 633:255 634:255 635:0 636:0 637:0 638:0 639:0 640:0 641:0 642:0 643:0 644:0 645:0 646:0 647:0 648:0 649:0 650:0 651:0 652:0 653:0 654:0 655:255 656:255 657:255 658:255 659:255 660:255 661:255 662:255 663:255 664:0 665:0 666:0 667:0 668:0 669:0 670:0 671:0 672:0 673:0 674:0 675:0 676:0 677:0 678:0 679:0 680:0 681:0 682:0 683:0 684:255 685:255 686:255 687:255 688:255 689:255 690:255 691:255 692:255 693:0 694:0 695:0 696:0 697:0 698:0 699:0 700:0 701:0 702:0 703:0 704:0 705:0 706:0 707:0 708:0 709:0 710:0 711:0 712:0 713:255 714:255 715:255 716:255 717:255 718:255 719:255 720:255 721:255 722:0 723:0 724:0 725:0 726:0 727:0 728:0 729:0 730:0 731:0 732:0 733:0 734:0 735:0 736:0 737:0 738:0 739:0 740:255 741:255 742:255 743:255 744:255 745:255 746:255 747:255 748:255 749:255 750:255 751:0 752:0 753:0 754:0 755:0 756:0 757:0 758:0 759:0 760:0 761:0 762:255 763:255 764:255 765:255 766:255 767:255 768:255 769:255 770:255 771:255 772:255 773:255 774:255 775:255 776:255 777:255 778:255 779:255 780:0 781:0 782:0 783:0 784:0 785:0 786:0 787:255 788:255 789:255 790:255 791:255 792:255 793:255 794:255 795:255 796:255 797:255 798:255 799:255 800:255 801:255 802:255 803:255 804:255 805:255 806:0 807:0 808:0 809:0 810:0 811:0 812:0 813:0 814:0 815:255 816:255 817:255 818:255 819:255 820:255 821:255 822:255 823:255 824:255 825:255 826:255 827:255 828:255 829:255 830:255 831:255 832:255 833:255 834:0 835:0 836:0 837:0 838:0 839:0 840:0 841:0 
1.089486094763097e-016 1:0 2:0 3:0 4:0 5:0 6:0 7:0 8:0 9:0 10:0 11:0 12:0 13:0 14:0 15:0 16:0 17:0 18:255 19:255 20:255 21:255 22:255 23:255 24:0 25:0 26:0 27:0 28:0 29:0 30:0 31:0 32:0 33:0 34:0 35:0 36:0 37:0 38:0 39:0 40:0 41:0 42:0 43:0 44:0 45:0 46:0 47:0 48:0 49:0 50:0 51:0 52:0 53:0 54:0 55:0 56:0 57:0 58:0 59:0 60:0 61:0 62:0 63:255 64:255 65:255 66:0 67:0 68:0 69:0 70:0 71:0 72:0 73:0 74:0 75:0 76:0 77:0 78:0 79:0 80:0 81:0 82:0 83:255 84:255 85:255 86:255 87:0 88:255 89:255 90:255 91:255 92:255 93:255 94:255 95:255 96:255 97:255 98:0 99:0 100:0 101:0 102:0 103:0 104:0 105:0 106:0 107:0 108:0 109:0 110:0 111:255 112:255 113:255 114:255 115:255 116:255 117:0 118:0 119:255 120:255 121:255 122:255 123:255 124:0 125:0 126:0 127:0 128:0 129:0 130:0 131:0 132:0 133:0 134:0 135:0 136:0 137:0 138:0 139:0 140:255 141:255 142:255 143:255 144:0 145:0 146:0 147:0 148:0 149:0 150:0 151:0 152:0 153:0 154:0 155:0 156:0 157:0 158:0 159:0 160:0 161:0 162:0 163:0 164:0 165:0 166:0 167:0 168:0 169:255 170:255 171:255 172:0 173:0 174:0 175:0 176:0 177:0 178:0 179:0 180:0 181:0 182:0 183:0 184:0 185:0 186:0 187:0 188:0 189:0 190:0 191:0 192:0 193:0 194:0 195:0 196:0 197:0 198:255 199:255 200:255 201:255 202:0 203:0 204:0 205:0 206:0 207:0 208:0 209:0 210:0 211:0 212:0 213:0 214:0 215:0 216:0 217:0 218:0 219:0 220:0 221:0 222:0 223:0 224:0 225:0 226:0 227:255 228:255 229:255 230:255 231:255 232:0 233:0 234:0 235:0 236:0 237:0 238:0 239:0 240:0 241:0 242:0 243:0 244:0 245:0 246:0 247:0 248:0 249:0 250:0 251:0 252:0 253:0 254:0 255:255 256:255 257:255 258:255 259:255 260:255 261:0 262:255 263:255 264:255 265:0 266:0 267:0 268:0 269:0 270:0 271:0 272:0 273:0 274:0 275:0 276:0 277:0 278:0 279:0 280:0 281:0 282:0 283:0 284:255 285:255 286:255 287:255 288:255 289:255 290:0 291:0 292:0 293:0 294:0 295:0 296:0 297:0 298:0 299:0 300:0 301:0 302:0 303:0 304:0 305:0 306:0 307:0 308:0 309:0 310:0 311:0 312:0 313:255 314:255 315:255 316:255 317:255 318:255 319:0 320:0 321:0 322:0 323:0 324:0 325:0 326:0 327:0 328:0 329:0 330:0 331:0 332:0 333:0 334:0 335:0 336:0 337:0 338:0 339:0 340:0 341:255 342:255 343:255 344:255 345:255 346:255 347:255 348:0 349:0 350:0 351:0 352:0 353:0 354:0 355:0 356:0 357:0 358:0 359:0 360:0 361:0 362:0 363:0 364:0 365:0 366:0 367:0 368:0 369:0 370:255 371:255 372:255 373:255 374:255 375:255 376:255 377:0 378:0 379:0 380:0 381:0 382:0 383:0 384:0 385:0 386:0 387:0 388:0 389:0 390:0 391:0 392:0 393:0 394:0 395:0 396:0 397:0 398:0 399:255 400:255 401:255 402:255 403:255 404:255 405:255 406:0 407:0 408:0 409:0 410:0 411:0 412:0 413:0 414:0 415:0 416:0 417:0 418:0 419:0 420:0 421:0 422:0 423:0 424:0 425:0 426:0 427:0 428:255 429:255 430:255 431:255 432:255 433:255 434:255 435:0 436:0 437:0 438:0 439:0 440:0 441:0 442:0 443:0 444:0 445:0 446:0 447:0 448:0 449:0 450:0 451:0 452:0 453:0 454:0 455:0 456:0 457:255 458:255 459:255 460:255 461:255 462:255 463:0 464:0 465:0 466:0 467:0 468:0 469:0 470:0 471:0 472:0 473:0 474:0 475:0 476:0 477:0 478:0 479:0 480:0 481:0 482:0 483:0 484:0 485:0 486:255 487:255 488:255 489:255 490:255 491:255 492:0 493:0 494:0 495:0 496:0 497:0 498:0 499:0 500:0 501:0 502:0 503:0 504:0 505:0 506:0 507:0 508:0 509:0 510:0 511:0 512:0 513:0 514:0 515:255 516:255 517:255 518:255 519:255 520:255 521:0 522:0 523:0 524:0 525:0 526:0 527:0 528:0 529:0 530:0 531:0 532:0 533:0 534:0 535:0 536:0 537:0 538:0 539:0 540:0 541:0 542:0 543:0 544:255 545:255 546:255 547:255 548:255 549:255 550:0 551:0 552:0 553:0 554:0 555:0 556:0 557:0 558:0 559:0 560:0 561:0 562:0 563:0 564:0 565:0 566:0 567:0 568:0 569:0 570:0 571:0 572:255 573:255 574:255 575:255 576:255 577:255 578:255 579:0 580:0 581:0 582:0 583:0 584:255 585:255 586:255 587:0 588:0 589:0 590:0 591:0 592:0 593:0 594:0 595:0 596:0 597:0 598:0 599:0 600:0 601:255 602:255 603:255 604:255 605:255 606:255 607:0 608:0 609:0 610:0 611:255 612:255 613:255 614:255 615:255 616:255 617:255 618:0 619:0 620:0 621:0 622:0 623:0 624:0 625:0 626:0 627:0 628:0 629:0 630:255 631:255 632:255 633:255 634:255 635:255 636:0 637:0 638:0 639:0 640:255 641:255 642:255 643:255 644:255 645:255 646:255 647:255 648:255 649:0 650:0 651:0 652:0 653:0 654:0 655:0 656:0 657:255 658:255 659:255 660:255 661:255 662:255 663:255 664:255 665:0 666:0 667:0 668:0 669:0 670:255 671:255 672:255 673:255 674:255 675:255 676:255 677:255 678:255 679:255 680:255 681:255 682:255 683:255 684:255 685:255 686:255 687:255 688:255 689:255 690:255 691:255 692:255 693:0 694:0 695:0 696:0 697:0 698:0 699:0 700:255 701:255 702:255 703:255 704:255 705:255 706:255 707:255 708:255 709:255 710:255 711:255 712:255 713:255 714:255 715:255 716:255 717:255 718:255 719:255 720:0 721:0 722:0 723:0 724:0 725:0 726:0 727:0 728:0 729:0 730:255 731:255 732:255 733:255 734:255 735:255 736:255 737:255 738:255 739:255 740:255 741:255 742:255 743:255 744:255 745:255 746:255 747:0 748:0 749:0 750:0 751:0 752:0 753:0 754:0 755:0 756:0 757:0 758:0 759:0 760:0 761:255 762:255 763:255 764:255 765:255 766:255 767:255 768:255 769:255 770:255 771:255 772:255 773:255 774:0 775:0 776:0 777:0 778:0 779:0 780:0 781:0 782:0 783:0 784:0 785:0 786:0 787:0 788:0 789:0 790:0 791:0 792:255 793:255 794:255 795:255 796:255 797:255 798:255 799:255 800:255 801:0 802:0 803:0 804:0 805:0 806:0 807:0 808:0 809:0 810:0 811:0 812:0 813:0 814:0 815:0 816:0 817:0 818:0 819:0 820:0 821:255 822:255 823:255 824:255 825:255 826:255 827:255 828:255 829:255 830:255 831:0 832:0 833:0 834:0 835:0 836:0 837:0 838:0 839:0 840:0 841:0 
1.710048350042783e-016 1:0 2:0 3:0 4:0 5:0 6:0 7:0 8:0 9:0 10:0 11:0 12:0 13:0 14:0 15:0 16:0 17:0 18:0 19:0 20:0 21:0 22:0 23:0 24:0 25:0 26:0 27:0 28:0 29:0 30:0 31:0 32:0 33:0 34:0 35:0 36:0 37:0 38:0 39:0 40:0 41:0 42:0 43:0 44:0 45:0 46:0 47:0 48:0 49:0 50:0 51:0 52:0 53:0 54:0 55:0 56:0 57:0 58:0 59:0 60:0 61:0 62:0 63:0 64:0 65:0 66:0 67:0 68:0 69:0 70:0 71:0 72:0 73:0 74:0 75:0 76:0 77:0 78:255 79:255 80:0 81:0 82:0 83:0 84:0 85:0 86:0 87:0 88:0 89:0 90:0 91:0 92:0 93:0 94:0 95:0 96:0 97:0 98:0 99:0 100:0 101:0 102:0 103:0 104:0 105:255 106:255 107:255 108:255 109:255 110:255 111:255 112:0 113:0 114:0 115:0 116:0 117:0 118:0 119:0 120:0 121:0 122:0 123:0 124:0 125:0 126:0 127:0 128:0 129:0 130:0 131:0 132:0 133:255 134:255 135:255 136:255 137:255 138:255 139:255 140:255 141:0 142:0 143:0 144:0 145:0 146:0 147:0 148:0 149:0 150:0 151:0 152:0 153:0 154:0 155:0 156:0 157:0 158:0 159:0 160:0 161:0 162:255 163:255 164:255 165:255 166:255 167:255 168:255 169:255 170:255 171:0 172:0 173:0 174:0 175:0 176:0 177:0 178:0 179:0 180:0 181:0 182:0 183:0 184:0 185:0 186:0 187:0 188:0 189:0 190:0 191:255 192:255 193:255 194:255 195:255 196:255 197:255 198:255 199:255 200:0 201:0 202:0 203:0 204:0 205:0 206:0 207:0 208:0 209:0 210:0 211:0 212:0 213:0 214:0 215:0 216:0 217:0 218:0 219:0 220:0 221:255 222:255 223:255 224:255 225:255 226:255 227:255 228:255 229:0 230:0 231:0 232:0 233:0 234:0 235:0 236:0 237:0 238:0 239:0 240:0 241:0 242:0 243:0 244:0 245:0 246:0 247:0 248:0 249:0 250:255 251:255 252:255 253:255 254:255 255:255 256:255 257:255 258:0 259:0 260:0 261:0 262:0 263:0 264:0 265:0 266:0 267:0 268:0 269:0 270:0 271:0 272:0 273:0 274:0 275:0 276:0 277:0 278:0 279:255 280:255 281:255 282:255 283:255 284:255 285:255 286:255 287:0 288:0 289:0 290:0 291:0 292:0 293:0 294:0 295:0 296:0 297:0 298:0 299:0 300:0 301:0 302:0 303:0 304:0 305:0 306:0 307:0 308:255 309:255 310:255 311:255 312:255 313:255 314:255 315:255 316:0 317:0 318:0 319:0 320:0 321:0 322:0 323:0 324:0 325:0 326:0 327:0 328:0 329:0 330:0 331:0 332:0 333:0 334:0 335:0 336:0 337:0 338:255 339:255 340:255 341:255 342:255 343:255 344:255 345:0 346:0 347:0 348:0 349:0 350:0 351:0 352:0 353:0 354:0 355:0 356:0 357:0 358:0 359:0 360:0 361:0 362:0 363:0 364:0 365:0 366:0 367:255 368:255 369:255 370:255 371:255 372:255 373:255 374:0 375:0 376:0 377:0 378:0 379:0 380:0 381:0 382:0 383:0 384:0 385:0 386:0 387:0 388:0 389:0 390:0 391:0 392:0 393:0 394:0 395:0 396:255 397:255 398:255 399:255 400:255 401:255 402:255 403:255 404:0 405:0 406:0 407:0 408:0 409:0 410:0 411:0 412:0 413:0 414:0 415:0 416:0 417:0 418:0 419:0 420:0 421:0 422:0 423:0 424:0 425:255 426:255 427:255 428:255 429:255 430:255 431:255 432:255 433:0 434:0 435:0 436:0 437:0 438:0 439:0 440:0 441:0 442:0 443:0 444:0 445:0 446:0 447:0 448:0 449:0 450:0 451:0 452:0 453:0 454:255 455:255 456:255 457:255 458:255 459:255 460:255 461:255 462:0 463:0 464:0 465:0 466:0 467:0 468:0 469:0 470:0 471:0 472:0 473:0 474:0 475:0 476:0 477:0 478:0 479:0 480:0 481:0 482:0 483:255 484:255 485:255 486:255 487:255 488:255 489:255 490:255 491:0 492:0 493:0 494:0 495:0 496:0 497:0 498:0 499:0 500:0 501:0 502:0 503:0 504:0 505:0 506:0 507:0 508:0 509:0 510:0 511:0 512:255 513:255 514:255 515:255 516:255 517:255 518:255 519:255 520:0 521:0 522:0 523:0 524:0 525:0 526:0 527:0 528:0 529:0 530:0 531:0 532:0 533:0 534:0 535:0 536:0 537:0 538:0 539:0 540:0 541:255 542:255 543:255 544:255 545:255 546:255 547:255 548:255 549:255 550:0 551:0 552:0 553:0 554:0 555:0 556:0 557:0 558:0 559:0 560:0 561:0 562:0 563:0 564:0 565:0 566:0 567:0 568:0 569:0 570:0 571:255 572:255 573:255 574:255 575:255 576:255 577:255 578:255 579:0 580:0 581:0 582:0 583:0 584:0 585:0 586:0 587:0 588:0 589:0 590:0 591:0 592:0 593:0 594:0 595:0 596:0 597:0 598:0 599:0 600:255 601:255 602:255 603:255 604:255 605:255 606:255 607:255 608:0 609:0 610:0 611:0 612:0 613:0 614:0 615:0 616:0 617:0 618:0 619:0 620:0 621:0 622:0 623:0 624:0 625:0 626:0 627:0 628:0 629:255 630:255 631:255 632:255 633:255 634:255 635:255 636:255 637:0 638:0 639:0 640:0 641:0 642:0 643:0 644:0 645:0 646:0 647:0 648:0 649:0 650:0 651:0 652:0 653:0 654:0 655:0 656:0 657:0 658:0 659:255 660:255 661:255 662:255 663:255 664:255 665:255 666:0 667:0 668:0 669:255 670:255 671:255 672:255 673:255 674:255 675:255 676:0 677:0 678:0 679:0 680:0 681:0 682:0 683:0 684:0 685:0 686:0 687:0 688:255 689:255 690:255 691:255 692:255 693:255 694:255 695:0 696:0 697:0 698:0 699:255 700:255 701:255 702:255 703:255 704:255 705:255 706:0 707:0 708:0 709:0 710:0 711:0 712:0 713:0 714:0 715:0 716:255 717:255 718:255 719:255 720:255 721:255 722:255 723:255 724:0 725:0 726:0 727:0 728:0 729:255 730:255 731:255 732:255 733:255 734:255 735:255 736:255 737:255 738:0 739:0 740:0 741:0 742:0 743:255 744:255 745:255 746:255 747:255 748:255 749:255 750:255 751:255 752:0 753:0 754:0 755:0 756:0 757:0 758:0 759:255 760:255 761:255 762:255 763:255 764:255 765:255 766:255 767:255 768:255 769:255 770:255 771:255 772:255 773:255 774:255 775:255 776:255 777:255 778:255 779:255 780:0 781:0 782:0 783:0 784:0 785:0 786:0 787:0 788:0 789:0 790:255 791:255 792:255 793:255 794:255 795:255 796:255 797:255 798:255 799:255 800:255 801:255 802:255 803:255 804:255 805:255 806:255 807:0 808:0 809:0 810:0 811:0 812:0 813:0 814:0 815:0 816:0 817:0 818:0 819:0 820:0 821:0 822:0 823:0 824:0 825:0 826:0 827:0 828:0 829:0 830:0 831:0 832:0 833:0 834:0 835:0 836:0 837:0 838:0 839:0 840:0 841:0 
8.712758264515652e-016 1:0 2:0 3:0 4:0 5:0 6:0 7:0 8:255 9:255 10:255 11:0 12:0 13:0 14:0 15:0 16:0 17:0 18:0 19:0 20:0 21:0 22:0 23:0 24:0 25:0 26:0 27:0 28:0 29:0 30:0 31:0 32:0 33:0 34:0 35:0 36:0 37:0 38:0 39:0 40:0 41:0 42:0 43:0 44:0 45:0 46:0 47:0 48:0 49:0 50:0 51:0 52:0 53:0 54:0 55:0 56:0 57:0 58:0 59:0 60:0 61:0 62:0 63:0 64:0 65:0 66:0 67:0 68:0 69:0 70:0 71:0 72:0 73:0 74:0 75:0 76:0 77:0 78:0 79:0 80:0 81:0 82:0 83:0 84:0 85:0 86:0 87:0 88:0 89:0 90:0 91:0 92:0 93:0 94:0 95:0 96:0 97:0 98:0 99:0 100:0 101:0 102:0 103:0 104:0 105:0 106:0 107:0 108:0 109:0 110:0 111:0 112:0 113:0 114:0 115:0 116:0 117:0 118:0 119:0 120:0 121:0 122:0 123:0 124:0 125:0 126:0 127:255 128:255 129:255 130:255 131:255 132:255 133:255 134:255 135:0 136:0 137:0 138:0 139:0 140:0 141:0 142:0 143:0 144:0 145:0 146:0 147:0 148:0 149:0 150:0 151:0 152:0 153:0 154:0 155:0 156:255 157:255 158:255 159:255 160:255 161:255 162:255 163:255 164:0 165:0 166:0 167:0 168:0 169:0 170:0 171:0 172:0 173:0 174:0 175:0 176:0 177:0 178:0 179:0 180:0 181:0 182:0 183:0 184:0 185:255 186:255 187:255 188:255 189:255 190:255 191:255 192:255 193:0 194:0 195:0 196:0 197:0 198:0 199:0 200:0 201:0 202:0 203:0 204:0 205:0 206:0 207:0 208:0 209:0 210:0 211:0 212:0 213:0 214:255 215:255 216:255 217:255 218:255 219:255 220:255 221:255 222:0 223:0 224:0 225:0 226:0 227:0 228:0 229:0 230:0 231:0 232:0 233:0 234:0 235:0 236:0 237:0 238:0 239:0 240:0 241:0 242:0 243:255 244:255 245:255 246:255 247:255 248:255 249:255 250:255 251:0 252:0 253:0 254:0 255:0 256:0 257:0 258:0 259:0 260:0 261:0 262:0 263:0 264:0 265:0 266:0 267:0 268:0 269:0 270:0 271:0 272:255 273:255 274:255 275:255 276:255 277:255 278:255 279:255 280:0 281:0 282:0 283:0 284:0 285:0 286:0 287:0 288:0 289:0 290:0 291:0 292:0 293:0 294:0 295:0 296:0 297:0 298:0 299:0 300:0 301:255 302:255 303:255 304:255 305:255 306:255 307:255 308:255 309:0 310:0 311:0 312:0 313:0 314:0 315:0 316:0 317:0 318:0 319:0 320:0 321:0 322:0 323:0 324:0 325:0 326:0 327:0 328:0 329:0 330:255 331:255 332:255 333:255 334:255 335:255 336:255 337:0 338:0 339:0 340:0 341:0 342:0 343:0 344:0 345:0 346:0 347:0 348:0 349:0 350:0 351:0 352:0 353:0 354:0 355:0 356:0 357:0 358:0 359:255 360:255 361:255 362:255 363:255 364:255 365:255 366:0 367:0 368:0 369:0 370:0 371:0 372:0 373:0 374:0 375:0 376:0 377:0 378:0 379:0 380:0 381:0 382:0 383:0 384:0 385:0 386:0 387:0 388:255 389:255 390:255 391:255 392:255 393:255 394:255 395:0 396:0 397:0 398:0 399:0 400:0 401:0 402:0 403:0 404:0 405:0 406:0 407:0 408:0 409:0 410:0 411:0 412:0 413:0 414:0 415:0 416:0 417:255 418:255 419:255 420:255 421:255 422:255 423:255 424:0 425:0 426:0 427:0 428:0 429:0 430:0 431:255 432:255 433:255 434:0 435:0 436:0 437:0 438:0 439:0 440:0 441:0 442:0 443:0 444:0 445:255 446:255 447:255 448:255 449:255 450:255 451:255 452:255 453:0 454:0 455:0 456:0 457:0 458:255 459:255 460:255 461:255 462:255 463:255 464:255 465:0 466:0 467:0 468:0 469:0 470:0 471:0 472:0 473:0 474:255 475:255 476:255 477:255 478:255 479:255 480:255 481:255 482:0 483:0 484:0 485:0 486:0 487:0 488:255 489:255 490:255 491:255 492:255 493:0 494:0 495:0 496:0 497:0 498:0 499:0 500:0 501:0 502:0 503:255 504:255 505:255 506:255 507:255 508:255 509:255 510:255 511:0 512:0 513:0 514:0 515:0 516:0 517:0 518:0 519:0 520:0 521:0 522:0 523:0 524:0 525:0 526:0 527:0 528:0 529:0 530:0 531:0 532:255 533:255 534:255 535:255 536:255 537:255 538:255 539:255 540:0 541:0 542:0 543:0 544:0 545:0 546:0 547:0 548:0 549:0 550:0 551:0 552:0 553:0 554:0 555:0 556:0 557:0 558:0 559:0 560:0 561:255 562:255 563:255 564:255 565:255 566:255 567:255 568:255 569:0 570:0 571:0 572:0 573:0 574:0 575:0 576:0 577:0 578:0 579:0 580:0 581:0 582:0 583:0 584:0 585:0 586:0 587:0 588:0 589:0 590:255 591:255 592:255 593:255 594:255 595:255 596:255 597:255 598:0 599:0 600:0 601:0 602:0 603:0 604:0 605:0 606:0 607:0 608:0 609:0 610:0 611:0 612:0 613:0 614:0 615:0 616:0 617:0 618:0 619:255 620:255 621:255 622:255 623:255 624:255 625:255 626:255 627:0 628:0 629:0 630:0 631:0 632:0 633:0 634:0 635:0 636:0 637:0 638:0 639:0 640:0 641:0 642:0 643:0 644:0 645:0 646:0 647:255 648:255 649:255 650:255 651:255 652:255 653:255 654:255 655:0 656:0 657:0 658:0 659:0 660:0 661:0 662:0 663:0 664:0 665:0 666:0 667:0 668:0 669:0 670:0 671:0 672:0 673:0 674:0 675:255 676:255 677:255 678:255 679:255 680:255 681:255 682:255 683:255 684:0 685:0 686:0 687:0 688:0 689:0 690:0 691:0 692:0 693:0 694:0 695:0 696:0 697:255 698:255 699:0 700:0 701:255 702:255 703:255 704:255 705:255 706:255 707:255 708:255 709:255 710:255 711:255 712:0 713:0 714:0 715:0 716:0 717:0 718:0 719:0 720:0 721:0 722:0 723:0 724:0 725:0 726:255 727:255 728:255 729:255 730:255 731:255 732:255 733:255 734:255 735:255 736:255 737:255 738:255 739:255 740:0 741:0 742:0 743:0 744:0 745:0 746:0 747:0 748:0 749:0 750:0 751:0 752:0 753:0 754:0 755:255 756:255 757:255 758:255 759:255 760:255 761:255 762:255 763:255 764:255 765:255 766:255 767:0 768:0 769:0 770:0 771:0 772:0 773:0 774:0 775:0 776:0 777:0 778:0 779:0 780:0 781:0 782:0 783:0 784:255 785:255 786:255 787:255 788:255 789:255 790:255 791:255 792:0 793:0 794:0 795:0 796:0 797:0 798:0 799:0 800:0 801:0 802:0 803:0 804:0 805:0 806:0 807:0 808:0 809:0 810:0 811:0 812:0 813:0 814:0 815:0 816:0 817:0 818:0 819:0 820:0 821:0 822:0 823:0 824:0 825:0 826:0 827:0 828:0 829:0 830:0 831:0 832:0 833:0 834:0 835:0 836:0 837:0 838:0 839:0 840:0 841:0 
6.580550721381049e-017 1:0 2:0 3:0 4:0 5:0 6:0 7:0 8:0 9:0 10:0 11:0 12:0 13:0 14:0 15:0 16:0 17:0 18:0 19:0 20:0 21:0 22:0 23:0 24:0 25:0 26:0 27:0 28:0 29:0 30:0 31:0 32:0 33:0 34:0 35:0 36:0 37:0 38:0 39:0 40:0 41:0 42:0 43:0 44:0 45:0 46:0 47:0 48:0 49:0 50:0 51:0 52:0 53:0 54:0 55:0 56:0 57:0 58:0 59:0 60:0 61:0 62:0 63:0 64:0 65:0 66:0 67:0 68:0 69:0 70:0 71:0 72:0 73:0 74:0 75:0 76:0 77:0 78:0 79:0 80:0 81:255 82:255 83:255 84:255 85:0 86:0 87:0 88:0 89:0 90:0 91:0 92:0 93:0 94:0 95:0 96:0 97:0 98:0 99:0 100:0 101:0 102:0 103:0 104:0 105:0 106:0 107:0 108:0 109:255 110:255 111:255 112:255 113:255 114:0 115:0 116:0 117:0 118:0 119:0 120:0 121:0 122:0 123:0 124:0 125:0 126:0 127:0 128:0 129:0 130:0 131:0 132:0 133:0 134:0 135:0 136:0 137:255 138:255 139:255 140:255 141:255 142:255 143:255 144:0 145:0 146:0 147:0 148:0 149:0 150:0 151:0 152:0 153:0 154:0 155:0 156:0 157:0 158:0 159:0 160:0 161:0 162:0 163:0 164:0 165:0 166:255 167:255 168:255 169:255 170:255 171:255 172:255 173:0 174:0 175:0 176:0 177:0 178:0 179:0 180:0 181:0 182:0 183:0 184:0 185:0 186:0 187:0 188:0 189:0 190:0 191:0 192:0 193:0 194:0 195:255 196:255 197:255 198:255 199:255 200:255 201:0 202:0 203:0 204:0 205:0 206:0 207:0 208:0 209:0 210:0 211:0 212:0 213:0 214:0 215:0 216:0 217:0 218:0 219:0 220:0 221:0 222:0 223:0 224:255 225:255 226:255 227:255 228:255 229:255 230:0 231:0 232:0 233:0 234:0 235:0 236:0 237:0 238:0 239:0 240:0 241:0 242:0 243:0 244:0 245:0 246:0 247:0 248:0 249:0 250:0 251:0 252:0 253:255 254:255 255:255 256:255 257:255 258:255 259:0 260:0 261:0 262:0 263:0 264:0 265:0 266:0 267:0 268:0 269:0 270:0 271:0 272:0 273:0 274:0 275:0 276:0 277:0 278:0 279:0 280:0 281:255 282:255 283:255 284:255 285:255 286:255 287:255 288:0 289:0 290:0 291:0 292:0 293:0 294:0 295:0 296:0 297:0 298:0 299:0 300:0 301:0 302:0 303:0 304:0 305:0 306:0 307:0 308:0 309:0 310:255 311:255 312:255 313:255 314:255 315:255 316:255 317:0 318:0 319:0 320:0 321:0 322:0 323:0 324:0 325:0 326:0 327:0 328:0 329:0 330:0 331:0 332:0 333:0 334:0 335:0 336:0 337:0 338:0 339:255 340:255 341:255 342:255 343:255 344:255 345:0 346:0 347:0 348:0 349:0 350:0 351:0 352:0 353:0 354:0 355:0 356:0 357:0 358:0 359:0 360:0 361:0 362:0 363:0 364:0 365:0 366:0 367:0 368:255 369:255 370:255 371:255 372:255 373:255 374:0 375:0 376:0 377:0 378:0 379:0 380:0 381:0 382:0 383:0 384:0 385:0 386:0 387:0 388:0 389:0 390:0 391:0 392:0 393:0 394:0 395:0 396:0 397:255 398:255 399:255 400:255 401:255 402:255 403:0 404:0 405:0 406:0 407:0 408:0 409:0 410:0 411:0 412:0 413:0 414:0 415:0 416:0 417:0 418:0 419:0 420:0 421:0 422:0 423:0 424:0 425:0 426:255 427:255 428:255 429:255 430:255 431:255 432:0 433:0 434:0 435:0 436:0 437:0 438:0 439:0 440:0 441:0 442:0 443:0 444:0 445:0 446:0 447:0 448:0 449:0 450:0 451:0 452:0 453:0 454:0 455:255 456:255 457:255 458:255 459:255 460:255 461:0 462:0 463:0 464:0 465:0 466:0 467:0 468:0 469:0 470:0 471:0 472:0 473:0 474:0 475:0 476:0 477:0 478:0 479:0 480:0 481:0 482:0 483:0 484:255 485:255 486:255 487:255 488:255 489:255 490:0 491:0 492:0 493:0 494:0 495:0 496:0 497:0 498:0 499:0 500:0 501:0 502:0 503:0 504:0 505:0 506:0 507:0 508:0 509:0 510:0 511:0 512:0 513:255 514:255 515:255 516:255 517:255 518:255 519:0 520:0 521:0 522:0 523:0 524:0 525:0 526:0 527:0 528:0 529:0 530:0 531:0 532:0 533:0 534:0 535:0 536:0 537:0 538:0 539:0 540:0 541:255 542:255 543:255 544:255 545:255 546:255 547:255 548:0 549:0 550:0 551:0 552:0 553:0 554:0 555:0 556:0 557:0 558:0 559:0 560:0 561:0 562:0 563:0 564:0 565:0 566:0 567:0 568:0 569:0 570:255 571:255 572:255 573:255 574:255 575:255 576:0 577:0 578:0 579:0 580:0 581:0 582:0 583:0 584:0 585:0 586:0 587:0 588:0 589:0 590:0 591:0 592:0 593:0 594:0 595:0 596:0 597:0 598:0 599:255 600:255 601:255 602:255 603:255 604:255 605:0 606:0 607:0 608:0 609:0 610:0 611:0 612:0 613:0 614:255 615:255 616:0 617:0 618:0 619:0 620:0 621:0 622:0 623:0 624:0 625:0 626:0 627:0 628:255 629:255 630:255 631:255 632:255 633:255 634:0 635:0 636:0 637:0 638:0 639:0 640:0 641:0 642:255 643:255 644:255 645:255 646:255 647:0 648:0 649:0 650:0 651:0 652:0 653:0 654:0 655:0 656:255 657:255 658:255 659:255 660:255 661:255 662:255 663:0 664:0 665:0 666:0 667:0 668:0 669:0 670:0 671:255 672:255 673:255 674:255 675:255 676:255 677:0 678:0 679:0 680:0 681:0 682:0 683:0 684:255 685:255 686:255 687:255 688:255 689:255 690:255 691:0 692:0 693:0 694:0 695:0 696:0 697:0 698:0 699:0 700:255 701:255 702:255 703:255 704:255 705:255 706:255 707:255 708:255 709:255 710:255 711:255 712:255 713:255 714:255 715:255 716:255 717:255 718:255 719:0 720:0 721:0 722:0 723:0 724:0 725:0 726:0 727:0 728:0 729:0 730:255 731:255 732:255 733:255 734:255 735:255 736:255 737:255 738:255 739:255 740:255 741:255 742:255 743:255 744:255 745:255 746:255 747:0 748:0 749:0 750:0 751:0 752:0 753:0 754:0 755:0 756:0 757:0 758:0 759:0 760:0 761:255 762:255 763:255 764:255 765:255 766:255 767:255 768:255 769:255 770:255 771:255 772:255 773:255 774:0 775:0 776:0 777:0 778:0 779:0 780:0 781:0 782:0 783:0 784:0 785:0 786:0 787:0 788:0 789:0 790:0 791:0 792:0 793:0 794:0 795:0 796:0 797:0 798:0 799:0 800:0 801:0 802:0 803:0 804:0 805:0 806:0 807:0 808:0 809:0 810:0 811:0 812:0 813:0 814:0 815:0 816:0 817:0 818:0 819:0 820:0 821:0 822:0 823:0 824:0 825:0 826:0 827:0 828:0 829:0 830:0 831:0 832:0 833:0 834:0 835:0 836:0 837:0 838:0 839:0 840:0 841:0 
6.714383361034394e-017 1:0 2:0 3:0 4:0 5:0 6:0 7:0 8:0 9:0 10:0 11:0 12:0 13:0 14:0 15:0 16:0 17:0 18:0 19:0 20:0 21:0 22:0 23:0 24:0 25:0 26:0 27:0 28:0 29:0 30:0 31:0 32:0 33:0 34:0 35:0 36:0 37:0 38:0 39:0 40:0 41:0 42:0 43:0 44:0 45:0 46:0 47:0 48:0 49:0 50:0 51:0 52:0 53:0 54:0 55:0 56:0 57:0 58:0 59:0 60:0 61:0 62:0 63:0 64:0 65:0 66:0 67:0 68:0 69:0 70:0 71:0 72:0 73:0 74:0 75:0 76:0 77:0 78:0 79:0 80:0 81:0 82:0 83:255 84:255 85:255 86:255 87:255 88:0 89:0 90:0 91:0 92:0 93:0 94:0 95:0 96:0 97:0 98:0 99:0 100:0 101:0 102:0 103:0 104:0 105:0 106:0 107:0 108:0 109:0 110:0 111:255 112:255 113:255 114:255 115:255 116:255 117:0 118:0 119:0 120:0 121:0 122:0 123:0 124:0 125:0 126:0 127:0 128:0 129:0 130:0 131:0 132:0 133:0 134:0 135:0 136:0 137:0 138:0 139:0 140:255 141:255 142:255 143:255 144:255 145:255 146:0 147:0 148:0 149:0 150:0 151:0 152:0 153:0 154:0 155:0 156:0 157:0 158:0 159:0 160:0 161:0 162:0 163:0 164:0 165:0 166:0 167:0 168:255 169:255 170:255 171:255 172:255 173:255 174:255 175:0 176:0 177:0 178:0 179:0 180:0 181:0 182:0 183:0 184:0 185:0 186:0 187:0 188:0 189:0 190:0 191:0 192:0 193:0 194:0 195:0 196:0 197:255 198:255 199:255 200:255 201:255 202:255 203:255 204:0 205:0 206:0 207:0 208:0 209:0 210:0 211:0 212:0 213:0 214:0 215:0 216:0 217:0 218:0 219:0 220:0 221:0 222:0 223:0 224:0 225:0 226:255 227:255 228:255 229:255 230:255 231:255 232:255 233:0 234:0 235:0 236:0 237:0 238:0 239:0 240:0 241:0 242:0 243:0 244:0 245:0 246:0 247:0 248:0 249:0 250:0 251:0 252:0 253:0 254:255 255:255 256:255 257:255 258:255 259:255 260:255 261:0 262:0 263:0 264:0 265:0 266:0 267:0 268:0 269:0 270:0 271:0 272:0 273:0 274:0 275:0 276:0 277:0 278:0 279:0 280:0 281:0 282:0 283:255 284:255 285:255 286:255 287:255 288:255 289:255 290:0 291:0 292:0 293:0 294:0 295:0 296:0 297:0 298:0 299:0 300:0 301:0 302:0 303:0 304:0 305:0 306:0 307:0 308:0 309:0 310:0 311:0 312:255 313:255 314:255 315:255 316:255 317:255 318:0 319:0 320:0 321:0 322:0 323:0 324:0 325:0 326:0 327:0 328:0 329:0 330:0 331:0 332:0 333:0 334:0 335:0 336:0 337:0 338:0 339:0 340:255 341:255 342:255 343:255 344:255 345:255 346:255 347:0 348:0 349:0 350:0 351:0 352:0 353:0 354:0 355:0 356:0 357:0 358:0 359:0 360:0 361:0 362:0 363:0 364:0 365:0 366:0 367:0 368:0 369:255 370:255 371:255 372:255 373:255 374:255 375:0 376:0 377:0 378:0 379:0 380:0 381:0 382:0 383:0 384:0 385:0 386:0 387:0 388:0 389:0 390:0 391:0 392:0 393:0 394:0 395:0 396:0 397:0 398:255 399:255 400:255 401:255 402:255 403:255 404:0 405:0 406:0 407:0 408:0 409:0 410:0 411:0 412:0 413:0 414:0 415:0 416:0 417:0 418:0 419:0 420:0 421:0 422:0 423:0 424:0 425:0 426:0 427:255 428:255 429:255 430:255 431:255 432:255 433:0 434:0 435:0 436:0 437:0 438:0 439:0 440:0 441:0 442:0 443:0 444:0 445:0 446:0 447:0 448:0 449:0 450:0 451:0 452:0 453:0 454:0 455:255 456:255 457:255 458:255 459:255 460:255 461:0 462:0 463:0 464:0 465:0 466:0 467:0 468:0 469:0 470:0 471:0 472:0 473:0 474:0 475:0 476:0 477:0 478:0 479:0 480:0 481:0 482:0 483:0 484:255 485:255 486:255 487:255 488:255 489:255 490:0 491:0 492:0 493:0 494:0 495:0 496:0 497:0 498:0 499:0 500:0 501:0 502:0 503:0 504:0 505:0 506:0 507:0 508:0 509:0 510:0 511:0 512:255 513:255 514:255 515:255 516:255 517:255 518:255 519:0 520:0 521:0 522:0 523:0 524:0 525:0 526:0 527:0 528:0 529:0 530:0 531:0 532:0 533:0 534:0 535:0 536:0 537:0 538:0 539:0 540:0 541:255 542:255 543:255 544:255 545:255 546:255 547:255 548:0 549:0 550:0 551:0 552:0 553:0 554:0 555:0 556:0 557:0 558:0 559:0 560:0 561:0 562:0 563:0 564:0 565:0 566:0 567:0 568:0 569:0 570:255 571:255 572:255 573:255 574:255 575:255 576:0 577:0 578:0 579:0 580:0 581:0 582:0 583:0 584:255 585:0 586:0 587:0 588:0 589:0 590:0 591:0 592:0 593:0 594:0 595:0 596:0 597:0 598:255 599:255 600:255 601:255 602:255 603:255 604:255 605:0 606:0 607:0 608:0 609:0 610:0 611:255 612:255 613:255 614:255 615:255 616:0 617:0 618:0 619:0 620:0 621:0 622:0 623:0 624:0 625:0 626:0 627:255 628:255 629:255 630:255 631:255 632:255 633:255 634:0 635:0 636:0 637:0 638:0 639:255 640:255 641:255 642:255 643:255 644:255 645:255 646:0 647:0 648:0 649:0 650:0 651:0 652:0 653:0 654:0 655:255 656:255 657:255 658:255 659:255 660:255 661:255 662:0 663:0 664:0 665:0 666:0 667:0 668:0 669:255 670:255 671:255 672:255 673:255 674:255 675:255 676:255 677:0 678:0 679:0 680:0 681:0 682:255 683:255 684:255 685:255 686:255 687:255 688:255 689:255 690:0 691:0 692:0 693:0 694:0 695:0 696:0 697:0 698:0 699:255 700:255 701:255 702:255 703:255 704:255 705:255 706:255 707:255 708:255 709:255 710:255 711:255 712:255 713:255 714:255 715:255 716:255 717:255 718:0 719:0 720:0 721:0 722:0 723:0 724:0 725:0 726:0 727:0 728:0 729:255 730:255 731:255 732:255 733:255 734:255 735:255 736:255 737:255 738:255 739:255 740:255 741:255 742:255 743:255 744:255 745:0 746:0 747:0 748:0 749:0 750:0 751:0 752:0 753:0 754:0 755:0 756:0 757:0 758:0 759:255 760:255 761:255 762:255 763:255 764:255 765:255 766:255 767:255 768:255 769:255 770:255 771:0 772:0 773:0 774:0 775:0 776:0 777:0 778:0 779:0 780:0 781:0 782:0 783:0 784:0 785:0 786:0 787:0 788:0 789:0 790:0 791:0 792:0 793:0 794:0 795:0 796:0 797:0 798:0 799:0 800:0 801:0 802:0 803:0 804:0 805:0 806:0 807:0 808:0 809:0 810:0 811:0 812:0 813:0 814:0 815:0 816:0 817:0 818:0 819:0 820:0 821:0 822:0 823:0 824:0 825:0 826:0 827:0 828:0 829:0 830:0 831:0 832:0 833:0 834:0 835:0 836:0 837:0 838:0 839:0 840:0 841:0 
1.297401268179992e-016 1:0 2:0 3:0 4:0 5:0 6:0 7:0 8:0 9:0 10:0 11:0 12:0 13:0 14:0 15:0 16:0 17:0 18:0 19:0 20:0 21:0 22:0 23:0 24:0 25:0 26:0 27:0 28:0 29:0 30:0 31:0 32:0 33:0 34:0 35:0 36:0 37:0 38:0 39:0 40:0 41:0 42:0 43:0 44:0 45:0 46:0 47:0 48:0 49:0 50:0 51:0 52:0 53:0 54:0 55:0 56:0 57:0 58:0 59:0 60:0 61:0 62:0 63:0 64:0 65:0 66:0 67:0 68:0 69:0 70:0 71:0 72:0 73:0 74:0 75:0 76:0 77:0 78:0 79:0 80:0 81:255 82:255 83:255 84:0 85:0 86:0 87:0 88:0 89:0 90:0 91:0 92:0 93:0 94:0 95:0 96:0 97:0 98:0 99:0 100:0 101:0 102:0 103:0 104:0 105:0 106:0 107:0 108:255 109:255 110:255 111:255 112:255 113:255 114:0 115:0 116:0 117:0 118:0 119:0 120:0 121:0 122:0 123:0 124:0 125:0 126:0 127:0 128:0 129:0 130:0 131:0 132:0 133:0 134:0 135:0 136:0 137:255 138:255 139:255 140:255 141:255 142:255 143:0 144:0 145:0 146:0 147:0 148:0 149:0 150:0 151:0 152:0 153:0 154:0 155:0 156:0 157:0 158:0 159:0 160:0 161:0 162:0 163:0 164:0 165:0 166:255 167:255 168:255 169:255 170:255 171:255 172:0 173:0 174:0 175:0 176:0 177:0 178:0 179:0 180:0 181:0 182:0 183:0 184:0 185:0 186:0 187:0 188:0 189:0 190:0 191:0 192:0 193:0 194:255 195:255 196:255 197:255 198:255 199:255 200:0 201:0 202:0 203:0 204:0 205:0 206:0 207:0 208:0 209:0 210:0 211:0 212:0 213:0 214:0 215:0 216:0 217:0 218:0 219:0 220:0 221:0 222:0 223:255 224:255 225:255 226:255 227:255 228:255 229:0 230:0 231:0 232:0 233:0 234:0 235:0 236:0 237:0 238:0 239:0 240:0 241:0 242:0 243:0 244:0 245:0 246:0 247:0 248:0 249:0 250:0 251:0 252:255 253:255 254:255 255:255 256:255 257:255 258:0 259:0 260:0 261:0 262:0 263:0 264:0 265:0 266:0 267:0 268:0 269:0 270:0 271:0 272:0 273:0 274:0 275:0 276:0 277:0 278:0 279:0 280:0 281:255 282:255 283:255 284:255 285:255 286:255 287:0 288:0 289:0 290:0 291:0 292:0 293:0 294:0 295:0 296:0 297:0 298:0 299:0 300:0 301:0 302:0 303:0 304:0 305:0 306:0 307:0 308:0 309:255 310:255 311:255 312:255 313:255 314:255 315:0 316:0 317:0 318:0 319:0 320:0 321:0 322:0 323:0 324:0 325:0 326:0 327:0 328:0 329:0 330:0 331:0 332:0 333:0 334:0 335:0 336:0 337:0 338:255 339:255 340:255 341:255 342:255 343:255 344:0 345:0 346:0 347:0 348:0 349:0 350:0 351:0 352:0 353:0 354:0 355:0 356:0 357:0 358:0 359:0 360:0 361:0 362:0 363:0 364:0 365:0 366:0 367:255 368:255 369:255 370:255 371:255 372:255 373:0 374:0 375:0 376:0 377:0 378:0 379:0 380:0 381:0 382:0 383:0 384:0 385:0 386:0 387:0 388:0 389:0 390:0 391:0 392:0 393:0 394:0 395:255 396:255 397:255 398:255 399:255 400:255 401:0 402:0 403:0 404:0 405:0 406:255 407:0 408:0 409:0 410:0 411:0 412:0 413:0 414:0 415:0 416:0 417:0 418:0 419:0 420:0 421:0 422:0 423:0 424:255 425:255 426:255 427:255 428:255 429:255 430:0 431:0 432:0 433:0 434:255 435:255 436:0 437:0 438:0 439:0 440:0 441:0 442:0 443:0 444:0 445:0 446:0 447:0 448:0 449:0 450:0 451:0 452:0 453:255 454:255 455:255 456:255 457:255 458:255 459:0 460:0 461:0 462:0 463:0 464:255 465:0 466:0 467:0 468:0 469:0 470:0 471:0 472:0 473:0 474:0 475:0 476:0 477:0 478:0 479:0 480:0 481:0 482:255 483:255 484:255 485:255 486:255 487:255 488:0 489:0 490:0 491:0 492:0 493:0 494:0 495:0 496:0 497:0 498:0 499:0 500:0 501:0 502:0 503:0 504:0 505:0 506:0 507:0 508:0 509:0 510:0 511:255 512:255 513:255 514:255 515:255 516:0 517:0 518:0 519:0 520:0 521:0 522:0 523:0 524:0 525:0 526:0 527:0 528:0 529:0 530:0 531:0 532:0 533:0 534:0 535:0 536:0 537:0 538:0 539:255 540:255 541:255 542:255 543:255 544:255 545:0 546:0 547:0 548:0 549:0 550:0 551:0 552:0 553:0 554:0 555:0 556:0 557:0 558:0 559:0 560:0 561:0 562:0 563:0 564:0 565:0 566:0 567:0 568:255 569:255 570:255 571:255 572:255 573:255 574:0 575:0 576:0 577:0 578:0 579:0 580:0 581:0 582:0 583:0 584:0 585:0 586:0 587:0 588:0 589:0 590:0 591:0 592:0 593:0 594:0 595:0 596:0 597:255 598:255 599:255 600:255 601:255 602:0 603:0 604:0 605:0 606:0 607:0 608:0 609:0 610:0 611:255 612:255 613:255 614:255 615:255 616:0 617:0 618:0 619:0 620:0 621:0 622:0 623:0 624:0 625:255 626:255 627:255 628:255 629:255 630:255 631:0 632:0 633:0 634:0 635:0 636:0 637:0 638:0 639:0 640:255 641:255 642:255 643:255 644:255 645:255 646:0 647:0 648:0 649:0 650:0 651:0 652:0 653:0 654:255 655:255 656:255 657:255 658:255 659:255 660:0 661:0 662:0 663:0 664:0 665:0 666:0 667:0 668:0 669:255 670:255 671:255 672:255 673:255 674:255 675:255 676:0 677:0 678:0 679:0 680:0 681:0 682:255 683:255 684:255 685:255 686:255 687:255 688:0 689:0 690:0 691:0 692:0 693:0 694:0 695:0 696:0 697:0 698:0 699:255 700:255 701:255 702:255 703:255 704:255 705:255 706:255 707:255 708:255 709:255 710:255 711:255 712:255 713:255 714:255 715:255 716:0 717:0 718:0 719:0 720:0 721:0 722:0 723:0 724:0 725:0 726:0 727:0 728:0 729:255 730:255 731:255 732:255 733:255 734:255 735:255 736:255 737:255 738:255 739:255 740:255 741:255 742:255 743:0 744:0 745:0 746:0 747:0 748:0 749:0 750:0 751:0 752:0 753:0 754:0 755:0 756:0 757:0 758:0 759:255 760:255 761:255 762:255 763:255 764:255 765:255 766:255 767:255 768:255 769:255 770:0 771:0 772:0 773:0 774:0 775:0 776:0 777:0 778:0 779:0 780:0 781:0 782:0 783:0 784:0 785:0 786:0 787:0 788:0 789:0 790:0 791:0 792:255 793:255 794:255 795:0 796:0 797:0 798:0 799:0 800:0 801:0 802:0 803:0 804:0 805:0 806:0 807:0 808:0 809:0 810:0 811:0 812:0 813:0 814:0 815:0 816:0 817:0 818:0 819:0 820:0 821:0 822:0 823:0 824:0 825:0 826:0 827:0 828:0 829:0 830:0 831:0 832:0 833:0 834:0 835:0 836:0 837:0 838:0 839:0 840:0 841:0 
4.385981913261155e-016 1:0 2:0 3:0 4:0 5:0 6:0 7:0 8:0 9:0 10:0 11:0 12:0 13:0 14:0 15:0 16:0 17:0 18:0 19:0 20:0 21:0 22:0 23:0 24:0 25:0 26:0 27:0 28:0 29:0 30:0 31:0 32:0 33:0 34:0 35:0 36:0 37:0 38:0 39:0 40:0 41:0 42:0 43:0 44:0 45:0 46:0 47:0 48:0 49:0 50:255 51:255 52:255 53:255 54:255 55:0 56:0 57:0 58:0 59:0 60:0 61:0 62:0 63:0 64:0 65:0 66:0 67:0 68:0 69:0 70:255 71:255 72:255 73:255 74:255 75:255 76:255 77:255 78:255 79:255 80:255 81:255 82:255 83:255 84:255 85:255 86:0 87:0 88:0 89:0 90:0 91:0 92:0 93:0 94:0 95:0 96:0 97:255 98:255 99:255 100:255 101:255 102:255 103:255 104:255 105:255 106:255 107:255 108:255 109:255 110:255 111:255 112:255 113:255 114:255 115:0 116:0 117:0 118:0 119:0 120:0 121:0 122:0 123:0 124:0 125:255 126:255 127:255 128:255 129:255 130:255 131:255 132:255 133:255 134:255 135:255 136:255 137:255 138:255 139:255 140:255 141:255 142:255 143:255 144:0 145:0 146:0 147:0 148:0 149:0 150:0 151:0 152:0 153:0 154:255 155:255 156:255 157:255 158:255 159:255 160:255 161:255 162:255 163:0 164:255 165:255 166:255 167:255 168:255 169:255 170:255 171:255 172:255 173:0 174:0 175:0 176:0 177:0 178:0 179:0 180:0 181:0 182:0 183:0 184:255 185:255 186:255 187:255 188:255 189:255 190:0 191:0 192:0 193:0 194:255 195:255 196:255 197:255 198:255 199:255 200:255 201:255 202:0 203:0 204:0 205:0 206:0 207:0 208:0 209:0 210:0 211:0 212:0 213:255 214:255 215:255 216:255 217:0 218:0 219:0 220:0 221:0 222:0 223:255 224:255 225:255 226:255 227:255 228:255 229:255 230:255 231:0 232:0 233:0 234:0 235:0 236:0 237:0 238:0 239:0 240:0 241:0 242:0 243:0 244:0 245:0 246:0 247:0 248:0 249:0 250:0 251:0 252:255 253:255 254:255 255:255 256:255 257:255 258:255 259:255 260:0 261:0 262:0 263:0 264:0 265:0 266:0 267:0 268:0 269:0 270:0 271:0 272:0 273:0 274:0 275:0 276:0 277:0 278:0 279:0 280:0 281:255 282:255 283:255 284:255 285:255 286:255 287:255 288:255 289:255 290:0 291:0 292:0 293:0 294:0 295:0 296:0 297:0 298:0 299:0 300:0 301:0 302:0 303:0 304:0 305:0 306:0 307:0 308:0 309:0 310:255 311:255 312:255 313:255 314:255 315:255 316:255 317:255 318:255 319:255 320:0 321:0 322:0 323:0 324:0 325:0 326:0 327:0 328:0 329:0 330:0 331:0 332:0 333:0 334:0 335:0 336:0 337:0 338:0 339:255 340:255 341:255 342:255 343:255 344:255 345:255 346:255 347:255 348:0 349:0 350:0 351:0 352:0 353:0 354:0 355:0 356:0 357:0 358:0 359:0 360:0 361:0 362:0 363:0 364:0 365:0 366:0 367:255 368:255 369:255 370:255 371:255 372:255 373:255 374:255 375:255 376:255 377:0 378:0 379:0 380:0 381:0 382:0 383:0 384:0 385:0 386:0 387:0 388:0 389:0 390:0 391:0 392:0 393:0 394:0 395:0 396:255 397:255 398:255 399:255 400:255 401:255 402:255 403:255 404:255 405:0 406:0 407:0 408:0 409:0 410:0 411:0 412:0 413:0 414:0 415:0 416:0 417:0 418:0 419:0 420:0 421:0 422:0 423:0 424:0 425:0 426:255 427:255 428:255 429:255 430:255 431:255 432:255 433:0 434:0 435:0 436:0 437:0 438:0 439:0 440:0 441:0 442:0 443:0 444:0 445:0 446:0 447:0 448:0 449:0 450:0 451:0 452:0 453:0 454:255 455:255 456:255 457:255 458:255 459:255 460:255 461:255 462:0 463:0 464:0 465:0 466:0 467:0 468:0 469:0 470:0 471:0 472:0 473:0 474:0 475:0 476:0 477:0 478:0 479:0 480:0 481:0 482:0 483:255 484:255 485:255 486:255 487:255 488:255 489:255 490:255 491:0 492:0 493:0 494:0 495:0 496:0 497:0 498:0 499:0 500:0 501:0 502:0 503:0 504:0 505:0 506:0 507:0 508:0 509:0 510:0 511:0 512:255 513:255 514:255 515:255 516:255 517:255 518:255 519:255 520:0 521:0 522:0 523:0 524:255 525:255 526:255 527:255 528:255 529:255 530:0 531:0 532:0 533:0 534:0 535:0 536:0 537:0 538:0 539:0 540:0 541:255 542:255 543:255 544:255 545:255 546:255 547:255 548:0 549:0 550:0 551:0 552:0 553:255 554:255 555:255 556:255 557:255 558:255 559:255 560:0 561:0 562:0 563:0 564:0 565:0 566:0 567:0 568:255 569:255 570:255 571:255 572:255 573:255 574:255 575:255 576:255 577:0 578:0 579:0 580:0 581:0 582:0 583:255 584:255 585:255 586:255 587:255 588:255 589:255 590:255 591:255 592:0 593:0 594:0 595:255 596:255 597:255 598:255 599:255 600:255 601:255 602:255 603:255 604:255 605:0 606:0 607:0 608:0 609:0 610:0 611:0 612:0 613:255 614:255 615:255 616:255 617:255 618:255 619:255 620:255 621:255 622:255 623:255 624:255 625:255 626:255 627:255 628:255 629:255 630:255 631:255 632:255 633:0 634:0 635:0 636:0 637:0 638:0 639:0 640:0 641:0 642:0 643:0 644:0 645:255 646:255 647:255 648:255 649:255 650:255 651:255 652:255 653:255 654:255 655:255 656:255 657:255 658:255 659:255 660:255 661:0 662:0 663:0 664:255 665:0 666:0 667:0 668:0 669:0 670:0 671:0 672:0 673:0 674:0 675:0 676:0 677:0 678:255 679:255 680:255 681:255 682:255 683:255 684:0 685:0 686:0 687:0 688:0 689:0 690:0 691:0 692:0 693:255 694:0 695:0 696:0 697:0 698:0 699:0 700:0 701:0 702:0 703:0 704:0 705:0 706:0 707:0 708:0 709:0 710:0 711:0 712:0 713:0 714:0 715:0 716:0 717:0 718:0 719:0 720:0 721:0 722:0 723:0 724:0 725:0 726:0 727:255 728:255 729:255 730:255 731:0 732:0 733:0 734:0 735:0 736:0 737:0 738:0 739:0 740:0 741:0 742:0 743:0 744:0 745:0 746:0 747:0 748:0 749:0 750:0 751:0 752:0 753:0 754:0 755:255 756:255 757:255 758:255 759:255 760:255 761:0 762:0 763:0 764:0 765:0 766:0 767:0 768:0 769:0 770:0 771:0 772:0 773:0 774:0 775:0 776:0 777:0 778:0 779:0 780:0 781:0 782:0 783:0 784:255 785:255 786:255 787:255 788:255 789:0 790:0 791:0 792:0 793:0 794:0 795:0 796:0 797:0 798:0 799:0 800:0 801:0 802:0 803:0 804:0 805:0 806:0 807:0 808:0 809:0 810:0 811:0 812:0 813:255 814:255 815:255 816:255 817:255 818:0 819:0 820:0 821:0 822:0 823:0 824:0 825:0 826:0 827:0 828:0 829:0 830:0 831:0 832:0 833:0 834:0 835:0 836:0 837:0 838:0 839:0 840:0 841:0 
1.500092330869571e-016 1:0 2:0 3:0 4:0 5:0 6:0 7:0 8:0 9:0 10:0 11:0 12:0 13:0 14:0 15:0 16:0 17:0 18:0 19:0 20:0 21:0 22:0 23:0 24:0 25:0 26:0 27:0 28:0 29:0 30:0 31:0 32:0 33:0 34:0 35:0 36:0 37:0 38:0 39:0 40:0 41:0 42:0 43:0 44:0 45:0 46:0 47:0 48:0 49:0 50:0 51:0 52:0 53:0 54:0 55:0 56:0 57:0 58:0 59:0 60:0 61:0 62:0 63:0 64:0 65:0 66:0 67:0 68:0 69:0 70:0 71:0 72:0 73:0 74:0 75:0 76:0 77:0 78:0 79:0 80:0 81:0 82:255 83:255 84:255 85:255 86:255 87:255 88:0 89:0 90:0 91:0 92:0 93:0 94:0 95:0 96:0 97:0 98:0 99:0 100:0 101:0 102:0 103:0 104:0 105:0 106:0 107:0 108:0 109:0 110:255 111:255 112:255 113:255 114:255 115:255 116:255 117:0 118:0 119:0 120:0 121:0 122:0 123:0 124:0 125:0 126:0 127:0 128:0 129:0 130:0 131:0 132:0 133:0 134:0 135:0 136:0 137:0 138:0 139:255 140:255 141:255 142:255 143:255 144:255 145:255 146:0 147:0 148:0 149:0 150:0 151:0 152:0 153:0 154:0 155:0 156:0 157:0 158:0 159:0 160:0 161:0 162:0 163:0 164:0 165:0 166:0 167:0 168:255 169:255 170:255 171:255 172:255 173:255 174:255 175:0 176:0 177:0 178:0 179:0 180:0 181:0 182:0 183:0 184:0 185:0 186:0 187:0 188:0 189:0 190:0 191:0 192:0 193:0 194:0 195:0 196:0 197:255 198:255 199:255 200:255 201:255 202:255 203:255 204:0 205:0 206:0 207:0 208:0 209:0 210:0 211:0 212:0 213:0 214:0 215:0 216:0 217:0 218:0 219:0 220:0 221:0 222:0 223:0 224:0 225:0 226:255 227:255 228:255 229:255 230:255 231:255 232:255 233:0 234:0 235:0 236:0 237:0 238:0 239:0 240:0 241:0 242:0 243:0 244:0 245:0 246:0 247:0 248:0 249:0 250:0 251:0 252:0 253:0 254:0 255:255 256:255 257:255 258:255 259:255 260:255 261:255 262:0 263:0 264:0 265:0 266:0 267:0 268:0 269:0 270:0 271:0 272:0 273:0 274:0 275:0 276:0 277:0 278:0 279:0 280:0 281:0 282:0 283:0 284:255 285:255 286:255 287:255 288:255 289:255 290:255 291:0 292:0 293:0 294:0 295:0 296:0 297:0 298:0 299:0 300:0 301:0 302:0 303:0 304:0 305:0 306:0 307:0 308:0 309:0 310:0 311:0 312:0 313:255 314:255 315:255 316:255 317:255 318:255 319:255 320:0 321:0 322:0 323:0 324:0 325:0 326:0 327:0 328:0 329:0 330:0 331:0 332:0 333:0 334:0 335:0 336:0 337:0 338:0 339:0 340:0 341:0 342:255 343:255 344:255 345:255 346:255 347:255 348:255 349:0 350:0 351:0 352:0 353:0 354:0 355:0 356:0 357:0 358:0 359:0 360:0 361:0 362:0 363:0 364:0 365:0 366:0 367:0 368:0 369:0 370:0 371:255 372:255 373:255 374:255 375:255 376:255 377:255 378:0 379:0 380:0 381:0 382:0 383:0 384:0 385:0 386:0 387:0 388:0 389:0 390:0 391:0 392:0 393:0 394:0 395:0 396:0 397:0 398:0 399:255 400:255 401:255 402:255 403:255 404:255 405:255 406:255 407:0 408:0 409:0 410:0 411:0 412:0 413:0 414:0 415:0 416:0 417:0 418:0 419:0 420:0 421:0 422:0 423:0 424:0 425:0 426:0 427:0 428:255 429:255 430:255 431:255 432:255 433:255 434:255 435:0 436:0 437:0 438:0 439:0 440:0 441:0 442:0 443:0 444:0 445:0 446:0 447:0 448:0 449:0 450:0 451:0 452:0 453:0 454:0 455:0 456:0 457:255 458:255 459:255 460:255 461:255 462:255 463:255 464:0 465:0 466:0 467:0 468:0 469:0 470:0 471:0 472:0 473:0 474:0 475:0 476:0 477:0 478:0 479:0 480:0 481:0 482:0 483:0 484:0 485:0 486:255 487:255 488:255 489:255 490:255 491:255 492:255 493:0 494:0 495:0 496:0 497:0 498:0 499:0 500:0 501:0 502:0 503:0 504:0 505:0 506:0 507:0 508:0 509:0 510:0 511:0 512:0 513:0 514:0 515:255 516:255 517:255 518:255 519:255 520:255 521:255 522:0 523:0 524:0 525:0 526:0 527:0 528:0 529:0 530:0 531:0 532:0 533:0 534:0 535:0 536:0 537:0 538:0 539:0 540:0 541:0 542:0 543:0 544:255 545:255 546:255 547:255 548:255 549:255 550:255 551:0 552:0 553:0 554:0 555:0 556:0 557:0 558:0 559:0 560:0 561:0 562:0 563:0 564:0 565:0 566:0 567:0 568:0 569:0 570:0 571:0 572:0 573:255 574:255 575:255 576:255 577:255 578:255 579:255 580:0 581:0 582:0 583:0 584:0 585:0 586:0 587:0 588:0 589:0 590:0 591:0 592:0 593:0 594:0 595:0 596:0 597:0 598:0 599:0 600:0 601:0 602:255 603:255 604:255 605:255 606:255 607:255 608:255 609:0 610:0 611:0 612:255 613:255 614:255 615:255 616:255 617:0 618:0 619:0 620:0 621:0 622:0 623:0 624:0 625:0 626:0 627:0 628:0 629:0 630:0 631:255 632:255 633:255 634:255 635:255 636:255 637:255 638:0 639:0 640:0 641:255 642:255 643:255 644:255 645:255 646:255 647:255 648:0 649:0 650:0 651:0 652:0 653:0 654:0 655:0 656:0 657:0 658:0 659:0 660:255 661:255 662:255 663:255 664:255 665:255 666:0 667:0 668:0 669:0 670:0 671:255 672:255 673:255 674:255 675:255 676:255 677:255 678:0 679:0 680:0 681:0 682:0 683:0 684:0 685:0 686:0 687:0 688:255 689:255 690:255 691:255 692:255 693:255 694:255 695:0 696:0 697:0 698:0 699:0 700:255 701:255 702:255 703:255 704:255 705:255 706:255 707:255 708:255 709:255 710:0 711:0 712:0 713:0 714:255 715:255 716:255 717:255 718:255 719:255 720:255 721:255 722:255 723:0 724:0 725:0 726:0 727:0 728:0 729:0 730:0 731:255 732:255 733:255 734:255 735:255 736:255 737:255 738:255 739:255 740:255 741:255 742:255 743:255 744:255 745:255 746:255 747:255 748:255 749:255 750:0 751:0 752:0 753:0 754:0 755:0 756:0 757:0 758:0 759:0 760:0 761:0 762:255 763:255 764:255 765:255 766:255 767:255 768:255 769:255 770:255 771:255 772:255 773:255 774:255 775:255 776:255 777:0 778:0 779:0 780:0 781:0 782:0 783:0 784:0 785:0 786:0 787:0 788:0 789:0 790:0 791:0 792:0 793:0 794:0 795:0 796:0 797:255 798:255 799:255 800:255 801:255 802:255 803:0 804:0 805:0 806:0 807:0 808:0 809:0 810:0 811:0 812:0 813:0 814:0 815:0 816:0 817:0 818:0 819:0 820:0 821:0 822:0 823:0 824:0 825:0 826:0 827:0 828:0 829:0 830:0 831:0 832:0 833:0 834:0 835:0 836:0 837:0 838:0 839:0 840:0 841:0 
7.182987334328524e-017 1:0 2:0 3:0 4:0 5:0 6:0 7:0 8:0 9:0 10:0 11:0 12:0 13:0 14:0 15:0 16:0 17:0 18:0 19:0 20:0 21:0 22:0 23:0 24:0 25:0 26:0 27:0 28:0 29:0 30:0 31:0 32:0 33:0 34:0 35:0 36:0 37:0 38:0 39:0 40:0 41:0 42:0 43:0 44:0 45:0 46:0 47:0 48:0 49:0 50:0 51:0 52:0 53:0 54:0 55:0 56:0 57:0 58:0 59:0 60:0 61:0 62:0 63:0 64:0 65:0 66:0 67:0 68:0 69:0 70:0 71:0 72:0 73:0 74:0 75:0 76:0 77:0 78:0 79:0 80:0 81:255 82:255 83:255 84:255 85:255 86:0 87:0 88:0 89:0 90:0 91:0 92:0 93:0 94:0 95:0 96:0 97:0 98:0 99:0 100:0 101:0 102:0 103:0 104:0 105:0 106:0 107:0 108:0 109:255 110:255 111:255 112:255 113:255 114:255 115:255 116:0 117:0 118:0 119:0 120:0 121:0 122:0 123:0 124:0 125:0 126:0 127:0 128:0 129:0 130:0 131:0 132:0 133:0 134:0 135:0 136:0 137:0 138:255 139:255 140:255 141:255 142:255 143:255 144:255 145:0 146:0 147:0 148:0 149:0 150:0 151:0 152:0 153:0 154:0 155:0 156:0 157:0 158:0 159:0 160:0 161:0 162:0 163:0 164:0 165:0 166:0 167:255 168:255 169:255 170:255 171:255 172:255 173:255 174:0 175:0 176:0 177:0 178:0 179:0 180:0 181:0 182:0 183:0 184:0 185:0 186:0 187:0 188:0 189:0 190:0 191:0 192:0 193:0 194:0 195:0 196:255 197:255 198:255 199:255 200:255 201:255 202:255 203:0 204:0 205:0 206:0 207:0 208:0 209:0 210:0 211:0 212:0 213:0 214:0 215:0 216:0 217:0 218:0 219:0 220:0 221:0 222:0 223:0 224:0 225:255 226:255 227:255 228:255 229:255 230:255 231:255 232:0 233:0 234:0 235:0 236:0 237:0 238:0 239:0 240:0 241:0 242:0 243:0 244:0 245:0 246:0 247:0 248:0 249:0 250:0 251:0 252:0 253:0 254:255 255:255 256:255 257:255 258:255 259:255 260:255 261:0 262:0 263:0 264:0 265:0 266:0 267:0 268:0 269:0 270:0 271:0 272:0 273:0 274:0 275:0 276:0 277:0 278:0 279:0 280:0 281:0 282:0 283:255 284:255 285:255 286:255 287:255 288:255 289:255 290:0 291:0 292:0 293:0 294:0 295:0 296:0 297:0 298:0 299:0 300:0 301:0 302:0 303:0 304:0 305:0 306:0 307:0 308:0 309:0 310:0 311:0 312:255 313:255 314:255 315:255 316:255 317:255 318:255 319:0 320:0 321:0 322:0 323:0 324:0 325:0 326:0 327:0 328:0 329:0 330:0 331:0 332:0 333:0 334:0 335:0 336:0 337:0 338:0 339:0 340:0 341:255 342:255 343:255 344:255 345:255 346:255 347:0 348:0 349:0 350:0 351:0 352:0 353:0 354:0 355:0 356:0 357:0 358:0 359:0 360:0 361:0 362:0 363:0 364:0 365:0 366:0 367:0 368:0 369:0 370:255 371:255 372:255 373:255 374:255 375:255 376:0 377:0 378:0 379:0 380:0 381:0 382:0 383:0 384:0 385:0 386:0 387:0 388:0 389:0 390:0 391:0 392:0 393:0 394:0 395:0 396:0 397:0 398:0 399:255 400:255 401:255 402:255 403:255 404:255 405:0 406:0 407:0 408:0 409:0 410:0 411:0 412:0 413:0 414:0 415:0 416:0 417:0 418:0 419:0 420:0 421:0 422:0 423:0 424:0 425:0 426:0 427:0 428:255 429:255 430:255 431:255 432:255 433:255 434:0 435:0 436:0 437:0 438:0 439:0 440:0 441:0 442:0 443:0 444:0 445:0 446:0 447:0 448:0 449:0 450:0 451:0 452:0 453:0 454:0 455:0 456:0 457:255 458:255 459:255 460:255 461:255 462:255 463:0 464:0 465:0 466:0 467:0 468:0 469:0 470:0 471:0 472:0 473:0 474:0 475:0 476:0 477:0 478:0 479:0 480:0 481:0 482:0 483:0 484:0 485:0 486:255 487:255 488:255 489:255 490:255 491:255 492:0 493:0 494:0 495:0 496:0 497:0 498:0 499:0 500:0 501:0 502:0 503:0 504:0 505:0 506:0 507:0 508:0 509:0 510:0 511:0 512:0 513:0 514:0 515:255 516:255 517:255 518:255 519:255 520:255 521:0 522:0 523:0 524:0 525:0 526:0 527:0 528:0 529:0 530:0 531:0 532:0 533:0 534:0 535:0 536:0 537:0 538:0 539:0 540:0 541:0 542:0 543:0 544:255 545:255 546:255 547:255 548:255 549:255 550:0 551:0 552:0 553:0 554:0 555:0 556:0 557:0 558:0 559:0 560:0 561:0 562:0 563:0 564:0 565:0 566:0 567:0 568:0 569:0 570:0 571:0 572:0 573:255 574:255 575:255 576:255 577:255 578:255 579:0 580:0 581:0 582:0 583:0 584:0 585:0 586:0 587:0 588:0 589:0 590:0 591:0 592:0 593:0 594:0 595:0 596:0 597:0 598:0 599:0 600:0 601:0 602:255 603:255 604:255 605:255 606:255 607:255 608:0 609:0 610:0 611:0 612:0 613:0 614:0 615:0 616:0 617:0 618:0 619:0 620:0 621:0 622:0 623:0 624:0 625:0 626:0 627:0 628:0 629:0 630:0 631:255 632:255 633:255 634:255 635:255 636:255 637:0 638:0 639:0 640:0 641:255 642:255 643:255 644:255 645:255 646:255 647:0 648:0 649:0 650:0 651:0 652:0 653:0 654:0 655:0 656:0 657:0 658:0 659:255 660:255 661:255 662:255 663:255 664:255 665:255 666:0 667:0 668:0 669:0 670:255 671:255 672:255 673:255 674:255 675:255 676:255 677:0 678:0 679:0 680:0 681:0 682:0 683:0 684:0 685:0 686:0 687:0 688:255 689:255 690:255 691:255 692:255 693:255 694:255 695:0 696:0 697:0 698:0 699:0 700:255 701:255 702:255 703:255 704:255 705:255 706:255 707:0 708:0 709:0 710:0 711:0 712:0 713:0 714:0 715:255 716:255 717:255 718:255 719:255 720:255 721:255 722:255 723:0 724:0 725:0 726:0 727:0 728:0 729:0 730:0 731:255 732:255 733:255 734:255 735:255 736:255 737:255 738:255 739:255 740:255 741:255 742:255 743:255 744:255 745:255 746:255 747:255 748:255 749:255 750:255 751:0 752:0 753:0 754:0 755:0 756:0 757:0 758:0 759:0 760:0 761:255 762:255 763:255 764:255 765:255 766:255 767:255 768:255 769:255 770:255 771:255 772:255 773:255 774:255 775:255 776:255 777:255 778:0 779:0 780:0 781:0 782:0 783:0 784:0 785:0 786:0 787:0 788:0 789:0 790:0 791:0 792:0 793:0 794:255 795:255 796:255 797:255 798:255 799:255 800:255 801:255 802:255 803:255 804:0 805:0 806:0 807:0 808:0 809:0 810:0 811:0 812:0 813:0 814:0 815:0 816:0 817:0 818:0 819:0 820:0 821:0 822:0 823:0 824:0 825:0 826:0 827:0 828:0 829:0 830:0 831:0 832:0 833:0 834:0 835:0 836:0 837:0 838:0 839:0 840:0 841:0 
1.223562812020221e-017 1:0 2:0 3:0 4:0 5:0 6:0 7:0 8:0 9:0 10:0 11:0 12:0 13:0 14:0 15:0 16:0 17:0 18:0 19:0 20:0 21:0 22:0 23:0 24:0 25:0 26:0 27:0 28:0 29:0 30:0 31:0 32:0 33:0 34:0 35:0 36:0 37:0 38:0 39:0 40:0 41:0 42:0 43:0 44:0 45:0 46:0 47:0 48:0 49:0 50:0 51:0 52:0 53:0 54:0 55:0 56:0 57:0 58:0 59:0 60:0 61:0 62:0 63:0 64:0 65:0 66:0 67:0 68:0 69:0 70:0 71:0 72:0 73:0 74:0 75:0 76:0 77:0 78:0 79:0 80:0 81:255 82:255 83:255 84:255 85:255 86:255 87:0 88:0 89:0 90:0 91:0 92:0 93:0 94:0 95:0 96:0 97:0 98:0 99:0 100:0 101:0 102:0 103:0 104:0 105:0 106:0 107:0 108:0 109:0 110:255 111:255 112:255 113:255 114:255 115:255 116:0 117:0 118:0 119:0 120:0 121:0 122:0 123:0 124:0 125:0 126:0 127:0 128:0 129:0 130:0 131:0 132:0 133:0 134:0 135:0 136:0 137:0 138:255 139:255 140:255 141:255 142:255 143:255 144:255 145:0 146:0 147:0 148:0 149:0 150:0 151:0 152:0 153:0 154:0 155:0 156:0 157:0 158:0 159:0 160:0 161:0 162:0 163:0 164:0 165:0 166:0 167:255 168:255 169:255 170:255 171:255 172:255 173:255 174:0 175:0 176:0 177:0 178:0 179:0 180:0 181:0 182:0 183:0 184:0 185:0 186:0 187:0 188:0 189:0 190:0 191:0 192:0 193:0 194:0 195:0 196:255 197:255 198:255 199:255 200:255 201:255 202:255 203:0 204:0 205:0 206:0 207:0 208:0 209:0 210:0 211:0 212:0 213:0 214:0 215:0 216:0 217:0 218:0 219:0 220:0 221:0 222:0 223:0 224:0 225:255 226:255 227:255 228:255 229:255 230:255 231:255 232:0 233:0 234:0 235:0 236:0 237:0 238:0 239:0 240:0 241:0 242:0 243:0 244:0 245:0 246:0 247:0 248:0 249:0 250:0 251:0 252:0 253:0 254:255 255:255 256:255 257:255 258:255 259:255 260:255 261:0 262:0 263:0 264:0 265:0 266:0 267:0 268:0 269:0 270:0 271:0 272:0 273:0 274:0 275:0 276:0 277:0 278:0 279:0 280:0 281:0 282:0 283:255 284:255 285:255 286:255 287:255 288:255 289:0 290:0 291:0 292:0 293:0 294:0 295:0 296:0 297:0 298:0 299:0 300:0 301:0 302:0 303:0 304:0 305:0 306:0 307:0 308:0 309:0 310:0 311:0 312:255 313:255 314:255 315:255 316:255 317:255 318:0 319:0 320:0 321:0 322:0 323:0 324:0 325:0 326:0 327:0 328:0 329:0 330:0 331:0 332:0 333:0 334:0 335:0 336:0 337:0 338:0 339:0 340:0 341:255 342:255 343:255 344:255 345:255 346:255 347:0 348:0 349:0 350:0 351:0 352:0 353:0 354:0 355:0 356:0 357:0 358:0 359:0 360:0 361:0 362:0 363:0 364:0 365:0 366:0 367:0 368:0 369:0 370:255 371:255 372:255 373:255 374:255 375:255 376:0 377:0 378:0 379:0 380:0 381:0 382:0 383:0 384:0 385:0 386:0 387:0 388:0 389:0 390:0 391:0 392:0 393:0 394:0 395:0 396:0 397:0 398:255 399:255 400:255 401:255 402:255 403:255 404:0 405:0 406:0 407:0 408:0 409:0 410:0 411:0 412:0 413:0 414:0 415:0 416:0 417:0 418:0 419:0 420:0 421:0 422:0 423:0 424:0 425:0 426:0 427:255 428:255 429:255 430:255 431:255 432:255 433:0 434:0 435:0 436:0 437:0 438:0 439:0 440:0 441:0 442:0 443:0 444:0 445:0 446:0 447:0 448:0 449:0 450:0 451:0 452:0 453:0 454:0 455:0 456:255 457:255 458:255 459:255 460:255 461:255 462:0 463:0 464:0 465:0 466:0 467:0 468:0 469:0 470:0 471:0 472:0 473:0 474:0 475:0 476:0 477:0 478:0 479:0 480:0 481:0 482:0 483:0 484:0 485:255 486:255 487:255 488:255 489:255 490:255 491:0 492:0 493:0 494:0 495:0 496:0 497:0 498:0 499:0 500:0 501:0 502:0 503:0 504:0 505:0 506:0 507:0 508:0 509:0 510:0 511:0 512:0 513:0 514:255 515:255 516:255 517:255 518:255 519:255 520:0 521:0 522:0 523:0 524:0 525:0 526:0 527:0 528:0 529:0 530:0 531:0 532:0 533:0 534:0 535:0 536:0 537:0 538:0 539:0 540:0 541:0 542:0 543:255 544:255 545:255 546:255 547:255 548:255 549:0 550:0 551:0 552:0 553:0 554:0 555:0 556:0 557:0 558:0 559:0 560:0 561:0 562:0 563:0 564:0 565:0 566:0 567:0 568:0 569:0 570:0 571:0 572:255 573:255 574:255 575:255 576:255 577:255 578:0 579:0 580:0 581:0 582:0 583:0 584:255 585:255 586:255 587:0 588:0 589:0 590:0 591:0 592:0 593:0 594:0 595:0 596:0 597:0 598:0 599:0 600:0 601:255 602:255 603:255 604:255 605:255 606:255 607:0 608:0 609:0 610:0 611:255 612:255 613:255 614:255 615:255 616:255 617:255 618:0 619:0 620:0 621:0 622:0 623:0 624:0 625:0 626:0 627:0 628:0 629:255 630:255 631:255 632:255 633:255 634:255 635:255 636:0 637:0 638:0 639:0 640:0 641:255 642:255 643:255 644:255 645:255 646:255 647:0 648:0 649:0 650:0 651:0 652:0 653:0 654:0 655:0 656:0 657:255 658:255 659:255 660:255 661:255 662:255 663:255 664:0 665:0 666:0 667:0 668:0 669:0 670:255 671:255 672:255 673:255 674:255 675:255 676:255 677:255 678:0 679:0 680:0 681:0 682:0 683:0 684:0 685:255 686:255 687:255 688:255 689:255 690:255 691:255 692:0 693:0 694:0 695:0 696:0 697:0 698:0 699:0 700:255 701:255 702:255 703:255 704:255 705:255 706:255 707:255 708:255 709:255 710:255 711:255 712:255 713:255 714:255 715:255 716:255 717:255 718:255 719:255 720:0 721:0 722:0 723:0 724:0 725:0 726:0 727:0 728:0 729:0 730:0 731:255 732:255 733:255 734:255 735:255 736:255 737:255 738:255 739:255 740:255 741:255 742:255 743:255 744:255 745:255 746:255 747:255 748:0 749:0 750:0 751:0 752:0 753:0 754:0 755:0 756:0 757:0 758:0 759:0 760:0 761:0 762:255 763:255 764:255 765:255 766:255 767:255 768:255 769:255 770:255 771:255 772:255 773:255 774:0 775:0 776:0 777:0 778:0 779:0 780:0 781:0 782:0 783:0 784:0 785:0 786:0 787:0 788:0 789:0 790:0 791:0 792:0 793:0 794:0 795:0 796:0 797:0 798:0 799:0 800:0 801:0 802:0 803:0 804:0 805:0 806:0 807:0 808:0 809:0 810:0 811:0 812:0 813:0 814:0 815:0 816:0 817:0 818:0 819:0 820:0 821:0 822:0 823:0 824:0 825:0 826:0 827:0 828:0 829:0 830:0 831:0 832:0 833:0 834:0 835:0 836:0 837:0 838:0 839:0 840:0 841:0 
4.86091353721887e-017 1:0 2:0 3:0 4:0 5:0 6:0 7:0 8:0 9:0 10:0 11:0 12:0 13:0 14:0 15:0 16:0 17:0 18:0 19:0 20:0 21:0 22:0 23:0 24:0 25:0 26:0 27:0 28:0 29:0 30:0 31:0 32:0 33:0 34:0 35:0 36:0 37:0 38:0 39:0 40:0 41:0 42:0 43:0 44:0 45:0 46:0 47:0 48:0 49:0 50:0 51:0 52:0 53:0 54:255 55:255 56:255 57:0 58:0 59:0 60:0 61:0 62:0 63:0 64:0 65:0 66:0 67:0 68:0 69:0 70:0 71:0 72:0 73:0 74:0 75:0 76:0 77:0 78:0 79:0 80:0 81:255 82:255 83:255 84:255 85:255 86:255 87:0 88:0 89:0 90:0 91:0 92:0 93:0 94:0 95:0 96:0 97:0 98:0 99:0 100:0 101:0 102:0 103:0 104:0 105:0 106:0 107:0 108:0 109:255 110:255 111:255 112:255 113:255 114:255 115:255 116:0 117:0 118:0 119:0 120:0 121:0 122:0 123:0 124:0 125:0 126:0 127:0 128:0 129:0 130:0 131:0 132:0 133:0 134:0 135:0 136:0 137:0 138:255 139:255 140:255 141:255 142:255 143:255 144:255 145:0 146:0 147:0 148:0 149:0 150:0 151:0 152:0 153:0 154:0 155:0 156:0 157:0 158:0 159:0 160:0 161:0 162:0 163:0 164:0 165:0 166:0 167:255 168:255 169:255 170:255 171:255 172:255 173:255 174:0 175:0 176:0 177:0 178:0 179:0 180:0 181:0 182:0 183:0 184:0 185:0 186:0 187:0 188:0 189:0 190:0 191:0 192:0 193:0 194:0 195:0 196:255 197:255 198:255 199:255 200:255 201:255 202:255 203:0 204:0 205:0 206:0 207:0 208:0 209:0 210:0 211:0 212:0 213:0 214:0 215:0 216:0 217:0 218:0 219:0 220:0 221:0 222:0 223:0 224:0 225:255 226:255 227:255 228:255 229:255 230:255 231:255 232:0 233:0 234:0 235:0 236:0 237:0 238:0 239:0 240:0 241:0 242:0 243:0 244:0 245:0 246:0 247:0 248:0 249:0 250:0 251:0 252:0 253:0 254:255 255:255 256:255 257:255 258:255 259:255 260:255 261:0 262:0 263:0 264:0 265:0 266:0 267:0 268:0 269:0 270:0 271:0 272:0 273:0 274:0 275:0 276:0 277:0 278:0 279:0 280:0 281:0 282:0 283:255 284:255 285:255 286:255 287:255 288:255 289:0 290:0 291:0 292:0 293:0 294:0 295:0 296:0 297:0 298:0 299:0 300:0 301:0 302:0 303:0 304:0 305:0 306:0 307:0 308:0 309:0 310:0 311:0 312:255 313:255 314:255 315:255 316:255 317:255 318:0 319:0 320:0 321:0 322:0 323:0 324:0 325:0 326:0 327:0 328:0 329:0 330:0 331:0 332:0 333:0 334:0 335:0 336:0 337:0 338:0 339:0 340:0 341:255 342:255 343:255 344:255 345:255 346:255 347:0 348:0 349:0 350:0 351:0 352:0 353:0 354:0 355:0 356:0 357:0 358:0 359:0 360:0 361:0 362:0 363:0 364:0 365:0 366:0 367:0 368:0 369:255 370:255 371:255 372:255 373:255 374:255 375:255 376:0 377:0 378:0 379:0 380:0 381:0 382:0 383:0 384:0 385:0 386:0 387:0 388:0 389:0 390:0 391:0 392:0 393:0 394:0 395:0 396:0 397:0 398:255 399:255 400:255 401:255 402:255 403:255 404:255 405:0 406:0 407:0 408:0 409:0 410:0 411:0 412:0 413:0 414:0 415:0 416:0 417:0 418:0 419:0 420:0 421:0 422:0 423:0 424:0 425:0 426:0 427:255 428:255 429:255 430:255 431:255 432:255 433:255 434:0 435:0 436:0 437:0 438:0 439:0 440:0 441:0 442:0 443:0 444:0 445:0 446:0 447:0 448:0 449:0 450:0 451:0 452:0 453:0 454:0 455:0 456:255 457:255 458:255 459:255 460:255 461:255 462:255 463:0 464:0 465:0 466:0 467:0 468:0 469:0 470:0 471:0 472:0 473:0 474:0 475:0 476:0 477:0 478:0 479:0 480:0 481:0 482:0 483:0 484:0 485:255 486:255 487:255 488:255 489:255 490:255 491:255 492:0 493:0 494:0 495:0 496:0 497:0 498:0 499:0 500:0 501:0 502:0 503:0 504:0 505:0 506:0 507:0 508:0 509:0 510:0 511:0 512:0 513:0 514:255 515:255 516:255 517:255 518:255 519:255 520:255 521:0 522:0 523:0 524:0 525:0 526:0 527:0 528:0 529:0 530:0 531:0 532:0 533:0 534:0 535:0 536:0 537:0 538:0 539:0 540:0 541:0 542:255 543:255 544:255 545:255 546:255 547:255 548:255 549:0 550:0 551:0 552:0 553:0 554:0 555:0 556:0 557:0 558:0 559:0 560:0 561:0 562:0 563:0 564:0 565:0 566:0 567:0 568:0 569:0 570:0 571:255 572:255 573:255 574:255 575:255 576:255 577:255 578:0 579:0 580:0 581:0 582:0 583:255 584:255 585:255 586:255 587:255 588:0 589:0 590:0 591:0 592:0 593:0 594:0 595:0 596:0 597:0 598:0 599:0 600:255 601:255 602:255 603:255 604:255 605:255 606:255 607:0 608:0 609:0 610:0 611:0 612:255 613:255 614:255 615:255 616:255 617:255 618:0 619:0 620:0 621:0 622:0 623:0 624:0 625:0 626:0 627:0 628:255 629:255 630:255 631:255 632:255 633:255 634:255 635:255 636:0 637:0 638:0 639:0 640:0 641:0 642:255 643:255 644:255 645:255 646:255 647:255 648:255 649:0 650:0 651:0 652:0 653:0 654:0 655:0 656:255 657:255 658:255 659:255 660:255 661:255 662:255 663:255 664:0 665:0 666:0 667:0 668:0 669:0 670:0 671:0 672:255 673:255 674:255 675:255 676:255 677:255 678:255 679:255 680:255 681:255 682:255 683:255 684:255 685:255 686:255 687:255 688:255 689:255 690:255 691:255 692:0 693:0 694:0 695:0 696:0 697:0 698:0 699:0 700:0 701:255 702:255 703:255 704:255 705:255 706:255 707:255 708:255 709:255 710:255 711:255 712:255 713:255 714:255 715:255 716:255 717:255 718:255 719:255 720:0 721:0 722:0 723:0 724:0 725:0 726:0 727:0 728:0 729:0 730:0 731:0 732:255 733:255 734:255 735:255 736:255 737:255 738:255 739:255 740:255 741:255 742:255 743:255 744:255 745:255 746:255 747:0 748:0 749:0 750:0 751:0 752:0 753:0 754:0 755:0 756:0 757:0 758:0 759:0 760:0 761:0 762:0 763:0 764:0 765:0 766:255 767:255 768:255 769:255 770:255 771:0 772:0 773:0 774:0 775:0 776:0 777:0 778:0 779:0 780:0 781:0 782:0 783:0 784:0 785:0 786:0 787:0 788:0 789:0 790:0 791:0 792:0 793:0 794:0 795:0 796:0 797:0 798:0 799:0 800:0 801:0 802:0 803:0 804:0 805:0 806:0 807:0 808:0 809:0 810:0 811:0 812:0 813:0 814:0 815:0 816:0 817:0 818:0 819:0 820:0 821:0 822:0 823:0 824:0 825:0 826:0 827:0 828:0 829:0 830:0 831:0 832:0 833:0 834:0 835:0 836:0 837:0 838:0 839:0 840:0 841:0 
1.512853491069249e-016 1:255 2:255 3:255 4:255 5:255 6:255 7:255 8:255 9:255 10:255 11:255 12:255 13:255 14:255 15:255 16:255 17:255 18:255 19:255 20:255 21:255 22:255 23:255 24:255 25:255 26:255 27:255 28:255 29:255 30:255 31:255 32:255 33:255 34:255 35:255 36:255 37:255 38:255 39:255 40:255 41:255 42:255 43:255 44:255 45:255 46:255 47:255 48:255 49:255 50:255 51:255 52:255 53:255 54:255 55:255 56:255 57:255 58:255 59:0 60:0 61:0 62:0 63:0 64:0 65:255 66:255 67:255 68:255 69:255 70:255 71:255 72:255 73:255 74:255 75:255 76:255 77:255 78:255 79:255 80:255 81:255 82:255 83:255 84:255 85:255 86:255 87:255 88:0 89:0 90:0 91:0 92:0 93:0 94:0 95:0 96:0 97:0 98:0 99:255 100:255 101:255 102:255 103:255 104:255 105:255 106:255 107:255 108:255 109:255 110:255 111:255 112:255 113:255 114:0 115:0 116:0 117:0 118:0 119:0 120:0 121:0 122:0 123:0 124:0 125:0 126:0 127:0 128:0 129:0 130:0 131:0 132:255 133:255 134:255 135:255 136:255 137:255 138:255 139:255 140:255 141:255 142:255 143:0 144:0 145:0 146:0 147:0 148:0 149:0 150:0 151:0 152:0 153:0 154:0 155:0 156:0 157:0 158:0 159:0 160:0 161:0 162:0 163:255 164:255 165:255 166:255 167:255 168:255 169:255 170:255 171:255 172:0 173:0 174:0 175:0 176:0 177:0 178:0 179:0 180:0 181:0 182:0 183:0 184:0 185:0 186:0 187:0 188:0 189:0 190:0 191:0 192:0 193:255 194:255 195:255 196:255 197:255 198:255 199:255 200:255 201:0 202:0 203:0 204:0 205:0 206:0 207:0 208:0 209:0 210:0 211:0 212:0 213:0 214:0 215:0 216:0 217:0 218:0 219:0 220:0 221:0 222:255 223:255 224:255 225:255 226:255 227:255 228:255 229:255 230:0 231:0 232:0 233:0 234:0 235:0 236:0 237:0 238:0 239:0 240:0 241:0 242:0 243:0 244:0 245:0 246:0 247:0 248:0 249:0 250:0 251:255 252:255 253:255 254:255 255:255 256:255 257:255 258:255 259:0 260:0 261:0 262:0 263:0 264:0 265:0 266:0 267:0 268:0 269:0 270:0 271:0 272:0 273:0 274:0 275:0 276:0 277:0 278:0 279:0 280:0 281:255 282:255 283:255 284:255 285:255 286:255 287:0 288:0 289:0 290:0 291:0 292:0 293:0 294:0 295:0 296:0 297:0 298:0 299:0 300:0 301:0 302:0 303:0 304:0 305:0 306:0 307:0 308:0 309:0 310:0 311:255 312:255 313:255 314:255 315:255 316:0 317:0 318:0 319:0 320:0 321:0 322:0 323:0 324:0 325:0 326:0 327:0 328:0 329:0 330:0 331:0 332:0 333:0 334:0 335:0 336:0 337:0 338:0 339:0 340:255 341:255 342:255 343:255 344:255 345:0 346:0 347:0 348:0 349:0 350:0 351:0 352:0 353:0 354:0 355:0 356:0 357:0 358:0 359:0 360:0 361:0 362:0 363:0 364:0 365:0 366:0 367:0 368:0 369:255 370:255 371:255 372:255 373:255 374:255 375:0 376:0 377:0 378:0 379:0 380:0 381:0 382:0 383:0 384:0 385:0 386:0 387:0 388:0 389:0 390:0 391:0 392:0 393:0 394:0 395:0 396:0 397:0 398:255 399:255 400:255 401:255 402:255 403:255 404:0 405:0 406:0 407:0 408:0 409:0 410:0 411:0 412:0 413:0 414:0 415:0 416:0 417:0 418:0 419:0 420:0 421:0 422:0 423:0 424:0 425:0 426:0 427:0 428:255 429:255 430:255 431:255 432:0 433:0 434:0 435:0 436:0 437:0 438:0 439:0 440:0 441:0 442:0 443:0 444:0 445:0 446:0 447:0 448:0 449:0 450:0 451:0 452:0 453:0 454:0 455:0 456:0 457:255 458:255 459:255 460:255 461:0 462:0 463:0 464:0 465:0 466:0 467:0 468:0 469:0 470:0 471:0 472:0 473:0 474:0 475:0 476:0 477:0 478:0 479:0 480:0 481:0 482:0 483:0 484:0 485:0 486:255 487:255 488:255 489:255 490:255 491:0 492:0 493:0 494:0 495:0 496:0 497:0 498:0 499:0 500:0 501:0 502:0 503:0 504:0 505:0 506:0 507:0 508:0 509:0 510:0 511:0 512:0 513:0 514:0 515:255 516:255 517:255 518:255 519:255 520:0 521:0 522:0 523:0 524:0 525:0 526:0 527:0 528:0 529:0 530:0 531:0 532:0 533:0 534:0 535:0 536:0 537:0 538:0 539:0 540:0 541:0 542:0 543:0 544:255 545:255 546:255 547:255 548:255 549:0 550:0 551:0 552:0 553:0 554:0 555:0 556:0 557:0 558:0 559:0 560:0 561:0 562:0 563:0 564:0 565:0 566:0 567:0 568:0 569:0 570:0 571:0 572:0 573:255 574:255 575:255 576:255 577:255 578:0 579:0 580:0 581:0 582:0 583:0 584:0 585:0 586:0 587:0 588:0 589:0 590:0 591:0 592:0 593:0 594:0 595:0 596:0 597:0 598:0 599:0 600:0 601:0 602:255 603:255 604:255 605:255 606:255 607:0 608:0 609:0 610:0 611:0 612:0 613:0 614:0 615:0 616:0 617:0 618:0 619:0 620:0 621:0 622:0 623:0 624:0 625:0 626:0 627:0 628:0 629:0 630:0 631:255 632:255 633:255 634:255 635:255 636:255 637:0 638:0 639:255 640:255 641:0 642:0 643:0 644:0 645:0 646:0 647:0 648:0 649:0 650:0 651:0 652:0 653:0 654:0 655:0 656:0 657:0 658:0 659:255 660:255 661:255 662:255 663:255 664:255 665:0 666:0 667:0 668:255 669:255 670:255 671:255 672:255 673:0 674:0 675:0 676:0 677:0 678:0 679:0 680:0 681:0 682:0 683:0 684:0 685:255 686:255 687:255 688:255 689:255 690:255 691:255 692:255 693:255 694:0 695:0 696:0 697:255 698:255 699:255 700:255 701:255 702:255 703:255 704:255 705:255 706:255 707:255 708:255 709:255 710:255 711:255 712:255 713:255 714:255 715:255 716:255 717:255 718:255 719:255 720:255 721:255 722:0 723:0 724:0 725:0 726:255 727:255 728:255 729:255 730:255 731:255 732:255 733:255 734:255 735:255 736:255 737:255 738:255 739:255 740:255 741:255 742:255 743:255 744:255 745:255 746:255 747:255 748:255 749:255 750:0 751:0 752:0 753:0 754:0 755:0 756:0 757:0 758:0 759:255 760:255 761:255 762:255 763:255 764:255 765:255 766:255 767:255 768:255 769:255 770:255 771:255 772:255 773:255 774:255 775:255 776:255 777:255 778:0 779:0 780:0 781:0 782:0 783:0 784:0 785:0 786:0 787:0 788:255 789:255 790:255 791:255 792:255 793:255 794:255 795:255 796:255 797:255 798:255 799:255 800:255 801:255 802:255 803:255 804:255 805:255 806:255 807:255 808:255 809:255 810:255 811:255 812:255 813:255 814:255 815:255 816:255 817:255 818:255 819:255 820:255 821:255 822:255 823:255 824:255 825:255 826:255 827:255 828:255 829:255 830:255 831:255 832:255 833:255 834:255 835:255 836:255 837:255 838:255 839:255 840:255 841:255 
1.006306105362081e-016 1:0 2:0 3:0 4:0 5:0 6:0 7:0 8:0 9:0 10:0 11:0 12:0 13:0 14:0 15:0 16:0 17:0 18:0 19:0 20:0 21:0 22:0 23:0 24:0 25:0 26:0 27:0 28:0 29:0 30:0 31:0 32:0 33:0 34:0 35:0 36:0 37:0 38:0 39:0 40:0 41:0 42:0 43:0 44:0 45:0 46:0 47:0 48:0 49:0 50:0 51:0 52:0 53:0 54:0 55:0 56:0 57:0 58:0 59:0 60:0 61:0 62:0 63:0 64:0 65:0 66:0 67:0 68:0 69:0 70:0 71:0 72:0 73:0 74:0 75:0 76:0 77:0 78:0 79:0 80:0 81:0 82:0 83:0 84:0 85:0 86:0 87:0 88:0 89:0 90:0 91:0 92:0 93:0 94:0 95:0 96:0 97:0 98:0 99:0 100:0 101:0 102:0 103:255 104:255 105:255 106:255 107:255 108:0 109:0 110:0 111:0 112:0 113:0 114:0 115:0 116:0 117:0 118:0 119:0 120:0 121:0 122:0 123:0 124:0 125:0 126:0 127:0 128:0 129:0 130:0 131:255 132:255 133:255 134:255 135:255 136:255 137:255 138:0 139:0 140:0 141:0 142:0 143:0 144:0 145:0 146:0 147:0 148:0 149:0 150:0 151:0 152:0 153:0 154:0 155:0 156:0 157:0 158:0 159:255 160:255 161:255 162:255 163:255 164:255 165:255 166:255 167:255 168:0 169:0 170:0 171:0 172:0 173:0 174:0 175:0 176:0 177:0 178:0 179:0 180:0 181:0 182:0 183:0 184:0 185:0 186:0 187:0 188:255 189:255 190:255 191:255 192:255 193:255 194:255 195:255 196:255 197:0 198:0 199:0 200:0 201:0 202:0 203:0 204:0 205:0 206:0 207:0 208:0 209:0 210:0 211:0 212:0 213:0 214:0 215:0 216:0 217:255 218:255 219:255 220:255 221:255 222:255 223:255 224:255 225:255 226:0 227:0 228:0 229:0 230:0 231:0 232:0 233:0 234:0 235:0 236:0 237:0 238:0 239:0 240:0 241:0 242:0 243:0 244:0 245:0 246:255 247:255 248:255 249:255 250:255 251:255 252:255 253:255 254:255 255:0 256:0 257:0 258:0 259:0 260:0 261:0 262:0 263:0 264:0 265:0 266:0 267:0 268:0 269:0 270:0 271:0 272:0 273:0 274:0 275:0 276:255 277:255 278:255 279:255 280:255 281:255 282:255 283:255 284:0 285:0 286:0 287:0 288:0 289:0 290:0 291:0 292:0 293:0 294:0 295:0 296:0 297:0 298:0 299:0 300:0 301:0 302:0 303:0 304:0 305:255 306:255 307:255 308:255 309:255 310:255 311:255 312:255 313:0 314:0 315:0 316:0 317:0 318:0 319:0 320:0 321:0 322:0 323:0 324:0 325:0 326:0 327:0 328:0 329:0 330:0 331:0 332:0 333:255 334:255 335:255 336:255 337:255 338:255 339:255 340:255 341:255 342:0 343:0 344:0 345:0 346:0 347:0 348:0 349:0 350:0 351:0 352:0 353:0 354:0 355:0 356:0 357:0 358:0 359:0 360:0 361:0 362:255 363:255 364:255 365:255 366:255 367:255 368:255 369:255 370:255 371:0 372:0 373:0 374:0 375:0 376:0 377:0 378:0 379:0 380:0 381:0 382:0 383:0 384:0 385:0 386:0 387:0 388:0 389:0 390:0 391:0 392:255 393:255 394:255 395:255 396:255 397:255 398:255 399:255 400:0 401:0 402:0 403:0 404:0 405:0 406:0 407:0 408:0 409:0 410:0 411:0 412:0 413:0 414:0 415:0 416:0 417:0 418:0 419:0 420:255 421:255 422:255 423:255 424:255 425:255 426:255 427:255 428:255 429:0 430:0 431:0 432:0 433:0 434:255 435:255 436:0 437:0 438:0 439:0 440:0 441:0 442:0 443:0 444:0 445:0 446:0 447:0 448:0 449:255 450:255 451:255 452:255 453:255 454:255 455:255 456:255 457:255 458:0 459:0 460:0 461:0 462:0 463:255 464:255 465:0 466:0 467:0 468:0 469:0 470:0 471:0 472:0 473:0 474:0 475:0 476:0 477:0 478:255 479:255 480:255 481:255 482:255 483:255 484:255 485:255 486:255 487:0 488:0 489:0 490:0 491:0 492:0 493:0 494:0 495:0 496:0 497:0 498:0 499:0 500:0 501:0 502:0 503:0 504:0 505:0 506:0 507:0 508:255 509:255 510:255 511:255 512:255 513:255 514:255 515:255 516:0 517:0 518:0 519:0 520:0 521:0 522:0 523:0 524:0 525:0 526:0 527:0 528:0 529:0 530:0 531:0 532:0 533:0 534:0 535:0 536:0 537:255 538:255 539:255 540:255 541:255 542:255 543:255 544:255 545:0 546:0 547:0 548:0 549:0 550:0 551:0 552:0 553:0 554:0 555:0 556:0 557:0 558:0 559:0 560:0 561:0 562:0 563:0 564:0 565:0 566:255 567:255 568:255 569:255 570:255 571:255 572:255 573:255 574:0 575:0 576:0 577:0 578:0 579:0 580:0 581:0 582:0 583:0 584:0 585:0 586:0 587:0 588:0 589:0 590:0 591:0 592:0 593:0 594:0 595:255 596:255 597:255 598:255 599:255 600:255 601:255 602:255 603:0 604:0 605:0 606:0 607:0 608:0 609:0 610:0 611:0 612:0 613:0 614:0 615:0 616:0 617:0 618:0 619:0 620:0 621:0 622:0 623:0 624:255 625:255 626:255 627:255 628:255 629:255 630:255 631:255 632:0 633:0 634:0 635:0 636:0 637:0 638:0 639:0 640:0 641:0 642:0 643:0 644:0 645:0 646:0 647:0 648:0 649:0 650:0 651:0 652:255 653:255 654:255 655:255 656:255 657:255 658:255 659:255 660:0 661:0 662:0 663:0 664:0 665:0 666:0 667:0 668:255 669:255 670:0 671:0 672:0 673:0 674:0 675:0 676:0 677:0 678:0 679:0 680:255 681:255 682:255 683:255 684:255 685:255 686:255 687:255 688:255 689:0 690:0 691:0 692:0 693:0 694:0 695:0 696:0 697:255 698:255 699:255 700:255 701:0 702:0 703:0 704:0 705:0 706:0 707:255 708:255 709:255 710:255 711:255 712:255 713:255 714:255 715:255 716:255 717:0 718:0 719:0 720:0 721:0 722:0 723:0 724:0 725:0 726:255 727:255 728:255 729:255 730:255 731:255 732:255 733:255 734:255 735:255 736:255 737:255 738:255 739:255 740:255 741:255 742:255 743:255 744:255 745:0 746:0 747:0 748:0 749:0 750:0 751:0 752:0 753:0 754:0 755:255 756:255 757:255 758:255 759:255 760:255 761:255 762:255 763:255 764:255 765:255 766:255 767:255 768:255 769:255 770:255 771:255 772:0 773:0 774:0 775:0 776:0 777:0 778:0 779:0 780:0 781:0 782:0 783:0 784:255 785:255 786:255 787:255 788:255 789:255 790:255 791:255 792:255 793:255 794:255 795:255 796:255 797:255 798:0 799:0 800:0 801:0 802:0 803:0 804:0 805:0 806:0 807:0 808:0 809:0 810:0 811:0 812:0 813:0 814:0 815:0 816:0 817:0 818:0 819:0 820:0 821:0 822:0 823:0 824:0 825:0 826:0 827:0 828:0 829:0 830:0 831:0 832:0 833:0 834:0 835:0 836:0 837:0 838:0 839:0 840:0 841:0 
8.455431176955208e-016 1:0 2:0 3:0 4:0 5:0 6:0 7:0 8:0 9:0 10:0 11:0 12:0 13:0 14:0 15:0 16:0 17:0 18:0 19:0 20:0 21:0 22:0 23:0 24:0 25:0 26:0 27:0 28:0 29:0 30:0 31:0 32:0 33:0 34:0 35:0 36:0 37:0 38:0 39:0 40:0 41:0 42:0 43:0 44:0 45:0 46:0 47:0 48:0 49:0 50:0 51:0 52:0 53:0 54:0 55:0 56:0 57:0 58:0 59:0 60:0 61:0 62:0 63:0 64:0 65:0 66:0 67:0 68:0 69:0 70:0 71:0 72:0 73:0 74:0 75:0 76:0 77:0 78:0 79:0 80:0 81:0 82:0 83:0 84:0 85:0 86:0 87:0 88:0 89:0 90:0 91:0 92:0 93:0 94:0 95:0 96:0 97:0 98:0 99:0 100:0 101:0 102:0 103:0 104:255 105:255 106:255 107:255 108:255 109:255 110:255 111:0 112:0 113:0 114:0 115:0 116:0 117:0 118:0 119:0 120:0 121:0 122:0 123:0 124:0 125:0 126:0 127:0 128:0 129:0 130:0 131:0 132:255 133:255 134:255 135:255 136:255 137:255 138:255 139:255 140:255 141:0 142:0 143:0 144:0 145:0 146:0 147:0 148:0 149:0 150:0 151:0 152:0 153:0 154:0 155:0 156:0 157:0 158:0 159:0 160:0 161:0 162:255 163:255 164:255 165:255 166:255 167:255 168:255 169:255 170:0 171:0 172:0 173:0 174:0 175:0 176:0 177:0 178:0 179:0 180:0 181:0 182:0 183:0 184:0 185:0 186:0 187:0 188:0 189:0 190:0 191:255 192:255 193:255 194:255 195:255 196:255 197:255 198:255 199:0 200:0 201:0 202:0 203:0 204:0 205:0 206:0 207:0 208:0 209:0 210:0 211:0 212:0 213:0 214:0 215:0 216:0 217:0 218:0 219:0 220:255 221:255 222:255 223:255 224:255 225:255 226:255 227:255 228:0 229:0 230:0 231:0 232:0 233:0 234:0 235:0 236:0 237:0 238:0 239:0 240:0 241:0 242:0 243:0 244:0 245:0 246:0 247:0 248:0 249:255 250:255 251:255 252:255 253:255 254:255 255:255 256:255 257:0 258:0 259:0 260:0 261:0 262:0 263:0 264:0 265:0 266:0 267:0 268:0 269:0 270:0 271:0 272:0 273:0 274:0 275:0 276:0 277:0 278:255 279:255 280:255 281:255 282:255 283:255 284:255 285:255 286:0 287:0 288:0 289:0 290:0 291:0 292:0 293:0 294:0 295:0 296:0 297:0 298:0 299:0 300:0 301:0 302:0 303:0 304:0 305:0 306:0 307:255 308:255 309:255 310:255 311:255 312:255 313:255 314:255 315:0 316:0 317:0 318:0 319:0 320:0 321:0 322:0 323:0 324:0 325:0 326:0 327:0 328:0 329:0 330:0 331:0 332:0 333:0 334:0 335:0 336:255 337:255 338:255 339:255 340:255 341:255 342:255 343:255 344:0 345:0 346:0 347:0 348:0 349:0 350:0 351:0 352:0 353:0 354:0 355:0 356:0 357:0 358:0 359:0 360:0 361:0 362:0 363:0 364:0 365:255 366:255 367:255 368:255 369:255 370:255 371:255 372:255 373:0 374:0 375:0 376:0 377:0 378:0 379:0 380:0 381:0 382:0 383:0 384:0 385:0 386:0 387:0 388:0 389:0 390:0 391:0 392:0 393:0 394:255 395:255 396:255 397:255 398:255 399:255 400:255 401:255 402:0 403:0 404:0 405:0 406:0 407:0 408:0 409:0 410:0 411:0 412:0 413:0 414:0 415:0 416:0 417:0 418:0 419:0 420:0 421:0 422:0 423:255 424:255 425:255 426:255 427:255 428:255 429:255 430:0 431:0 432:0 433:0 434:0 435:0 436:0 437:0 438:0 439:0 440:0 441:0 442:0 443:0 444:0 445:0 446:0 447:0 448:0 449:0 450:0 451:0 452:255 453:255 454:255 455:255 456:255 457:255 458:255 459:0 460:0 461:0 462:0 463:0 464:0 465:0 466:0 467:0 468:0 469:0 470:0 471:0 472:0 473:0 474:0 475:0 476:0 477:0 478:0 479:0 480:0 481:255 482:255 483:255 484:255 485:255 486:255 487:255 488:0 489:0 490:0 491:0 492:0 493:0 494:0 495:0 496:0 497:0 498:0 499:0 500:0 501:0 502:0 503:0 504:0 505:0 506:0 507:0 508:0 509:0 510:255 511:255 512:255 513:255 514:255 515:255 516:255 517:0 518:0 519:0 520:0 521:0 522:0 523:0 524:0 525:0 526:0 527:0 528:0 529:0 530:0 531:0 532:0 533:0 534:0 535:0 536:0 537:0 538:0 539:255 540:255 541:255 542:255 543:255 544:255 545:255 546:0 547:0 548:0 549:0 550:0 551:0 552:0 553:0 554:0 555:0 556:0 557:0 558:0 559:0 560:0 561:0 562:0 563:0 564:0 565:0 566:0 567:0 568:255 569:255 570:255 571:255 572:255 573:255 574:255 575:0 576:0 577:0 578:0 579:0 580:0 581:0 582:0 583:0 584:0 585:0 586:0 587:0 588:0 589:0 590:0 591:0 592:0 593:0 594:0 595:0 596:0 597:255 598:255 599:255 600:255 601:255 602:255 603:255 604:0 605:0 606:0 607:0 608:0 609:0 610:0 611:0 612:0 613:0 614:0 615:0 616:0 617:0 618:0 619:0 620:0 621:0 622:0 623:0 624:0 625:0 626:255 627:255 628:255 629:255 630:255 631:255 632:255 633:0 634:0 635:0 636:0 637:0 638:0 639:255 640:0 641:0 642:0 643:0 644:0 645:0 646:0 647:0 648:0 649:0 650:0 651:0 652:0 653:0 654:0 655:255 656:255 657:255 658:255 659:255 660:255 661:255 662:0 663:0 664:0 665:0 666:0 667:0 668:255 669:255 670:255 671:255 672:0 673:0 674:0 675:0 676:0 677:0 678:0 679:0 680:0 681:0 682:0 683:255 684:255 685:255 686:255 687:255 688:255 689:255 690:255 691:0 692:0 693:0 694:0 695:0 696:0 697:255 698:255 699:255 700:255 701:255 702:255 703:0 704:0 705:0 706:0 707:0 708:0 709:0 710:0 711:255 712:255 713:255 714:255 715:255 716:255 717:255 718:255 719:0 720:0 721:0 722:0 723:0 724:0 725:0 726:255 727:255 728:255 729:255 730:255 731:255 732:255 733:255 734:255 735:255 736:255 737:255 738:255 739:255 740:255 741:255 742:255 743:255 744:255 745:255 746:255 747:0 748:0 749:0 750:0 751:0 752:0 753:0 754:0 755:255 756:255 757:255 758:255 759:255 760:255 761:255 762:255 763:255 764:255 765:255 766:255 767:255 768:255 769:255 770:255 771:255 772:255 773:255 774:255 775:0 776:0 777:0 778:0 779:0 780:0 781:0 782:0 783:0 784:0 785:0 786:255 787:255 788:255 789:255 790:255 791:255 792:255 793:255 794:255 795:255 796:255 797:255 798:255 799:255 800:255 801:255 802:0 803:0 804:0 805:0 806:0 807:0 808:0 809:0 810:0 811:0 812:0 813:0 814:0 815:0 816:0 817:0 818:0 819:255 820:255 821:255 822:255 823:255 824:255 825:255 826:0 827:0 828:0 829:0 830:0 831:0 832:0 833:0 834:0 835:0 836:0 837:0 838:0 839:0 840:0 841:0 
4.538718099384625e-016 1:0 2:0 3:0 4:0 5:0 6:0 7:0 8:0 9:0 10:0 11:0 12:255 13:255 14:255 15:0 16:0 17:0 18:0 19:0 20:0 21:0 22:0 23:0 24:0 25:0 26:0 27:0 28:0 29:0 30:0 31:0 32:0 33:0 34:0 35:0 36:0 37:0 38:0 39:0 40:0 41:0 42:0 43:0 44:0 45:0 46:0 47:0 48:0 49:0 50:0 51:0 52:0 53:0 54:0 55:0 56:0 57:0 58:0 59:0 60:0 61:0 62:0 63:0 64:0 65:0 66:0 67:0 68:0 69:0 70:0 71:0 72:0 73:0 74:0 75:0 76:0 77:0 78:0 79:0 80:0 81:0 82:0 83:0 84:0 85:0 86:0 87:0 88:0 89:0 90:0 91:0 92:0 93:0 94:0 95:0 96:0 97:0 98:0 99:0 100:0 101:255 102:255 103:255 104:255 105:0 106:0 107:0 108:0 109:0 110:0 111:0 112:0 113:0 114:0 115:0 116:0 117:0 118:0 119:0 120:0 121:0 122:0 123:0 124:0 125:0 126:0 127:0 128:255 129:255 130:255 131:255 132:255 133:255 134:255 135:0 136:0 137:0 138:0 139:0 140:0 141:0 142:0 143:0 144:0 145:0 146:0 147:0 148:0 149:0 150:0 151:0 152:0 153:0 154:0 155:0 156:0 157:255 158:255 159:255 160:255 161:255 162:255 163:255 164:255 165:0 166:0 167:0 168:0 169:0 170:0 171:0 172:0 173:0 174:0 175:0 176:0 177:0 178:0 179:0 180:0 181:0 182:0 183:0 184:0 185:0 186:255 187:255 188:255 189:255 190:255 191:255 192:255 193:255 194:0 195:0 196:0 197:0 198:0 199:0 200:0 201:0 202:0 203:0 204:0 205:0 206:0 207:0 208:0 209:0 210:0 211:0 212:0 213:0 214:0 215:255 216:255 217:255 218:255 219:255 220:255 221:255 222:255 223:0 224:0 225:0 226:0 227:0 228:0 229:0 230:0 231:0 232:0 233:0 234:0 235:0 236:0 237:0 238:0 239:0 240:0 241:0 242:0 243:0 244:255 245:255 246:255 247:255 248:255 249:255 250:255 251:255 252:0 253:0 254:0 255:0 256:0 257:0 258:0 259:0 260:0 261:0 262:0 263:0 264:0 265:0 266:0 267:0 268:0 269:0 270:0 271:0 272:0 273:255 274:255 275:255 276:255 277:255 278:255 279:255 280:255 281:0 282:0 283:0 284:0 285:0 286:0 287:0 288:0 289:0 290:0 291:0 292:0 293:0 294:0 295:0 296:0 297:0 298:0 299:0 300:0 301:0 302:255 303:255 304:255 305:255 306:255 307:255 308:255 309:255 310:0 311:0 312:0 313:0 314:0 315:0 316:0 317:0 318:0 319:0 320:0 321:0 322:0 323:0 324:0 325:0 326:0 327:0 328:0 329:0 330:0 331:0 332:255 333:255 334:255 335:255 336:255 337:255 338:255 339:0 340:0 341:0 342:0 343:0 344:0 345:0 346:0 347:0 348:0 349:0 350:0 351:0 352:0 353:0 354:0 355:0 356:0 357:0 358:0 359:0 360:0 361:255 362:255 363:255 364:255 365:255 366:255 367:255 368:0 369:0 370:0 371:0 372:0 373:0 374:0 375:0 376:0 377:0 378:0 379:0 380:0 381:0 382:0 383:0 384:0 385:0 386:0 387:0 388:0 389:0 390:255 391:255 392:255 393:255 394:255 395:255 396:255 397:0 398:0 399:0 400:0 401:0 402:0 403:0 404:0 405:0 406:0 407:0 408:0 409:0 410:0 411:0 412:0 413:0 414:0 415:0 416:0 417:0 418:0 419:255 420:255 421:255 422:255 423:255 424:255 425:255 426:0 427:0 428:0 429:0 430:0 431:0 432:0 433:0 434:255 435:255 436:0 437:0 438:0 439:0 440:0 441:0 442:0 443:0 444:0 445:0 446:0 447:0 448:255 449:255 450:255 451:255 452:255 453:255 454:255 455:0 456:0 457:0 458:0 459:0 460:255 461:255 462:255 463:255 464:255 465:0 466:0 467:0 468:0 469:0 470:0 471:0 472:0 473:0 474:0 475:0 476:0 477:255 478:255 479:255 480:255 481:255 482:255 483:255 484:0 485:0 486:0 487:0 488:0 489:0 490:255 491:255 492:255 493:255 494:0 495:0 496:0 497:0 498:0 499:0 500:0 501:0 502:0 503:0 504:0 505:0 506:255 507:255 508:255 509:255 510:255 511:255 512:255 513:0 514:0 515:0 516:0 517:0 518:0 519:0 520:0 521:0 522:0 523:0 524:0 525:0 526:0 527:0 528:0 529:0 530:0 531:0 532:0 533:0 534:0 535:255 536:255 537:255 538:255 539:255 540:255 541:255 542:0 543:0 544:0 545:0 546:0 547:0 548:0 549:0 550:0 551:0 552:0 553:0 554:0 555:0 556:0 557:0 558:0 559:0 560:0 561:0 562:0 563:0 564:255 565:255 566:255 567:255 568:255 569:255 570:255 571:0 572:0 573:0 574:0 575:0 576:0 577:0 578:0 579:0 580:0 581:0 582:0 583:0 584:0 585:0 586:0 587:0 588:0 589:0 590:0 591:0 592:0 593:255 594:255 595:255 596:255 597:255 598:255 599:255 600:0 601:0 602:0 603:0 604:0 605:0 606:0 607:0 608:0 609:0 610:0 611:0 612:0 613:0 614:0 615:0 616:0 617:0 618:0 619:0 620:0 621:0 622:255 623:255 624:255 625:255 626:255 627:255 628:255 629:0 630:0 631:0 632:0 633:0 634:0 635:0 636:0 637:0 638:0 639:0 640:0 641:0 642:0 643:0 644:0 645:0 646:0 647:0 648:0 649:0 650:0 651:255 652:255 653:255 654:255 655:255 656:255 657:255 658:0 659:0 660:0 661:0 662:0 663:0 664:0 665:0 666:0 667:0 668:255 669:0 670:0 671:0 672:0 673:0 674:0 675:0 676:0 677:0 678:0 679:0 680:255 681:255 682:255 683:255 684:255 685:255 686:255 687:0 688:0 689:0 690:0 691:0 692:0 693:0 694:0 695:0 696:0 697:255 698:255 699:0 700:0 701:0 702:0 703:0 704:0 705:0 706:0 707:0 708:255 709:255 710:255 711:255 712:255 713:255 714:255 715:255 716:0 717:0 718:0 719:0 720:0 721:0 722:0 723:0 724:0 725:0 726:255 727:255 728:255 729:255 730:0 731:0 732:0 733:0 734:0 735:0 736:255 737:255 738:255 739:255 740:255 741:255 742:255 743:255 744:0 745:0 746:0 747:0 748:0 749:0 750:0 751:0 752:0 753:0 754:0 755:255 756:255 757:255 758:255 759:255 760:255 761:255 762:255 763:255 764:255 765:255 766:255 767:255 768:255 769:255 770:255 771:255 772:0 773:0 774:0 775:0 776:0 777:0 778:0 779:0 780:0 781:0 782:0 783:0 784:255 785:255 786:255 787:255 788:255 789:255 790:255 791:255 792:255 793:255 794:255 795:255 796:255 797:255 798:255 799:0 800:0 801:0 802:0 803:0 804:0 805:0 806:0 807:0 808:0 809:0 810:0 811:0 812:0 813:0 814:0 815:0 816:255 817:255 818:255 819:255 820:255 821:255 822:255 823:255 824:0 825:0 826:0 827:0 828:0 829:0 830:0 831:0 832:0 833:0 834:0 835:0 836:0 837:0 838:0 839:0 840:0 841:0 
