svm_type c_svc
kernel_type polynomial
degree 3
gamma 0.008
coef0 0
nr_class 2
total_sv 67
rho 0.0586922
label 1 -1
probA -4.87365
probB 0.0468262
nr_sv 23 44
SV
6.357667926000931e-016 1:0 2:0 3:0 4:0 5:0 6:0 7:0 8:0 9:0 10:0 11:0 12:0 13:0 14:0 15:0 16:0 17:255 18:0 19:0 20:0 21:0 22:255 23:0 24:0 25:0 26:0 27:0 28:0 29:255 30:255 31:0 32:0 33:255 34:255 35:255 36:0 37:0 38:0 39:255 40:255 41:255 42:255 43:255 44:255 45:255 46:255 47:255 48:255 49:0 50:255 51:255 52:255 53:255 54:255 55:255 56:255 57:255 58:255 59:255 60:255 61:0 62:0 63:0 64:255 65:255 66:255 67:0 68:0 69:255 70:255 71:255 72:0 73:0 74:0 75:0 76:0 77:255 78:0 79:0 80:0 81:0 82:255 83:0 84:0 85:0 86:0 87:0 88:0 89:0 90:0 91:0 92:0 93:0 94:0 95:0 96:0 97:0 98:0 99:0 100:0 101:0 102:255 103:255 104:0 105:0 106:0 107:0 108:0 109:0 110:0 111:0 112:0 113:255 114:255 115:255 116:255 117:255 118:0 119:0 120:0 121:0 122:0 123:255 124:255 125:255 126:255 127:255 128:255 129:255 130:255 131:0 132:0 133:0 134:0 135:0 136:255 137:255 138:255 139:255 140:255 141:255 142:255 143:0 144:0 145:0 146:0 147:0 148:0 149:255 150:255 151:0 152:255 153:255 154:255 155:0 156:0 157:0 158:0 159:0 160:0 161:255 162:255 163:0 164:255 165:255 166:255 167:255 168:0 169:0 170:255 171:255 172:0 173:255 174:255 175:0 176:255 177:255 178:255 179:255 180:0 181:0 182:255 183:255 184:0 185:255 186:255 187:0 188:255 189:255 190:255 191:255 192:0 193:255 194:255 195:0 196:255 197:255 198:0 199:0 200:255 201:255 202:255 203:255 204:0 205:255 206:0 207:0 208:255 209:255 210:0 211:0 212:255 213:255 214:0 215:255 216:0 217:0 218:0 219:255 220:255 221:0 222:0 223:0 224:255 225:255 226:0 227:0 228:0 229:0 230:255 231:255 232:255 233:0 234:0 235:0 236:255 237:255 238:0 239:0 240:0 241:0 242:255 243:255 244:0 245:0 246:0 247:255 248:255 249:255 250:0 251:0 252:0 253:255 254:255 255:0 256:0 257:0 258:255 259:255 260:255 261:0 262:0 263:0 264:0 265:0 266:0 267:0 268:0 269:255 270:255 271:255 272:0 273:0 274:0 275:0 276:0 277:0 278:0 279:0 280:0 281:0 282:0 283:0 284:0 285:0 286:0 287:0 288:0 
2.61263192514613e-015 1:0 2:0 3:0 4:0 5:0 6:0 7:0 8:0 9:0 10:0 11:0 12:0 13:0 14:0 15:0 16:0 17:0 18:0 19:0 20:0 21:0 22:0 23:0 24:0 25:0 26:0 27:0 28:255 29:255 30:0 31:0 32:255 33:255 34:0 35:0 36:0 37:0 38:0 39:0 40:255 41:255 42:0 43:0 44:255 45:255 46:0 47:0 48:0 49:0 50:255 51:255 52:255 53:255 54:255 55:255 56:255 57:255 58:255 59:255 60:0 61:0 62:255 63:255 64:255 65:255 66:255 67:255 68:255 69:255 70:255 71:255 72:0 73:0 74:0 75:255 76:255 77:255 78:0 79:255 80:255 81:255 82:0 83:0 84:0 85:0 86:0 87:0 88:255 89:0 90:0 91:0 92:255 93:255 94:0 95:0 96:0 97:0 98:0 99:0 100:0 101:0 102:0 103:0 104:0 105:0 106:0 107:0 108:0 109:0 110:0 111:0 112:0 113:255 114:255 115:0 116:0 117:0 118:0 119:0 120:0 121:0 122:0 123:0 124:0 125:255 126:255 127:255 128:0 129:0 130:0 131:0 132:0 133:0 134:255 135:255 136:255 137:255 138:255 139:255 140:255 141:0 142:0 143:0 144:0 145:0 146:0 147:255 148:255 149:255 150:255 151:255 152:255 153:0 154:0 155:0 156:0 157:0 158:0 159:0 160:0 161:255 162:255 163:255 164:255 165:255 166:0 167:0 168:0 169:0 170:0 171:0 172:0 173:255 174:255 175:255 176:255 177:255 178:0 179:0 180:0 181:0 182:255 183:255 184:255 185:255 186:255 187:255 188:255 189:255 190:255 191:0 192:0 193:0 194:255 195:255 196:255 197:255 198:255 199:255 200:255 201:255 202:255 203:0 204:0 205:255 206:255 207:255 208:255 209:255 210:0 211:255 212:255 213:255 214:255 215:0 216:0 217:255 218:255 219:0 220:255 221:255 222:0 223:255 224:255 225:255 226:255 227:0 228:0 229:0 230:0 231:255 232:255 233:0 234:0 235:255 236:255 237:0 238:0 239:0 240:0 241:0 242:0 243:255 244:255 245:0 246:0 247:255 248:255 249:0 250:0 251:0 252:0 253:0 254:255 255:255 256:0 257:0 258:0 259:255 260:255 261:0 262:0 263:0 264:0 265:0 266:255 267:255 268:0 269:0 270:255 271:255 272:255 273:0 274:0 275:0 276:0 277:0 278:255 279:0 280:0 281:255 282:255 283:255 284:0 285:0 286:0 287:0 288:0 
2.961870613429667e-015 1:0 2:0 3:0 4:0 5:0 6:0 7:0 8:0 9:0 10:0 11:0 12:0 13:0 14:0 15:0 16:0 17:0 18:0 19:0 20:0 21:0 22:0 23:0 24:0 25:0 26:0 27:0 28:255 29:255 30:0 31:0 32:0 33:255 34:255 35:0 36:0 37:0 38:0 39:0 40:255 41:255 42:0 43:0 44:255 45:255 46:255 47:0 48:0 49:0 50:255 51:255 52:255 53:255 54:255 55:255 56:255 57:255 58:255 59:255 60:255 61:255 62:255 63:255 64:255 65:255 66:255 67:255 68:255 69:255 70:255 71:255 72:255 73:0 74:255 75:255 76:255 77:255 78:255 79:255 80:255 81:255 82:255 83:255 84:0 85:0 86:0 87:0 88:255 89:255 90:0 91:0 92:255 93:255 94:255 95:0 96:0 97:0 98:0 99:0 100:0 101:0 102:0 103:0 104:0 105:0 106:0 107:0 108:0 109:0 110:0 111:0 112:0 113:0 114:255 115:255 116:0 117:0 118:0 119:0 120:0 121:0 122:0 123:0 124:0 125:255 126:255 127:255 128:255 129:0 130:0 131:0 132:0 133:0 134:0 135:255 136:255 137:255 138:255 139:255 140:255 141:255 142:255 143:0 144:0 145:0 146:0 147:255 148:255 149:255 150:255 151:255 152:255 153:255 154:255 155:0 156:0 157:0 158:0 159:0 160:0 161:255 162:255 163:255 164:255 165:255 166:255 167:0 168:0 169:0 170:0 171:0 172:0 173:0 174:255 175:255 176:255 177:255 178:255 179:255 180:0 181:0 182:0 183:0 184:0 185:0 186:255 187:255 188:0 189:255 190:255 191:255 192:0 193:0 194:0 195:255 196:255 197:255 198:255 199:255 200:0 201:255 202:255 203:255 204:255 205:0 206:0 207:255 208:0 209:255 210:255 211:255 212:0 213:255 214:255 215:255 216:255 217:0 218:255 219:255 220:0 221:255 222:255 223:0 224:0 225:255 226:255 227:255 228:255 229:0 230:0 231:0 232:0 233:255 234:255 235:0 236:0 237:255 238:255 239:255 240:255 241:0 242:0 243:0 244:0 245:255 246:255 247:0 248:0 249:255 250:255 251:0 252:0 253:0 254:0 255:0 256:255 257:255 258:0 259:0 260:0 261:255 262:255 263:0 264:0 265:0 266:0 267:0 268:255 269:255 270:0 271:0 272:0 273:255 274:255 275:0 276:0 277:0 278:0 279:255 280:255 281:0 282:0 283:0 284:255 285:255 286:255 287:0 288:0 
2.740048004703866e-015 1:0 2:0 3:0 4:0 5:0 6:0 7:0 8:0 9:0 10:0 11:0 12:0 13:0 14:0 15:0 16:0 17:0 18:0 19:0 20:0 21:0 22:0 23:0 24:0 25:0 26:255 27:255 28:255 29:0 30:0 31:255 32:255 33:0 34:0 35:0 36:0 37:0 38:255 39:255 40:255 41:255 42:255 43:255 44:255 45:255 46:255 47:0 48:0 49:255 50:255 51:255 52:255 53:255 54:255 55:255 56:255 57:255 58:255 59:255 60:0 61:255 62:255 63:255 64:255 65:255 66:255 67:255 68:255 69:255 70:255 71:0 72:0 73:0 74:255 75:255 76:255 77:0 78:255 79:255 80:255 81:0 82:0 83:0 84:0 85:0 86:0 87:255 88:0 89:0 90:0 91:0 92:0 93:0 94:0 95:0 96:0 97:0 98:0 99:0 100:0 101:0 102:0 103:0 104:0 105:0 106:0 107:0 108:0 109:0 110:0 111:255 112:255 113:255 114:0 115:0 116:0 117:0 118:0 119:0 120:0 121:255 122:255 123:255 124:255 125:255 126:255 127:255 128:0 129:0 130:0 131:0 132:0 133:255 134:255 135:255 136:255 137:255 138:255 139:255 140:255 141:0 142:0 143:0 144:0 145:255 146:255 147:255 148:255 149:255 150:255 151:255 152:255 153:0 154:0 155:0 156:0 157:0 158:0 159:255 160:255 161:255 162:255 163:255 164:255 165:0 166:0 167:0 168:0 169:255 170:0 171:255 172:255 173:255 174:255 175:255 176:255 177:255 178:0 179:0 180:0 181:255 182:255 183:255 184:255 185:255 186:255 187:255 188:255 189:255 190:255 191:0 192:0 193:255 194:255 195:255 196:255 197:255 198:255 199:255 200:255 201:255 202:255 203:0 204:0 205:255 206:255 207:255 208:255 209:255 210:255 211:255 212:255 213:255 214:255 215:0 216:0 217:0 218:255 219:255 220:255 221:255 222:255 223:255 224:255 225:255 226:0 227:0 228:0 229:0 230:255 231:255 232:0 233:0 234:255 235:255 236:0 237:0 238:0 239:0 240:0 241:255 242:255 243:0 244:0 245:0 246:255 247:255 248:0 249:0 250:0 251:0 252:0 253:255 254:255 255:0 256:0 257:255 258:255 259:255 260:0 261:0 262:0 263:0 264:0 265:255 266:0 267:0 268:255 269:255 270:255 271:255 272:0 273:0 274:0 275:0 276:0 277:0 278:0 279:0 280:255 281:255 282:255 283:0 284:0 285:0 286:0 287:0 288:0 
2.360242103578647e-015 1:0 2:0 3:0 4:0 5:0 6:0 7:0 8:0 9:0 10:0 11:0 12:0 13:0 14:0 15:0 16:0 17:0 18:255 19:0 20:0 21:0 22:255 23:255 24:0 25:0 26:0 27:0 28:0 29:255 30:255 31:0 32:0 33:0 34:255 35:255 36:0 37:0 38:0 39:255 40:255 41:255 42:255 43:255 44:255 45:255 46:255 47:255 48:255 49:0 50:0 51:255 52:255 53:255 54:255 55:255 56:255 57:255 58:255 59:255 60:255 61:0 62:0 63:0 64:0 65:255 66:255 67:0 68:0 69:0 70:255 71:255 72:0 73:0 74:0 75:0 76:0 77:0 78:0 79:0 80:0 81:0 82:255 83:0 84:0 85:0 86:0 87:0 88:0 89:0 90:0 91:255 92:0 93:0 94:0 95:0 96:0 97:0 98:0 99:0 100:0 101:0 102:255 103:255 104:0 105:0 106:0 107:0 108:0 109:0 110:0 111:0 112:255 113:255 114:255 115:255 116:255 117:255 118:255 119:0 120:0 121:0 122:0 123:255 124:255 125:255 126:255 127:255 128:255 129:255 130:255 131:0 132:0 133:0 134:0 135:0 136:0 137:255 138:255 139:255 140:255 141:255 142:255 143:0 144:0 145:0 146:0 147:0 148:0 149:0 150:255 151:255 152:255 153:255 154:255 155:0 156:0 157:0 158:0 159:255 160:0 161:255 162:255 163:0 164:255 165:255 166:255 167:255 168:0 169:0 170:255 171:255 172:0 173:255 174:255 175:0 176:255 177:255 178:255 179:255 180:255 181:0 182:255 183:255 184:0 185:255 186:255 187:0 188:255 189:255 190:255 191:255 192:255 193:255 194:255 195:0 196:255 197:255 198:0 199:0 200:255 201:255 202:255 203:255 204:255 205:0 206:0 207:0 208:255 209:255 210:0 211:0 212:255 213:255 214:0 215:0 216:0 217:0 218:0 219:255 220:255 221:255 222:0 223:0 224:255 225:255 226:0 227:0 228:0 229:0 230:255 231:255 232:255 233:0 234:0 235:0 236:255 237:255 238:0 239:0 240:0 241:255 242:255 243:255 244:0 245:0 246:0 247:255 248:255 249:255 250:0 251:0 252:0 253:255 254:255 255:0 256:0 257:0 258:255 259:255 260:255 261:0 262:0 263:0 264:0 265:0 266:0 267:0 268:0 269:0 270:255 271:255 272:0 273:0 274:0 275:0 276:0 277:0 278:0 279:0 280:0 281:0 282:0 283:0 284:0 285:0 286:0 287:0 288:0 
8.545757047663662e-017 1:0 2:0 3:0 4:0 5:0 6:0 7:0 8:0 9:0 10:0 11:0 12:0 13:0 14:0 15:0 16:0 17:0 18:0 19:0 20:0 21:0 22:0 23:0 24:0 25:0 26:0 27:0 28:0 29:255 30:255 31:0 32:0 33:255 34:255 35:0 36:0 37:0 38:0 39:0 40:255 41:255 42:255 43:255 44:255 45:255 46:255 47:255 48:0 49:0 50:0 51:255 52:255 53:255 54:255 55:255 56:255 57:255 58:255 59:255 60:255 61:0 62:0 63:255 64:255 65:255 66:255 67:255 68:255 69:255 70:255 71:255 72:0 73:0 74:0 75:0 76:255 77:255 78:255 79:0 80:255 81:255 82:255 83:0 84:0 85:0 86:0 87:0 88:0 89:255 90:255 91:0 92:0 93:255 94:0 95:0 96:0 97:0 98:0 99:0 100:0 101:0 102:255 103:255 104:0 105:0 106:0 107:0 108:0 109:0 110:0 111:0 112:0 113:255 114:255 115:255 116:255 117:255 118:0 119:0 120:0 121:0 122:0 123:255 124:255 125:255 126:255 127:255 128:255 129:255 130:255 131:0 132:0 133:0 134:0 135:0 136:255 137:255 138:255 139:255 140:255 141:255 142:255 143:0 144:0 145:0 146:0 147:0 148:0 149:255 150:255 151:255 152:255 153:255 154:255 155:0 156:255 157:0 158:0 159:0 160:0 161:255 162:255 163:255 164:255 165:255 166:255 167:255 168:255 169:0 170:0 171:255 172:255 173:255 174:255 175:255 176:255 177:255 178:255 179:255 180:0 181:0 182:255 183:255 184:255 185:255 186:255 187:255 188:255 189:255 190:255 191:255 192:0 193:0 194:255 195:255 196:255 197:255 198:255 199:255 200:255 201:255 202:255 203:255 204:0 205:0 206:255 207:255 208:255 209:255 210:255 211:255 212:255 213:255 214:255 215:255 216:0 217:0 218:0 219:0 220:255 221:255 222:0 223:255 224:255 225:255 226:0 227:0 228:0 229:0 230:0 231:255 232:255 233:255 234:0 235:255 236:255 237:255 238:0 239:0 240:0 241:0 242:255 243:255 244:255 245:0 246:0 247:255 248:255 249:255 250:0 251:0 252:0 253:0 254:255 255:255 256:0 257:0 258:255 259:255 260:255 261:0 262:0 263:0 264:0 265:0 266:0 267:0 268:0 269:0 270:255 271:255 272:0 273:0 274:0 275:0 276:0 277:0 278:0 279:0 280:0 281:0 282:0 283:0 284:0 285:0 286:0 287:0 288:0 
2.017511755524199e-015 1:0 2:0 3:0 4:0 5:0 6:0 7:0 8:0 9:0 10:0 11:0 12:0 13:0 14:0 15:0 16:0 17:0 18:0 19:0 20:0 21:0 22:0 23:0 24:0 25:0 26:0 27:0 28:0 29:255 30:0 31:0 32:0 33:255 34:0 35:0 36:0 37:0 38:0 39:255 40:255 41:255 42:255 43:255 44:255 45:255 46:255 47:0 48:0 49:0 50:0 51:255 52:255 53:255 54:255 55:255 56:255 57:255 58:255 59:255 60:0 61:0 62:0 63:255 64:255 65:255 66:255 67:255 68:255 69:255 70:255 71:0 72:0 73:0 74:0 75:0 76:255 77:255 78:0 79:0 80:255 81:255 82:0 83:0 84:0 85:0 86:0 87:0 88:0 89:0 90:0 91:0 92:0 93:0 94:0 95:0 96:0 97:0 98:0 99:0 100:0 101:0 102:255 103:0 104:0 105:0 106:0 107:0 108:0 109:0 110:0 111:0 112:0 113:255 114:255 115:255 116:0 117:0 118:0 119:0 120:0 121:0 122:0 123:255 124:255 125:255 126:255 127:255 128:255 129:0 130:0 131:0 132:0 133:0 134:0 135:255 136:255 137:255 138:255 139:255 140:255 141:0 142:0 143:0 144:0 145:0 146:0 147:0 148:255 149:255 150:255 151:255 152:255 153:255 154:0 155:0 156:0 157:0 158:0 159:255 160:255 161:255 162:255 163:255 164:255 165:255 166:0 167:0 168:0 169:0 170:255 171:255 172:255 173:255 174:255 175:255 176:255 177:255 178:0 179:0 180:0 181:0 182:255 183:255 184:255 185:255 186:255 187:255 188:255 189:255 190:255 191:0 192:0 193:255 194:255 195:255 196:255 197:255 198:0 199:255 200:255 201:255 202:0 203:0 204:0 205:0 206:0 207:255 208:255 209:255 210:255 211:255 212:255 213:0 214:0 215:0 216:0 217:0 218:0 219:255 220:255 221:0 222:255 223:255 224:0 225:0 226:0 227:0 228:255 229:0 230:0 231:255 232:255 233:0 234:255 235:255 236:0 237:0 238:0 239:0 240:255 241:0 242:255 243:255 244:0 245:0 246:255 247:255 248:0 249:0 250:0 251:0 252:255 253:0 254:255 255:255 256:0 257:0 258:255 259:255 260:0 261:0 262:0 263:0 264:255 265:255 266:255 267:0 268:0 269:255 270:255 271:255 272:0 273:0 274:0 275:0 276:255 277:0 278:0 279:0 280:0 281:255 282:0 283:0 284:0 285:0 286:0 287:0 288:0 
3.495406301483432e-015 1:0 2:0 3:0 4:0 5:255 6:255 7:0 8:0 9:255 10:255 11:255 12:0 13:0 14:0 15:255 16:255 17:255 18:255 19:255 20:255 21:255 22:255 23:255 24:255 25:0 26:255 27:255 28:255 29:255 30:255 31:255 32:255 33:255 34:255 35:255 36:255 37:0 38:0 39:0 40:255 41:255 42:255 43:255 44:255 45:255 46:255 47:255 48:255 49:0 50:0 51:0 52:0 53:255 54:0 55:0 56:0 57:255 58:255 59:0 60:0 61:0 62:0 63:0 64:0 65:0 66:0 67:0 68:0 69:0 70:0 71:0 72:0 73:0 74:0 75:0 76:0 77:0 78:255 79:255 80:0 81:0 82:0 83:0 84:0 85:0 86:0 87:0 88:0 89:255 90:255 91:255 92:0 93:0 94:0 95:0 96:0 97:0 98:0 99:255 100:255 101:255 102:255 103:255 104:255 105:255 106:0 107:0 108:0 109:0 110:0 111:255 112:255 113:255 114:255 115:255 116:255 117:255 118:255 119:0 120:0 121:0 122:0 123:0 124:0 125:255 126:255 127:255 128:255 129:255 130:255 131:0 132:0 133:0 134:0 135:0 136:0 137:255 138:255 139:0 140:255 141:255 142:255 143:0 144:0 145:0 146:0 147:255 148:0 149:255 150:255 151:0 152:255 153:255 154:255 155:255 156:0 157:0 158:255 159:255 160:255 161:255 162:255 163:0 164:255 165:255 166:255 167:255 168:0 169:0 170:255 171:255 172:255 173:255 174:255 175:0 176:255 177:255 178:255 179:255 180:255 181:255 182:255 183:0 184:255 185:255 186:0 187:0 188:255 189:255 190:255 191:255 192:255 193:0 194:0 195:0 196:255 197:255 198:0 199:0 200:255 201:255 202:255 203:255 204:0 205:0 206:0 207:255 208:255 209:0 210:0 211:0 212:255 213:255 214:0 215:0 216:0 217:0 218:0 219:255 220:255 221:0 222:0 223:0 224:255 225:255 226:0 227:0 228:0 229:0 230:255 231:255 232:0 233:0 234:0 235:255 236:255 237:255 238:0 239:0 240:0 241:255 242:255 243:0 244:0 245:0 246:255 247:255 248:255 249:0 250:0 251:0 252:0 253:255 254:0 255:0 256:0 257:0 258:255 259:255 260:255 261:0 262:0 263:0 264:0 265:0 266:0 267:0 268:0 269:0 270:0 271:0 272:0 273:0 274:0 275:0 276:0 277:0 278:0 279:0 280:0 281:0 282:0 283:0 284:0 285:0 286:0 287:0 288:0 
4.753446300103365e-016 1:0 2:0 3:0 4:255 5:0 6:0 7:0 8:255 9:255 10:0 11:0 12:0 13:0 14:0 15:255 16:255 17:255 18:255 19:255 20:255 21:255 22:255 23:0 24:0 25:0 26:255 27:255 28:255 29:255 30:255 31:255 32:255 33:255 34:255 35:255 36:0 37:0 38:255 39:255 40:255 41:255 42:255 43:255 44:255 45:255 46:255 47:255 48:0 49:0 50:0 51:255 52:255 53:255 54:255 55:255 56:255 57:255 58:255 59:0 60:0 61:0 62:0 63:0 64:255 65:255 66:0 67:0 68:255 69:255 70:0 71:0 72:0 73:0 74:0 75:0 76:0 77:0 78:0 79:0 80:0 81:0 82:0 83:0 84:0 85:0 86:0 87:0 88:0 89:255 90:255 91:0 92:0 93:0 94:0 95:0 96:0 97:0 98:0 99:255 100:255 101:255 102:255 103:255 104:255 105:0 106:0 107:0 108:0 109:0 110:255 111:255 112:255 113:255 114:255 115:255 116:255 117:255 118:0 119:0 120:0 121:0 122:255 123:255 124:255 125:255 126:255 127:255 128:255 129:255 130:0 131:0 132:0 133:0 134:0 135:0 136:0 137:255 138:255 139:255 140:255 141:255 142:0 143:0 144:0 145:0 146:0 147:0 148:0 149:255 150:255 151:255 152:255 153:255 154:0 155:0 156:0 157:0 158:255 159:255 160:0 161:255 162:0 163:255 164:255 165:255 166:255 167:0 168:0 169:0 170:255 171:255 172:0 173:255 174:0 175:255 176:255 177:255 178:255 179:0 180:0 181:0 182:255 183:0 184:255 185:255 186:0 187:255 188:255 189:255 190:255 191:0 192:0 193:0 194:0 195:0 196:255 197:255 198:0 199:255 200:255 201:255 202:255 203:0 204:0 205:0 206:0 207:255 208:255 209:0 210:0 211:255 212:255 213:0 214:0 215:0 216:0 217:0 218:0 219:255 220:255 221:0 222:0 223:255 224:255 225:0 226:0 227:0 228:0 229:0 230:255 231:255 232:0 233:0 234:0 235:255 236:255 237:0 238:0 239:0 240:0 241:255 242:255 243:255 244:0 245:0 246:255 247:255 248:0 249:0 250:0 251:0 252:0 253:255 254:255 255:0 256:0 257:255 258:255 259:255 260:0 261:0 262:0 263:0 264:0 265:0 266:0 267:0 268:0 269:0 270:0 271:0 272:0 273:0 274:0 275:0 276:0 277:0 278:0 279:0 280:0 281:0 282:0 283:0 284:0 285:0 286:0 287:0 288:0 
1.36630823755787e-015 1:0 2:0 3:0 4:0 5:0 6:0 7:0 8:0 9:0 10:0 11:0 12:0 13:0 14:0 15:0 16:0 17:0 18:0 19:0 20:0 21:0 22:0 23:0 24:0 25:0 26:0 27:255 28:255 29:0 30:0 31:0 32:255 33:255 34:0 35:0 36:0 37:0 38:255 39:255 40:255 41:255 42:255 43:255 44:255 45:255 46:255 47:255 48:0 49:255 50:255 51:255 52:255 53:255 54:255 55:255 56:255 57:255 58:255 59:255 60:0 61:0 62:255 63:255 64:255 65:255 66:255 67:255 68:255 69:255 70:255 71:0 72:0 73:0 74:0 75:0 76:255 77:0 78:0 79:0 80:255 81:255 82:0 83:0 84:0 85:0 86:0 87:0 88:0 89:0 90:0 91:0 92:0 93:0 94:0 95:0 96:0 97:0 98:0 99:0 100:0 101:0 102:255 103:0 104:0 105:0 106:0 107:0 108:0 109:0 110:0 111:0 112:255 113:255 114:255 115:255 116:255 117:0 118:0 119:0 120:0 121:0 122:255 123:255 124:255 125:255 126:255 127:255 128:255 129:255 130:0 131:0 132:0 133:0 134:0 135:255 136:255 137:255 138:255 139:255 140:255 141:255 142:0 143:0 144:0 145:0 146:0 147:0 148:0 149:255 150:255 151:255 152:255 153:255 154:0 155:0 156:0 157:0 158:0 159:0 160:0 161:0 162:255 163:0 164:255 165:255 166:255 167:255 168:0 169:0 170:0 171:255 172:0 173:0 174:255 175:0 176:255 177:255 178:255 179:255 180:0 181:0 182:255 183:255 184:0 185:255 186:255 187:0 188:255 189:255 190:255 191:255 192:255 193:0 194:255 195:255 196:0 197:255 198:255 199:0 200:255 201:255 202:255 203:255 204:255 205:0 206:255 207:0 208:255 209:255 210:0 211:0 212:255 213:255 214:255 215:0 216:0 217:0 218:0 219:0 220:255 221:255 222:0 223:0 224:255 225:255 226:255 227:0 228:0 229:0 230:0 231:255 232:255 233:255 234:0 235:0 236:255 237:255 238:255 239:0 240:0 241:0 242:255 243:255 244:255 245:0 246:0 247:0 248:255 249:255 250:0 251:0 252:0 253:0 254:255 255:255 256:255 257:0 258:0 259:255 260:255 261:255 262:0 263:0 264:0 265:0 266:0 267:255 268:0 269:0 270:0 271:255 272:255 273:0 274:0 275:0 276:0 277:0 278:0 279:0 280:0 281:0 282:0 283:0 284:0 285:0 286:0 287:0 288:0 
3.604731082881288e-017 1:0 2:0 3:0 4:0 5:0 6:0 7:0 8:0 9:0 10:0 11:0 12:0 13:0 14:0 15:0 16:0 17:0 18:0 19:0 20:0 21:0 22:0 23:0 24:0 25:0 26:255 27:255 28:255 29:0 30:0 31:0 32:255 33:255 34:0 35:0 36:0 37:255 38:255 39:255 40:255 41:255 42:255 43:255 44:255 45:255 46:255 47:255 48:0 49:255 50:255 51:255 52:255 53:255 54:255 55:255 56:255 57:255 58:255 59:255 60:0 61:255 62:255 63:255 64:255 65:0 66:0 67:255 68:255 69:255 70:0 71:0 72:0 73:0 74:255 75:255 76:255 77:0 78:0 79:0 80:255 81:0 82:0 83:0 84:0 85:0 86:0 87:0 88:0 89:0 90:0 91:0 92:0 93:0 94:0 95:0 96:0 97:0 98:0 99:0 100:0 101:255 102:0 103:0 104:0 105:0 106:0 107:0 108:0 109:0 110:0 111:0 112:255 113:255 114:255 115:0 116:0 117:0 118:0 119:0 120:0 121:0 122:255 123:255 124:255 125:255 126:255 127:255 128:255 129:0 130:0 131:0 132:0 133:255 134:255 135:255 136:255 137:255 138:255 139:255 140:255 141:0 142:0 143:0 144:0 145:255 146:255 147:255 148:255 149:255 150:255 151:255 152:255 153:0 154:0 155:0 156:0 157:255 158:255 159:255 160:255 161:255 162:255 163:255 164:255 165:255 166:0 167:0 168:0 169:255 170:255 171:255 172:255 173:255 174:255 175:255 176:255 177:255 178:255 179:0 180:0 181:255 182:255 183:255 184:255 185:255 186:255 187:255 188:255 189:255 190:255 191:0 192:0 193:255 194:255 195:255 196:255 197:255 198:255 199:255 200:255 201:255 202:255 203:0 204:0 205:255 206:255 207:255 208:255 209:255 210:255 211:255 212:255 213:255 214:255 215:0 216:0 217:255 218:255 219:255 220:255 221:0 222:255 223:255 224:255 225:0 226:0 227:0 228:0 229:255 230:255 231:255 232:255 233:0 234:255 235:255 236:255 237:0 238:0 239:0 240:0 241:255 242:255 243:255 244:0 245:0 246:255 247:255 248:255 249:0 250:0 251:0 252:0 253:255 254:255 255:255 256:0 257:255 258:255 259:255 260:0 261:0 262:0 263:0 264:0 265:255 266:255 267:0 268:255 269:255 270:255 271:255 272:0 273:0 274:0 275:0 276:0 277:255 278:255 279:0 280:255 281:255 282:255 283:255 284:0 285:0 286:0 287:0 288:0 
2.000932283114125e-015 1:0 2:255 3:0 4:0 5:0 6:0 7:0 8:0 9:0 10:0 11:0 12:0 13:0 14:255 15:0 16:0 17:0 18:0 19:0 20:0 21:0 22:0 23:0 24:0 25:0 26:255 27:0 28:0 29:0 30:255 31:255 32:0 33:0 34:255 35:0 36:0 37:255 38:0 39:0 40:0 41:255 42:255 43:255 44:255 45:255 46:255 47:255 48:0 49:255 50:0 51:0 52:255 53:255 54:255 55:255 56:255 57:255 58:255 59:255 60:255 61:255 62:0 63:0 64:255 65:255 66:255 67:255 68:255 69:255 70:255 71:255 72:0 73:255 74:0 75:0 76:0 77:0 78:255 79:255 80:0 81:255 82:255 83:0 84:0 85:255 86:0 87:0 88:0 89:0 90:255 91:0 92:0 93:0 94:255 95:0 96:0 97:255 98:0 99:0 100:0 101:0 102:0 103:255 104:0 105:0 106:0 107:0 108:0 109:255 110:0 111:0 112:0 113:0 114:0 115:255 116:255 117:0 118:0 119:0 120:0 121:255 122:0 123:0 124:0 125:255 126:255 127:255 128:255 129:255 130:0 131:0 132:0 133:255 134:0 135:0 136:0 137:255 138:255 139:255 140:255 141:255 142:255 143:0 144:0 145:255 146:0 147:0 148:0 149:0 150:255 151:255 152:255 153:255 154:255 155:0 156:0 157:255 158:0 159:0 160:0 161:0 162:255 163:255 164:255 165:255 166:255 167:0 168:0 169:255 170:0 171:0 172:0 173:255 174:255 175:255 176:255 177:255 178:255 179:255 180:0 181:255 182:0 183:0 184:255 185:255 186:255 187:255 188:255 189:255 190:255 191:255 192:0 193:255 194:0 195:0 196:255 197:255 198:255 199:255 200:255 201:255 202:255 203:255 204:0 205:0 206:0 207:0 208:255 209:255 210:255 211:255 212:255 213:255 214:255 215:255 216:0 217:0 218:0 219:0 220:0 221:255 222:255 223:0 224:255 225:255 226:0 227:0 228:0 229:0 230:0 231:0 232:0 233:255 234:255 235:0 236:255 237:255 238:0 239:0 240:0 241:0 242:0 243:0 244:255 245:255 246:0 247:0 248:255 249:255 250:0 251:0 252:0 253:0 254:0 255:0 256:255 257:255 258:0 259:0 260:255 261:255 262:0 263:0 264:0 265:0 266:0 267:0 268:255 269:0 270:0 271:255 272:255 273:0 274:0 275:0 276:0 277:0 278:0 279:0 280:0 281:0 282:0 283:0 284:0 285:0 286:0 287:0 288:0 
7.729307365193034e-015 1:0 2:0 3:0 4:0 5:0 6:0 7:0 8:0 9:255 10:0 11:0 12:0 13:0 14:0 15:0 16:255 17:255 18:0 19:0 20:255 21:255 22:0 23:0 24:0 25:0 26:255 27:255 28:255 29:255 30:255 31:255 32:255 33:255 34:255 35:0 36:0 37:0 38:255 39:255 40:255 41:255 42:255 43:255 44:255 45:255 46:255 47:255 48:0 49:0 50:0 51:255 52:255 53:255 54:0 55:0 56:255 57:255 58:0 59:0 60:0 61:0 62:0 63:0 64:0 65:0 66:0 67:0 68:0 69:0 70:0 71:0 72:0 73:0 74:0 75:0 76:0 77:0 78:0 79:0 80:0 81:0 82:0 83:0 84:0 85:0 86:0 87:0 88:0 89:255 90:255 91:0 92:0 93:0 94:0 95:0 96:0 97:0 98:0 99:255 100:255 101:255 102:255 103:255 104:0 105:0 106:0 107:0 108:0 109:0 110:255 111:255 112:255 113:255 114:255 115:255 116:255 117:0 118:0 119:0 120:0 121:0 122:0 123:0 124:255 125:255 126:255 127:255 128:255 129:0 130:0 131:0 132:0 133:0 134:0 135:0 136:255 137:255 138:0 139:255 140:255 141:0 142:0 143:0 144:0 145:0 146:0 147:0 148:255 149:255 150:0 151:255 152:255 153:255 154:0 155:0 156:0 157:0 158:255 159:0 160:255 161:255 162:0 163:255 164:255 165:255 166:255 167:0 168:0 169:0 170:255 171:0 172:255 173:255 174:0 175:255 176:255 177:255 178:255 179:0 180:0 181:255 182:0 183:0 184:255 185:0 186:0 187:255 188:255 189:255 190:255 191:0 192:0 193:0 194:0 195:255 196:255 197:0 198:0 199:255 200:255 201:0 202:0 203:0 204:0 205:0 206:0 207:255 208:255 209:0 210:0 211:255 212:255 213:0 214:0 215:0 216:0 217:0 218:255 219:255 220:0 221:0 222:0 223:255 224:255 225:0 226:0 227:0 228:0 229:255 230:255 231:0 232:0 233:0 234:255 235:255 236:0 237:0 238:0 239:0 240:0 241:255 242:0 243:0 244:0 245:255 246:255 247:255 248:0 249:0 250:0 251:0 252:0 253:0 254:0 255:0 256:0 257:0 258:0 259:0 260:0 261:0 262:0 263:0 264:0 265:0 266:0 267:0 268:0 269:0 270:0 271:0 272:0 273:0 274:0 275:0 276:0 277:0 278:0 279:0 280:0 281:0 282:0 283:0 284:0 285:0 286:0 287:0 288:0 
3.344614708292645e-015 1:0 2:0 3:0 4:0 5:0 6:0 7:0 8:0 9:0 10:0 11:0 12:0 13:0 14:0 15:0 16:0 17:0 18:0 19:0 20:0 21:0 22:0 23:0 24:0 25:0 26:0 27:0 28:255 29:0 30:0 31:0 32:255 33:255 34:0 35:0 36:0 37:0 38:255 39:255 40:255 41:255 42:255 43:255 44:255 45:255 46:255 47:0 48:0 49:0 50:255 51:255 52:255 53:255 54:255 55:255 56:255 57:255 58:255 59:0 60:0 61:0 62:0 63:255 64:255 65:255 66:0 67:0 68:255 69:255 70:0 71:0 72:0 73:0 74:0 75:0 76:0 77:0 78:0 79:0 80:0 81:0 82:0 83:0 84:0 85:0 86:0 87:0 88:0 89:0 90:0 91:0 92:0 93:0 94:0 95:0 96:0 97:0 98:0 99:0 100:0 101:255 102:255 103:0 104:0 105:0 106:0 107:0 108:0 109:0 110:0 111:0 112:255 113:255 114:255 115:255 116:255 117:0 118:0 119:0 120:0 121:0 122:0 123:255 124:255 125:255 126:255 127:255 128:255 129:0 130:0 131:0 132:0 133:0 134:0 135:0 136:255 137:255 138:255 139:255 140:255 141:0 142:0 143:0 144:0 145:0 146:0 147:0 148:255 149:255 150:0 151:255 152:255 153:0 154:0 155:0 156:0 157:0 158:0 159:0 160:255 161:255 162:0 163:255 164:255 165:255 166:0 167:0 168:0 169:0 170:255 171:0 172:255 173:255 174:0 175:255 176:255 177:255 178:255 179:0 180:0 181:255 182:255 183:0 184:255 185:255 186:0 187:255 188:255 189:255 190:255 191:0 192:0 193:255 194:0 195:0 196:255 197:255 198:0 199:255 200:255 201:0 202:255 203:0 204:0 205:0 206:0 207:255 208:255 209:0 210:0 211:255 212:255 213:0 214:0 215:0 216:0 217:0 218:0 219:255 220:255 221:0 222:0 223:255 224:255 225:0 226:0 227:0 228:0 229:0 230:255 231:255 232:0 233:0 234:0 235:255 236:255 237:0 238:0 239:0 240:0 241:255 242:255 243:255 244:0 245:0 246:0 247:255 248:0 249:0 250:0 251:0 252:0 253:0 254:0 255:0 256:0 257:0 258:255 259:255 260:0 261:0 262:0 263:0 264:0 265:0 266:0 267:0 268:0 269:0 270:0 271:0 272:0 273:0 274:0 275:0 276:0 277:0 278:0 279:0 280:0 281:0 282:0 283:0 284:0 285:0 286:0 287:0 288:0 
7.798719035224675e-016 1:255 2:0 3:0 4:0 5:0 6:0 7:0 8:0 9:0 10:0 11:0 12:0 13:255 14:0 15:0 16:0 17:0 18:0 19:0 20:0 21:0 22:0 23:0 24:0 25:255 26:0 27:0 28:0 29:0 30:255 31:0 32:0 33:0 34:255 35:255 36:0 37:255 38:0 39:0 40:0 41:0 42:255 43:255 44:0 45:0 46:255 47:255 48:0 49:255 50:0 51:0 52:255 53:255 54:255 55:255 56:255 57:255 58:255 59:255 60:255 61:255 62:0 63:255 64:255 65:255 66:255 67:255 68:255 69:255 70:255 71:255 72:255 73:255 74:0 75:0 76:255 77:255 78:255 79:255 80:255 81:255 82:255 83:255 84:255 85:255 86:0 87:0 88:0 89:0 90:255 91:255 92:0 93:0 94:255 95:255 96:0 97:255 98:0 99:0 100:0 101:0 102:0 103:255 104:255 105:0 106:0 107:0 108:0 109:255 110:0 111:0 112:0 113:0 114:0 115:255 116:255 117:0 118:0 119:0 120:0 121:255 122:0 123:0 124:0 125:255 126:255 127:255 128:255 129:255 130:255 131:255 132:0 133:255 134:0 135:0 136:255 137:255 138:255 139:255 140:255 141:255 142:255 143:255 144:0 145:255 146:0 147:0 148:0 149:0 150:255 151:255 152:255 153:255 154:255 155:255 156:0 157:0 158:0 159:0 160:0 161:255 162:255 163:255 164:255 165:255 166:255 167:255 168:0 169:0 170:0 171:0 172:255 173:255 174:255 175:255 176:255 177:255 178:255 179:255 180:255 181:0 182:0 183:0 184:255 185:255 186:255 187:255 188:255 189:255 190:255 191:255 192:255 193:0 194:0 195:255 196:255 197:255 198:255 199:255 200:255 201:255 202:255 203:255 204:255 205:0 206:0 207:255 208:255 209:255 210:255 211:255 212:255 213:255 214:255 215:255 216:255 217:0 218:0 219:0 220:255 221:255 222:255 223:255 224:255 225:255 226:255 227:255 228:0 229:0 230:0 231:0 232:255 233:255 234:255 235:255 236:0 237:255 238:255 239:0 240:0 241:0 242:0 243:0 244:255 245:255 246:255 247:0 248:255 249:255 250:255 251:0 252:0 253:0 254:0 255:255 256:255 257:255 258:0 259:255 260:255 261:255 262:255 263:0 264:0 265:0 266:0 267:0 268:0 269:0 270:0 271:0 272:255 273:255 274:0 275:0 276:0 277:0 278:0 279:0 280:0 281:0 282:0 283:0 284:0 285:0 286:0 287:0 288:0 
4.283469964360226e-015 1:0 2:0 3:0 4:0 5:0 6:0 7:0 8:0 9:0 10:0 11:0 12:0 13:0 14:0 15:0 16:0 17:0 18:0 19:0 20:0 21:0 22:0 23:0 24:0 25:0 26:0 27:0 28:0 29:0 30:0 31:255 32:0 33:0 34:0 35:255 36:0 37:0 38:0 39:0 40:0 41:0 42:255 43:255 44:255 45:0 46:0 47:255 48:255 49:0 50:0 51:0 52:0 53:255 54:255 55:255 56:255 57:255 58:255 59:255 60:255 61:0 62:0 63:0 64:255 65:255 66:255 67:255 68:255 69:255 70:255 71:255 72:255 73:0 74:0 75:0 76:0 77:0 78:255 79:255 80:255 81:0 82:255 83:255 84:255 85:0 86:0 87:0 88:0 89:0 90:255 91:255 92:0 93:0 94:0 95:255 96:255 97:255 98:0 99:0 100:0 101:0 102:0 103:0 104:0 105:0 106:0 107:0 108:0 109:255 110:0 111:0 112:0 113:0 114:0 115:0 116:255 117:0 118:0 119:0 120:0 121:255 122:0 123:0 124:0 125:0 126:0 127:255 128:255 129:255 130:255 131:0 132:0 133:0 134:0 135:0 136:0 137:255 138:255 139:255 140:255 141:255 142:255 143:255 144:0 145:0 146:0 147:0 148:0 149:0 150:255 151:255 152:255 153:255 154:255 155:255 156:0 157:0 158:0 159:0 160:0 161:0 162:0 163:255 164:255 165:255 166:255 167:255 168:0 169:0 170:0 171:0 172:0 173:0 174:0 175:255 176:255 177:0 178:255 179:255 180:255 181:0 182:0 183:0 184:255 185:255 186:255 187:255 188:255 189:0 190:255 191:255 192:255 193:0 194:0 195:0 196:255 197:255 198:255 199:255 200:255 201:0 202:255 203:255 204:255 205:0 206:0 207:0 208:255 209:255 210:255 211:255 212:0 213:0 214:255 215:255 216:255 217:0 218:0 219:0 220:255 221:255 222:255 223:255 224:0 225:0 226:255 227:255 228:0 229:0 230:0 231:0 232:0 233:255 234:255 235:255 236:0 237:0 238:255 239:255 240:0 241:0 242:0 243:0 244:0 245:255 246:255 247:0 248:0 249:0 250:255 251:255 252:0 253:0 254:0 255:0 256:255 257:255 258:255 259:0 260:0 261:255 262:255 263:0 264:0 265:0 266:0 267:0 268:255 269:255 270:0 271:0 272:255 273:255 274:255 275:0 276:0 277:0 278:0 279:0 280:0 281:0 282:0 283:0 284:255 285:255 286:0 287:0 288:0 
1.246213066466569e-015 1:0 2:0 3:0 4:0 5:0 6:0 7:0 8:0 9:0 10:0 11:0 12:0 13:0 14:0 15:0 16:0 17:0 18:0 19:0 20:0 21:0 22:0 23:0 24:0 25:0 26:0 27:0 28:0 29:0 30:0 31:0 32:0 33:0 34:0 35:0 36:0 37:0 38:0 39:0 40:255 41:255 42:255 43:0 44:255 45:255 46:255 47:0 48:0 49:0 50:0 51:255 52:255 53:255 54:255 55:255 56:255 57:255 58:255 59:255 60:255 61:0 62:255 63:255 64:255 65:255 66:255 67:255 68:255 69:255 70:255 71:255 72:255 73:0 74:0 75:255 76:255 77:255 78:255 79:255 80:255 81:255 82:255 83:255 84:0 85:0 86:0 87:0 88:255 89:255 90:255 91:0 92:255 93:255 94:255 95:0 96:0 97:0 98:0 99:0 100:0 101:255 102:255 103:255 104:0 105:0 106:0 107:0 108:0 109:0 110:0 111:0 112:0 113:255 114:255 115:255 116:255 117:0 118:0 119:0 120:0 121:0 122:0 123:255 124:255 125:255 126:255 127:255 128:255 129:255 130:0 131:0 132:0 133:0 134:0 135:255 136:255 137:255 138:255 139:255 140:255 141:255 142:255 143:0 144:0 145:0 146:0 147:0 148:255 149:255 150:255 151:255 152:255 153:255 154:255 155:0 156:0 157:0 158:0 159:255 160:255 161:255 162:255 163:255 164:255 165:255 166:255 167:255 168:0 169:0 170:0 171:255 172:255 173:255 174:255 175:255 176:255 177:255 178:255 179:255 180:0 181:0 182:255 183:255 184:255 185:255 186:255 187:255 188:255 189:255 190:255 191:255 192:255 193:0 194:255 195:255 196:255 197:255 198:255 199:255 200:255 201:255 202:255 203:255 204:255 205:0 206:255 207:255 208:255 209:255 210:255 211:255 212:255 213:255 214:255 215:255 216:0 217:0 218:0 219:255 220:255 221:255 222:255 223:255 224:255 225:255 226:0 227:0 228:0 229:0 230:0 231:255 232:255 233:255 234:0 235:255 236:255 237:255 238:0 239:0 240:0 241:0 242:255 243:255 244:255 245:255 246:255 247:255 248:255 249:255 250:0 251:0 252:0 253:0 254:255 255:255 256:0 257:0 258:255 259:255 260:255 261:0 262:0 263:0 264:0 265:0 266:0 267:0 268:0 269:0 270:255 271:255 272:0 273:0 274:0 275:0 276:0 277:0 278:0 279:0 280:0 281:0 282:0 283:0 284:0 285:0 286:0 287:0 288:0 
6.400383123819457e-015 1:0 2:0 3:0 4:0 5:0 6:0 7:0 8:0 9:0 10:0 11:0 12:0 13:0 14:0 15:0 16:0 17:0 18:0 19:0 20:0 21:0 22:0 23:0 24:0 25:0 26:0 27:0 28:0 29:0 30:0 31:0 32:0 33:0 34:0 35:0 36:0 37:0 38:0 39:0 40:0 41:0 42:0 43:0 44:0 45:0 46:0 47:0 48:0 49:0 50:0 51:0 52:0 53:255 54:255 55:0 56:0 57:255 58:255 59:0 60:0 61:0 62:0 63:255 64:255 65:255 66:255 67:255 68:255 69:255 70:255 71:255 72:0 73:0 74:0 75:255 76:255 77:255 78:255 79:255 80:255 81:255 82:255 83:255 84:255 85:0 86:0 87:255 88:255 89:255 90:255 91:255 92:255 93:255 94:255 95:255 96:0 97:0 98:0 99:0 100:255 101:255 102:255 103:0 104:255 105:255 106:255 107:0 108:0 109:0 110:0 111:0 112:0 113:0 114:255 115:255 116:0 117:0 118:0 119:0 120:0 121:0 122:0 123:0 124:0 125:0 126:255 127:255 128:0 129:0 130:0 131:0 132:0 133:0 134:0 135:0 136:255 137:255 138:255 139:255 140:255 141:255 142:0 143:0 144:0 145:0 146:0 147:255 148:255 149:255 150:255 151:255 152:255 153:255 154:255 155:0 156:0 157:0 158:0 159:0 160:0 161:255 162:255 163:255 164:255 165:255 166:255 167:0 168:0 169:0 170:0 171:0 172:255 173:255 174:255 175:255 176:255 177:255 178:255 179:255 180:0 181:0 182:0 183:255 184:255 185:255 186:255 187:255 188:255 189:255 190:255 191:255 192:0 193:0 194:0 195:255 196:255 197:255 198:255 199:255 200:255 201:255 202:255 203:255 204:0 205:0 206:255 207:255 208:255 209:255 210:255 211:255 212:255 213:255 214:255 215:255 216:0 217:0 218:0 219:255 220:255 221:255 222:255 223:0 224:255 225:255 226:255 227:255 228:0 229:0 230:0 231:0 232:255 233:255 234:255 235:0 236:255 237:255 238:0 239:0 240:0 241:0 242:0 243:255 244:255 245:255 246:0 247:0 248:255 249:255 250:0 251:0 252:0 253:0 254:255 255:255 256:255 257:0 258:0 259:255 260:255 261:255 262:0 263:0 264:0 265:0 266:0 267:255 268:0 269:0 270:255 271:255 272:255 273:0 274:0 275:0 276:0 277:0 278:0 279:0 280:0 281:0 282:0 283:0 284:0 285:0 286:0 287:0 288:0 
2.412059039858509e-015 1:0 2:0 3:0 4:0 5:0 6:0 7:0 8:0 9:0 10:0 11:0 12:0 13:0 14:0 15:0 16:0 17:0 18:0 19:0 20:0 21:0 22:0 23:0 24:0 25:0 26:0 27:255 28:255 29:0 30:0 31:255 32:255 33:0 34:0 35:0 36:0 37:255 38:255 39:255 40:255 41:255 42:255 43:255 44:255 45:255 46:255 47:0 48:0 49:255 50:255 51:255 52:255 53:255 54:255 55:255 56:255 57:255 58:255 59:0 60:0 61:0 62:255 63:255 64:255 65:0 66:0 67:255 68:255 69:255 70:0 71:0 72:0 73:0 74:0 75:255 76:0 77:0 78:0 79:0 80:255 81:0 82:0 83:0 84:0 85:0 86:0 87:0 88:0 89:0 90:0 91:0 92:0 93:0 94:0 95:0 96:0 97:0 98:0 99:0 100:255 101:255 102:0 103:0 104:0 105:0 106:0 107:0 108:0 109:0 110:255 111:255 112:255 113:255 114:255 115:255 116:0 117:0 118:0 119:0 120:0 121:0 122:255 123:255 124:255 125:255 126:255 127:255 128:255 129:0 130:0 131:0 132:0 133:0 134:0 135:255 136:255 137:255 138:255 139:255 140:255 141:0 142:0 143:0 144:0 145:0 146:0 147:0 148:255 149:255 150:0 151:255 152:255 153:0 154:0 155:0 156:0 157:0 158:0 159:0 160:255 161:255 162:0 163:255 164:255 165:255 166:0 167:0 168:0 169:255 170:255 171:0 172:255 173:255 174:0 175:255 176:255 177:255 178:255 179:0 180:0 181:255 182:255 183:0 184:255 185:0 186:0 187:255 188:255 189:255 190:255 191:0 192:0 193:255 194:0 195:255 196:255 197:0 198:0 199:255 200:255 201:255 202:255 203:0 204:0 205:0 206:0 207:255 208:255 209:0 210:0 211:255 212:255 213:0 214:0 215:0 216:0 217:0 218:255 219:255 220:0 221:0 222:0 223:255 224:255 225:0 226:0 227:0 228:0 229:0 230:255 231:255 232:0 233:0 234:0 235:255 236:255 237:0 238:0 239:0 240:0 241:255 242:255 243:0 244:0 245:0 246:255 247:255 248:0 249:0 250:0 251:0 252:0 253:255 254:0 255:0 256:0 257:255 258:255 259:255 260:0 261:0 262:0 263:0 264:0 265:0 266:0 267:0 268:0 269:0 270:0 271:0 272:0 273:0 274:0 275:0 276:0 277:0 278:0 279:0 280:0 281:0 282:0 283:0 284:0 285:0 286:0 287:0 288:0 
1.36292834479668e-015 1:0 2:0 3:0 4:0 5:0 6:0 7:0 8:0 9:0 10:0 11:0 12:0 13:0 14:0 15:0 16:0 17:0 18:0 19:0 20:0 21:0 22:0 23:0 24:0 25:0 26:0 27:255 28:255 29:0 30:0 31:255 32:255 33:0 34:0 35:0 36:0 37:0 38:255 39:255 40:255 41:255 42:255 43:255 44:255 45:255 46:255 47:0 48:0 49:255 50:255 51:255 52:255 53:255 54:255 55:255 56:255 57:255 58:255 59:255 60:0 61:255 62:255 63:255 64:255 65:255 66:255 67:255 68:255 69:255 70:255 71:0 72:0 73:0 74:0 75:255 76:255 77:0 78:0 79:255 80:255 81:0 82:0 83:0 84:0 85:0 86:0 87:0 88:255 89:255 90:0 91:0 92:0 93:0 94:0 95:0 96:0 97:0 98:0 99:0 100:255 101:255 102:255 103:0 104:0 105:0 106:0 107:0 108:0 109:0 110:0 111:255 112:255 113:255 114:255 115:255 116:0 117:0 118:0 119:0 120:0 121:255 122:255 123:255 124:255 125:255 126:255 127:255 128:255 129:0 130:0 131:0 132:0 133:0 134:255 135:255 136:255 137:255 138:255 139:255 140:255 141:0 142:0 143:0 144:0 145:0 146:255 147:255 148:255 149:255 150:255 151:255 152:255 153:255 154:0 155:0 156:0 157:255 158:255 159:255 160:255 161:255 162:255 163:255 164:255 165:255 166:255 167:0 168:0 169:255 170:255 171:255 172:255 173:255 174:255 175:255 176:255 177:255 178:255 179:0 180:0 181:255 182:255 183:255 184:255 185:255 186:255 187:255 188:255 189:255 190:255 191:0 192:0 193:255 194:255 195:255 196:255 197:255 198:255 199:255 200:255 201:255 202:0 203:0 204:0 205:0 206:255 207:255 208:255 209:0 210:255 211:255 212:255 213:0 214:0 215:0 216:0 217:0 218:255 219:255 220:255 221:0 222:255 223:255 224:255 225:0 226:0 227:0 228:0 229:255 230:255 231:255 232:0 233:0 234:255 235:255 236:255 237:0 238:0 239:0 240:0 241:255 242:255 243:255 244:0 245:255 246:255 247:255 248:0 249:0 250:0 251:0 252:0 253:255 254:255 255:0 256:0 257:255 258:255 259:255 260:0 261:0 262:0 263:0 264:0 265:255 266:255 267:0 268:0 269:255 270:255 271:0 272:0 273:0 274:0 275:0 276:0 277:0 278:0 279:0 280:0 281:0 282:0 283:0 284:0 285:0 286:0 287:0 288:0 
9.669472869241392e-016 1:0 2:0 3:0 4:0 5:0 6:0 7:0 8:0 9:0 10:0 11:0 12:0 13:0 14:0 15:0 16:0 17:0 18:0 19:0 20:0 21:0 22:0 23:0 24:0 25:0 26:0 27:0 28:255 29:255 30:0 31:0 32:255 33:255 34:255 35:0 36:0 37:255 38:255 39:255 40:255 41:255 42:255 43:255 44:255 45:255 46:255 47:255 48:255 49:255 50:255 51:255 52:255 53:255 54:255 55:255 56:255 57:255 58:255 59:255 60:255 61:0 62:0 63:255 64:255 65:255 66:255 67:255 68:255 69:255 70:255 71:255 72:0 73:0 74:0 75:0 76:0 77:0 78:0 79:0 80:0 81:0 82:0 83:0 84:0 85:0 86:0 87:0 88:0 89:255 90:255 91:255 92:0 93:0 94:0 95:0 96:0 97:0 98:0 99:0 100:0 101:255 102:255 103:255 104:0 105:0 106:0 107:0 108:0 109:0 110:255 111:255 112:255 113:255 114:255 115:255 116:255 117:255 118:255 119:0 120:0 121:0 122:255 123:255 124:255 125:255 126:255 127:255 128:255 129:255 130:255 131:0 132:0 133:0 134:0 135:0 136:255 137:255 138:255 139:255 140:255 141:255 142:255 143:0 144:0 145:0 146:255 147:255 148:255 149:255 150:255 151:255 152:255 153:255 154:255 155:255 156:0 157:255 158:255 159:255 160:255 161:255 162:255 163:255 164:255 165:255 166:255 167:255 168:255 169:255 170:255 171:255 172:255 173:255 174:255 175:255 176:255 177:255 178:255 179:255 180:255 181:255 182:255 183:255 184:255 185:255 186:255 187:255 188:255 189:255 190:255 191:255 192:0 193:0 194:0 195:255 196:255 197:255 198:0 199:255 200:255 201:255 202:0 203:0 204:0 205:0 206:255 207:255 208:255 209:255 210:0 211:255 212:255 213:255 214:0 215:0 216:0 217:0 218:255 219:255 220:255 221:0 222:0 223:255 224:255 225:255 226:0 227:0 228:0 229:0 230:255 231:255 232:0 233:0 234:0 235:255 236:255 237:255 238:0 239:0 240:0 241:255 242:255 243:255 244:0 245:0 246:255 247:255 248:255 249:255 250:0 251:0 252:0 253:255 254:255 255:0 256:0 257:0 258:255 259:255 260:255 261:0 262:0 263:0 264:0 265:0 266:0 267:0 268:0 269:0 270:0 271:0 272:0 273:0 274:0 275:0 276:0 277:0 278:0 279:0 280:0 281:0 282:0 283:0 284:0 285:0 286:0 287:0 288:0 
5.012866824033039e-016 1:0 2:0 3:0 4:0 5:0 6:0 7:0 8:0 9:0 10:0 11:0 12:0 13:0 14:0 15:0 16:255 17:255 18:0 19:0 20:0 21:255 22:255 23:0 24:0 25:0 26:0 27:255 28:255 29:255 30:255 31:255 32:255 33:255 34:255 35:255 36:0 37:0 38:255 39:255 40:255 41:255 42:255 43:255 44:255 45:255 46:255 47:255 48:255 49:0 50:255 51:255 52:255 53:255 54:255 55:255 56:255 57:255 58:255 59:255 60:0 61:0 62:0 63:0 64:255 65:255 66:0 67:0 68:255 69:255 70:255 71:0 72:0 73:0 74:0 75:0 76:0 77:0 78:0 79:0 80:0 81:0 82:0 83:0 84:0 85:0 86:0 87:0 88:0 89:0 90:255 91:0 92:0 93:0 94:0 95:0 96:0 97:0 98:0 99:0 100:0 101:255 102:255 103:255 104:0 105:0 106:0 107:0 108:0 109:0 110:0 111:255 112:255 113:255 114:255 115:255 116:255 117:255 118:0 119:0 120:0 121:0 122:0 123:255 124:255 125:255 126:255 127:255 128:255 129:255 130:0 131:0 132:0 133:0 134:0 135:0 136:255 137:255 138:255 139:255 140:255 141:255 142:0 143:0 144:0 145:0 146:0 147:0 148:0 149:255 150:255 151:255 152:255 153:255 154:255 155:0 156:0 157:0 158:0 159:0 160:0 161:255 162:255 163:255 164:255 165:255 166:255 167:0 168:0 169:0 170:255 171:0 172:0 173:255 174:255 175:0 176:255 177:255 178:255 179:255 180:0 181:0 182:255 183:0 184:0 185:255 186:0 187:0 188:255 189:255 190:255 191:255 192:0 193:0 194:0 195:0 196:0 197:255 198:0 199:0 200:255 201:255 202:255 203:255 204:0 205:0 206:0 207:0 208:255 209:255 210:0 211:0 212:255 213:255 214:0 215:0 216:0 217:0 218:0 219:255 220:255 221:0 222:0 223:0 224:255 225:255 226:0 227:0 228:0 229:0 230:0 231:255 232:0 233:0 234:0 235:0 236:255 237:255 238:0 239:0 240:0 241:0 242:255 243:255 244:0 245:0 246:255 247:255 248:255 249:0 250:0 251:0 252:0 253:0 254:255 255:0 256:0 257:0 258:255 259:255 260:255 261:0 262:0 263:0 264:0 265:0 266:0 267:0 268:0 269:0 270:0 271:0 272:0 273:0 274:0 275:0 276:0 277:0 278:0 279:0 280:0 281:0 282:0 283:0 284:0 285:0 286:0 287:0 288:0 
4.696942041632359e-015 1:0 2:0 3:0 4:0 5:0 6:0 7:0 8:0 9:0 10:0 11:0 12:0 13:0 14:0 15:0 16:0 17:0 18:0 19:0 20:0 21:0 22:0 23:0 24:0 25:0 26:0 27:0 28:0 29:0 30:0 31:0 32:0 33:0 34:0 35:0 36:0 37:0 38:0 39:0 40:0 41:0 42:0 43:255 44:255 45:0 46:0 47:0 48:255 49:0 50:0 51:0 52:0 53:0 54:255 55:255 56:255 57:255 58:255 59:255 60:255 61:0 62:0 63:0 64:0 65:255 66:255 67:255 68:255 69:255 70:255 71:255 72:255 73:0 74:0 75:0 76:255 77:255 78:255 79:255 80:255 81:255 82:255 83:255 84:255 85:0 86:0 87:0 88:0 89:0 90:255 91:255 92:255 93:255 94:255 95:255 96:255 97:255 98:0 99:0 100:0 101:0 102:255 103:255 104:255 105:0 106:0 107:255 108:255 109:0 110:0 111:0 112:0 113:0 114:0 115:0 116:255 117:255 118:0 119:0 120:0 121:0 122:0 123:0 124:0 125:0 126:0 127:255 128:255 129:255 130:255 131:0 132:0 133:0 134:0 135:0 136:0 137:255 138:255 139:255 140:255 141:255 142:255 143:255 144:0 145:0 146:0 147:0 148:0 149:255 150:255 151:255 152:255 153:255 154:255 155:255 156:0 157:0 158:0 159:0 160:0 161:0 162:255 163:255 164:255 165:255 166:255 167:255 168:0 169:0 170:0 171:0 172:0 173:255 174:0 175:255 176:255 177:255 178:255 179:255 180:255 181:0 182:0 183:0 184:255 185:255 186:255 187:255 188:255 189:255 190:255 191:255 192:255 193:0 194:0 195:0 196:255 197:255 198:255 199:255 200:255 201:255 202:255 203:255 204:255 205:0 206:0 207:255 208:255 209:255 210:255 211:255 212:0 213:255 214:255 215:255 216:255 217:0 218:0 219:0 220:0 221:255 222:255 223:255 224:0 225:255 226:255 227:255 228:255 229:0 230:0 231:0 232:0 233:255 234:255 235:255 236:0 237:255 238:255 239:255 240:0 241:0 242:0 243:0 244:255 245:255 246:255 247:0 248:0 249:255 250:255 251:0 252:0 253:0 254:0 255:0 256:255 257:255 258:0 259:0 260:255 261:255 262:255 263:0 264:0 265:0 266:0 267:255 268:255 269:0 270:0 271:0 272:255 273:255 274:0 275:0 276:0 277:0 278:0 279:0 280:0 281:0 282:0 283:0 284:255 285:0 286:0 287:0 288:0 
-1.811972626270624e-015 1:0 2:0 3:0 4:0 5:0 6:0 7:0 8:0 9:0 10:0 11:0 12:0 13:0 14:0 15:0 16:0 17:0 18:0 19:0 20:0 21:0 22:0 23:0 24:0 25:0 26:255 27:255 28:255 29:0 30:0 31:0 32:255 33:255 34:255 35:255 36:255 37:0 38:255 39:0 40:255 41:0 42:0 43:255 44:255 45:255 46:255 47:255 48:255 49:0 50:0 51:0 52:0 53:0 54:0 55:255 56:255 57:255 58:255 59:255 60:0 61:0 62:0 63:0 64:255 65:0 66:0 67:0 68:255 69:255 70:255 71:0 72:0 73:255 74:255 75:255 76:255 77:255 78:0 79:0 80:255 81:255 82:255 83:255 84:0 85:255 86:255 87:255 88:255 89:0 90:0 91:0 92:255 93:0 94:0 95:255 96:0 97:0 98:0 99:0 100:0 101:0 102:0 103:0 104:0 105:255 106:255 107:0 108:0 109:0 110:255 111:255 112:255 113:0 114:0 115:0 116:255 117:255 118:255 119:0 120:0 121:255 122:255 123:255 124:255 125:0 126:0 127:0 128:255 129:255 130:255 131:0 132:0 133:255 134:0 135:0 136:255 137:255 138:255 139:255 140:255 141:255 142:255 143:255 144:255 145:255 146:255 147:255 148:255 149:255 150:0 151:0 152:255 153:255 154:0 155:0 156:0 157:255 158:255 159:255 160:255 161:0 162:0 163:255 164:255 165:255 166:255 167:255 168:0 169:255 170:255 171:255 172:255 173:0 174:0 175:255 176:255 177:255 178:255 179:255 180:0 181:255 182:255 183:255 184:255 185:0 186:0 187:255 188:0 189:0 190:0 191:255 192:0 193:0 194:255 195:255 196:0 197:0 198:0 199:255 200:0 201:0 202:0 203:255 204:0 205:0 206:255 207:255 208:0 209:0 210:0 211:0 212:0 213:255 214:0 215:0 216:0 217:255 218:255 219:255 220:255 221:0 222:0 223:0 224:255 225:0 226:0 227:0 228:0 229:255 230:255 231:255 232:255 233:0 234:0 235:0 236:255 237:0 238:0 239:0 240:0 241:0 242:255 243:255 244:0 245:0 246:0 247:255 248:0 249:0 250:0 251:0 252:0 253:0 254:255 255:0 256:0 257:0 258:255 259:255 260:0 261:0 262:0 263:255 264:0 265:0 266:0 267:0 268:0 269:255 270:255 271:0 272:0 273:0 274:0 275:0 276:0 277:0 278:0 279:0 280:0 281:0 282:0 283:0 284:0 285:0 286:0 287:0 288:0 
-1.04495071743607e-015 1:0 2:0 3:255 4:255 5:255 6:0 7:255 8:255 9:255 10:255 11:255 12:255 13:0 14:0 15:255 16:255 17:255 18:255 19:255 20:255 21:255 22:255 23:255 24:255 25:0 26:0 27:255 28:0 29:255 30:255 31:255 32:255 33:255 34:255 35:255 36:0 37:0 38:0 39:255 40:255 41:255 42:255 43:255 44:255 45:255 46:255 47:0 48:0 49:0 50:255 51:255 52:255 53:255 54:255 55:255 56:255 57:255 58:255 59:0 60:0 61:0 62:255 63:255 64:255 65:255 66:255 67:255 68:255 69:255 70:255 71:255 72:0 73:0 74:0 75:0 76:0 77:0 78:0 79:0 80:0 81:255 82:255 83:0 84:0 85:0 86:0 87:255 88:255 89:255 90:0 91:0 92:255 93:255 94:255 95:0 96:0 97:0 98:255 99:255 100:255 101:255 102:0 103:0 104:255 105:255 106:255 107:0 108:0 109:0 110:255 111:255 112:255 113:255 114:255 115:255 116:255 117:255 118:255 119:255 120:0 121:0 122:255 123:255 124:255 125:255 126:255 127:255 128:255 129:255 130:255 131:255 132:0 133:0 134:255 135:255 136:255 137:255 138:255 139:255 140:255 141:255 142:255 143:0 144:0 145:0 146:255 147:255 148:255 149:255 150:255 151:255 152:255 153:255 154:255 155:0 156:0 157:255 158:255 159:255 160:255 161:255 162:255 163:255 164:0 165:255 166:255 167:0 168:0 169:0 170:255 171:255 172:255 173:0 174:255 175:0 176:0 177:0 178:255 179:0 180:0 181:0 182:255 183:255 184:0 185:0 186:255 187:255 188:255 189:255 190:255 191:0 192:0 193:255 194:255 195:255 196:255 197:255 198:255 199:255 200:255 201:255 202:255 203:0 204:0 205:255 206:255 207:255 208:255 209:0 210:0 211:255 212:255 213:0 214:0 215:0 216:0 217:0 218:255 219:255 220:0 221:0 222:255 223:255 224:255 225:255 226:0 227:0 228:0 229:0 230:255 231:255 232:0 233:255 234:255 235:255 236:255 237:255 238:255 239:0 240:0 241:0 242:255 243:255 244:255 245:255 246:255 247:0 248:0 249:255 250:255 251:0 252:0 253:0 254:0 255:0 256:0 257:0 258:0 259:0 260:0 261:0 262:0 263:0 264:0 265:0 266:0 267:0 268:0 269:0 270:0 271:0 272:0 273:0 274:0 275:0 276:0 277:0 278:0 279:0 280:0 281:0 282:0 283:0 284:0 285:0 286:0 287:0 288:0 
-4.694263090329004e-016 1:0 2:0 3:0 4:0 5:0 6:0 7:0 8:0 9:0 10:0 11:0 12:0 13:0 14:0 15:0 16:0 17:0 18:0 19:0 20:255 21:0 22:0 23:0 24:0 25:0 26:255 27:255 28:255 29:0 30:0 31:255 32:255 33:255 34:255 35:255 36:255 37:0 38:255 39:255 40:255 41:0 42:0 43:255 44:255 45:255 46:255 47:255 48:0 49:0 50:0 51:0 52:0 53:0 54:255 55:255 56:255 57:255 58:255 59:0 60:0 61:0 62:255 63:0 64:255 65:255 66:0 67:255 68:255 69:255 70:255 71:0 72:0 73:255 74:255 75:255 76:255 77:255 78:0 79:0 80:255 81:255 82:255 83:255 84:0 85:255 86:255 87:255 88:255 89:255 90:0 91:255 92:255 93:255 94:255 95:255 96:255 97:0 98:0 99:0 100:0 101:0 102:0 103:0 104:0 105:0 106:255 107:0 108:0 109:0 110:0 111:0 112:0 113:0 114:0 115:0 116:255 117:255 118:255 119:0 120:0 121:255 122:255 123:255 124:255 125:255 126:0 127:0 128:255 129:255 130:255 131:0 132:0 133:255 134:255 135:0 136:255 137:255 138:255 139:255 140:255 141:255 142:255 143:255 144:255 145:255 146:255 147:255 148:255 149:255 150:255 151:255 152:255 153:255 154:255 155:255 156:0 157:255 158:255 159:255 160:255 161:255 162:0 163:0 164:255 165:255 166:255 167:255 168:0 169:255 170:255 171:0 172:255 173:255 174:255 175:255 176:255 177:255 178:255 179:255 180:0 181:255 182:255 183:255 184:255 185:255 186:255 187:255 188:0 189:0 190:0 191:255 192:255 193:0 194:255 195:255 196:255 197:0 198:0 199:255 200:255 201:255 202:0 203:255 204:0 205:0 206:0 207:255 208:0 209:0 210:0 211:255 212:0 213:255 214:0 215:255 216:0 217:0 218:255 219:255 220:255 221:255 222:0 223:0 224:0 225:255 226:0 227:0 228:0 229:255 230:255 231:255 232:255 233:255 234:0 235:0 236:255 237:255 238:0 239:0 240:0 241:0 242:0 243:255 244:255 245:0 246:0 247:255 248:255 249:255 250:255 251:255 252:0 253:0 254:0 255:255 256:0 257:0 258:255 259:255 260:255 261:0 262:0 263:255 264:255 265:0 266:0 267:255 268:0 269:0 270:255 271:255 272:0 273:0 274:0 275:0 276:0 277:0 278:0 279:0 280:0 281:0 282:0 283:0 284:0 285:0 286:0 287:0 288:0 
-3.312964788652789e-015 1:0 2:0 3:0 4:0 5:0 6:0 7:0 8:0 9:0 10:0 11:0 12:0 13:0 14:0 15:0 16:0 17:0 18:0 19:0 20:0 21:0 22:0 23:0 24:0 25:0 26:0 27:0 28:0 29:0 30:0 31:0 32:0 33:0 34:0 35:0 36:0 37:0 38:0 39:0 40:0 41:255 42:255 43:0 44:255 45:255 46:255 47:0 48:0 49:0 50:0 51:0 52:0 53:255 54:255 55:255 56:255 57:255 58:255 59:255 60:255 61:0 62:0 63:0 64:0 65:255 66:255 67:255 68:255 69:255 70:255 71:255 72:255 73:0 74:0 75:0 76:255 77:255 78:255 79:255 80:255 81:255 82:255 83:255 84:0 85:0 86:0 87:0 88:255 89:255 90:255 91:255 92:255 93:255 94:255 95:255 96:255 97:0 98:0 99:0 100:255 101:255 102:255 103:255 104:255 105:255 106:255 107:255 108:255 109:0 110:0 111:0 112:255 113:255 114:255 115:255 116:255 117:255 118:255 119:255 120:0 121:0 122:0 123:0 124:255 125:255 126:255 127:255 128:255 129:255 130:255 131:255 132:255 133:0 134:0 135:0 136:255 137:255 138:255 139:255 140:255 141:255 142:255 143:255 144:255 145:0 146:0 147:255 148:255 149:255 150:255 151:255 152:255 153:255 154:255 155:255 156:255 157:0 158:0 159:0 160:255 161:255 162:255 163:255 164:255 165:255 166:255 167:255 168:255 169:0 170:0 171:255 172:255 173:255 174:255 175:255 176:255 177:255 178:255 179:255 180:255 181:0 182:0 183:0 184:0 185:255 186:255 187:0 188:255 189:255 190:255 191:255 192:255 193:0 194:0 195:0 196:255 197:255 198:255 199:255 200:255 201:255 202:255 203:0 204:0 205:0 206:0 207:0 208:0 209:255 210:255 211:0 212:0 213:255 214:255 215:0 216:0 217:0 218:0 219:0 220:0 221:255 222:255 223:0 224:255 225:255 226:0 227:255 228:0 229:0 230:0 231:0 232:0 233:255 234:0 235:0 236:0 237:0 238:0 239:0 240:0 241:0 242:0 243:0 244:0 245:0 246:0 247:0 248:0 249:0 250:0 251:0 252:0 253:0 254:0 255:0 256:0 257:0 258:0 259:0 260:0 261:0 262:0 263:0 264:0 265:0 266:0 267:0 268:0 269:0 270:0 271:0 272:0 273:0 274:0 275:0 276:0 277:0 278:0 279:0 280:0 281:0 282:0 283:0 284:0 285:0 286:0 287:0 288:0 
-1.718336216368647e-016 1:0 2:255 3:255 4:255 5:255 6:255 7:255 8:255 9:255 10:255 11:255 12:255 13:0 14:255 15:255 16:255 17:255 18:255 19:255 20:255 21:0 22:0 23:0 24:0 25:0 26:255 27:255 28:255 29:0 30:0 31:0 32:0 33:0 34:0 35:0 36:0 37:255 38:255 39:255 40:0 41:0 42:0 43:0 44:0 45:0 46:0 47:0 48:0 49:255 50:255 51:255 52:0 53:0 54:0 55:0 56:0 57:0 58:0 59:0 60:0 61:255 62:255 63:255 64:0 65:0 66:255 67:255 68:0 69:0 70:255 71:255 72:255 73:255 74:255 75:255 76:0 77:0 78:255 79:255 80:0 81:0 82:255 83:0 84:255 85:255 86:255 87:255 88:0 89:0 90:0 91:0 92:0 93:255 94:255 95:0 96:255 97:255 98:255 99:255 100:0 101:255 102:0 103:0 104:0 105:0 106:255 107:255 108:255 109:255 110:255 111:255 112:0 113:255 114:255 115:255 116:0 117:0 118:255 119:255 120:255 121:255 122:255 123:255 124:0 125:0 126:0 127:0 128:0 129:0 130:0 131:0 132:0 133:255 134:255 135:255 136:0 137:0 138:0 139:0 140:0 141:0 142:255 143:255 144:0 145:255 146:255 147:255 148:0 149:255 150:255 151:255 152:0 153:0 154:0 155:255 156:0 157:255 158:255 159:255 160:255 161:255 162:0 163:255 164:0 165:255 166:255 167:255 168:255 169:255 170:255 171:0 172:255 173:255 174:255 175:255 176:0 177:0 178:0 179:0 180:0 181:255 182:255 183:0 184:255 185:0 186:255 187:255 188:0 189:255 190:255 191:255 192:255 193:255 194:255 195:0 196:255 197:255 198:255 199:255 200:0 201:0 202:0 203:0 204:255 205:255 206:255 207:0 208:0 209:255 210:0 211:0 212:0 213:0 214:255 215:0 216:255 217:255 218:255 219:0 220:0 221:255 222:0 223:0 224:0 225:0 226:255 227:0 228:0 229:255 230:255 231:255 232:255 233:255 234:255 235:255 236:0 237:0 238:255 239:0 240:0 241:255 242:255 243:0 244:0 245:255 246:0 247:0 248:0 249:255 250:0 251:255 252:0 253:255 254:255 255:0 256:0 257:255 258:0 259:0 260:255 261:0 262:0 263:255 264:255 265:255 266:255 267:0 268:0 269:255 270:0 271:255 272:0 273:0 274:0 275:0 276:0 277:255 278:255 279:255 280:255 281:255 282:255 283:255 284:255 285:255 286:255 287:255 288:255 
-1.326016593032029e-015 1:0 2:0 3:0 4:0 5:0 6:0 7:0 8:0 9:0 10:0 11:0 12:0 13:0 14:0 15:255 16:255 17:0 18:0 19:255 20:255 21:255 22:0 23:0 24:0 25:0 26:255 27:255 28:255 29:0 30:0 31:255 32:255 33:255 34:255 35:255 36:255 37:0 38:0 39:0 40:0 41:0 42:0 43:255 44:255 45:0 46:255 47:255 48:0 49:0 50:255 51:0 52:255 53:255 54:255 55:255 56:255 57:255 58:255 59:0 60:0 61:0 62:255 63:0 64:255 65:0 66:0 67:255 68:255 69:255 70:255 71:0 72:0 73:255 74:255 75:255 76:255 77:255 78:0 79:255 80:255 81:255 82:255 83:255 84:0 85:0 86:0 87:0 88:0 89:0 90:0 91:255 92:0 93:0 94:255 95:255 96:0 97:0 98:0 99:0 100:0 101:0 102:0 103:0 104:255 105:255 106:0 107:0 108:0 109:255 110:255 111:255 112:255 113:0 114:0 115:0 116:255 117:255 118:0 119:0 120:0 121:255 122:255 123:255 124:255 125:0 126:0 127:0 128:255 129:255 130:0 131:0 132:0 133:255 134:255 135:0 136:255 137:255 138:255 139:255 140:255 141:255 142:255 143:255 144:0 145:255 146:255 147:255 148:255 149:255 150:0 151:0 152:0 153:0 154:0 155:0 156:0 157:255 158:255 159:255 160:255 161:0 162:0 163:255 164:255 165:255 166:255 167:0 168:0 169:255 170:255 171:255 172:255 173:255 174:255 175:255 176:255 177:255 178:255 179:255 180:0 181:255 182:255 183:255 184:255 185:0 186:255 187:0 188:0 189:0 190:255 191:255 192:0 193:0 194:255 195:255 196:0 197:0 198:255 199:0 200:255 201:0 202:255 203:255 204:0 205:0 206:255 207:255 208:0 209:0 210:255 211:0 212:255 213:0 214:255 215:0 216:0 217:255 218:255 219:255 220:255 221:0 222:0 223:0 224:255 225:0 226:0 227:0 228:0 229:255 230:255 231:255 232:255 233:0 234:0 235:255 236:255 237:0 238:0 239:0 240:0 241:0 242:255 243:0 244:0 245:0 246:255 247:255 248:0 249:255 250:255 251:0 252:0 253:0 254:255 255:0 256:0 257:255 258:255 259:0 260:0 261:0 262:255 263:0 264:0 265:0 266:255 267:0 268:0 269:255 270:0 271:0 272:0 273:0 274:255 275:0 276:0 277:0 278:0 279:0 280:0 281:0 282:0 283:0 284:0 285:0 286:0 287:0 288:0 
-1.270204781921887e-016 1:0 2:0 3:0 4:0 5:0 6:0 7:0 8:0 9:0 10:0 11:0 12:0 13:0 14:0 15:0 16:0 17:0 18:0 19:0 20:0 21:0 22:0 23:0 24:0 25:0 26:0 27:255 28:255 29:0 30:0 31:255 32:255 33:0 34:0 35:0 36:0 37:255 38:255 39:255 40:255 41:255 42:0 43:255 44:255 45:255 46:255 47:255 48:255 49:0 50:0 51:0 52:0 53:0 54:255 55:255 56:255 57:255 58:255 59:255 60:0 61:0 62:0 63:0 64:0 65:0 66:255 67:255 68:255 69:255 70:255 71:0 72:0 73:0 74:255 75:0 76:255 77:0 78:0 79:0 80:255 81:255 82:255 83:0 84:0 85:255 86:255 87:255 88:255 89:255 90:0 91:255 92:255 93:255 94:255 95:255 96:0 97:0 98:0 99:0 100:0 101:0 102:0 103:255 104:0 105:0 106:255 107:255 108:0 109:0 110:0 111:255 112:0 113:0 114:0 115:0 116:255 117:255 118:255 119:0 120:0 121:255 122:255 123:255 124:255 125:0 126:0 127:0 128:255 129:255 130:0 131:0 132:0 133:255 134:0 135:0 136:255 137:0 138:255 139:255 140:255 141:255 142:255 143:255 144:0 145:255 146:255 147:255 148:255 149:255 150:255 151:255 152:255 153:255 154:255 155:255 156:0 157:255 158:255 159:255 160:255 161:0 162:0 163:255 164:255 165:255 166:255 167:0 168:0 169:255 170:255 171:255 172:255 173:0 174:255 175:255 176:255 177:255 178:255 179:255 180:0 181:255 182:255 183:255 184:255 185:0 186:255 187:0 188:0 189:0 190:255 191:0 192:0 193:0 194:255 195:255 196:0 197:0 198:255 199:0 200:0 201:0 202:255 203:0 204:0 205:0 206:255 207:255 208:0 209:0 210:255 211:0 212:255 213:255 214:255 215:0 216:0 217:255 218:255 219:255 220:255 221:0 222:0 223:255 224:255 225:0 226:0 227:0 228:0 229:255 230:255 231:255 232:0 233:0 234:0 235:255 236:255 237:0 238:0 239:0 240:0 241:0 242:255 243:0 244:0 245:0 246:255 247:255 248:0 249:255 250:255 251:0 252:0 253:0 254:255 255:0 256:0 257:255 258:255 259:0 260:0 261:255 262:255 263:0 264:0 265:0 266:255 267:0 268:0 269:0 270:0 271:0 272:0 273:0 274:255 275:0 276:0 277:0 278:0 279:0 280:0 281:0 282:0 283:0 284:0 285:0 286:0 287:0 288:0 
-1.079460940123167e-015 1:0 2:255 3:0 4:0 5:0 6:0 7:0 8:0 9:0 10:0 11:0 12:0 13:0 14:255 15:0 16:0 17:0 18:0 19:0 20:0 21:0 22:0 23:0 24:0 25:0 26:255 27:0 28:0 29:0 30:0 31:0 32:0 33:0 34:0 35:0 36:0 37:0 38:255 39:0 40:0 41:0 42:255 43:0 44:0 45:0 46:255 47:0 48:0 49:0 50:255 51:0 52:0 53:255 54:255 55:255 56:255 57:255 58:255 59:255 60:255 61:0 62:255 63:0 64:0 65:255 66:255 67:255 68:255 69:255 70:255 71:255 72:255 73:0 74:255 75:0 76:0 77:0 78:0 79:255 80:255 81:255 82:255 83:255 84:255 85:0 86:255 87:0 88:0 89:255 90:255 91:255 92:255 93:255 94:255 95:255 96:255 97:0 98:0 99:0 100:255 101:255 102:255 103:255 104:255 105:255 106:255 107:255 108:255 109:0 110:0 111:0 112:255 113:255 114:255 115:255 116:255 117:255 118:255 119:255 120:255 121:0 122:0 123:0 124:0 125:255 126:255 127:255 128:0 129:255 130:255 131:255 132:255 133:255 134:0 135:0 136:0 137:255 138:255 139:0 140:0 141:255 142:255 143:255 144:255 145:255 146:0 147:0 148:255 149:255 150:255 151:255 152:0 153:255 154:255 155:255 156:0 157:255 158:0 159:0 160:255 161:255 162:255 163:255 164:255 165:255 166:255 167:255 168:255 169:255 170:0 171:0 172:255 173:255 174:255 175:255 176:255 177:255 178:255 179:255 180:255 181:0 182:0 183:255 184:255 185:255 186:255 187:255 188:255 189:255 190:255 191:255 192:255 193:0 194:0 195:255 196:255 197:255 198:255 199:255 200:255 201:255 202:255 203:255 204:255 205:0 206:0 207:255 208:255 209:255 210:255 211:255 212:255 213:255 214:0 215:255 216:255 217:0 218:0 219:0 220:255 221:255 222:255 223:255 224:255 225:255 226:255 227:255 228:255 229:0 230:0 231:0 232:255 233:255 234:0 235:255 236:255 237:255 238:255 239:255 240:0 241:0 242:0 243:0 244:255 245:255 246:255 247:0 248:255 249:255 250:255 251:0 252:0 253:0 254:0 255:255 256:255 257:255 258:255 259:0 260:255 261:255 262:0 263:0 264:0 265:0 266:0 267:0 268:255 269:255 270:0 271:0 272:255 273:255 274:255 275:0 276:0 277:0 278:0 279:0 280:255 281:0 282:0 283:255 284:255 285:0 286:0 287:255 288:0 
-1.373349169461211e-015 1:0 2:0 3:0 4:0 5:0 6:0 7:0 8:0 9:0 10:0 11:0 12:0 13:0 14:0 15:0 16:0 17:0 18:0 19:255 20:255 21:255 22:0 23:0 24:0 25:0 26:0 27:255 28:255 29:255 30:255 31:255 32:255 33:255 34:255 35:255 36:255 37:0 38:0 39:255 40:255 41:255 42:255 43:255 44:255 45:255 46:255 47:255 48:255 49:0 50:0 51:255 52:255 53:255 54:255 55:255 56:255 57:255 58:255 59:255 60:255 61:0 62:0 63:0 64:0 65:0 66:0 67:0 68:0 69:0 70:0 71:0 72:0 73:0 74:0 75:0 76:255 77:255 78:255 79:255 80:255 81:255 82:255 83:255 84:255 85:0 86:0 87:0 88:255 89:255 90:255 91:255 92:255 93:255 94:255 95:255 96:255 97:0 98:0 99:0 100:255 101:255 102:255 103:0 104:0 105:255 106:255 107:255 108:255 109:0 110:0 111:0 112:255 113:255 114:0 115:0 116:0 117:0 118:0 119:255 120:255 121:0 122:0 123:0 124:255 125:255 126:0 127:0 128:0 129:0 130:255 131:255 132:255 133:0 134:0 135:0 136:255 137:255 138:255 139:0 140:0 141:0 142:255 143:255 144:255 145:0 146:0 147:0 148:255 149:255 150:255 151:255 152:255 153:255 154:255 155:255 156:255 157:0 158:0 159:0 160:0 161:255 162:255 163:255 164:255 165:255 166:255 167:255 168:0 169:0 170:0 171:0 172:0 173:0 174:0 175:255 176:255 177:255 178:0 179:0 180:0 181:0 182:0 183:0 184:0 185:0 186:0 187:255 188:255 189:0 190:0 191:0 192:0 193:0 194:0 195:0 196:255 197:255 198:0 199:255 200:255 201:255 202:255 203:255 204:255 205:0 206:0 207:0 208:255 209:255 210:0 211:255 212:255 213:255 214:0 215:255 216:255 217:0 218:0 219:0 220:255 221:255 222:0 223:255 224:255 225:255 226:0 227:255 228:255 229:0 230:0 231:0 232:255 233:255 234:0 235:255 236:255 237:255 238:0 239:255 240:255 241:0 242:0 243:255 244:255 245:255 246:0 247:255 248:255 249:255 250:0 251:0 252:255 253:0 254:0 255:255 256:255 257:255 258:255 259:255 260:255 261:255 262:0 263:0 264:255 265:0 266:0 267:0 268:0 269:0 270:0 271:255 272:255 273:0 274:0 275:0 276:0 277:0 278:0 279:0 280:0 281:0 282:0 283:0 284:0 285:0 286:0 287:0 288:0 
-3.576207203948435e-015 1:0 2:0 3:0 4:0 5:0 6:0 7:0 8:0 9:0 10:0 11:0 12:0 13:0 14:0 15:0 16:0 17:0 18:0 19:0 20:0 21:0 22:0 23:0 24:0 25:0 26:0 27:0 28:0 29:0 30:0 31:255 32:255 33:0 34:0 35:0 36:0 37:0 38:0 39:0 40:255 41:0 42:0 43:255 44:255 45:255 46:0 47:0 48:0 49:0 50:0 51:255 52:255 53:255 54:255 55:255 56:255 57:255 58:255 59:255 60:255 61:0 62:0 63:255 64:255 65:255 66:255 67:255 68:255 69:255 70:255 71:255 72:255 73:0 74:0 75:0 76:0 77:0 78:0 79:0 80:0 81:0 82:0 83:0 84:0 85:0 86:0 87:0 88:0 89:255 90:255 91:255 92:255 93:255 94:255 95:255 96:0 97:0 98:0 99:0 100:255 101:255 102:255 103:255 104:255 105:255 106:255 107:255 108:255 109:0 110:0 111:0 112:255 113:255 114:255 115:0 116:0 117:0 118:255 119:255 120:255 121:0 122:0 123:0 124:255 125:255 126:0 127:0 128:0 129:0 130:0 131:255 132:255 133:0 134:0 135:0 136:255 137:255 138:255 139:0 140:0 141:0 142:0 143:255 144:255 145:0 146:0 147:0 148:255 149:255 150:255 151:255 152:255 153:255 154:255 155:255 156:255 157:0 158:0 159:0 160:0 161:255 162:255 163:255 164:255 165:255 166:255 167:255 168:255 169:0 170:0 171:0 172:0 173:0 174:0 175:255 176:255 177:255 178:0 179:0 180:0 181:0 182:0 183:0 184:0 185:0 186:0 187:0 188:255 189:255 190:0 191:0 192:0 193:0 194:0 195:0 196:255 197:255 198:0 199:0 200:255 201:255 202:0 203:255 204:255 205:0 206:0 207:0 208:255 209:255 210:0 211:0 212:255 213:255 214:0 215:255 216:255 217:0 218:0 219:0 220:255 221:255 222:0 223:0 224:255 225:255 226:0 227:255 228:255 229:0 230:0 231:0 232:255 233:255 234:0 235:0 236:255 237:255 238:0 239:0 240:255 241:0 242:0 243:0 244:255 245:255 246:0 247:255 248:255 249:255 250:0 251:0 252:255 253:0 254:0 255:0 256:255 257:0 258:0 259:255 260:255 261:255 262:0 263:0 264:255 265:0 266:0 267:0 268:0 269:0 270:0 271:255 272:255 273:0 274:0 275:0 276:0 277:0 278:0 279:0 280:0 281:0 282:0 283:0 284:0 285:0 286:0 287:0 288:0 
-1.296533633767133e-016 1:0 2:0 3:0 4:0 5:0 6:0 7:0 8:0 9:0 10:0 11:0 12:0 13:0 14:0 15:0 16:0 17:0 18:0 19:0 20:0 21:0 22:0 23:0 24:0 25:0 26:0 27:0 28:255 29:255 30:255 31:255 32:0 33:0 34:0 35:0 36:0 37:255 38:255 39:255 40:255 41:255 42:255 43:255 44:255 45:255 46:255 47:255 48:0 49:255 50:255 51:255 52:255 53:255 54:255 55:255 56:255 57:255 58:255 59:255 60:0 61:0 62:0 63:0 64:0 65:0 66:0 67:0 68:0 69:0 70:0 71:0 72:0 73:0 74:0 75:255 76:255 77:255 78:255 79:255 80:255 81:255 82:0 83:0 84:0 85:0 86:0 87:255 88:255 89:255 90:255 91:255 92:255 93:255 94:255 95:0 96:0 97:0 98:255 99:255 100:255 101:255 102:255 103:255 104:255 105:255 106:255 107:0 108:0 109:0 110:255 111:255 112:255 113:0 114:0 115:0 116:0 117:255 118:255 119:0 120:0 121:0 122:255 123:255 124:255 125:0 126:0 127:0 128:255 129:255 130:255 131:0 132:0 133:0 134:255 135:255 136:255 137:0 138:0 139:0 140:255 141:255 142:255 143:0 144:0 145:0 146:255 147:255 148:255 149:255 150:255 151:255 152:255 153:255 154:255 155:0 156:0 157:0 158:0 159:255 160:255 161:255 162:255 163:255 164:255 165:255 166:0 167:0 168:0 169:0 170:0 171:0 172:0 173:255 174:255 175:255 176:0 177:0 178:0 179:0 180:0 181:0 182:0 183:255 184:255 185:255 186:255 187:255 188:255 189:255 190:255 191:0 192:0 193:0 194:255 195:255 196:255 197:255 198:255 199:255 200:255 201:255 202:255 203:255 204:0 205:0 206:255 207:255 208:255 209:255 210:255 211:255 212:0 213:255 214:255 215:255 216:0 217:0 218:255 219:255 220:255 221:255 222:255 223:255 224:0 225:255 226:255 227:255 228:0 229:0 230:255 231:255 232:0 233:255 234:255 235:255 236:0 237:0 238:255 239:255 240:255 241:0 242:255 243:255 244:255 245:255 246:255 247:255 248:0 249:0 250:255 251:255 252:255 253:0 254:255 255:0 256:0 257:255 258:255 259:255 260:0 261:0 262:255 263:255 264:0 265:0 266:0 267:0 268:0 269:255 270:255 271:0 272:0 273:0 274:0 275:0 276:0 277:0 278:0 279:0 280:0 281:0 282:0 283:0 284:0 285:0 286:0 287:0 288:0 
-1.309014385264397e-015 1:0 2:0 3:0 4:0 5:0 6:0 7:0 8:0 9:0 10:0 11:0 12:0 13:0 14:0 15:0 16:0 17:255 18:255 19:255 20:0 21:0 22:0 23:0 24:0 25:0 26:0 27:0 28:255 29:255 30:255 31:255 32:255 33:0 34:0 35:0 36:0 37:255 38:255 39:255 40:255 41:255 42:255 43:255 44:255 45:255 46:255 47:255 48:0 49:0 50:255 51:255 52:255 53:0 54:255 55:255 56:255 57:255 58:255 59:255 60:0 61:0 62:0 63:0 64:0 65:0 66:0 67:0 68:0 69:0 70:0 71:0 72:0 73:0 74:0 75:255 76:255 77:255 78:255 79:255 80:255 81:255 82:255 83:0 84:0 85:0 86:255 87:255 88:255 89:255 90:255 91:255 92:255 93:255 94:255 95:0 96:0 97:0 98:255 99:255 100:255 101:0 102:0 103:0 104:0 105:255 106:255 107:255 108:0 109:0 110:255 111:255 112:255 113:0 114:0 115:0 116:0 117:255 118:255 119:255 120:0 121:0 122:0 123:255 124:255 125:0 126:0 127:0 128:255 129:255 130:255 131:255 132:0 133:0 134:0 135:255 136:255 137:255 138:255 139:255 140:255 141:255 142:255 143:255 144:0 145:0 146:0 147:255 148:255 149:255 150:255 151:255 152:255 153:255 154:255 155:0 156:0 157:0 158:0 159:0 160:255 161:255 162:255 163:255 164:255 165:255 166:255 167:0 168:0 169:0 170:0 171:255 172:0 173:0 174:255 175:255 176:0 177:0 178:0 179:0 180:0 181:0 182:0 183:255 184:255 185:0 186:255 187:255 188:255 189:255 190:255 191:255 192:0 193:0 194:255 195:255 196:255 197:0 198:255 199:255 200:255 201:255 202:255 203:255 204:0 205:0 206:255 207:255 208:255 209:0 210:255 211:255 212:0 213:0 214:255 215:255 216:255 217:0 218:255 219:255 220:0 221:0 222:255 223:255 224:0 225:0 226:255 227:255 228:255 229:0 230:255 231:255 232:0 233:0 234:255 235:255 236:0 237:0 238:0 239:255 240:255 241:0 242:0 243:0 244:0 245:255 246:255 247:255 248:0 249:0 250:0 251:255 252:255 253:0 254:0 255:0 256:0 257:0 258:255 259:255 260:0 261:0 262:0 263:0 264:0 265:0 266:0 267:0 268:0 269:0 270:0 271:0 272:0 273:0 274:0 275:0 276:0 277:0 278:0 279:0 280:0 281:0 282:0 283:0 284:0 285:0 286:0 287:0 288:0 
-1.047686401820688e-015 1:255 2:0 3:0 4:0 5:0 6:0 7:0 8:0 9:0 10:0 11:0 12:0 13:255 14:0 15:0 16:0 17:0 18:0 19:0 20:0 21:0 22:0 23:0 24:0 25:255 26:0 27:0 28:0 29:0 30:0 31:0 32:255 33:255 34:0 35:0 36:0 37:255 38:0 39:0 40:0 41:255 42:0 43:255 44:255 45:255 46:255 47:0 48:0 49:255 50:0 51:255 52:255 53:255 54:255 55:255 56:255 57:255 58:255 59:255 60:255 61:255 62:0 63:0 64:255 65:255 66:255 67:255 68:255 69:255 70:255 71:255 72:255 73:255 74:0 75:0 76:0 77:0 78:0 79:0 80:0 81:0 82:0 83:0 84:0 85:255 86:0 87:0 88:0 89:255 90:255 91:255 92:255 93:255 94:255 95:255 96:0 97:255 98:0 99:0 100:255 101:255 102:255 103:255 104:255 105:255 106:255 107:255 108:255 109:255 110:0 111:0 112:255 113:255 114:255 115:0 116:0 117:0 118:0 119:255 120:255 121:255 122:0 123:0 124:255 125:255 126:255 127:0 128:0 129:0 130:0 131:255 132:255 133:255 134:0 135:0 136:255 137:255 138:255 139:255 140:0 141:0 142:0 143:255 144:255 145:255 146:0 147:0 148:0 149:255 150:255 151:255 152:255 153:255 154:255 155:255 156:255 157:255 158:0 159:0 160:0 161:255 162:255 163:255 164:255 165:255 166:255 167:255 168:255 169:255 170:0 171:0 172:0 173:0 174:0 175:0 176:255 177:255 178:0 179:0 180:0 181:255 182:0 183:0 184:0 185:255 186:0 187:0 188:255 189:255 190:0 191:255 192:255 193:255 194:0 195:0 196:0 197:255 198:255 199:0 200:255 201:255 202:0 203:255 204:255 205:255 206:0 207:0 208:255 209:255 210:255 211:0 212:255 213:255 214:0 215:255 216:255 217:255 218:0 219:0 220:255 221:255 222:0 223:0 224:255 225:255 226:0 227:0 228:255 229:0 230:0 231:0 232:255 233:255 234:0 235:0 236:255 237:255 238:0 239:0 240:255 241:0 242:0 243:0 244:255 245:255 246:0 247:255 248:255 249:255 250:0 251:0 252:255 253:0 254:0 255:0 256:0 257:0 258:0 259:255 260:255 261:255 262:0 263:0 264:0 265:0 266:0 267:0 268:0 269:0 270:0 271:0 272:0 273:0 274:0 275:0 276:0 277:0 278:0 279:0 280:0 281:0 282:0 283:0 284:0 285:0 286:0 287:0 288:0 
-9.245104458171306e-016 1:0 2:0 3:0 4:0 5:0 6:0 7:0 8:0 9:0 10:0 11:0 12:0 13:0 14:0 15:0 16:0 17:0 18:0 19:255 20:255 21:0 22:0 23:0 24:0 25:0 26:0 27:0 28:0 29:0 30:255 31:255 32:255 33:0 34:0 35:0 36:0 37:0 38:255 39:255 40:255 41:255 42:255 43:255 44:255 45:255 46:255 47:255 48:255 49:0 50:255 51:255 52:255 53:255 54:255 55:255 56:255 57:255 58:255 59:255 60:255 61:0 62:0 63:0 64:0 65:0 66:0 67:0 68:0 69:0 70:0 71:0 72:0 73:0 74:0 75:0 76:0 77:0 78:0 79:0 80:0 81:0 82:0 83:0 84:0 85:0 86:0 87:255 88:255 89:255 90:255 91:255 92:255 93:255 94:255 95:255 96:0 97:0 98:0 99:255 100:255 101:255 102:255 103:255 104:255 105:255 106:255 107:255 108:0 109:0 110:0 111:255 112:255 113:0 114:0 115:0 116:0 117:0 118:255 119:255 120:0 121:0 122:0 123:255 124:255 125:0 126:0 127:0 128:0 129:0 130:255 131:255 132:0 133:0 134:0 135:255 136:255 137:0 138:0 139:0 140:0 141:0 142:255 143:255 144:0 145:0 146:0 147:255 148:255 149:255 150:255 151:255 152:255 153:255 154:255 155:255 156:0 157:0 158:0 159:255 160:255 161:255 162:255 163:255 164:255 165:255 166:255 167:255 168:0 169:0 170:0 171:0 172:0 173:0 174:255 175:255 176:0 177:0 178:0 179:0 180:0 181:0 182:255 183:255 184:0 185:0 186:255 187:255 188:0 189:0 190:255 191:0 192:0 193:0 194:255 195:255 196:255 197:0 198:255 199:255 200:0 201:0 202:255 203:255 204:0 205:0 206:255 207:255 208:255 209:0 210:255 211:255 212:0 213:0 214:255 215:255 216:0 217:0 218:255 219:255 220:0 221:0 222:255 223:255 224:0 225:0 226:255 227:255 228:0 229:0 230:255 231:255 232:0 233:0 234:255 235:255 236:0 237:0 238:0 239:255 240:255 241:0 242:255 243:255 244:0 245:0 246:255 247:255 248:0 249:0 250:0 251:255 252:255 253:0 254:255 255:0 256:0 257:255 258:255 259:255 260:0 261:0 262:0 263:0 264:255 265:0 266:0 267:0 268:0 269:255 270:255 271:0 272:0 273:0 274:0 275:0 276:0 277:0 278:0 279:0 280:0 281:0 282:0 283:0 284:0 285:0 286:0 287:0 288:0 
-2.492079443352695e-015 1:0 2:0 3:0 4:0 5:0 6:0 7:0 8:0 9:0 10:0 11:0 12:0 13:0 14:0 15:0 16:0 17:0 18:0 19:0 20:0 21:0 22:0 23:0 24:0 25:0 26:0 27:0 28:0 29:255 30:255 31:0 32:0 33:0 34:0 35:0 36:0 37:0 38:0 39:0 40:255 41:255 42:255 43:255 44:255 45:255 46:255 47:0 48:0 49:255 50:255 51:255 52:255 53:255 54:255 55:255 56:255 57:255 58:255 59:255 60:0 61:255 62:255 63:255 64:255 65:255 66:255 67:255 68:255 69:255 70:255 71:0 72:0 73:0 74:0 75:0 76:0 77:0 78:0 79:0 80:0 81:0 82:0 83:0 84:0 85:0 86:0 87:0 88:0 89:0 90:0 91:0 92:0 93:0 94:0 95:0 96:0 97:0 98:255 99:255 100:255 101:255 102:255 103:255 104:255 105:255 106:255 107:0 108:0 109:0 110:255 111:255 112:255 113:255 114:255 115:255 116:255 117:255 118:255 119:0 120:0 121:0 122:255 123:255 124:0 125:0 126:0 127:0 128:255 129:255 130:255 131:0 132:0 133:0 134:255 135:255 136:0 137:0 138:0 139:0 140:0 141:255 142:255 143:0 144:0 145:0 146:255 147:255 148:0 149:0 150:0 151:0 152:255 153:255 154:255 155:0 156:0 157:0 158:255 159:255 160:255 161:0 162:0 163:255 164:255 165:255 166:255 167:0 168:0 169:0 170:255 171:255 172:255 173:255 174:255 175:255 176:255 177:255 178:255 179:0 180:0 181:0 182:0 183:255 184:255 185:255 186:255 187:255 188:255 189:255 190:0 191:0 192:0 193:0 194:0 195:0 196:0 197:255 198:255 199:255 200:0 201:0 202:0 203:0 204:0 205:0 206:0 207:255 208:0 209:255 210:255 211:0 212:255 213:255 214:0 215:0 216:0 217:0 218:255 219:255 220:0 221:255 222:255 223:0 224:255 225:255 226:255 227:0 228:0 229:0 230:255 231:255 232:0 233:255 234:255 235:0 236:0 237:255 238:255 239:0 240:0 241:0 242:255 243:255 244:0 245:255 246:255 247:255 248:0 249:255 250:255 251:0 252:0 253:0 254:255 255:255 256:0 257:255 258:255 259:255 260:0 261:0 262:255 263:255 264:0 265:0 266:255 267:255 268:0 269:255 270:255 271:0 272:0 273:0 274:255 275:255 276:0 277:255 278:255 279:0 280:0 281:255 282:255 283:255 284:0 285:0 286:255 287:255 288:0 
-9.468810427506512e-016 1:0 2:0 3:0 4:0 5:0 6:0 7:0 8:0 9:0 10:0 11:0 12:0 13:0 14:0 15:0 16:0 17:0 18:0 19:0 20:0 21:0 22:0 23:0 24:0 25:0 26:0 27:0 28:0 29:0 30:0 31:0 32:255 33:0 34:0 35:0 36:0 37:0 38:255 39:255 40:255 41:0 42:0 43:0 44:255 45:255 46:0 47:0 48:0 49:0 50:0 51:255 52:255 53:0 54:0 55:0 56:255 57:255 58:0 59:0 60:0 61:0 62:0 63:0 64:0 65:0 66:0 67:0 68:0 69:0 70:0 71:0 72:0 73:0 74:0 75:0 76:0 77:0 78:255 79:255 80:255 81:255 82:255 83:255 84:255 85:0 86:255 87:0 88:0 89:255 90:255 91:255 92:255 93:0 94:255 95:255 96:255 97:0 98:255 99:255 100:255 101:255 102:255 103:255 104:0 105:0 106:0 107:255 108:255 109:0 110:255 111:255 112:255 113:255 114:255 115:255 116:0 117:0 118:0 119:255 120:255 121:0 122:0 123:0 124:0 125:0 126:255 127:255 128:0 129:0 130:0 131:255 132:255 133:0 134:0 135:0 136:0 137:255 138:255 139:255 140:0 141:0 142:255 143:255 144:255 145:0 146:0 147:255 148:255 149:255 150:255 151:255 152:255 153:255 154:255 155:255 156:255 157:0 158:255 159:255 160:0 161:255 162:255 163:255 164:255 165:255 166:255 167:255 168:0 169:0 170:255 171:255 172:0 173:255 174:255 175:0 176:0 177:0 178:0 179:0 180:0 181:0 182:255 183:255 184:0 185:255 186:255 187:0 188:0 189:0 190:0 191:0 192:0 193:255 194:255 195:255 196:0 197:255 198:255 199:0 200:0 201:0 202:0 203:0 204:0 205:255 206:255 207:0 208:0 209:255 210:255 211:0 212:0 213:0 214:0 215:0 216:0 217:255 218:255 219:0 220:0 221:255 222:255 223:0 224:0 225:0 226:0 227:0 228:0 229:255 230:255 231:0 232:0 233:255 234:255 235:0 236:0 237:0 238:0 239:0 240:0 241:255 242:255 243:0 244:255 245:255 246:0 247:0 248:0 249:0 250:0 251:0 252:0 253:255 254:0 255:0 256:255 257:255 258:0 259:0 260:0 261:0 262:0 263:0 264:0 265:0 266:0 267:0 268:0 269:0 270:0 271:0 272:0 273:0 274:0 275:0 276:0 277:0 278:0 279:0 280:0 281:0 282:0 283:0 284:0 285:0 286:0 287:0 288:0 
-2.130923162814943e-015 1:0 2:0 3:0 4:0 5:0 6:0 7:0 8:0 9:0 10:0 11:0 12:0 13:0 14:0 15:255 16:255 17:0 18:0 19:0 20:255 21:255 22:0 23:0 24:0 25:0 26:0 27:255 28:255 29:0 30:0 31:0 32:255 33:255 34:0 35:0 36:0 37:0 38:0 39:0 40:0 41:0 42:0 43:0 44:0 45:255 46:0 47:0 48:0 49:0 50:0 51:0 52:0 53:0 54:0 55:0 56:0 57:0 58:0 59:0 60:0 61:0 62:0 63:0 64:0 65:0 66:255 67:255 68:255 69:255 70:255 71:255 72:0 73:0 74:255 75:255 76:0 77:0 78:255 79:255 80:255 81:255 82:255 83:255 84:255 85:0 86:255 87:255 88:255 89:0 90:255 91:255 92:0 93:0 94:0 95:255 96:255 97:0 98:0 99:255 100:0 101:0 102:255 103:255 104:0 105:0 106:0 107:255 108:0 109:0 110:0 111:0 112:0 113:0 114:255 115:255 116:0 117:0 118:0 119:255 120:0 121:0 122:0 123:0 124:0 125:0 126:255 127:255 128:0 129:0 130:0 131:255 132:0 133:0 134:255 135:255 136:255 137:255 138:255 139:255 140:255 141:255 142:255 143:255 144:0 145:0 146:255 147:255 148:255 149:255 150:255 151:255 152:255 153:255 154:255 155:255 156:0 157:0 158:255 159:255 160:0 161:255 162:255 163:255 164:0 165:0 166:255 167:255 168:0 169:255 170:255 171:255 172:0 173:255 174:255 175:0 176:0 177:0 178:0 179:0 180:0 181:255 182:255 183:255 184:0 185:255 186:255 187:0 188:0 189:0 190:0 191:0 192:0 193:255 194:255 195:255 196:0 197:255 198:255 199:0 200:0 201:0 202:0 203:0 204:0 205:255 206:255 207:255 208:0 209:255 210:255 211:0 212:0 213:0 214:0 215:0 216:0 217:255 218:255 219:0 220:0 221:255 222:255 223:0 224:0 225:0 226:0 227:0 228:0 229:255 230:255 231:0 232:255 233:255 234:255 235:0 236:0 237:0 238:0 239:0 240:0 241:255 242:255 243:0 244:255 245:255 246:0 247:0 248:0 249:0 250:0 251:0 252:0 253:255 254:255 255:255 256:255 257:255 258:0 259:0 260:0 261:0 262:0 263:0 264:0 265:0 266:0 267:0 268:255 269:0 270:0 271:0 272:0 273:0 274:0 275:0 276:0 277:0 278:0 279:0 280:0 281:0 282:0 283:0 284:0 285:0 286:0 287:0 288:0 
-3.825520186000061e-018 1:0 2:0 3:0 4:0 5:0 6:0 7:0 8:0 9:0 10:0 11:0 12:0 13:0 14:0 15:0 16:0 17:0 18:0 19:0 20:0 21:0 22:0 23:0 24:0 25:0 26:0 27:255 28:0 29:0 30:0 31:0 32:255 33:255 34:0 35:0 36:0 37:0 38:0 39:255 40:255 41:0 42:0 43:0 44:255 45:255 46:0 47:0 48:0 49:0 50:0 51:255 52:255 53:0 54:0 55:0 56:255 57:255 58:0 59:0 60:0 61:0 62:0 63:0 64:0 65:0 66:0 67:0 68:255 69:255 70:255 71:0 72:0 73:0 74:0 75:0 76:0 77:0 78:255 79:255 80:255 81:255 82:255 83:255 84:255 85:0 86:0 87:0 88:0 89:0 90:255 91:255 92:255 93:255 94:255 95:255 96:255 97:0 98:255 99:255 100:0 101:0 102:255 103:255 104:0 105:0 106:0 107:255 108:255 109:0 110:255 111:255 112:255 113:0 114:255 115:255 116:0 117:0 118:0 119:255 120:255 121:0 122:0 123:255 124:0 125:0 126:255 127:255 128:0 129:0 130:0 131:255 132:255 133:0 134:0 135:0 136:0 137:0 138:255 139:255 140:0 141:0 142:0 143:255 144:255 145:0 146:0 147:0 148:0 149:0 150:255 151:255 152:255 153:255 154:255 155:255 156:255 157:0 158:0 159:255 160:0 161:255 162:255 163:255 164:255 165:255 166:255 167:255 168:255 169:0 170:0 171:255 172:255 173:255 174:255 175:255 176:255 177:255 178:255 179:255 180:255 181:0 182:255 183:255 184:255 185:255 186:255 187:255 188:0 189:0 190:0 191:255 192:0 193:0 194:255 195:255 196:0 197:255 198:255 199:255 200:0 201:0 202:0 203:0 204:0 205:0 206:255 207:255 208:0 209:255 210:255 211:0 212:0 213:0 214:0 215:0 216:0 217:0 218:255 219:255 220:0 221:255 222:255 223:0 224:0 225:0 226:0 227:0 228:0 229:255 230:255 231:255 232:0 233:255 234:255 235:0 236:0 237:0 238:0 239:0 240:0 241:255 242:255 243:0 244:0 245:255 246:255 247:0 248:0 249:0 250:0 251:0 252:0 253:255 254:255 255:0 256:255 257:255 258:255 259:0 260:0 261:0 262:0 263:0 264:0 265:255 266:255 267:0 268:255 269:255 270:0 271:0 272:0 273:0 274:0 275:0 276:0 277:255 278:255 279:255 280:255 281:255 282:0 283:0 284:0 285:0 286:255 287:0 288:0 
-3.805339110265781e-016 1:0 2:0 3:0 4:0 5:0 6:0 7:0 8:0 9:0 10:0 11:0 12:0 13:0 14:0 15:255 16:255 17:0 18:0 19:0 20:255 21:255 22:0 23:0 24:0 25:0 26:0 27:255 28:255 29:255 30:0 31:0 32:255 33:255 34:255 35:0 36:0 37:0 38:0 39:0 40:255 41:0 42:0 43:0 44:0 45:255 46:0 47:0 48:0 49:0 50:0 51:0 52:0 53:0 54:0 55:0 56:0 57:255 58:0 59:0 60:0 61:0 62:0 63:0 64:0 65:0 66:255 67:255 68:255 69:255 70:255 71:255 72:255 73:0 74:0 75:255 76:0 77:0 78:255 79:255 80:255 81:255 82:255 83:255 84:255 85:0 86:255 87:255 88:255 89:255 90:255 91:255 92:255 93:0 94:255 95:255 96:255 97:0 98:0 99:255 100:255 101:255 102:255 103:255 104:0 105:0 106:0 107:255 108:255 109:0 110:0 111:0 112:0 113:255 114:255 115:255 116:0 117:0 118:0 119:255 120:255 121:0 122:0 123:0 124:0 125:255 126:255 127:255 128:0 129:0 130:0 131:255 132:255 133:0 134:0 135:255 136:0 137:255 138:255 139:255 140:255 141:0 142:255 143:255 144:255 145:0 146:0 147:255 148:255 149:255 150:255 151:255 152:255 153:255 154:255 155:255 156:255 157:0 158:0 159:255 160:255 161:255 162:255 163:255 164:255 165:255 166:255 167:255 168:255 169:0 170:0 171:255 172:255 173:255 174:255 175:255 176:255 177:0 178:255 179:255 180:255 181:0 182:0 183:255 184:255 185:255 186:255 187:255 188:0 189:0 190:0 191:0 192:0 193:0 194:255 195:255 196:255 197:255 198:255 199:255 200:0 201:0 202:0 203:0 204:0 205:0 206:255 207:255 208:255 209:255 210:255 211:255 212:0 213:0 214:0 215:0 216:0 217:0 218:255 219:255 220:255 221:255 222:255 223:255 224:0 225:0 226:0 227:0 228:0 229:0 230:255 231:255 232:0 233:255 234:255 235:255 236:0 237:0 238:0 239:0 240:0 241:0 242:255 243:255 244:0 245:255 246:255 247:255 248:0 249:0 250:0 251:0 252:0 253:0 254:255 255:255 256:0 257:255 258:255 259:0 260:0 261:0 262:0 263:0 264:0 265:0 266:255 267:255 268:0 269:255 270:255 271:0 272:0 273:0 274:0 275:0 276:0 277:0 278:255 279:0 280:0 281:255 282:255 283:0 284:0 285:0 286:0 287:0 288:0 
-2.147639548241801e-015 1:0 2:0 3:0 4:0 5:0 6:0 7:0 8:0 9:0 10:0 11:0 12:0 13:0 14:0 15:0 16:0 17:0 18:0 19:0 20:0 21:0 22:0 23:0 24:0 25:0 26:0 27:255 28:0 29:0 30:0 31:0 32:255 33:255 34:0 35:0 36:0 37:0 38:0 39:255 40:255 41:0 42:0 43:0 44:255 45:255 46:0 47:0 48:0 49:0 50:0 51:255 52:255 53:0 54:0 55:0 56:255 57:255 58:0 59:0 60:0 61:0 62:0 63:0 64:0 65:0 66:0 67:255 68:255 69:255 70:255 71:255 72:0 73:0 74:0 75:0 76:0 77:0 78:255 79:255 80:255 81:255 82:255 83:255 84:255 85:0 86:255 87:0 88:0 89:0 90:255 91:255 92:255 93:255 94:255 95:255 96:255 97:0 98:255 99:255 100:0 101:0 102:255 103:255 104:0 105:0 106:0 107:255 108:255 109:0 110:255 111:255 112:255 113:0 114:255 115:255 116:0 117:0 118:0 119:255 120:0 121:0 122:0 123:0 124:0 125:0 126:255 127:255 128:0 129:0 130:0 131:255 132:0 133:0 134:0 135:0 136:0 137:0 138:255 139:255 140:0 141:0 142:255 143:255 144:0 145:0 146:0 147:0 148:0 149:0 150:255 151:255 152:255 153:255 154:255 155:255 156:0 157:0 158:0 159:255 160:0 161:255 162:255 163:255 164:255 165:255 166:255 167:255 168:0 169:0 170:255 171:255 172:255 173:255 174:255 175:255 176:255 177:255 178:255 179:255 180:0 181:0 182:255 183:255 184:0 185:255 186:255 187:0 188:0 189:0 190:0 191:0 192:0 193:0 194:255 195:255 196:0 197:255 198:255 199:0 200:0 201:0 202:0 203:0 204:0 205:0 206:255 207:255 208:0 209:255 210:255 211:0 212:0 213:0 214:0 215:0 216:0 217:0 218:255 219:255 220:0 221:255 222:255 223:0 224:0 225:0 226:0 227:0 228:0 229:255 230:255 231:0 232:0 233:255 234:255 235:0 236:0 237:0 238:0 239:0 240:0 241:255 242:255 243:0 244:0 245:255 246:255 247:0 248:0 249:0 250:0 251:0 252:0 253:255 254:255 255:0 256:255 257:255 258:0 259:0 260:0 261:0 262:0 263:0 264:0 265:255 266:255 267:0 268:255 269:255 270:0 271:0 272:0 273:0 274:0 275:0 276:0 277:255 278:0 279:255 280:255 281:255 282:0 283:0 284:0 285:0 286:0 287:0 288:0 
-2.403708701574185e-015 1:0 2:0 3:0 4:0 5:0 6:0 7:0 8:0 9:0 10:0 11:0 12:0 13:0 14:0 15:255 16:255 17:0 18:0 19:0 20:255 21:255 22:0 23:0 24:0 25:0 26:0 27:255 28:255 29:0 30:0 31:0 32:255 33:255 34:0 35:0 36:0 37:0 38:0 39:0 40:255 41:0 42:0 43:0 44:0 45:255 46:0 47:0 48:0 49:0 50:0 51:0 52:0 53:0 54:0 55:0 56:0 57:0 58:0 59:0 60:0 61:0 62:0 63:0 64:0 65:0 66:255 67:255 68:255 69:255 70:255 71:255 72:255 73:0 74:255 75:255 76:0 77:0 78:255 79:255 80:255 81:255 82:255 83:255 84:255 85:0 86:255 87:255 88:255 89:0 90:255 91:255 92:0 93:0 94:0 95:255 96:255 97:0 98:0 99:255 100:0 101:0 102:255 103:255 104:0 105:0 106:0 107:255 108:255 109:0 110:0 111:0 112:0 113:0 114:255 115:255 116:0 117:0 118:0 119:255 120:255 121:0 122:0 123:0 124:0 125:0 126:255 127:255 128:255 129:0 130:255 131:255 132:255 133:0 134:0 135:255 136:255 137:255 138:255 139:255 140:255 141:255 142:255 143:255 144:255 145:0 146:0 147:255 148:255 149:0 150:255 151:255 152:255 153:255 154:255 155:255 156:255 157:0 158:0 159:255 160:255 161:0 162:255 163:255 164:0 165:0 166:0 167:0 168:0 169:0 170:0 171:255 172:255 173:0 174:255 175:255 176:0 177:0 178:0 179:0 180:0 181:0 182:255 183:255 184:0 185:0 186:255 187:255 188:0 189:0 190:0 191:0 192:0 193:0 194:255 195:255 196:0 197:0 198:255 199:255 200:0 201:0 202:0 203:0 204:0 205:0 206:255 207:255 208:0 209:0 210:255 211:255 212:0 213:0 214:0 215:0 216:0 217:0 218:255 219:255 220:0 221:255 222:255 223:0 224:0 225:0 226:0 227:0 228:0 229:255 230:255 231:0 232:0 233:255 234:255 235:0 236:0 237:0 238:0 239:0 240:0 241:255 242:255 243:0 244:0 245:255 246:255 247:0 248:0 249:0 250:0 251:0 252:0 253:255 254:255 255:0 256:255 257:255 258:0 259:0 260:0 261:0 262:0 263:0 264:0 265:0 266:0 267:0 268:255 269:255 270:0 271:0 272:0 273:0 274:0 275:0 276:255 277:0 278:0 279:0 280:0 281:0 282:0 283:0 284:0 285:0 286:0 287:0 288:0 
-3.102670448073492e-016 1:0 2:0 3:0 4:0 5:0 6:0 7:0 8:0 9:0 10:0 11:0 12:0 13:0 14:0 15:0 16:0 17:0 18:0 19:0 20:0 21:0 22:0 23:0 24:0 25:0 26:0 27:0 28:0 29:255 30:255 31:0 32:0 33:0 34:255 35:255 36:0 37:0 38:0 39:0 40:0 41:255 42:255 43:0 44:0 45:255 46:255 47:255 48:0 49:255 50:255 51:0 52:0 53:255 54:255 55:0 56:255 57:255 58:0 59:0 60:0 61:0 62:0 63:0 64:0 65:255 66:255 67:0 68:255 69:255 70:0 71:0 72:0 73:0 74:0 75:0 76:255 77:255 78:255 79:255 80:255 81:255 82:0 83:0 84:0 85:0 86:0 87:255 88:255 89:255 90:255 91:255 92:255 93:255 94:255 95:255 96:255 97:255 98:0 99:0 100:255 101:255 102:255 103:0 104:255 105:255 106:255 107:255 108:255 109:255 110:255 111:0 112:0 113:255 114:0 115:0 116:255 117:255 118:255 119:255 120:0 121:0 122:0 123:0 124:0 125:255 126:255 127:0 128:255 129:255 130:255 131:255 132:0 133:0 134:0 135:0 136:0 137:255 138:255 139:255 140:255 141:255 142:255 143:255 144:0 145:0 146:0 147:0 148:0 149:255 150:255 151:255 152:255 153:255 154:255 155:255 156:0 157:255 158:255 159:255 160:255 161:255 162:255 163:0 164:255 165:255 166:255 167:255 168:0 169:255 170:255 171:255 172:255 173:255 174:0 175:0 176:255 177:255 178:255 179:255 180:0 181:255 182:255 183:255 184:255 185:255 186:0 187:0 188:255 189:255 190:255 191:255 192:0 193:255 194:255 195:0 196:255 197:255 198:0 199:0 200:255 201:255 202:255 203:255 204:0 205:255 206:0 207:0 208:255 209:255 210:0 211:0 212:255 213:255 214:255 215:255 216:0 217:255 218:0 219:0 220:255 221:255 222:0 223:255 224:255 225:255 226:255 227:255 228:0 229:255 230:0 231:0 232:255 233:255 234:0 235:255 236:255 237:255 238:255 239:255 240:0 241:255 242:0 243:0 244:255 245:255 246:0 247:255 248:255 249:0 250:255 251:255 252:0 253:255 254:0 255:0 256:255 257:255 258:255 259:255 260:255 261:0 262:255 263:255 264:0 265:255 266:0 267:255 268:255 269:255 270:255 271:255 272:255 273:255 274:255 275:255 276:0 277:255 278:255 279:255 280:255 281:255 282:255 283:255 284:255 285:255 286:255 287:255 288:0 
-1.579760717856967e-016 1:0 2:0 3:0 4:0 5:0 6:0 7:0 8:0 9:0 10:0 11:0 12:0 13:0 14:0 15:0 16:0 17:0 18:0 19:0 20:0 21:0 22:0 23:0 24:0 25:0 26:0 27:0 28:0 29:0 30:255 31:0 32:0 33:0 34:255 35:255 36:0 37:0 38:0 39:255 40:0 41:255 42:255 43:255 44:0 45:255 46:255 47:255 48:0 49:0 50:0 51:255 52:255 53:255 54:255 55:255 56:255 57:255 58:255 59:0 60:0 61:0 62:0 63:255 64:0 65:255 66:255 67:255 68:255 69:255 70:255 71:0 72:0 73:0 74:0 75:0 76:0 77:255 78:255 79:255 80:255 81:255 82:255 83:0 84:0 85:0 86:0 87:0 88:255 89:255 90:255 91:255 92:255 93:255 94:255 95:0 96:0 97:0 98:0 99:255 100:255 101:255 102:255 103:255 104:255 105:255 106:255 107:255 108:0 109:0 110:255 111:255 112:255 113:255 114:255 115:255 116:255 117:255 118:255 119:255 120:255 121:0 122:0 123:255 124:0 125:255 126:255 127:255 128:255 129:255 130:255 131:255 132:0 133:0 134:0 135:0 136:0 137:255 138:255 139:255 140:255 141:255 142:255 143:255 144:0 145:0 146:0 147:0 148:0 149:255 150:255 151:255 152:255 153:255 154:255 155:255 156:0 157:0 158:0 159:0 160:0 161:255 162:255 163:255 164:255 165:255 166:255 167:255 168:0 169:0 170:255 171:255 172:255 173:255 174:255 175:255 176:255 177:255 178:255 179:255 180:0 181:0 182:255 183:255 184:255 185:255 186:255 187:255 188:255 189:255 190:255 191:255 192:0 193:0 194:255 195:255 196:255 197:255 198:255 199:255 200:255 201:255 202:255 203:255 204:0 205:0 206:255 207:255 208:255 209:255 210:255 211:255 212:255 213:255 214:255 215:255 216:0 217:0 218:255 219:255 220:255 221:255 222:255 223:255 224:255 225:255 226:255 227:255 228:0 229:0 230:255 231:0 232:0 233:255 234:255 235:255 236:255 237:255 238:255 239:255 240:0 241:0 242:255 243:0 244:0 245:255 246:255 247:255 248:255 249:255 250:255 251:255 252:0 253:0 254:0 255:0 256:0 257:255 258:255 259:255 260:255 261:255 262:255 263:0 264:0 265:0 266:0 267:0 268:255 269:255 270:255 271:255 272:255 273:255 274:255 275:0 276:0 277:0 278:0 279:0 280:255 281:255 282:255 283:0 284:0 285:0 286:255 287:0 288:0 
-2.501986475925855e-016 1:0 2:0 3:0 4:0 5:0 6:0 7:0 8:0 9:0 10:0 11:0 12:0 13:0 14:0 15:0 16:0 17:0 18:0 19:0 20:0 21:0 22:0 23:0 24:0 25:0 26:0 27:0 28:0 29:0 30:255 31:0 32:0 33:255 34:255 35:255 36:255 37:0 38:0 39:255 40:0 41:255 42:255 43:255 44:255 45:255 46:255 47:255 48:0 49:0 50:0 51:255 52:255 53:255 54:255 55:255 56:255 57:255 58:255 59:0 60:0 61:0 62:0 63:255 64:255 65:255 66:255 67:255 68:255 69:255 70:0 71:0 72:0 73:0 74:0 75:0 76:0 77:255 78:255 79:255 80:255 81:255 82:0 83:0 84:0 85:0 86:0 87:0 88:255 89:255 90:255 91:255 92:255 93:255 94:255 95:0 96:0 97:0 98:0 99:0 100:255 101:255 102:255 103:255 104:255 105:255 106:255 107:255 108:255 109:0 110:255 111:255 112:0 113:255 114:255 115:255 116:255 117:255 118:255 119:255 120:255 121:0 122:255 123:255 124:0 125:255 126:255 127:255 128:255 129:255 130:255 131:255 132:0 133:0 134:0 135:0 136:0 137:255 138:255 139:255 140:255 141:255 142:255 143:255 144:0 145:0 146:0 147:0 148:0 149:255 150:255 151:255 152:255 153:255 154:255 155:255 156:0 157:0 158:0 159:0 160:0 161:255 162:255 163:255 164:255 165:255 166:255 167:255 168:0 169:0 170:255 171:255 172:255 173:255 174:255 175:255 176:255 177:255 178:255 179:255 180:0 181:0 182:255 183:255 184:255 185:255 186:255 187:255 188:255 189:255 190:255 191:255 192:0 193:0 194:255 195:255 196:255 197:255 198:255 199:255 200:255 201:255 202:255 203:255 204:0 205:0 206:255 207:255 208:0 209:255 210:255 211:255 212:255 213:255 214:255 215:255 216:0 217:0 218:255 219:0 220:0 221:255 222:255 223:255 224:255 225:255 226:255 227:255 228:0 229:0 230:255 231:0 232:0 233:255 234:255 235:255 236:255 237:255 238:255 239:0 240:0 241:0 242:255 243:0 244:255 245:255 246:255 247:255 248:255 249:255 250:255 251:0 252:0 253:0 254:0 255:0 256:255 257:255 258:255 259:255 260:255 261:255 262:255 263:0 264:0 265:0 266:0 267:0 268:255 269:255 270:255 271:255 272:255 273:255 274:255 275:0 276:0 277:0 278:0 279:0 280:255 281:255 282:255 283:255 284:0 285:255 286:255 287:0 288:0 
-2.197624367953644e-015 1:255 2:0 3:0 4:0 5:0 6:0 7:0 8:0 9:0 10:0 11:0 12:0 13:255 14:0 15:0 16:0 17:0 18:0 19:0 20:0 21:0 22:0 23:0 24:0 25:255 26:0 27:0 28:0 29:0 30:0 31:255 32:0 33:0 34:255 35:255 36:255 37:0 38:0 39:0 40:255 41:255 42:0 43:255 44:255 45:255 46:255 47:255 48:255 49:0 50:0 51:0 52:255 53:255 54:255 55:255 56:255 57:255 58:255 59:255 60:0 61:0 62:0 63:0 64:255 65:255 66:255 67:255 68:255 69:255 70:255 71:0 72:0 73:0 74:0 75:0 76:0 77:0 78:255 79:255 80:255 81:255 82:255 83:0 84:0 85:0 86:0 87:0 88:0 89:255 90:255 91:255 92:255 93:255 94:255 95:255 96:0 97:0 98:0 99:0 100:0 101:255 102:255 103:255 104:255 105:255 106:255 107:255 108:0 109:0 110:0 111:255 112:255 113:0 114:255 115:255 116:255 117:255 118:255 119:255 120:0 121:0 122:0 123:255 124:255 125:0 126:255 127:255 128:255 129:255 130:255 131:255 132:0 133:0 134:0 135:0 136:0 137:0 138:255 139:255 140:255 141:255 142:255 143:255 144:0 145:0 146:0 147:0 148:0 149:0 150:255 151:255 152:255 153:255 154:255 155:255 156:0 157:0 158:0 159:0 160:0 161:255 162:255 163:255 164:255 165:255 166:255 167:0 168:0 169:0 170:0 171:255 172:255 173:255 174:255 175:255 176:255 177:255 178:255 179:0 180:0 181:0 182:0 183:255 184:255 185:255 186:255 187:255 188:255 189:255 190:255 191:0 192:0 193:0 194:0 195:255 196:255 197:255 198:255 199:255 200:255 201:255 202:255 203:0 204:0 205:0 206:255 207:255 208:0 209:255 210:255 211:255 212:255 213:255 214:255 215:0 216:0 217:0 218:255 219:255 220:0 221:255 222:0 223:255 224:255 225:255 226:255 227:0 228:0 229:0 230:255 231:0 232:0 233:255 234:0 235:255 236:255 237:255 238:255 239:0 240:0 241:0 242:255 243:0 244:0 245:255 246:0 247:255 248:255 249:255 250:0 251:0 252:0 253:0 254:255 255:0 256:255 257:255 258:255 259:255 260:255 261:255 262:0 263:0 264:0 265:255 266:255 267:0 268:255 269:255 270:255 271:255 272:255 273:255 274:0 275:0 276:0 277:255 278:0 279:0 280:255 281:0 282:255 283:0 284:255 285:0 286:0 287:0 288:0 
-1.673232914693704e-015 1:0 2:0 3:0 4:0 5:255 6:255 7:0 8:0 9:0 10:0 11:0 12:0 13:0 14:0 15:0 16:0 17:255 18:255 19:255 20:255 21:255 22:0 23:0 24:0 25:0 26:0 27:0 28:255 29:255 30:255 31:255 32:255 33:255 34:0 35:0 36:0 37:0 38:0 39:255 40:255 41:255 42:255 43:255 44:255 45:0 46:0 47:0 48:0 49:0 50:255 51:255 52:255 53:255 54:255 55:255 56:255 57:255 58:255 59:0 60:0 61:0 62:255 63:255 64:255 65:255 66:255 67:255 68:255 69:255 70:255 71:0 72:0 73:0 74:255 75:255 76:0 77:255 78:255 79:255 80:0 81:255 82:255 83:0 84:0 85:0 86:255 87:255 88:255 89:255 90:255 91:255 92:255 93:255 94:255 95:0 96:0 97:0 98:255 99:255 100:0 101:255 102:255 103:255 104:0 105:255 106:255 107:0 108:0 109:0 110:255 111:255 112:255 113:255 114:255 115:255 116:0 117:255 118:255 119:0 120:0 121:0 122:255 123:255 124:255 125:255 126:255 127:255 128:255 129:255 130:0 131:0 132:0 133:0 134:0 135:0 136:0 137:0 138:0 139:0 140:0 141:0 142:0 143:0 144:0 145:255 146:255 147:255 148:255 149:255 150:255 151:255 152:255 153:255 154:255 155:0 156:0 157:0 158:0 159:0 160:0 161:0 162:0 163:0 164:0 165:0 166:0 167:0 168:0 169:0 170:0 171:255 172:0 173:0 174:0 175:0 176:0 177:0 178:0 179:0 180:0 181:0 182:255 183:255 184:255 185:255 186:255 187:255 188:255 189:0 190:0 191:0 192:0 193:0 194:255 195:255 196:255 197:255 198:255 199:255 200:255 201:0 202:0 203:0 204:0 205:255 206:255 207:255 208:255 209:255 210:255 211:255 212:255 213:0 214:0 215:0 216:0 217:255 218:255 219:255 220:255 221:255 222:255 223:255 224:255 225:0 226:0 227:0 228:0 229:255 230:255 231:0 232:0 233:0 234:0 235:255 236:255 237:0 238:0 239:0 240:0 241:255 242:255 243:255 244:255 245:255 246:255 247:255 248:255 249:0 250:0 251:0 252:0 253:255 254:255 255:255 256:255 257:255 258:255 259:255 260:255 261:0 262:0 263:0 264:0 265:0 266:0 267:0 268:0 269:0 270:0 271:255 272:0 273:0 274:0 275:0 276:0 277:0 278:0 279:0 280:0 281:0 282:0 283:0 284:0 285:0 286:0 287:0 288:0 
-4.033781980040858e-016 1:0 2:255 3:0 4:0 5:0 6:0 7:0 8:0 9:0 10:0 11:0 12:0 13:0 14:255 15:0 16:0 17:0 18:0 19:0 20:0 21:0 22:0 23:0 24:0 25:0 26:255 27:0 28:0 29:0 30:0 31:0 32:0 33:0 34:0 35:0 36:0 37:0 38:255 39:0 40:0 41:0 42:0 43:0 44:0 45:0 46:0 47:0 48:0 49:0 50:255 51:0 52:0 53:0 54:0 55:255 56:255 57:255 58:255 59:0 60:0 61:0 62:255 63:0 64:0 65:0 66:255 67:255 68:255 69:255 70:255 71:0 72:0 73:0 74:255 75:0 76:0 77:0 78:255 79:255 80:255 81:255 82:255 83:0 84:0 85:0 86:255 87:0 88:0 89:255 90:255 91:255 92:255 93:255 94:255 95:255 96:0 97:0 98:255 99:0 100:0 101:255 102:255 103:255 104:255 105:255 106:255 107:255 108:255 109:0 110:255 111:0 112:0 113:255 114:255 115:0 116:255 117:255 118:255 119:255 120:255 121:0 122:255 123:0 124:0 125:255 126:255 127:255 128:255 129:255 130:255 131:255 132:255 133:0 134:0 135:0 136:0 137:255 138:255 139:255 140:255 141:255 142:255 143:255 144:255 145:0 146:0 147:0 148:0 149:255 150:255 151:0 152:255 153:255 154:255 155:255 156:0 157:0 158:0 159:0 160:0 161:255 162:255 163:255 164:255 165:255 166:255 167:255 168:0 169:0 170:0 171:0 172:0 173:0 174:255 175:0 176:255 177:255 178:0 179:0 180:0 181:0 182:0 183:0 184:0 185:255 186:255 187:255 188:255 189:255 190:255 191:255 192:255 193:0 194:0 195:0 196:255 197:255 198:255 199:255 200:255 201:255 202:255 203:255 204:0 205:0 206:0 207:0 208:0 209:0 210:0 211:0 212:0 213:0 214:0 215:0 216:0 217:255 218:0 219:0 220:0 221:255 222:255 223:255 224:255 225:255 226:255 227:255 228:0 229:0 230:0 231:0 232:0 233:255 234:255 235:255 236:0 237:255 238:255 239:255 240:0 241:255 242:0 243:0 244:0 245:255 246:255 247:255 248:255 249:255 250:255 251:255 252:0 253:255 254:0 255:0 256:0 257:255 258:255 259:255 260:255 261:255 262:255 263:255 264:0 265:255 266:0 267:0 268:0 269:255 270:255 271:0 272:0 273:0 274:255 275:255 276:0 277:255 278:0 279:0 280:0 281:255 282:255 283:255 284:255 285:255 286:255 287:255 288:0 
-4.057605724802896e-016 1:0 2:0 3:0 4:0 5:0 6:0 7:0 8:0 9:0 10:0 11:0 12:0 13:0 14:0 15:0 16:255 17:0 18:0 19:0 20:0 21:0 22:0 23:0 24:0 25:0 26:0 27:255 28:255 29:255 30:255 31:255 32:0 33:0 34:0 35:0 36:0 37:0 38:0 39:255 40:255 41:255 42:255 43:255 44:0 45:0 46:0 47:0 48:0 49:0 50:255 51:255 52:0 53:255 54:255 55:255 56:0 57:0 58:0 59:0 60:0 61:255 62:255 63:255 64:255 65:255 66:255 67:255 68:255 69:255 70:0 71:0 72:0 73:255 74:255 75:255 76:255 77:255 78:255 79:255 80:255 81:255 82:0 83:0 84:0 85:255 86:255 87:0 88:255 89:255 90:255 91:0 92:255 93:255 94:0 95:0 96:0 97:255 98:255 99:255 100:255 101:255 102:255 103:255 104:255 105:255 106:0 107:0 108:0 109:255 110:255 111:255 112:255 113:255 114:255 115:255 116:255 117:255 118:0 119:0 120:0 121:255 122:255 123:0 124:255 125:255 126:255 127:0 128:255 129:255 130:0 131:0 132:0 133:255 134:255 135:255 136:255 137:255 138:255 139:255 140:255 141:255 142:0 143:0 144:0 145:0 146:255 147:255 148:255 149:255 150:255 151:255 152:255 153:0 154:0 155:0 156:0 157:0 158:255 159:255 160:255 161:255 162:255 163:255 164:255 165:255 166:0 167:0 168:0 169:255 170:255 171:255 172:255 173:255 174:255 175:255 176:255 177:255 178:0 179:0 180:0 181:0 182:0 183:0 184:0 185:0 186:0 187:0 188:0 189:0 190:0 191:0 192:0 193:0 194:255 195:255 196:255 197:255 198:255 199:255 200:0 201:0 202:0 203:0 204:255 205:255 206:255 207:255 208:255 209:255 210:255 211:255 212:255 213:0 214:0 215:0 216:255 217:255 218:255 219:255 220:0 221:0 222:255 223:255 224:255 225:0 226:0 227:0 228:255 229:255 230:255 231:255 232:255 233:255 234:255 235:255 236:255 237:0 238:0 239:0 240:0 241:255 242:255 243:255 244:255 245:255 246:255 247:255 248:255 249:0 250:0 251:0 252:0 253:255 254:255 255:255 256:0 257:0 258:255 259:255 260:255 261:0 262:0 263:0 264:0 265:255 266:255 267:255 268:255 269:255 270:255 271:255 272:255 273:0 274:0 275:0 276:0 277:255 278:255 279:0 280:0 281:0 282:255 283:255 284:0 285:0 286:0 287:0 288:0 
-2.249195502062873e-018 1:0 2:0 3:0 4:0 5:0 6:0 7:0 8:0 9:0 10:0 11:0 12:0 13:0 14:0 15:0 16:0 17:0 18:0 19:0 20:0 21:0 22:0 23:0 24:0 25:0 26:0 27:0 28:255 29:255 30:255 31:255 32:255 33:0 34:0 35:0 36:0 37:0 38:0 39:255 40:255 41:255 42:255 43:255 44:255 45:0 46:0 47:0 48:0 49:0 50:255 51:255 52:255 53:255 54:255 55:255 56:255 57:0 58:0 59:0 60:0 61:255 62:255 63:255 64:255 65:255 66:255 67:255 68:255 69:255 70:0 71:0 72:0 73:255 74:255 75:255 76:255 77:255 78:255 79:255 80:255 81:255 82:0 83:0 84:0 85:0 86:255 87:255 88:255 89:255 90:255 91:255 92:255 93:255 94:0 95:0 96:0 97:0 98:255 99:255 100:255 101:255 102:255 103:255 104:255 105:255 106:0 107:0 108:0 109:0 110:255 111:255 112:255 113:255 114:255 115:255 116:255 117:255 118:0 119:0 120:0 121:255 122:255 123:255 124:255 125:255 126:255 127:255 128:255 129:255 130:0 131:0 132:0 133:255 134:255 135:255 136:255 137:255 138:255 139:255 140:255 141:255 142:0 143:0 144:0 145:0 146:0 147:0 148:0 149:0 150:0 151:0 152:0 153:0 154:0 155:0 156:0 157:255 158:255 159:255 160:255 161:255 162:255 163:255 164:255 165:255 166:255 167:0 168:0 169:255 170:255 171:255 172:255 173:255 174:255 175:0 176:0 177:0 178:0 179:0 180:0 181:0 182:0 183:0 184:255 185:255 186:255 187:255 188:0 189:0 190:0 191:0 192:0 193:0 194:255 195:255 196:255 197:255 198:255 199:255 200:255 201:0 202:0 203:0 204:0 205:255 206:255 207:255 208:255 209:255 210:255 211:255 212:255 213:0 214:0 215:0 216:0 217:255 218:255 219:255 220:255 221:255 222:255 223:255 224:255 225:0 226:0 227:0 228:0 229:255 230:255 231:255 232:255 233:255 234:255 235:255 236:255 237:0 238:0 239:0 240:0 241:255 242:255 243:255 244:255 245:255 246:255 247:255 248:255 249:0 250:0 251:0 252:0 253:255 254:255 255:255 256:255 257:255 258:255 259:255 260:255 261:0 262:0 263:0 264:0 265:255 266:255 267:0 268:0 269:0 270:0 271:255 272:255 273:0 274:0 275:0 276:0 277:0 278:0 279:0 280:0 281:0 282:0 283:0 284:0 285:0 286:0 287:0 288:0 
